<?xml version="1.0"?>
<MethodSetup Method="DNN::DNN_CPU">
  <GeneralInfo>
    <Info name="TMVA Release" value="4.2.1 [262657]"/>
    <Info name="ROOT Release" value="6.14/04 [396804]"/>
    <Info name="Creator" value="chrispap"/>
    <Info name="Date" value="Fri Jun 21 13:24:44 2019"/>
    <Info name="Host" value="Darwin Chriss-MacBook-Pro.local 18.5.0 Darwin Kernel Version 18.5.0: Mon Mar 11 20:40:32 PDT 2019; root:xnu-4903.251.3~3/RELEASE_X86_64 x86_64"/>
    <Info name="Dir" value="/Users/chrispap/Documents/deadCellRegression"/>
    <Info name="Training events" value="4000"/>
    <Info name="TrainingTime" value="3.40305044e+02"/>
    <Info name="AnalysisType" value="Regression"/>
  </GeneralInfo>
  <Options>
    <Option name="V" modified="Yes">True</Option>
    <Option name="VerbosityLevel" modified="No">Verbose</Option>
    <Option name="VarTransform" modified="Yes">G</Option>
    <Option name="H" modified="Yes">False</Option>
    <Option name="CreateMVAPdfs" modified="No">False</Option>
    <Option name="IgnoreNegWeightsInTraining" modified="No">False</Option>
    <Option name="Layout" modified="Yes">SYMMRELU|32,Layout=SYMMRELU|100,Layout=SYMMRELU|50,LINEAR</Option>
    <Option name="ValidationSize" modified="No">20%</Option>
    <Option name="ErrorStrategy" modified="Yes">SUMOFSQUARES</Option>
    <Option name="WeightInitialization" modified="Yes">XAVIERUNIFORM</Option>
    <Option name="Architecture" modified="Yes">CPU</Option>
    <Option name="TrainingStrategy" modified="Yes">LearningRate=1e-4,Momentum=0.5,Repetitions=1,ConvergenceSteps=20,BatchSize=200,TestRepetitions=10,WeightDecay=0.01,Regularization=NONE,DropConfig=0.2+0.2+0.2+0.,DropRepetitions=2|LearningRate=1e-4,Momentum=0.7,Repetitions=1,ConvergenceSteps=20,BatchSize=200,TestRepetitions=5,WeightDecay=0.01,Regularization=L2,DropConfig=0.1+0.1+0.1,DropRepetitions=1|LearningRate=1e-5,Momentum=0.3,Repetitions=1,ConvergenceSteps=20,BatchSize=200,TestRepetitions=5,WeightDecay=0.01,Regularization=NONE|LearningRate=1e-6,Momentum=0.1,Repetitions=1,ConvergenceSteps=20,BatchSize=200,TestRepetitions=5,WeightDecay=0.01,Regularization=NONE</Option>
  </Options>
  <Variables NVar="31">
    <Variable VarIndex="0" Expression="layer" Label="layer" Title="layer" Unit="units" Internal="layer" Type="F" Min="0.00000000e+00" Max="2.70000000e+01"/>
    <Variable VarIndex="1" Expression="previousLayer" Label="previousLayer" Title="previousLayer" Unit="units" Internal="previousLayer" Type="F" Min="0.00000000e+00" Max="2.13677257e-01"/>
    <Variable VarIndex="2" Expression="nextLayer" Label="nextLayer" Title="nextLayer" Unit="units" Internal="nextLayer" Type="F" Min="0.00000000e+00" Max="1.69711113e-01"/>
    <Variable VarIndex="3" Expression="sameLayer" Label="sameLayer" Title="sameLayer" Unit="units" Internal="sameLayer" Type="F" Min="0.00000000e+00" Max="1.19033247e-01"/>
    <Variable VarIndex="4" Expression="pnCells" Label="pnCells" Title="pnCells" Unit="units" Internal="pnCells" Type="F" Min="0.00000000e+00" Max="1.04005374e-01"/>
    <Variable VarIndex="5" Expression="sum1" Label="sum1" Title="sum1" Unit="units" Internal="sum1" Type="F" Min="0.00000000e+00" Max="2.09224463e-01"/>
    <Variable VarIndex="6" Expression="sum2" Label="sum2" Title="sum2" Unit="units" Internal="sum2" Type="F" Min="0.00000000e+00" Max="1.98988363e-01"/>
    <Variable VarIndex="7" Expression="sum3" Label="sum3" Title="sum3" Unit="units" Internal="sum3" Type="F" Min="0.00000000e+00" Max="2.13392481e-01"/>
    <Variable VarIndex="8" Expression="sum4" Label="sum4" Title="sum4" Unit="units" Internal="sum4" Type="F" Min="0.00000000e+00" Max="1.47913903e-01"/>
    <Variable VarIndex="9" Expression="sum5" Label="sum5" Title="sum5" Unit="units" Internal="sum5" Type="F" Min="0.00000000e+00" Max="2.38106430e-01"/>
    <Variable VarIndex="10" Expression="sum6" Label="sum6" Title="sum6" Unit="units" Internal="sum6" Type="F" Min="0.00000000e+00" Max="1.70258969e-01"/>
    <Variable VarIndex="11" Expression="n1" Label="n1" Title="neighbor 1" Unit="units" Internal="n1" Type="F" Min="0.00000000e+00" Max="7.76031390e-02"/>
    <Variable VarIndex="12" Expression="n2" Label="n2" Title="neighbor 2" Unit="units" Internal="n2" Type="F" Min="0.00000000e+00" Max="1.02045499e-01"/>
    <Variable VarIndex="13" Expression="n3" Label="n3" Title="neighbor 3" Unit="units" Internal="n3" Type="F" Min="0.00000000e+00" Max="1.17079370e-01"/>
    <Variable VarIndex="14" Expression="n4" Label="n4" Title="neighbor 4" Unit="units" Internal="n4" Type="F" Min="0.00000000e+00" Max="7.09935129e-02"/>
    <Variable VarIndex="15" Expression="n5" Label="n5" Title="neighbor 5" Unit="units" Internal="n5" Type="F" Min="0.00000000e+00" Max="9.85014513e-02"/>
    <Variable VarIndex="16" Expression="n6" Label="n6" Title="neighbor 6" Unit="units" Internal="n6" Type="F" Min="0.00000000e+00" Max="8.22705552e-02"/>
    <Variable VarIndex="17" Expression="nup" Label="nup" Title="neighbor up" Unit="units" Internal="nup" Type="F" Min="0.00000000e+00" Max="8.89500901e-02"/>
    <Variable VarIndex="18" Expression="ndown" Label="ndown" Title="neighbor down" Unit="units" Internal="ndown" Type="F" Min="0.00000000e+00" Max="8.18665400e-02"/>
    <Variable VarIndex="19" Expression="un1" Label="un1" Title="up 1" Unit="units" Internal="un1" Type="F" Min="0.00000000e+00" Max="8.17647949e-02"/>
    <Variable VarIndex="20" Expression="un2" Label="un2" Title="up 2" Unit="units" Internal="un2" Type="F" Min="0.00000000e+00" Max="1.13709264e-01"/>
    <Variable VarIndex="21" Expression="un3" Label="un3" Title="up 3" Unit="units" Internal="un3" Type="F" Min="0.00000000e+00" Max="7.64014125e-02"/>
    <Variable VarIndex="22" Expression="un4" Label="un4" Title="up 4" Unit="units" Internal="un4" Type="F" Min="0.00000000e+00" Max="8.01599100e-02"/>
    <Variable VarIndex="23" Expression="un5" Label="un5" Title="up 5" Unit="units" Internal="un5" Type="F" Min="0.00000000e+00" Max="9.04611871e-02"/>
    <Variable VarIndex="24" Expression="un6" Label="un6" Title="up 6" Unit="units" Internal="un6" Type="F" Min="0.00000000e+00" Max="8.57660994e-02"/>
    <Variable VarIndex="25" Expression="dn1" Label="dn1" Title="down 1" Unit="units" Internal="dn1" Type="F" Min="0.00000000e+00" Max="9.28170979e-02"/>
    <Variable VarIndex="26" Expression="dn2" Label="dn2" Title="down 2" Unit="units" Internal="dn2" Type="F" Min="0.00000000e+00" Max="8.93926993e-02"/>
    <Variable VarIndex="27" Expression="dn3" Label="dn3" Title="down 3" Unit="units" Internal="dn3" Type="F" Min="0.00000000e+00" Max="8.90212655e-02"/>
    <Variable VarIndex="28" Expression="dn4" Label="dn4" Title="down 4" Unit="units" Internal="dn4" Type="F" Min="0.00000000e+00" Max="1.32068813e-01"/>
    <Variable VarIndex="29" Expression="dn5" Label="dn5" Title="down 5" Unit="units" Internal="dn5" Type="F" Min="0.00000000e+00" Max="7.92727098e-02"/>
    <Variable VarIndex="30" Expression="dn6" Label="dn6" Title="down 6" Unit="units" Internal="dn6" Type="F" Min="0.00000000e+00" Max="6.81170002e-02"/>
  </Variables>
  <Spectators NSpec="0"/>
  <Classes NClass="1">
    <Class Name="Regression" Index="0"/>
  </Classes>
  <Targets NTrgt="1">
    <Target TargetIndex="0" Expression="dead" Label="dead" Title="dead" Unit="" Internal="dead" Type="F" Min="1.02959957e-05" Max="7.48916864e-02"/>
  </Targets>
  <Transformations NTransformations="1">
    <Transform Name="Gauss" FlatOrGauss="Gauss">
      <Selection>
        <Input NInputs="31">
          <Input Type="Variable" Label="layer" Expression="layer"/>
          <Input Type="Variable" Label="previousLayer" Expression="previousLayer"/>
          <Input Type="Variable" Label="nextLayer" Expression="nextLayer"/>
          <Input Type="Variable" Label="sameLayer" Expression="sameLayer"/>
          <Input Type="Variable" Label="pnCells" Expression="pnCells"/>
          <Input Type="Variable" Label="sum1" Expression="sum1"/>
          <Input Type="Variable" Label="sum2" Expression="sum2"/>
          <Input Type="Variable" Label="sum3" Expression="sum3"/>
          <Input Type="Variable" Label="sum4" Expression="sum4"/>
          <Input Type="Variable" Label="sum5" Expression="sum5"/>
          <Input Type="Variable" Label="sum6" Expression="sum6"/>
          <Input Type="Variable" Label="n1" Expression="n1"/>
          <Input Type="Variable" Label="n2" Expression="n2"/>
          <Input Type="Variable" Label="n3" Expression="n3"/>
          <Input Type="Variable" Label="n4" Expression="n4"/>
          <Input Type="Variable" Label="n5" Expression="n5"/>
          <Input Type="Variable" Label="n6" Expression="n6"/>
          <Input Type="Variable" Label="nup" Expression="nup"/>
          <Input Type="Variable" Label="ndown" Expression="ndown"/>
          <Input Type="Variable" Label="un1" Expression="un1"/>
          <Input Type="Variable" Label="un2" Expression="un2"/>
          <Input Type="Variable" Label="un3" Expression="un3"/>
          <Input Type="Variable" Label="un4" Expression="un4"/>
          <Input Type="Variable" Label="un5" Expression="un5"/>
          <Input Type="Variable" Label="un6" Expression="un6"/>
          <Input Type="Variable" Label="dn1" Expression="dn1"/>
          <Input Type="Variable" Label="dn2" Expression="dn2"/>
          <Input Type="Variable" Label="dn3" Expression="dn3"/>
          <Input Type="Variable" Label="dn4" Expression="dn4"/>
          <Input Type="Variable" Label="dn5" Expression="dn5"/>
          <Input Type="Variable" Label="dn6" Expression="dn6"/>
        </Input>
        <Output NOutputs="31">
          <Output Type="Variable" Label="layer" Expression="layer"/>
          <Output Type="Variable" Label="previousLayer" Expression="previousLayer"/>
          <Output Type="Variable" Label="nextLayer" Expression="nextLayer"/>
          <Output Type="Variable" Label="sameLayer" Expression="sameLayer"/>
          <Output Type="Variable" Label="pnCells" Expression="pnCells"/>
          <Output Type="Variable" Label="sum1" Expression="sum1"/>
          <Output Type="Variable" Label="sum2" Expression="sum2"/>
          <Output Type="Variable" Label="sum3" Expression="sum3"/>
          <Output Type="Variable" Label="sum4" Expression="sum4"/>
          <Output Type="Variable" Label="sum5" Expression="sum5"/>
          <Output Type="Variable" Label="sum6" Expression="sum6"/>
          <Output Type="Variable" Label="n1" Expression="n1"/>
          <Output Type="Variable" Label="n2" Expression="n2"/>
          <Output Type="Variable" Label="n3" Expression="n3"/>
          <Output Type="Variable" Label="n4" Expression="n4"/>
          <Output Type="Variable" Label="n5" Expression="n5"/>
          <Output Type="Variable" Label="n6" Expression="n6"/>
          <Output Type="Variable" Label="nup" Expression="nup"/>
          <Output Type="Variable" Label="ndown" Expression="ndown"/>
          <Output Type="Variable" Label="un1" Expression="un1"/>
          <Output Type="Variable" Label="un2" Expression="un2"/>
          <Output Type="Variable" Label="un3" Expression="un3"/>
          <Output Type="Variable" Label="un4" Expression="un4"/>
          <Output Type="Variable" Label="un5" Expression="un5"/>
          <Output Type="Variable" Label="un6" Expression="un6"/>
          <Output Type="Variable" Label="dn1" Expression="dn1"/>
          <Output Type="Variable" Label="dn2" Expression="dn2"/>
          <Output Type="Variable" Label="dn3" Expression="dn3"/>
          <Output Type="Variable" Label="dn4" Expression="dn4"/>
          <Output Type="Variable" Label="dn5" Expression="dn5"/>
          <Output Type="Variable" Label="dn6" Expression="dn6"/>
        </Output>
      </Selection>
      <Variable VarIndex="0">
        <CumulativePDF_cls0>
          <PDF Name="GaussTransform var0 cls0" MinNSmooth="0" MaxNSmooth="0" InterpolMethod="1" KDE_type="0" KDE_iter="1" KDE_border="1" KDE_finefactor="0.0000000000000000e+00">
            <Histogram Name="Cumulative_Var0_cls0_original" NBins="29" XMin="-9.9999997473787516e-05" XMax="2.7000000000000000e+01" HasEquidistantBins="0">
              0.00000000e+00 1.80496054e-03 7.68664246e-03 1.79873649e-02 3.07465699e-02 4.88584153e-02 7.73021057e-02 1.15704194e-01 1.61761805e-01 2.12736383e-01 2.67870665e-01 3.29125226e-01 3.95016640e-01 4.60238993e-01 5.21866977e-01 5.80943167e-01 6.37342989e-01 6.89572752e-01 7.38654137e-01 7.85660923e-01 8.28450978e-01 8.64627957e-01 8.95016670e-01 9.21624243e-01 9.44761992e-01 9.64803278e-01 9.81732547e-01 9.94149446e-01 1.00000000e+00 
            </Histogram>
            <HistogramBinning NBins="29">
              -9.99999975e-05 0.00000000e+00 1.00000000e+00 2.00000000e+00 3.00000000e+00 4.00000000e+00 5.00000000e+00 6.00000000e+00 7.00000000e+00 8.00000000e+00 9.00000000e+00 1.00000000e+01 1.10000000e+01 1.20000000e+01 1.30000000e+01 1.40000000e+01 1.50000000e+01 1.60000000e+01 1.70000000e+01 1.80000000e+01 1.90000000e+01 2.00000000e+01 2.10000000e+01 2.20000000e+01 2.30000000e+01 2.40000000e+01 2.50000000e+01 2.60000000e+01 2.70000000e+01 2.70000000e+01 
            </HistogramBinning>
          </PDF>
        </CumulativePDF_cls0>
      </Variable>
      <Variable VarIndex="1">
        <CumulativePDF_cls0>
          <PDF Name="GaussTransform var1 cls0" MinNSmooth="0" MaxNSmooth="0" InterpolMethod="1" KDE_type="0" KDE_iter="1" KDE_border="1" KDE_finefactor="0.0000000000000000e+00">
            <Histogram Name="Cumulative_Var1_cls0_original" NBins="373" XMin="-9.9999997473787516e-05" XMax="2.1367725729942322e-01" HasEquidistantBins="0">
              2.68096523e-03 5.36193047e-03 8.04289524e-03 1.07238609e-02 1.34048257e-02 1.60857905e-02 1.87667552e-02 2.14477219e-02 2.41286866e-02 2.68096514e-02 2.94906162e-02 3.21715809e-02 3.48525457e-02 3.75335105e-02 4.02144790e-02 4.28954437e-02 4.55764085e-02 4.82573733e-02 5.09383380e-02 5.36193028e-02 5.63002676e-02 5.89812323e-02 6.16621971e-02 6.43431619e-02 6.70241266e-02 6.97050914e-02 7.23860562e-02 7.50670210e-02 7.77479857e-02 8.04289579e-02 8.31099227e-02 8.57908875e-02 8.84718522e-02 9.11528170e-02 9.38337818e-02 9.65147465e-02 9.91957113e-02 1.01876676e-01 1.04557641e-01 1.07238606e-01 1.09919570e-01 1.12600535e-01 1.15281500e-01 1.17962465e-01 1.20643429e-01 1.23324394e-01 1.26005366e-01 1.28686324e-01 1.31367296e-01 1.34048253e-01 1.36729226e-01 1.39410183e-01 1.42091155e-01 1.44772112e-01 1.47453085e-01 1.50134042e-01 1.52815014e-01 1.55495971e-01 1.58176944e-01 1.60857916e-01 1.63538873e-01 1.66219845e-01 1.68900803e-01 1.71581775e-01 1.74262732e-01 1.76943704e-01 1.79624662e-01 1.82305634e-01 1.84986591e-01 1.87667564e-01 1.90348521e-01 1.93029493e-01 1.95710450e-01 1.98391423e-01 2.01072380e-01 2.03753352e-01 2.06434309e-01 2.09115282e-01 2.11796254e-01 2.14477211e-01 2.17158183e-01 2.19839141e-01 2.22520113e-01 2.25201070e-01 2.27882043e-01 2.30563000e-01 2.33243972e-01 2.35924929e-01 2.38605902e-01 2.41286859e-01 2.43967831e-01 2.46648788e-01 2.49329761e-01 2.52010733e-01 2.54691690e-01 2.57372648e-01 2.60053605e-01 2.62734592e-01 2.65415549e-01 2.68096507e-01 2.70777494e-01 2.73458451e-01 2.76139408e-01 2.78820366e-01 2.81501353e-01 2.84182310e-01 2.86863267e-01 2.89544225e-01 2.92225212e-01 2.94906169e-01 2.97587126e-01 3.00268084e-01 3.02949071e-01 3.05630028e-01 3.08310986e-01 3.10991943e-01 3.13672930e-01 3.16353887e-01 3.19034845e-01 3.21715832e-01 3.24396789e-01 3.27077746e-01 3.29758704e-01 3.32439691e-01 3.35120648e-01 3.37801605e-01 3.40482563e-01 3.43163550e-01 3.45844507e-01 3.48525465e-01 3.51206422e-01 3.53887409e-01 3.56568366e-01 3.59249324e-01 3.61930281e-01 3.64611268e-01 3.67292225e-01 3.69973183e-01 3.72654170e-01 3.75335127e-01 3.78016084e-01 3.80697042e-01 3.83378029e-01 3.86058986e-01 3.88739944e-01 3.91420901e-01 3.94101888e-01 3.96782845e-01 3.99463803e-01 4.02144760e-01 4.04825747e-01 4.07506704e-01 4.10187662e-01 4.12868619e-01 4.15549606e-01 4.18230563e-01 4.20911521e-01 4.23592508e-01 4.26273465e-01 4.28954422e-01 4.31635380e-01 4.34316367e-01 4.36997324e-01 4.39678282e-01 4.42359239e-01 4.45040226e-01 4.47721183e-01 4.50402141e-01 4.53083098e-01 4.55764085e-01 4.58445042e-01 4.61126000e-01 4.63806957e-01 4.66487944e-01 4.69168901e-01 4.71849859e-01 4.74530846e-01 4.77211803e-01 4.79892761e-01 4.82573718e-01 4.85254705e-01 4.87935662e-01 4.90616620e-01 4.93297577e-01 4.95978564e-01 4.98659521e-01 5.01340508e-01 5.04021466e-01 5.06702423e-01 5.09383380e-01 5.12064338e-01 5.14745295e-01 5.17426252e-01 5.20107210e-01 5.22788227e-01 5.25469184e-01 5.28150141e-01 5.30831099e-01 5.33512056e-01 5.36193013e-01 5.38873971e-01 5.41554987e-01 5.44235945e-01 5.46916902e-01 5.49597859e-01 5.52278817e-01 5.54959774e-01 5.57640731e-01 5.60321689e-01 5.63002706e-01 5.65683663e-01 5.68364620e-01 5.71045578e-01 5.73726535e-01 5.76407492e-01 5.79088449e-01 5.81769466e-01 5.84450424e-01 5.87131381e-01 5.89812338e-01 5.92493296e-01 5.95174253e-01 5.97855210e-01 6.00536168e-01 6.03217185e-01 6.05898142e-01 6.08579099e-01 6.11260056e-01 6.13941014e-01 6.16621971e-01 6.19302928e-01 6.21983886e-01 6.24664903e-01 6.27345860e-01 6.30026817e-01 6.32707775e-01 6.35388732e-01 6.38069689e-01 6.40750647e-01 6.43431664e-01 6.46112621e-01 6.48793578e-01 6.51474535e-01 6.54155493e-01 6.56836450e-01 6.59517407e-01 6.62198365e-01 6.64879382e-01 6.67560339e-01 6.70241296e-01 6.72922254e-01 6.75603211e-01 6.78284168e-01 6.80965126e-01 6.83646083e-01 6.86327100e-01 6.89008057e-01 6.91689014e-01 6.94369972e-01 6.97050929e-01 6.99731886e-01 7.02412844e-01 7.05093861e-01 7.07774818e-01 7.10455775e-01 7.13136733e-01 7.15817690e-01 7.18498647e-01 7.21179605e-01 7.23860562e-01 7.26541579e-01 7.29222536e-01 7.31903493e-01 7.34584451e-01 7.37265408e-01 7.39946365e-01 7.42627323e-01 7.45308340e-01 7.47989297e-01 7.50670254e-01 7.53351212e-01 7.56032169e-01 7.58713126e-01 7.61394083e-01 7.64075041e-01 7.66756058e-01 7.69437015e-01 7.72117972e-01 7.74798930e-01 7.77479887e-01 7.80160844e-01 7.82841802e-01 7.85522759e-01 7.88203776e-01 7.90884733e-01 7.93565691e-01 7.96246648e-01 7.98927605e-01 8.01608562e-01 8.04289520e-01 8.06970537e-01 8.09651494e-01 8.12332451e-01 8.15013409e-01 8.17694366e-01 8.20375323e-01 8.23056281e-01 8.25737238e-01 8.28418255e-01 8.31099212e-01 8.33780169e-01 8.36461127e-01 8.39142084e-01 8.41823041e-01 8.44503999e-01 8.47185016e-01 8.49865973e-01 8.52546930e-01 8.55227888e-01 8.57908845e-01 8.60589802e-01 8.63270760e-01 8.65951717e-01 8.68632734e-01 8.71313691e-01 8.73994648e-01 8.76675606e-01 8.79356563e-01 8.82037520e-01 8.84718478e-01 8.87399435e-01 8.90080452e-01 8.92761409e-01 8.95442367e-01 8.98123324e-01 9.00804281e-01 9.03485239e-01 9.06166196e-01 9.08847213e-01 9.11528170e-01 9.14209127e-01 9.16890085e-01 9.19571042e-01 9.22251999e-01 9.24932957e-01 9.27613914e-01 9.30294931e-01 9.32975888e-01 9.35656846e-01 9.38337803e-01 9.41018760e-01 9.43699718e-01 9.46380675e-01 9.49061692e-01 9.51742649e-01 9.54423606e-01 9.57104564e-01 9.59785521e-01 9.62466478e-01 9.65147436e-01 9.67828393e-01 9.70509410e-01 9.73190367e-01 9.75871325e-01 9.78552282e-01 9.81233239e-01 9.83914196e-01 9.86595154e-01 9.89276111e-01 9.91957128e-01 9.94638085e-01 9.97319043e-01 1.00000000e+00 
            </Histogram>
            <HistogramBinning NBins="373">
              -9.99999975e-05 0.00000000e+00 1.35181772e-05 2.97954430e-05 3.40048791e-05 3.93783812e-05 4.45008372e-05 5.02008406e-05 5.76420898e-05 6.39652280e-05 6.96787756e-05 7.20416356e-05 7.97275934e-05 8.27207332e-05 9.13383265e-05 9.69358443e-05 1.04352614e-04 1.10133697e-04 1.14151386e-04 1.19454540e-04 1.22669589e-04 1.28378364e-04 1.35363574e-04 1.39588010e-04 1.43587211e-04 1.48883599e-04 1.51620770e-04 1.61560034e-04 1.65720063e-04 1.69395062e-04 1.74912449e-04 1.84327015e-04 1.89926912e-04 1.94658554e-04 2.00507246e-04 2.09384147e-04 2.14053274e-04 2.20041547e-04 2.23775962e-04 2.31929909e-04 2.39952569e-04 2.44764902e-04 2.49968638e-04 2.52730009e-04 2.57745822e-04 2.63889029e-04 2.68112373e-04 2.73531739e-04 2.76973122e-04 2.82434310e-04 2.89444492e-04 2.93732970e-04 3.00481130e-04 3.05204390e-04 3.09732510e-04 3.19152721e-04 3.27114656e-04 3.32643336e-04 3.37899750e-04 3.44402419e-04 3.50544055e-04 3.54825985e-04 3.60079284e-04 3.65366257e-04 3.69853165e-04 3.73220071e-04 3.77681688e-04 3.82493221e-04 3.91592243e-04 3.96573858e-04 4.02912905e-04 4.09824395e-04 4.16738243e-04 4.24904923e-04 4.36307455e-04 4.40933916e-04 4.45899524e-04 4.52227483e-04 4.59792995e-04 4.64080920e-04 4.68175276e-04 4.72226471e-04 4.82851756e-04 4.94213426e-04 5.00757305e-04 5.10398124e-04 5.20558679e-04 5.25517389e-04 5.31976460e-04 5.43870323e-04 5.60786691e-04 5.66285220e-04 5.82717999e-04 5.91170508e-04 5.98993327e-04 6.08080940e-04 6.20886800e-04 6.24629145e-04 6.31072151e-04 6.40847604e-04 6.55350392e-04 6.70723035e-04 6.81355246e-04 6.89702341e-04 7.01138750e-04 7.09546148e-04 7.21391931e-04 7.27945648e-04 7.37508002e-04 7.44973077e-04 7.52632273e-04 7.63859600e-04 7.75884138e-04 7.88925681e-04 8.07581993e-04 8.17256107e-04 8.36621737e-04 8.44291877e-04 8.50694661e-04 8.55438760e-04 8.62136891e-04 8.70521180e-04 8.77709244e-04 8.97961552e-04 9.17229161e-04 9.29183210e-04 9.44356842e-04 9.53728915e-04 9.61412967e-04 9.83049511e-04 9.97498282e-04 1.01089466e-03 1.03458646e-03 1.05985650e-03 1.07485789e-03 1.08284154e-03 1.08918594e-03 1.09829695e-03 1.10994221e-03 1.12446118e-03 1.14544726e-03 1.17361534e-03 1.19789853e-03 1.20791153e-03 1.22807105e-03 1.23925845e-03 1.24835374e-03 1.26361090e-03 1.27864815e-03 1.29616889e-03 1.31414225e-03 1.34338008e-03 1.36289967e-03 1.38868729e-03 1.41926319e-03 1.45069160e-03 1.47064857e-03 1.49285083e-03 1.51033700e-03 1.53002131e-03 1.54857920e-03 1.57585531e-03 1.58640684e-03 1.61241007e-03 1.63146458e-03 1.66486576e-03 1.68774126e-03 1.71114341e-03 1.72836496e-03 1.74393901e-03 1.77660643e-03 1.79617410e-03 1.81945821e-03 1.85242854e-03 1.87350018e-03 1.89806614e-03 1.92144373e-03 1.94742216e-03 1.97406881e-03 1.99509552e-03 2.02107942e-03 2.07603746e-03 2.10494688e-03 2.12808605e-03 2.18081498e-03 2.20240979e-03 2.24415446e-03 2.26192130e-03 2.29545403e-03 2.33591022e-03 2.38923635e-03 2.43314449e-03 2.47156480e-03 2.51260027e-03 2.53665517e-03 2.58070137e-03 2.61251442e-03 2.65263394e-03 2.68121157e-03 2.71595945e-03 2.75088474e-03 2.78314273e-03 2.81681935e-03 2.83735734e-03 2.88581871e-03 2.96058110e-03 3.01890401e-03 3.05719604e-03 3.10742483e-03 3.15446872e-03 3.20758042e-03 3.24784149e-03 3.28208390e-03 3.31016816e-03 3.35493870e-03 3.41880880e-03 3.48112592e-03 3.52848880e-03 3.59337288e-03 3.65021150e-03 3.67150013e-03 3.73168057e-03 3.79610411e-03 3.85037600e-03 3.88749200e-03 3.94890923e-03 4.00224095e-03 4.06793552e-03 4.12823912e-03 4.17989492e-03 4.21974575e-03 4.29007271e-03 4.34863148e-03 4.42670006e-03 4.49569337e-03 4.57985885e-03 4.64668032e-03 4.71540308e-03 4.78081265e-03 4.87145409e-03 4.92202910e-03 4.99135442e-03 5.07528335e-03 5.19150961e-03 5.24523901e-03 5.31407632e-03 5.43172751e-03 5.50555345e-03 5.60793653e-03 5.70871122e-03 5.78677515e-03 5.83938742e-03 5.92713151e-03 6.00729324e-03 6.05020020e-03 6.17489405e-03 6.28743460e-03 6.39338745e-03 6.53852709e-03 6.66993205e-03 6.76616980e-03 6.86452072e-03 7.03535229e-03 7.16299284e-03 7.33256899e-03 7.51899136e-03 7.55881751e-03 7.66674988e-03 7.76576996e-03 7.90809281e-03 8.12614989e-03 8.30123760e-03 8.54307972e-03 8.63681175e-03 8.85793474e-03 9.04260203e-03 9.22631379e-03 9.47692152e-03 9.68965702e-03 9.88689903e-03 1.00680962e-02 1.03606144e-02 1.06697017e-02 1.09130442e-02 1.11083677e-02 1.11923767e-02 1.14746829e-02 1.17937541e-02 1.21025564e-02 1.22951455e-02 1.25392955e-02 1.26635879e-02 1.29164252e-02 1.32583184e-02 1.34983202e-02 1.37169231e-02 1.39234262e-02 1.41990120e-02 1.44848591e-02 1.46473236e-02 1.49033647e-02 1.52678257e-02 1.56374425e-02 1.60211604e-02 1.62643660e-02 1.67742241e-02 1.70704219e-02 1.74139831e-02 1.78202502e-02 1.80343017e-02 1.85731016e-02 1.87454727e-02 1.92343760e-02 1.97526328e-02 2.03580949e-02 2.08783224e-02 2.14059781e-02 2.24693175e-02 2.29109358e-02 2.35264022e-02 2.42855251e-02 2.48645563e-02 2.54828129e-02 2.63397228e-02 2.71562207e-02 2.81036571e-02 2.86391005e-02 2.93646604e-02 3.06693278e-02 3.12253851e-02 3.23362201e-02 3.38641144e-02 3.45593132e-02 3.56531814e-02 3.66661586e-02 3.73650752e-02 3.78402732e-02 3.89874130e-02 3.97203229e-02 4.07605134e-02 4.18502986e-02 4.30558957e-02 4.42412794e-02 4.53666039e-02 4.77889553e-02 4.91332188e-02 5.03080375e-02 5.11975884e-02 5.23175038e-02 5.33992127e-02 5.43505512e-02 5.51194698e-02 5.68495877e-02 5.83377555e-02 6.01865053e-02 6.17091842e-02 6.40713423e-02 6.48159310e-02 6.56753182e-02 6.70744926e-02 6.88332617e-02 7.06804395e-02 7.19711334e-02 7.44208917e-02 7.62624219e-02 7.80471116e-02 8.38429853e-02 8.68522376e-02 8.99860859e-02 9.63468105e-02 1.03824675e-01 1.15567073e-01 1.33519083e-01 2.13677257e-01 
            </HistogramBinning>
          </PDF>
        </CumulativePDF_cls0>
      </Variable>
      <Variable VarIndex="2">
        <CumulativePDF_cls0>
          <PDF Name="GaussTransform var2 cls0" MinNSmooth="0" MaxNSmooth="0" InterpolMethod="1" KDE_type="0" KDE_iter="1" KDE_border="1" KDE_finefactor="0.0000000000000000e+00">
            <Histogram Name="Cumulative_Var2_cls0_original" NBins="371" XMin="-9.9999997473787516e-05" XMax="1.6971111297607422e-01" HasEquidistantBins="0">
              2.69541773e-03 5.39083546e-03 8.08625296e-03 1.07816709e-02 1.34770889e-02 1.61725059e-02 1.88679248e-02 2.15633418e-02 2.42587607e-02 2.69541778e-02 2.96495948e-02 3.23450118e-02 3.50404307e-02 3.77358496e-02 4.04312685e-02 4.31266837e-02 4.58221026e-02 4.85175215e-02 5.12129366e-02 5.39083555e-02 5.66037744e-02 5.92991896e-02 6.19946085e-02 6.46900237e-02 6.73854426e-02 7.00808614e-02 7.27762803e-02 7.54716992e-02 7.81671181e-02 8.08625370e-02 8.35579485e-02 8.62533674e-02 8.89487863e-02 9.16442052e-02 9.43396240e-02 9.70350429e-02 9.97304618e-02 1.02425873e-01 1.05121292e-01 1.07816711e-01 1.10512130e-01 1.13207549e-01 1.15902968e-01 1.18598379e-01 1.21293798e-01 1.23989217e-01 1.26684636e-01 1.29380047e-01 1.32075474e-01 1.34770885e-01 1.37466311e-01 1.40161723e-01 1.42857149e-01 1.45552561e-01 1.48247972e-01 1.50943398e-01 1.53638810e-01 1.56334236e-01 1.59029648e-01 1.61725074e-01 1.64420485e-01 1.67115897e-01 1.69811323e-01 1.72506735e-01 1.75202161e-01 1.77897573e-01 1.80592999e-01 1.83288410e-01 1.85983822e-01 1.88679248e-01 1.91374660e-01 1.94070086e-01 1.96765497e-01 1.99460924e-01 2.02156335e-01 2.04851747e-01 2.07547173e-01 2.10242584e-01 2.12938011e-01 2.15633422e-01 2.18328834e-01 2.21024260e-01 2.23719671e-01 2.26415098e-01 2.29110509e-01 2.31805936e-01 2.34501347e-01 2.37196758e-01 2.39892185e-01 2.42587596e-01 2.45283023e-01 2.47978434e-01 2.50673860e-01 2.53369272e-01 2.56064683e-01 2.58760095e-01 2.61455536e-01 2.64150947e-01 2.66846359e-01 2.69541770e-01 2.72237211e-01 2.74932623e-01 2.77628034e-01 2.80323446e-01 2.83018857e-01 2.85714298e-01 2.88409710e-01 2.91105121e-01 2.93800533e-01 2.96495944e-01 2.99191386e-01 3.01886797e-01 3.04582208e-01 3.07277620e-01 3.09973031e-01 3.12668473e-01 3.15363884e-01 3.18059295e-01 3.20754707e-01 3.23450148e-01 3.26145560e-01 3.28840971e-01 3.31536382e-01 3.34231794e-01 3.36927235e-01 3.39622647e-01 3.42318058e-01 3.45013469e-01 3.47708881e-01 3.50404322e-01 3.53099734e-01 3.55795145e-01 3.58490556e-01 3.61185998e-01 3.63881409e-01 3.66576821e-01 3.69272232e-01 3.71967643e-01 3.74663085e-01 3.77358496e-01 3.80053908e-01 3.82749319e-01 3.85444731e-01 3.88140172e-01 3.90835583e-01 3.93530995e-01 3.96226406e-01 3.98921847e-01 4.01617259e-01 4.04312670e-01 4.07008082e-01 4.09703493e-01 4.12398934e-01 4.15094346e-01 4.17789757e-01 4.20485169e-01 4.23180580e-01 4.25876021e-01 4.28571433e-01 4.31266844e-01 4.33962256e-01 4.36657667e-01 4.39353108e-01 4.42048520e-01 4.44743931e-01 4.47439343e-01 4.50134784e-01 4.52830195e-01 4.55525607e-01 4.58221018e-01 4.60916430e-01 4.63611871e-01 4.66307282e-01 4.69002694e-01 4.71698105e-01 4.74393517e-01 4.77088958e-01 4.79784369e-01 4.82479781e-01 4.85175192e-01 4.87870634e-01 4.90566045e-01 4.93261456e-01 4.95956868e-01 4.98652279e-01 5.01347721e-01 5.04043102e-01 5.06738544e-01 5.09433985e-01 5.12129366e-01 5.14824808e-01 5.17520189e-01 5.20215631e-01 5.22911072e-01 5.25606453e-01 5.28301895e-01 5.30997276e-01 5.33692718e-01 5.36388159e-01 5.39083540e-01 5.41778982e-01 5.44474423e-01 5.47169805e-01 5.49865246e-01 5.52560627e-01 5.55256069e-01 5.57951510e-01 5.60646892e-01 5.63342333e-01 5.66037714e-01 5.68733156e-01 5.71428597e-01 5.74123979e-01 5.76819420e-01 5.79514802e-01 5.82210243e-01 5.84905684e-01 5.87601066e-01 5.90296507e-01 5.92991889e-01 5.95687330e-01 5.98382771e-01 6.01078153e-01 6.03773594e-01 6.06468976e-01 6.09164417e-01 6.11859858e-01 6.14555240e-01 6.17250681e-01 6.19946063e-01 6.22641504e-01 6.25336945e-01 6.28032327e-01 6.30727768e-01 6.33423209e-01 6.36118591e-01 6.38814032e-01 6.41509414e-01 6.44204855e-01 6.46900296e-01 6.49595678e-01 6.52291119e-01 6.54986501e-01 6.57681942e-01 6.60377383e-01 6.63072765e-01 6.65768206e-01 6.68463588e-01 6.71159029e-01 6.73854470e-01 6.76549852e-01 6.79245293e-01 6.81940675e-01 6.84636116e-01 6.87331557e-01 6.90026939e-01 6.92722380e-01 6.95417762e-01 6.98113203e-01 7.00808644e-01 7.03504026e-01 7.06199467e-01 7.08894908e-01 7.11590290e-01 7.14285731e-01 7.16981113e-01 7.19676554e-01 7.22371995e-01 7.25067377e-01 7.27762818e-01 7.30458200e-01 7.33153641e-01 7.35849082e-01 7.38544464e-01 7.41239905e-01 7.43935287e-01 7.46630728e-01 7.49326169e-01 7.52021551e-01 7.54716992e-01 7.57412374e-01 7.60107815e-01 7.62803257e-01 7.65498638e-01 7.68194079e-01 7.70889461e-01 7.73584902e-01 7.76280344e-01 7.78975725e-01 7.81671166e-01 7.84366548e-01 7.87061989e-01 7.89757431e-01 7.92452812e-01 7.95148253e-01 7.97843695e-01 8.00539076e-01 8.03234518e-01 8.05929899e-01 8.08625340e-01 8.11320782e-01 8.14016163e-01 8.16711605e-01 8.19406986e-01 8.22102427e-01 8.24797869e-01 8.27493250e-01 8.30188692e-01 8.32884073e-01 8.35579515e-01 8.38274956e-01 8.40970337e-01 8.43665779e-01 8.46361160e-01 8.49056602e-01 8.51752043e-01 8.54447424e-01 8.57142866e-01 8.59838247e-01 8.62533689e-01 8.65229130e-01 8.67924511e-01 8.70619953e-01 8.73315334e-01 8.76010776e-01 8.78706217e-01 8.81401598e-01 8.84097040e-01 8.86792481e-01 8.89487863e-01 8.92183304e-01 8.94878685e-01 8.97574127e-01 9.00269568e-01 9.02964950e-01 9.05660391e-01 9.08355772e-01 9.11051214e-01 9.13746655e-01 9.16442037e-01 9.19137478e-01 9.21832860e-01 9.24528301e-01 9.27223742e-01 9.29919124e-01 9.32614565e-01 9.35309947e-01 9.38005388e-01 9.40700829e-01 9.43396211e-01 9.46091652e-01 9.48787034e-01 9.51482475e-01 9.54177916e-01 9.56873298e-01 9.59568739e-01 9.62264180e-01 9.64959562e-01 9.67655003e-01 9.70350385e-01 9.73045826e-01 9.75741267e-01 9.78436649e-01 9.81132090e-01 9.83827472e-01 9.86522913e-01 9.89218354e-01 9.91913736e-01 9.94609177e-01 9.97304559e-01 1.00000000e+00 
            </Histogram>
            <HistogramBinning NBins="371">
              -9.99999975e-05 0.00000000e+00 1.09588373e-05 2.40952304e-05 2.94235015e-05 3.41050654e-05 3.95326497e-05 4.35472830e-05 5.26858967e-05 5.70185330e-05 6.51717710e-05 6.81145539e-05 7.49901665e-05 7.87984318e-05 8.23765731e-05 9.20301973e-05 9.64583451e-05 1.02836217e-04 1.06614076e-04 1.14179711e-04 1.21534773e-04 1.28106607e-04 1.33551148e-04 1.39869415e-04 1.43299694e-04 1.48150240e-04 1.52607987e-04 1.56769034e-04 1.61989214e-04 1.67948616e-04 1.74375411e-04 1.78752103e-04 1.83821117e-04 1.88272752e-04 1.92725769e-04 2.00970753e-04 2.07298319e-04 2.13464577e-04 2.20356975e-04 2.23508861e-04 2.29001045e-04 2.34958396e-04 2.40713809e-04 2.45128380e-04 2.50445359e-04 2.57179257e-04 2.64433271e-04 2.71697791e-04 2.75188475e-04 2.80669570e-04 2.87849805e-04 2.89821182e-04 2.95231817e-04 2.98752566e-04 3.03201028e-04 3.06041300e-04 3.09047231e-04 3.15452489e-04 3.23017302e-04 3.29450326e-04 3.36460536e-04 3.43946769e-04 3.53753479e-04 3.60253354e-04 3.67344212e-04 3.78750206e-04 3.84008628e-04 3.93083668e-04 4.03559185e-04 4.07827436e-04 4.12739668e-04 4.16259223e-04 4.24894766e-04 4.30192973e-04 4.34652611e-04 4.38664429e-04 4.45249781e-04 4.54462628e-04 4.62914730e-04 4.74200468e-04 4.79107286e-04 4.87926358e-04 4.95969667e-04 5.04830969e-04 5.11875842e-04 5.18844812e-04 5.26286021e-04 5.30990306e-04 5.36691456e-04 5.45992632e-04 5.56736079e-04 5.66102855e-04 5.71065815e-04 5.78989333e-04 5.85629779e-04 5.93741599e-04 6.02554122e-04 6.10694522e-04 6.17662561e-04 6.23708940e-04 6.32454350e-04 6.44929474e-04 6.52536051e-04 6.59038778e-04 6.69829082e-04 6.76042866e-04 6.84549799e-04 6.95878407e-04 7.06617371e-04 7.27130566e-04 7.38619361e-04 7.43653043e-04 7.48255872e-04 7.64241384e-04 7.76040135e-04 7.84021802e-04 7.96718174e-04 8.11037957e-04 8.16907326e-04 8.27943324e-04 8.38299224e-04 8.45841889e-04 8.58504907e-04 8.72420729e-04 8.87876144e-04 8.98747006e-04 9.09877417e-04 9.21057770e-04 9.40426893e-04 9.59198922e-04 9.66231164e-04 9.77493473e-04 9.97810741e-04 1.00732793e-03 1.02355122e-03 1.04123389e-03 1.05218543e-03 1.06504071e-03 1.08467916e-03 1.09580846e-03 1.11588021e-03 1.12913013e-03 1.14299473e-03 1.15961605e-03 1.17444282e-03 1.19508430e-03 1.20996602e-03 1.23851071e-03 1.25005143e-03 1.26267434e-03 1.27365347e-03 1.28442701e-03 1.30036217e-03 1.32345792e-03 1.33971602e-03 1.36345718e-03 1.37387891e-03 1.41178630e-03 1.44747796e-03 1.45572121e-03 1.48386066e-03 1.50658516e-03 1.53129175e-03 1.54435996e-03 1.56069384e-03 1.59419596e-03 1.61756435e-03 1.63213350e-03 1.64838869e-03 1.66734192e-03 1.68060639e-03 1.69187458e-03 1.71164086e-03 1.73124240e-03 1.75260834e-03 1.77675136e-03 1.79017894e-03 1.82146300e-03 1.86036469e-03 1.88031350e-03 1.90439355e-03 1.94679270e-03 1.97590399e-03 2.01594434e-03 2.06593983e-03 2.08573858e-03 2.11073668e-03 2.14425661e-03 2.16631731e-03 2.20638351e-03 2.22654804e-03 2.25152960e-03 2.30280519e-03 2.34044669e-03 2.37857923e-03 2.40578875e-03 2.42590019e-03 2.47912644e-03 2.50636972e-03 2.55990541e-03 2.58797011e-03 2.60896119e-03 2.63507105e-03 2.65637762e-03 2.68579694e-03 2.72774813e-03 2.78906222e-03 2.81130522e-03 2.83465721e-03 2.87992414e-03 2.91296444e-03 2.94286199e-03 2.98154587e-03 3.03243450e-03 3.09784943e-03 3.16185388e-03 3.21149849e-03 3.25167621e-03 3.30821704e-03 3.35330470e-03 3.38844745e-03 3.46588809e-03 3.57561302e-03 3.65218613e-03 3.70481610e-03 3.75476805e-03 3.81303439e-03 3.86861595e-03 3.94953880e-03 3.98844201e-03 4.04756144e-03 4.13486036e-03 4.18571755e-03 4.23407787e-03 4.30183485e-03 4.38113557e-03 4.46979888e-03 4.51410608e-03 4.65739518e-03 4.73722536e-03 4.81999759e-03 4.91043506e-03 4.97650448e-03 5.06232865e-03 5.12024621e-03 5.22844540e-03 5.35704941e-03 5.42188575e-03 5.53263491e-03 5.60609624e-03 5.70657011e-03 5.81479259e-03 5.90734277e-03 6.01309584e-03 6.09369017e-03 6.20059995e-03 6.33253343e-03 6.43026363e-03 6.56084856e-03 6.63219718e-03 6.72244281e-03 6.79478794e-03 6.84295408e-03 6.95852097e-03 7.10602757e-03 7.27219647e-03 7.43620470e-03 7.57702999e-03 7.69827608e-03 7.94977788e-03 8.03686399e-03 8.21193215e-03 8.35820846e-03 8.54097866e-03 8.75434838e-03 8.90109874e-03 9.10170283e-03 9.40156076e-03 9.61476937e-03 9.79675818e-03 1.00630149e-02 1.02991341e-02 1.05372723e-02 1.09543530e-02 1.11762546e-02 1.14117824e-02 1.16568059e-02 1.19267981e-02 1.21855587e-02 1.24606369e-02 1.27638327e-02 1.31733110e-02 1.33249033e-02 1.37780448e-02 1.42184244e-02 1.45564359e-02 1.48751047e-02 1.52447466e-02 1.53845400e-02 1.57095138e-02 1.60027444e-02 1.64637305e-02 1.68523788e-02 1.73020959e-02 1.75795294e-02 1.79305431e-02 1.83523186e-02 1.87974051e-02 1.92136876e-02 1.98234506e-02 2.02214886e-02 2.06688493e-02 2.11778730e-02 2.15522684e-02 2.18917225e-02 2.26721112e-02 2.35931389e-02 2.40762793e-02 2.48904731e-02 2.55897380e-02 2.58636419e-02 2.64134631e-02 2.69200858e-02 2.79171541e-02 2.83131786e-02 2.89215427e-02 2.96960771e-02 3.02666761e-02 3.14422101e-02 3.22635435e-02 3.32514420e-02 3.39681916e-02 3.47015783e-02 3.54014859e-02 3.65021937e-02 3.79260741e-02 3.85463908e-02 3.96299474e-02 4.08856981e-02 4.16542180e-02 4.26457264e-02 4.38319445e-02 4.50489111e-02 4.56937887e-02 4.68838476e-02 4.77928445e-02 4.84339669e-02 5.05395979e-02 5.12448885e-02 5.22208139e-02 5.42502888e-02 5.58806956e-02 5.73416054e-02 5.92420623e-02 6.09803982e-02 6.20691329e-02 6.38722777e-02 6.56498671e-02 6.92963451e-02 7.36730918e-02 7.67729804e-02 8.01736489e-02 8.26247633e-02 8.63035321e-02 8.78132358e-02 9.16393474e-02 9.42724943e-02 1.00195400e-01 1.07400373e-01 1.23381540e-01 1.44522309e-01 1.69711113e-01 
            </HistogramBinning>
          </PDF>
        </CumulativePDF_cls0>
      </Variable>
      <Variable VarIndex="3">
        <CumulativePDF_cls0>
          <PDF Name="GaussTransform var3 cls0" MinNSmooth="0" MaxNSmooth="0" InterpolMethod="1" KDE_type="0" KDE_iter="1" KDE_border="1" KDE_finefactor="0.0000000000000000e+00">
            <Histogram Name="Cumulative_Var3_cls0_original" NBins="370" XMin="-9.9999997473787516e-05" XMax="1.1903324723243713e-01" HasEquidistantBins="0">
              2.70270277e-03 5.40540554e-03 8.10810830e-03 1.08108111e-02 1.35135138e-02 1.62162166e-02 1.89189184e-02 2.16216221e-02 2.43243240e-02 2.70270277e-02 2.97297295e-02 3.24324332e-02 3.51351351e-02 3.78378369e-02 4.05405387e-02 4.32432443e-02 4.59459461e-02 4.86486480e-02 5.13513498e-02 5.40540554e-02 5.67567572e-02 5.94594590e-02 6.21621609e-02 6.48648664e-02 6.75675645e-02 7.02702701e-02 7.29729757e-02 7.56756738e-02 7.83783793e-02 8.10810775e-02 8.37837830e-02 8.64864886e-02 8.91891867e-02 9.18918923e-02 9.45945978e-02 9.72972959e-02 1.00000001e-01 1.02702700e-01 1.05405405e-01 1.08108111e-01 1.10810809e-01 1.13513514e-01 1.16216213e-01 1.18918918e-01 1.21621624e-01 1.24324322e-01 1.27027020e-01 1.29729733e-01 1.32432431e-01 1.35135129e-01 1.37837842e-01 1.40540540e-01 1.43243238e-01 1.45945951e-01 1.48648649e-01 1.51351348e-01 1.54054061e-01 1.56756759e-01 1.59459457e-01 1.62162155e-01 1.64864868e-01 1.67567566e-01 1.70270264e-01 1.72972977e-01 1.75675675e-01 1.78378373e-01 1.81081086e-01 1.83783785e-01 1.86486483e-01 1.89189196e-01 1.91891894e-01 1.94594592e-01 1.97297290e-01 2.00000003e-01 2.02702701e-01 2.05405399e-01 2.08108112e-01 2.10810810e-01 2.13513508e-01 2.16216221e-01 2.18918920e-01 2.21621618e-01 2.24324331e-01 2.27027029e-01 2.29729727e-01 2.32432425e-01 2.35135138e-01 2.37837836e-01 2.40540534e-01 2.43243247e-01 2.45945945e-01 2.48648643e-01 2.51351357e-01 2.54054040e-01 2.56756753e-01 2.59459466e-01 2.62162149e-01 2.64864862e-01 2.67567575e-01 2.70270258e-01 2.72972971e-01 2.75675684e-01 2.78378367e-01 2.81081080e-01 2.83783793e-01 2.86486477e-01 2.89189190e-01 2.91891903e-01 2.94594586e-01 2.97297299e-01 3.00000012e-01 3.02702695e-01 3.05405408e-01 3.08108121e-01 3.10810804e-01 3.13513517e-01 3.16216230e-01 3.18918914e-01 3.21621627e-01 3.24324310e-01 3.27027023e-01 3.29729736e-01 3.32432419e-01 3.35135132e-01 3.37837845e-01 3.40540528e-01 3.43243241e-01 3.45945954e-01 3.48648638e-01 3.51351351e-01 3.54054064e-01 3.56756747e-01 3.59459460e-01 3.62162173e-01 3.64864856e-01 3.67567569e-01 3.70270282e-01 3.72972965e-01 3.75675678e-01 3.78378391e-01 3.81081074e-01 3.83783787e-01 3.86486501e-01 3.89189184e-01 3.91891897e-01 3.94594580e-01 3.97297293e-01 4.00000006e-01 4.02702689e-01 4.05405402e-01 4.08108115e-01 4.10810798e-01 4.13513511e-01 4.16216224e-01 4.18918908e-01 4.21621621e-01 4.24324334e-01 4.27027017e-01 4.29729730e-01 4.32432443e-01 4.35135126e-01 4.37837839e-01 4.40540552e-01 4.43243235e-01 4.45945948e-01 4.48648661e-01 4.51351345e-01 4.54054058e-01 4.56756771e-01 4.59459454e-01 4.62162167e-01 4.64864850e-01 4.67567563e-01 4.70270276e-01 4.72972959e-01 4.75675672e-01 4.78378385e-01 4.81081069e-01 4.83783782e-01 4.86486495e-01 4.89189178e-01 4.91891891e-01 4.94594604e-01 4.97297287e-01 5.00000000e-01 5.02702713e-01 5.05405426e-01 5.08108079e-01 5.10810792e-01 5.13513505e-01 5.16216218e-01 5.18918931e-01 5.21621644e-01 5.24324298e-01 5.27027011e-01 5.29729724e-01 5.32432437e-01 5.35135150e-01 5.37837863e-01 5.40540516e-01 5.43243229e-01 5.45945942e-01 5.48648655e-01 5.51351368e-01 5.54054081e-01 5.56756735e-01 5.59459448e-01 5.62162161e-01 5.64864874e-01 5.67567587e-01 5.70270300e-01 5.72972953e-01 5.75675666e-01 5.78378379e-01 5.81081092e-01 5.83783805e-01 5.86486459e-01 5.89189172e-01 5.91891885e-01 5.94594598e-01 5.97297311e-01 6.00000024e-01 6.02702677e-01 6.05405390e-01 6.08108103e-01 6.10810816e-01 6.13513529e-01 6.16216242e-01 6.18918896e-01 6.21621609e-01 6.24324322e-01 6.27027035e-01 6.29729748e-01 6.32432461e-01 6.35135114e-01 6.37837827e-01 6.40540540e-01 6.43243253e-01 6.45945966e-01 6.48648620e-01 6.51351333e-01 6.54054046e-01 6.56756759e-01 6.59459472e-01 6.62162185e-01 6.64864838e-01 6.67567551e-01 6.70270264e-01 6.72972977e-01 6.75675690e-01 6.78378403e-01 6.81081057e-01 6.83783770e-01 6.86486483e-01 6.89189196e-01 6.91891909e-01 6.94594622e-01 6.97297275e-01 6.99999988e-01 7.02702701e-01 7.05405414e-01 7.08108127e-01 7.10810840e-01 7.13513494e-01 7.16216207e-01 7.18918920e-01 7.21621633e-01 7.24324346e-01 7.27026999e-01 7.29729712e-01 7.32432425e-01 7.35135138e-01 7.37837851e-01 7.40540564e-01 7.43243217e-01 7.45945930e-01 7.48648643e-01 7.51351357e-01 7.54054070e-01 7.56756783e-01 7.59459436e-01 7.62162149e-01 7.64864862e-01 7.67567575e-01 7.70270288e-01 7.72973001e-01 7.75675654e-01 7.78378367e-01 7.81081080e-01 7.83783793e-01 7.86486506e-01 7.89189160e-01 7.91891873e-01 7.94594586e-01 7.97297299e-01 8.00000012e-01 8.02702725e-01 8.05405378e-01 8.08108091e-01 8.10810804e-01 8.13513517e-01 8.16216230e-01 8.18918943e-01 8.21621597e-01 8.24324310e-01 8.27027023e-01 8.29729736e-01 8.32432449e-01 8.35135162e-01 8.37837815e-01 8.40540528e-01 8.43243241e-01 8.45945954e-01 8.48648667e-01 8.51351380e-01 8.54054034e-01 8.56756747e-01 8.59459460e-01 8.62162173e-01 8.64864886e-01 8.67567539e-01 8.70270252e-01 8.72972965e-01 8.75675678e-01 8.78378391e-01 8.81081104e-01 8.83783758e-01 8.86486471e-01 8.89189184e-01 8.91891897e-01 8.94594610e-01 8.97297323e-01 8.99999976e-01 9.02702689e-01 9.05405402e-01 9.08108115e-01 9.10810828e-01 9.13513541e-01 9.16216195e-01 9.18918908e-01 9.21621621e-01 9.24324334e-01 9.27027047e-01 9.29729700e-01 9.32432413e-01 9.35135126e-01 9.37837839e-01 9.40540552e-01 9.43243265e-01 9.45945919e-01 9.48648632e-01 9.51351345e-01 9.54054058e-01 9.56756771e-01 9.59459484e-01 9.62162137e-01 9.64864850e-01 9.67567563e-01 9.70270276e-01 9.72972989e-01 9.75675702e-01 9.78378356e-01 9.81081069e-01 9.83783782e-01 9.86486495e-01 9.89189208e-01 9.91891921e-01 9.94594574e-01 9.97297287e-01 1.00000000e+00 
            </Histogram>
            <HistogramBinning NBins="370">
              -9.99999975e-05 0.00000000e+00 1.05711370e-05 2.15069922e-05 2.95030532e-05 3.35174445e-05 3.73808725e-05 4.46309059e-05 5.03373594e-05 5.43547030e-05 5.98105944e-05 6.64903419e-05 7.13690461e-05 7.81587732e-05 8.56638362e-05 9.00392988e-05 9.46536966e-05 1.00866149e-04 1.04429040e-04 1.07865475e-04 1.09494613e-04 1.17693693e-04 1.21445046e-04 1.25117644e-04 1.28205676e-04 1.35117967e-04 1.39156415e-04 1.47785337e-04 1.52400185e-04 1.59728021e-04 1.63979901e-04 1.68595143e-04 1.71731284e-04 1.76164758e-04 1.81535390e-04 1.87926882e-04 1.96219960e-04 2.02048992e-04 2.06311684e-04 2.09680074e-04 2.18429865e-04 2.22571136e-04 2.26478805e-04 2.31076934e-04 2.36603868e-04 2.40569556e-04 2.50786805e-04 2.58553162e-04 2.62785150e-04 2.73678161e-04 2.81675195e-04 2.85504386e-04 2.93782330e-04 2.99527892e-04 3.04527814e-04 3.06958420e-04 3.12652672e-04 3.19254352e-04 3.25934321e-04 3.39038321e-04 3.45200388e-04 3.52702802e-04 3.59304773e-04 3.67344473e-04 3.72016948e-04 3.78183060e-04 3.81805876e-04 3.88285727e-04 3.92751972e-04 3.95747164e-04 4.03639075e-04 4.13143047e-04 4.20431781e-04 4.25747508e-04 4.30104759e-04 4.37515875e-04 4.46887076e-04 4.52570443e-04 4.57367045e-04 4.63440956e-04 4.70434316e-04 4.78047616e-04 4.85399680e-04 4.95849235e-04 5.00702299e-04 5.16122906e-04 5.21962414e-04 5.36045991e-04 5.44518523e-04 5.50309662e-04 5.58760134e-04 5.68243559e-04 5.77010156e-04 5.86510054e-04 5.93575067e-04 6.01101725e-04 6.06625632e-04 6.10290677e-04 6.19357452e-04 6.26317807e-04 6.32617390e-04 6.46624365e-04 6.52899849e-04 6.63560582e-04 6.73095405e-04 6.80932251e-04 6.88403205e-04 6.97480980e-04 7.07135478e-04 7.18507799e-04 7.26897502e-04 7.40490039e-04 7.55881192e-04 7.63683813e-04 7.70548591e-04 7.79618276e-04 7.95765314e-04 8.02438939e-04 8.15594220e-04 8.21959809e-04 8.27558222e-04 8.42104200e-04 8.51253862e-04 8.63994821e-04 8.74103396e-04 8.88206006e-04 9.02747735e-04 9.14874021e-04 9.27405606e-04 9.41295526e-04 9.53239971e-04 9.66055202e-04 9.77112213e-04 9.84561979e-04 9.94675444e-04 9.98395262e-04 1.01286545e-03 1.02271372e-03 1.03996811e-03 1.06565841e-03 1.08427997e-03 1.09592080e-03 1.10531528e-03 1.11763494e-03 1.13456161e-03 1.14484469e-03 1.15869765e-03 1.17434724e-03 1.18756422e-03 1.19589479e-03 1.22175319e-03 1.23720930e-03 1.25672866e-03 1.27803301e-03 1.28602446e-03 1.30604871e-03 1.31860678e-03 1.34736043e-03 1.36608095e-03 1.39285938e-03 1.41411263e-03 1.43330288e-03 1.45069754e-03 1.47044717e-03 1.49273279e-03 1.52222184e-03 1.54078461e-03 1.55704690e-03 1.57153874e-03 1.58544164e-03 1.60008285e-03 1.61273580e-03 1.62581529e-03 1.65708316e-03 1.68287929e-03 1.70117966e-03 1.72494934e-03 1.74863287e-03 1.76630984e-03 1.78594585e-03 1.82079454e-03 1.84000120e-03 1.88144040e-03 1.89110229e-03 1.92550395e-03 1.93440146e-03 1.97185786e-03 2.00169859e-03 2.05633161e-03 2.09643925e-03 2.14325846e-03 2.18458869e-03 2.21243128e-03 2.24392465e-03 2.28640391e-03 2.29855021e-03 2.32516718e-03 2.35911645e-03 2.38961261e-03 2.41813622e-03 2.44911714e-03 2.48241099e-03 2.53143930e-03 2.56441743e-03 2.61470187e-03 2.68150773e-03 2.70575541e-03 2.74217338e-03 2.78108171e-03 2.81378371e-03 2.86168605e-03 2.90926034e-03 2.95673148e-03 2.97978241e-03 3.03663779e-03 3.11142346e-03 3.18381796e-03 3.24346172e-03 3.28709348e-03 3.32719833e-03 3.36700398e-03 3.39713646e-03 3.46411439e-03 3.51450080e-03 3.55180237e-03 3.62416497e-03 3.68286530e-03 3.71698942e-03 3.77702620e-03 3.83044872e-03 3.89630976e-03 3.94712528e-03 4.06596158e-03 4.14033141e-03 4.19966783e-03 4.25935863e-03 4.31612413e-03 4.41828230e-03 4.48559225e-03 4.59009130e-03 4.68630297e-03 4.77445358e-03 4.82138200e-03 4.89922659e-03 4.94570239e-03 5.02003217e-03 5.13188681e-03 5.19238971e-03 5.26102632e-03 5.32900495e-03 5.36583830e-03 5.42195607e-03 5.51630324e-03 5.66093717e-03 5.73348720e-03 5.82555588e-03 5.95617900e-03 6.16796827e-03 6.31089229e-03 6.45909552e-03 6.62727049e-03 6.80878572e-03 6.87826378e-03 7.00764498e-03 7.12154061e-03 7.22272322e-03 7.42791127e-03 7.53581617e-03 7.64077576e-03 7.77594652e-03 7.94121344e-03 8.08598846e-03 8.20324849e-03 8.33034329e-03 8.42262339e-03 8.53582751e-03 8.76694452e-03 8.95549357e-03 9.19315778e-03 9.30721406e-03 9.48760938e-03 9.61703621e-03 9.82172601e-03 9.96560976e-03 1.02205668e-02 1.03942258e-02 1.05126910e-02 1.06915319e-02 1.08898934e-02 1.10520665e-02 1.13041531e-02 1.14551317e-02 1.16846804e-02 1.19468570e-02 1.21945711e-02 1.24749895e-02 1.28713455e-02 1.30878417e-02 1.33420788e-02 1.35299284e-02 1.37266237e-02 1.41450530e-02 1.45635186e-02 1.48278419e-02 1.52764926e-02 1.57651808e-02 1.63195133e-02 1.66011173e-02 1.69222634e-02 1.74201727e-02 1.79015473e-02 1.84649862e-02 1.92509070e-02 1.96544118e-02 2.01043840e-02 2.05152128e-02 2.13485006e-02 2.17710137e-02 2.22563539e-02 2.29379833e-02 2.32873037e-02 2.40245238e-02 2.46249139e-02 2.51480453e-02 2.54886653e-02 2.58537363e-02 2.69844849e-02 2.79402938e-02 2.86072064e-02 2.94090658e-02 3.02710384e-02 3.08488309e-02 3.19256261e-02 3.23075876e-02 3.29579897e-02 3.40842791e-02 3.51722836e-02 3.63115929e-02 3.70772481e-02 3.81550081e-02 3.88454497e-02 4.05814648e-02 4.13633250e-02 4.25532609e-02 4.44438942e-02 4.53529954e-02 4.66058701e-02 4.77511212e-02 4.87713888e-02 4.95848618e-02 5.09166159e-02 5.24466857e-02 5.39785065e-02 5.51958010e-02 5.64782806e-02 5.73371723e-02 5.86830415e-02 6.00543171e-02 6.20986000e-02 6.35046139e-02 6.49029836e-02 6.70068339e-02 6.86928257e-02 7.14282021e-02 7.30443895e-02 7.52790719e-02 7.70170838e-02 7.90650398e-02 8.33520591e-02 8.96423981e-02 1.19033247e-01 
            </HistogramBinning>
          </PDF>
        </CumulativePDF_cls0>
      </Variable>
      <Variable VarIndex="4">
        <CumulativePDF_cls0>
          <PDF Name="GaussTransform var4 cls0" MinNSmooth="0" MaxNSmooth="0" InterpolMethod="1" KDE_type="0" KDE_iter="1" KDE_border="1" KDE_finefactor="0.0000000000000000e+00">
            <Histogram Name="Cumulative_Var4_cls0_original" NBins="308" XMin="-9.9999997473787516e-05" XMax="1.0400537401437759e-01" HasEquidistantBins="0">
              3.24675324e-03 6.49350649e-03 9.74025950e-03 1.29870130e-02 1.62337665e-02 1.94805190e-02 2.27272734e-02 2.59740259e-02 2.92207785e-02 3.24675329e-02 3.57142873e-02 3.89610380e-02 4.22077924e-02 4.54545468e-02 4.87012975e-02 5.19480519e-02 5.51948063e-02 5.84415570e-02 6.16883114e-02 6.49350658e-02 6.81818202e-02 7.14285746e-02 7.46753216e-02 7.79220760e-02 8.11688304e-02 8.44155848e-02 8.76623392e-02 9.09090936e-02 9.41558406e-02 9.74025950e-02 1.00649349e-01 1.03896104e-01 1.07142858e-01 1.10389613e-01 1.13636367e-01 1.16883114e-01 1.20129868e-01 1.23376623e-01 1.26623377e-01 1.29870132e-01 1.33116886e-01 1.36363640e-01 1.39610395e-01 1.42857149e-01 1.46103889e-01 1.49350643e-01 1.52597398e-01 1.55844152e-01 1.59090906e-01 1.62337661e-01 1.65584415e-01 1.68831170e-01 1.72077924e-01 1.75324678e-01 1.78571433e-01 1.81818187e-01 1.85064942e-01 1.88311681e-01 1.91558436e-01 1.94805190e-01 1.98051944e-01 2.01298699e-01 2.04545453e-01 2.07792208e-01 2.11038962e-01 2.14285716e-01 2.17532471e-01 2.20779225e-01 2.24025980e-01 2.27272734e-01 2.30519474e-01 2.33766228e-01 2.37012982e-01 2.40259737e-01 2.43506491e-01 2.46753246e-01 2.50000000e-01 2.53246754e-01 2.56493509e-01 2.59740263e-01 2.62987018e-01 2.66233772e-01 2.69480526e-01 2.72727281e-01 2.75974035e-01 2.79220790e-01 2.82467544e-01 2.85714298e-01 2.88961053e-01 2.92207778e-01 2.95454532e-01 2.98701286e-01 3.01948041e-01 3.05194795e-01 3.08441550e-01 3.11688304e-01 3.14935058e-01 3.18181813e-01 3.21428567e-01 3.24675322e-01 3.27922076e-01 3.31168830e-01 3.34415585e-01 3.37662339e-01 3.40909094e-01 3.44155848e-01 3.47402602e-01 3.50649357e-01 3.53896111e-01 3.57142866e-01 3.60389620e-01 3.63636374e-01 3.66883129e-01 3.70129883e-01 3.73376638e-01 3.76623362e-01 3.79870117e-01 3.83116871e-01 3.86363626e-01 3.89610380e-01 3.92857134e-01 3.96103889e-01 3.99350643e-01 4.02597398e-01 4.05844152e-01 4.09090906e-01 4.12337661e-01 4.15584415e-01 4.18831170e-01 4.22077924e-01 4.25324678e-01 4.28571433e-01 4.31818187e-01 4.35064942e-01 4.38311696e-01 4.41558450e-01 4.44805205e-01 4.48051959e-01 4.51298714e-01 4.54545468e-01 4.57792222e-01 4.61038947e-01 4.64285702e-01 4.67532456e-01 4.70779210e-01 4.74025965e-01 4.77272719e-01 4.80519474e-01 4.83766228e-01 4.87012982e-01 4.90259737e-01 4.93506491e-01 4.96753246e-01 5.00000000e-01 5.03246725e-01 5.06493509e-01 5.09740233e-01 5.12987018e-01 5.16233742e-01 5.19480526e-01 5.22727251e-01 5.25974035e-01 5.29220760e-01 5.32467544e-01 5.35714269e-01 5.38961053e-01 5.42207778e-01 5.45454562e-01 5.48701286e-01 5.51948071e-01 5.55194795e-01 5.58441579e-01 5.61688304e-01 5.64935088e-01 5.68181813e-01 5.71428597e-01 5.74675322e-01 5.77922106e-01 5.81168830e-01 5.84415555e-01 5.87662339e-01 5.90909064e-01 5.94155848e-01 5.97402573e-01 6.00649357e-01 6.03896081e-01 6.07142866e-01 6.10389590e-01 6.13636374e-01 6.16883099e-01 6.20129883e-01 6.23376608e-01 6.26623392e-01 6.29870117e-01 6.33116901e-01 6.36363626e-01 6.39610410e-01 6.42857134e-01 6.46103919e-01 6.49350643e-01 6.52597427e-01 6.55844152e-01 6.59090936e-01 6.62337661e-01 6.65584445e-01 6.68831170e-01 6.72077894e-01 6.75324678e-01 6.78571403e-01 6.81818187e-01 6.85064912e-01 6.88311696e-01 6.91558421e-01 6.94805205e-01 6.98051929e-01 7.01298714e-01 7.04545438e-01 7.07792222e-01 7.11038947e-01 7.14285731e-01 7.17532456e-01 7.20779240e-01 7.24025965e-01 7.27272749e-01 7.30519474e-01 7.33766258e-01 7.37012982e-01 7.40259767e-01 7.43506491e-01 7.46753275e-01 7.50000000e-01 7.53246725e-01 7.56493509e-01 7.59740233e-01 7.62987018e-01 7.66233742e-01 7.69480526e-01 7.72727251e-01 7.75974035e-01 7.79220760e-01 7.82467544e-01 7.85714269e-01 7.88961053e-01 7.92207778e-01 7.95454562e-01 7.98701286e-01 8.01948071e-01 8.05194795e-01 8.08441579e-01 8.11688304e-01 8.14935088e-01 8.18181813e-01 8.21428597e-01 8.24675322e-01 8.27922106e-01 8.31168830e-01 8.34415555e-01 8.37662339e-01 8.40909064e-01 8.44155848e-01 8.47402573e-01 8.50649357e-01 8.53896081e-01 8.57142866e-01 8.60389590e-01 8.63636374e-01 8.66883099e-01 8.70129883e-01 8.73376608e-01 8.76623392e-01 8.79870117e-01 8.83116901e-01 8.86363626e-01 8.89610410e-01 8.92857134e-01 8.96103919e-01 8.99350643e-01 9.02597427e-01 9.05844152e-01 9.09090936e-01 9.12337661e-01 9.15584445e-01 9.18831170e-01 9.22077894e-01 9.25324678e-01 9.28571403e-01 9.31818187e-01 9.35064912e-01 9.38311696e-01 9.41558421e-01 9.44805205e-01 9.48051929e-01 9.51298714e-01 9.54545438e-01 9.57792222e-01 9.61038947e-01 9.64285731e-01 9.67532456e-01 9.70779240e-01 9.74025965e-01 9.77272749e-01 9.80519474e-01 9.83766258e-01 9.87012982e-01 9.90259767e-01 9.93506491e-01 9.96753275e-01 1.00000000e+00 
            </Histogram>
            <HistogramBinning NBins="308">
              -9.99999975e-05 0.00000000e+00 1.03752491e-05 1.56077458e-05 2.01920047e-05 2.36106189e-05 2.58742584e-05 2.79497854e-05 3.00677566e-05 3.41050654e-05 3.56734126e-05 3.84456507e-05 4.05452593e-05 4.19888056e-05 4.40878903e-05 4.71567510e-05 4.86116769e-05 5.02667172e-05 5.26858967e-05 5.64705624e-05 5.84032678e-05 6.08113805e-05 6.24895838e-05 6.39946302e-05 6.70505324e-05 6.96501520e-05 7.24814454e-05 7.45521684e-05 7.72424828e-05 7.99388145e-05 8.16500688e-05 8.37486878e-05 8.56251499e-05 8.76924751e-05 8.96770507e-05 9.15521159e-05 9.39517413e-05 9.54745628e-05 9.76822776e-05 1.01413694e-04 1.03576436e-04 1.06596657e-04 1.08535198e-04 1.11750138e-04 1.14380615e-04 1.16552896e-04 1.17908785e-04 1.19844743e-04 1.24614613e-04 1.28054831e-04 1.30566492e-04 1.32677131e-04 1.35532042e-04 1.37967174e-04 1.42093253e-04 1.45080776e-04 1.47761471e-04 1.49637970e-04 1.55143949e-04 1.57442031e-04 1.59777672e-04 1.62340788e-04 1.65249250e-04 1.67366714e-04 1.69922714e-04 1.73122302e-04 1.75196619e-04 1.77602284e-04 1.80399569e-04 1.81820884e-04 1.85656725e-04 1.90125385e-04 1.92969383e-04 1.96501176e-04 2.01273317e-04 2.04222131e-04 2.07543577e-04 2.10662518e-04 2.12624378e-04 2.16961445e-04 2.20753747e-04 2.24897041e-04 2.28462974e-04 2.35949265e-04 2.40040550e-04 2.43716844e-04 2.45158473e-04 2.49996781e-04 2.52948521e-04 2.55298597e-04 2.61115667e-04 2.65157665e-04 2.67675816e-04 2.71889789e-04 2.76469538e-04 2.78796855e-04 2.83867150e-04 2.89451564e-04 2.95935170e-04 3.01828753e-04 3.07738257e-04 3.12467891e-04 3.15901416e-04 3.21883272e-04 3.27129470e-04 3.32599884e-04 3.35859368e-04 3.41603387e-04 3.47924244e-04 3.53238371e-04 3.62412218e-04 3.67401401e-04 3.73914896e-04 3.78047727e-04 3.83623817e-04 3.88419809e-04 3.92900314e-04 3.97091499e-04 4.02374135e-04 4.13130125e-04 4.21053846e-04 4.28267347e-04 4.32919565e-04 4.37711045e-04 4.43963101e-04 4.47245897e-04 4.55374276e-04 4.62130265e-04 4.69903403e-04 4.75001929e-04 4.83397045e-04 4.90694249e-04 4.94976004e-04 5.01655508e-04 5.12944534e-04 5.19670255e-04 5.22428192e-04 5.28186036e-04 5.35090978e-04 5.41316811e-04 5.45985007e-04 5.54281403e-04 5.63893584e-04 5.68335003e-04 5.78506500e-04 5.90773358e-04 5.99796826e-04 6.11341908e-04 6.16519887e-04 6.25533110e-04 6.34126714e-04 6.43376901e-04 6.54106145e-04 6.66052219e-04 6.72468916e-04 6.82282727e-04 6.88877422e-04 6.98195654e-04 7.12373876e-04 7.24634330e-04 7.29404972e-04 7.37946481e-04 7.48871593e-04 7.58820039e-04 7.67785590e-04 7.77611160e-04 7.88439764e-04 8.02344759e-04 8.14951607e-04 8.26993375e-04 8.39400862e-04 8.47224903e-04 8.62768560e-04 8.73123994e-04 8.85150745e-04 8.97058868e-04 9.16165824e-04 9.26531153e-04 9.44956206e-04 9.67315224e-04 9.78018274e-04 9.96309565e-04 1.01033389e-03 1.03417831e-03 1.04250479e-03 1.06516422e-03 1.08523364e-03 1.10136694e-03 1.11455761e-03 1.12970197e-03 1.14923937e-03 1.17109728e-03 1.18717528e-03 1.20966265e-03 1.23917346e-03 1.25819142e-03 1.28524401e-03 1.30420865e-03 1.31238357e-03 1.33843732e-03 1.36406661e-03 1.39118847e-03 1.41157967e-03 1.43072580e-03 1.48007134e-03 1.49608334e-03 1.51354109e-03 1.54029275e-03 1.58091309e-03 1.59719447e-03 1.62769167e-03 1.65534148e-03 1.69100775e-03 1.75000250e-03 1.79243984e-03 1.82570633e-03 1.85543776e-03 1.90476002e-03 1.93555211e-03 1.97772658e-03 2.01301696e-03 2.06988468e-03 2.10203067e-03 2.13507144e-03 2.18400755e-03 2.22513429e-03 2.29343446e-03 2.33602570e-03 2.37545487e-03 2.42935005e-03 2.49843928e-03 2.57312856e-03 2.60490435e-03 2.66987784e-03 2.72862427e-03 2.77909171e-03 2.85160448e-03 2.90018460e-03 2.92891590e-03 2.98436731e-03 3.04385368e-03 3.08978208e-03 3.12870648e-03 3.17516737e-03 3.22128297e-03 3.33586894e-03 3.41167091e-03 3.49729811e-03 3.56125180e-03 3.63284838e-03 3.81844305e-03 3.87299713e-03 3.99479596e-03 4.05895151e-03 4.11910098e-03 4.34339093e-03 4.46825707e-03 4.64329217e-03 4.75884974e-03 4.97938599e-03 5.10814367e-03 5.29302284e-03 5.45104221e-03 5.75416256e-03 5.97650325e-03 6.09570742e-03 6.30018720e-03 6.53046742e-03 6.78574806e-03 7.14980252e-03 7.38697965e-03 7.71169178e-03 8.01252667e-03 8.49987008e-03 8.75772536e-03 9.30028688e-03 9.72339138e-03 1.00229438e-02 1.03539843e-02 1.06540984e-02 1.10912621e-02 1.16858818e-02 1.22000221e-02 1.27463648e-02 1.33400047e-02 1.39664644e-02 1.46054048e-02 1.53263044e-02 1.61907170e-02 1.78891458e-02 1.89484283e-02 2.02845205e-02 2.11418532e-02 2.19047256e-02 2.44262479e-02 2.64883749e-02 2.86422372e-02 3.00740898e-02 3.43372002e-02 3.60576324e-02 3.95584553e-02 4.26101796e-02 4.82593030e-02 5.38131855e-02 5.74244037e-02 6.82257935e-02 7.92450383e-02 8.78353789e-02 1.04005374e-01 
            </HistogramBinning>
          </PDF>
        </CumulativePDF_cls0>
      </Variable>
      <Variable VarIndex="5">
        <CumulativePDF_cls0>
          <PDF Name="GaussTransform var5 cls0" MinNSmooth="0" MaxNSmooth="0" InterpolMethod="1" KDE_type="0" KDE_iter="1" KDE_border="1" KDE_finefactor="0.0000000000000000e+00">
            <Histogram Name="Cumulative_Var5_cls0_original" NBins="310" XMin="-9.9999997473787516e-05" XMax="2.0922446250915527e-01" HasEquidistantBins="0">
              3.22580640e-03 6.45161280e-03 9.67741944e-03 1.29032256e-02 1.61290318e-02 1.93548389e-02 2.25806460e-02 2.58064512e-02 2.90322583e-02 3.22580636e-02 3.54838707e-02 3.87096778e-02 4.19354849e-02 4.51612920e-02 4.83870953e-02 5.16129024e-02 5.48387095e-02 5.80645166e-02 6.12903237e-02 6.45161271e-02 6.77419379e-02 7.09677413e-02 7.41935447e-02 7.74193555e-02 8.06451589e-02 8.38709697e-02 8.70967731e-02 9.03225839e-02 9.35483873e-02 9.67741907e-02 1.00000001e-01 1.03225805e-01 1.06451616e-01 1.09677419e-01 1.12903222e-01 1.16129033e-01 1.19354837e-01 1.22580647e-01 1.25806451e-01 1.29032254e-01 1.32258058e-01 1.35483876e-01 1.38709679e-01 1.41935483e-01 1.45161286e-01 1.48387089e-01 1.51612908e-01 1.54838711e-01 1.58064514e-01 1.61290318e-01 1.64516136e-01 1.67741939e-01 1.70967743e-01 1.74193546e-01 1.77419350e-01 1.80645168e-01 1.83870971e-01 1.87096775e-01 1.90322578e-01 1.93548381e-01 1.96774200e-01 2.00000003e-01 2.03225806e-01 2.06451610e-01 2.09677413e-01 2.12903231e-01 2.16129035e-01 2.19354838e-01 2.22580642e-01 2.25806445e-01 2.29032263e-01 2.32258067e-01 2.35483870e-01 2.38709673e-01 2.41935477e-01 2.45161295e-01 2.48387098e-01 2.51612902e-01 2.54838705e-01 2.58064508e-01 2.61290312e-01 2.64516115e-01 2.67741948e-01 2.70967752e-01 2.74193555e-01 2.77419358e-01 2.80645162e-01 2.83870965e-01 2.87096769e-01 2.90322572e-01 2.93548375e-01 2.96774179e-01 3.00000012e-01 3.03225815e-01 3.06451619e-01 3.09677422e-01 3.12903225e-01 3.16129029e-01 3.19354832e-01 3.22580636e-01 3.25806439e-01 3.29032272e-01 3.32258075e-01 3.35483879e-01 3.38709682e-01 3.41935486e-01 3.45161289e-01 3.48387092e-01 3.51612896e-01 3.54838699e-01 3.58064502e-01 3.61290336e-01 3.64516139e-01 3.67741942e-01 3.70967746e-01 3.74193549e-01 3.77419353e-01 3.80645156e-01 3.83870959e-01 3.87096763e-01 3.90322566e-01 3.93548399e-01 3.96774203e-01 4.00000006e-01 4.03225809e-01 4.06451613e-01 4.09677416e-01 4.12903219e-01 4.16129023e-01 4.19354826e-01 4.22580659e-01 4.25806463e-01 4.29032266e-01 4.32258070e-01 4.35483873e-01 4.38709676e-01 4.41935480e-01 4.45161283e-01 4.48387086e-01 4.51612890e-01 4.54838723e-01 4.58064526e-01 4.61290330e-01 4.64516133e-01 4.67741936e-01 4.70967740e-01 4.74193543e-01 4.77419347e-01 4.80645150e-01 4.83870953e-01 4.87096786e-01 4.90322590e-01 4.93548393e-01 4.96774197e-01 5.00000000e-01 5.03225803e-01 5.06451607e-01 5.09677410e-01 5.12903214e-01 5.16129017e-01 5.19354820e-01 5.22580624e-01 5.25806427e-01 5.29032230e-01 5.32258093e-01 5.35483897e-01 5.38709700e-01 5.41935503e-01 5.45161307e-01 5.48387110e-01 5.51612914e-01 5.54838717e-01 5.58064520e-01 5.61290324e-01 5.64516127e-01 5.67741930e-01 5.70967734e-01 5.74193537e-01 5.77419341e-01 5.80645144e-01 5.83870947e-01 5.87096751e-01 5.90322554e-01 5.93548357e-01 5.96774220e-01 6.00000024e-01 6.03225827e-01 6.06451631e-01 6.09677434e-01 6.12903237e-01 6.16129041e-01 6.19354844e-01 6.22580647e-01 6.25806451e-01 6.29032254e-01 6.32258058e-01 6.35483861e-01 6.38709664e-01 6.41935468e-01 6.45161271e-01 6.48387074e-01 6.51612878e-01 6.54838681e-01 6.58064544e-01 6.61290348e-01 6.64516151e-01 6.67741954e-01 6.70967758e-01 6.74193561e-01 6.77419364e-01 6.80645168e-01 6.83870971e-01 6.87096775e-01 6.90322578e-01 6.93548381e-01 6.96774185e-01 6.99999988e-01 7.03225791e-01 7.06451595e-01 7.09677398e-01 7.12903202e-01 7.16129005e-01 7.19354868e-01 7.22580671e-01 7.25806475e-01 7.29032278e-01 7.32258081e-01 7.35483885e-01 7.38709688e-01 7.41935492e-01 7.45161295e-01 7.48387098e-01 7.51612902e-01 7.54838705e-01 7.58064508e-01 7.61290312e-01 7.64516115e-01 7.67741919e-01 7.70967722e-01 7.74193525e-01 7.77419329e-01 7.80645132e-01 7.83870995e-01 7.87096798e-01 7.90322602e-01 7.93548405e-01 7.96774209e-01 8.00000012e-01 8.03225815e-01 8.06451619e-01 8.09677422e-01 8.12903225e-01 8.16129029e-01 8.19354832e-01 8.22580636e-01 8.25806439e-01 8.29032242e-01 8.32258046e-01 8.35483849e-01 8.38709652e-01 8.41935456e-01 8.45161319e-01 8.48387122e-01 8.51612926e-01 8.54838729e-01 8.58064532e-01 8.61290336e-01 8.64516139e-01 8.67741942e-01 8.70967746e-01 8.74193549e-01 8.77419353e-01 8.80645156e-01 8.83870959e-01 8.87096763e-01 8.90322566e-01 8.93548369e-01 8.96774173e-01 8.99999976e-01 9.03225780e-01 9.06451643e-01 9.09677446e-01 9.12903249e-01 9.16129053e-01 9.19354856e-01 9.22580659e-01 9.25806463e-01 9.29032266e-01 9.32258070e-01 9.35483873e-01 9.38709676e-01 9.41935480e-01 9.45161283e-01 9.48387086e-01 9.51612890e-01 9.54838693e-01 9.58064497e-01 9.61290300e-01 9.64516103e-01 9.67741907e-01 9.70967770e-01 9.74193573e-01 9.77419376e-01 9.80645180e-01 9.83870983e-01 9.87096786e-01 9.90322590e-01 9.93548393e-01 9.96774197e-01 1.00000000e+00 
            </Histogram>
            <HistogramBinning NBins="310">
              -9.99999975e-05 0.00000000e+00 1.46476959e-05 2.10849430e-05 2.88216197e-05 3.20303661e-05 3.51100898e-05 3.69246845e-05 4.08641135e-05 4.40873737e-05 4.60326701e-05 4.92652980e-05 5.26204385e-05 5.44331633e-05 5.65851260e-05 5.79692751e-05 5.96567079e-05 6.27325280e-05 6.52780800e-05 6.63068422e-05 6.83481921e-05 7.04431222e-05 7.33203924e-05 7.64861034e-05 7.91502316e-05 8.18351909e-05 8.51125878e-05 8.77137936e-05 9.08304646e-05 9.47272929e-05 9.85874212e-05 1.00624231e-04 1.03538856e-04 1.06587358e-04 1.08982160e-04 1.11442525e-04 1.13386232e-04 1.17089141e-04 1.21347810e-04 1.22780184e-04 1.24564118e-04 1.26378116e-04 1.31073568e-04 1.35186870e-04 1.38084666e-04 1.40321863e-04 1.43063211e-04 1.44992373e-04 1.47498897e-04 1.48746898e-04 1.51819811e-04 1.53870336e-04 1.56501061e-04 1.58049283e-04 1.60141470e-04 1.62065888e-04 1.65145975e-04 1.68708284e-04 1.72753396e-04 1.77028938e-04 1.80505216e-04 1.82884207e-04 1.88935446e-04 1.90597144e-04 1.94103122e-04 1.97029964e-04 2.00333729e-04 2.02695839e-04 2.06617100e-04 2.13555148e-04 2.19395966e-04 2.22887509e-04 2.25688753e-04 2.28855046e-04 2.33824874e-04 2.38221313e-04 2.43429618e-04 2.47375137e-04 2.50617188e-04 2.55055143e-04 2.58192944e-04 2.62611138e-04 2.70549266e-04 2.74352380e-04 2.78850086e-04 2.83442612e-04 2.88070994e-04 2.91372300e-04 2.97432358e-04 3.01981403e-04 3.05459456e-04 3.10877513e-04 3.15218873e-04 3.18867038e-04 3.22616193e-04 3.27450020e-04 3.37527104e-04 3.43216379e-04 3.48202651e-04 3.53247131e-04 3.55727214e-04 3.62380117e-04 3.69958289e-04 3.72009410e-04 3.76466516e-04 3.80661077e-04 3.84783605e-04 3.87154752e-04 3.93230701e-04 3.97058175e-04 4.04212682e-04 4.08453110e-04 4.12486901e-04 4.20549506e-04 4.29007341e-04 4.34800197e-04 4.42803721e-04 4.47080529e-04 4.56675771e-04 4.60026233e-04 4.67647042e-04 4.73230641e-04 4.80339804e-04 4.83868236e-04 4.91492567e-04 5.00723894e-04 5.08074998e-04 5.17248991e-04 5.24156727e-04 5.34010585e-04 5.41830668e-04 5.47824078e-04 5.59804670e-04 5.64576709e-04 5.73308091e-04 5.80930093e-04 5.89190167e-04 5.96762286e-04 6.03673048e-04 6.13424694e-04 6.22757419e-04 6.29782386e-04 6.38334197e-04 6.43567590e-04 6.57491386e-04 6.64954365e-04 6.76639727e-04 6.89166482e-04 6.95683586e-04 7.07751606e-04 7.18943309e-04 7.34591042e-04 7.50875741e-04 7.69305509e-04 7.82466785e-04 7.87880912e-04 7.95507163e-04 8.01752554e-04 8.10625730e-04 8.17733933e-04 8.29962431e-04 8.38164589e-04 8.51892284e-04 8.64421250e-04 8.80872132e-04 8.89507995e-04 9.05904744e-04 9.12804389e-04 9.24269028e-04 9.41623759e-04 9.57422541e-04 9.79346805e-04 9.93096270e-04 1.00272370e-03 1.02220476e-03 1.03276607e-03 1.05203618e-03 1.06781721e-03 1.08497927e-03 1.09592080e-03 1.10984535e-03 1.13210687e-03 1.15043565e-03 1.17273664e-03 1.18624698e-03 1.19330059e-03 1.20477227e-03 1.22113631e-03 1.22952322e-03 1.24926562e-03 1.26408157e-03 1.28826511e-03 1.30478875e-03 1.33138592e-03 1.36409409e-03 1.38876936e-03 1.41639006e-03 1.44000282e-03 1.46761676e-03 1.49599079e-03 1.52278284e-03 1.54350488e-03 1.56759727e-03 1.61362300e-03 1.65408431e-03 1.68990577e-03 1.73251133e-03 1.75721536e-03 1.79515441e-03 1.84520450e-03 1.87698286e-03 1.90990057e-03 1.94982032e-03 1.97855174e-03 2.01645889e-03 2.07072659e-03 2.09573284e-03 2.14746175e-03 2.17957026e-03 2.20651273e-03 2.26220582e-03 2.29355972e-03 2.34962255e-03 2.40851426e-03 2.48003355e-03 2.54962733e-03 2.63179722e-03 2.71437410e-03 2.77341926e-03 2.83170817e-03 2.92693498e-03 2.99506728e-03 3.11206980e-03 3.18204658e-03 3.25225294e-03 3.31644085e-03 3.39715928e-03 3.46614793e-03 3.53899552e-03 3.61295417e-03 3.70474416e-03 3.74996825e-03 3.79020046e-03 3.86143127e-03 3.89472116e-03 3.98604572e-03 4.08900809e-03 4.20187321e-03 4.24974877e-03 4.38168366e-03 4.59493138e-03 4.69948258e-03 4.80283517e-03 4.91395034e-03 4.99301497e-03 5.09738224e-03 5.17987087e-03 5.32757491e-03 5.45594702e-03 5.65052731e-03 5.83447563e-03 6.06151158e-03 6.27135765e-03 6.49751397e-03 6.56841509e-03 6.72665099e-03 6.88889390e-03 7.11093191e-03 7.41500733e-03 7.61138462e-03 7.91974366e-03 8.27144366e-03 8.47047847e-03 8.74353107e-03 9.12537519e-03 9.46356729e-03 9.74696502e-03 1.02689564e-02 1.09040737e-02 1.13596432e-02 1.17770880e-02 1.22662690e-02 1.30515788e-02 1.37826782e-02 1.43490527e-02 1.53695960e-02 1.60774142e-02 1.69055238e-02 1.78068634e-02 1.84612535e-02 1.90967768e-02 2.01188549e-02 2.14124378e-02 2.35017166e-02 2.52402388e-02 2.67325193e-02 2.95213908e-02 3.25457416e-02 3.56907733e-02 3.85318398e-02 4.18384746e-02 4.53993492e-02 4.91595753e-02 5.18559143e-02 5.89109100e-02 6.96618259e-02 8.19814131e-02 9.62122753e-02 1.10276766e-01 1.48988336e-01 2.09224463e-01 
            </HistogramBinning>
          </PDF>
        </CumulativePDF_cls0>
      </Variable>
      <Variable VarIndex="6">
        <CumulativePDF_cls0>
          <PDF Name="GaussTransform var6 cls0" MinNSmooth="0" MaxNSmooth="0" InterpolMethod="1" KDE_type="0" KDE_iter="1" KDE_border="1" KDE_finefactor="0.0000000000000000e+00">
            <Histogram Name="Cumulative_Var6_cls0_original" NBins="307" XMin="-9.9999997473787516e-05" XMax="1.9898836314678192e-01" HasEquidistantBins="0">
              3.25732888e-03 6.51465775e-03 9.77198686e-03 1.30293155e-02 1.62866451e-02 1.95439737e-02 2.28013024e-02 2.60586310e-02 2.93159615e-02 3.25732902e-02 3.58306207e-02 3.90879475e-02 4.23452780e-02 4.56026047e-02 4.88599353e-02 5.21172620e-02 5.53745925e-02 5.86319230e-02 6.18892498e-02 6.51465803e-02 6.84039071e-02 7.16612414e-02 7.49185681e-02 7.81758949e-02 8.14332217e-02 8.46905559e-02 8.79478827e-02 9.12052095e-02 9.44625437e-02 9.77198705e-02 1.00977197e-01 1.04234524e-01 1.07491858e-01 1.10749185e-01 1.14006512e-01 1.17263846e-01 1.20521173e-01 1.23778500e-01 1.27035826e-01 1.30293161e-01 1.33550495e-01 1.36807814e-01 1.40065148e-01 1.43322483e-01 1.46579802e-01 1.49837136e-01 1.53094456e-01 1.56351790e-01 1.59609124e-01 1.62866443e-01 1.66123778e-01 1.69381112e-01 1.72638431e-01 1.75895765e-01 1.79153100e-01 1.82410419e-01 1.85667753e-01 1.88925087e-01 1.92182407e-01 1.95439741e-01 1.98697075e-01 2.01954395e-01 2.05211729e-01 2.08469048e-01 2.11726382e-01 2.14983717e-01 2.18241036e-01 2.21498370e-01 2.24755704e-01 2.28013024e-01 2.31270358e-01 2.34527692e-01 2.37785012e-01 2.41042346e-01 2.44299680e-01 2.47556999e-01 2.50814319e-01 2.54071653e-01 2.57328987e-01 2.60586321e-01 2.63843656e-01 2.67100990e-01 2.70358294e-01 2.73615628e-01 2.76872963e-01 2.80130297e-01 2.83387631e-01 2.86644965e-01 2.89902270e-01 2.93159604e-01 2.96416938e-01 2.99674273e-01 3.02931607e-01 3.06188911e-01 3.09446245e-01 3.12703580e-01 3.15960914e-01 3.19218248e-01 3.22475582e-01 3.25732887e-01 3.28990221e-01 3.32247555e-01 3.35504889e-01 3.38762224e-01 3.42019558e-01 3.45276862e-01 3.48534197e-01 3.51791531e-01 3.55048865e-01 3.58306199e-01 3.61563504e-01 3.64820838e-01 3.68078172e-01 3.71335506e-01 3.74592841e-01 3.77850175e-01 3.81107479e-01 3.84364814e-01 3.87622148e-01 3.90879482e-01 3.94136816e-01 3.97394150e-01 4.00651455e-01 4.03908789e-01 4.07166123e-01 4.10423458e-01 4.13680792e-01 4.16938096e-01 4.20195431e-01 4.23452765e-01 4.26710099e-01 4.29967433e-01 4.33224767e-01 4.36482072e-01 4.39739406e-01 4.42996740e-01 4.46254075e-01 4.49511409e-01 4.52768743e-01 4.56026047e-01 4.59283382e-01 4.62540716e-01 4.65798050e-01 4.69055384e-01 4.72312689e-01 4.75570023e-01 4.78827357e-01 4.82084692e-01 4.85342026e-01 4.88599360e-01 4.91856664e-01 4.95113999e-01 4.98371333e-01 5.01628637e-01 5.04885972e-01 5.08143306e-01 5.11400640e-01 5.14657974e-01 5.17915308e-01 5.21172643e-01 5.24429977e-01 5.27687311e-01 5.30944645e-01 5.34201980e-01 5.37459254e-01 5.40716588e-01 5.43973923e-01 5.47231257e-01 5.50488591e-01 5.53745925e-01 5.57003260e-01 5.60260594e-01 5.63517928e-01 5.66775262e-01 5.70032597e-01 5.73289931e-01 5.76547205e-01 5.79804540e-01 5.83061874e-01 5.86319208e-01 5.89576542e-01 5.92833877e-01 5.96091211e-01 5.99348545e-01 6.02605879e-01 6.05863214e-01 6.09120548e-01 6.12377822e-01 6.15635157e-01 6.18892491e-01 6.22149825e-01 6.25407159e-01 6.28664494e-01 6.31921828e-01 6.35179162e-01 6.38436496e-01 6.41693830e-01 6.44951165e-01 6.48208439e-01 6.51465774e-01 6.54723108e-01 6.57980442e-01 6.61237776e-01 6.64495111e-01 6.67752445e-01 6.71009779e-01 6.74267113e-01 6.77524447e-01 6.80781782e-01 6.84039116e-01 6.87296391e-01 6.90553725e-01 6.93811059e-01 6.97068393e-01 7.00325727e-01 7.03583062e-01 7.06840396e-01 7.10097730e-01 7.13355064e-01 7.16612399e-01 7.19869733e-01 7.23127007e-01 7.26384342e-01 7.29641676e-01 7.32899010e-01 7.36156344e-01 7.39413679e-01 7.42671013e-01 7.45928347e-01 7.49185681e-01 7.52443016e-01 7.55700350e-01 7.58957684e-01 7.62214959e-01 7.65472293e-01 7.68729627e-01 7.71986961e-01 7.75244296e-01 7.78501630e-01 7.81758964e-01 7.85016298e-01 7.88273633e-01 7.91530967e-01 7.94788301e-01 7.98045576e-01 8.01302910e-01 8.04560244e-01 8.07817578e-01 8.11074913e-01 8.14332247e-01 8.17589581e-01 8.20846915e-01 8.24104249e-01 8.27361584e-01 8.30618918e-01 8.33876193e-01 8.37133527e-01 8.40390861e-01 8.43648195e-01 8.46905529e-01 8.50162864e-01 8.53420198e-01 8.56677532e-01 8.59934866e-01 8.63192201e-01 8.66449535e-01 8.69706869e-01 8.72964144e-01 8.76221478e-01 8.79478812e-01 8.82736146e-01 8.85993481e-01 8.89250815e-01 8.92508149e-01 8.95765483e-01 8.99022818e-01 9.02280152e-01 9.05537486e-01 9.08794761e-01 9.12052095e-01 9.15309429e-01 9.18566763e-01 9.21824098e-01 9.25081432e-01 9.28338766e-01 9.31596100e-01 9.34853435e-01 9.38110769e-01 9.41368103e-01 9.44625378e-01 9.47882712e-01 9.51140046e-01 9.54397380e-01 9.57654715e-01 9.60912049e-01 9.64169383e-01 9.67426717e-01 9.70684052e-01 9.73941386e-01 9.77198720e-01 9.80456054e-01 9.83713329e-01 9.86970663e-01 9.90227997e-01 9.93485332e-01 9.96742666e-01 1.00000000e+00 
            </Histogram>
            <HistogramBinning NBins="307">
              -9.99999975e-05 0.00000000e+00 1.04442852e-05 1.84982273e-05 2.48183187e-05 2.80463209e-05 3.06444272e-05 3.35030454e-05 3.74326264e-05 4.05551873e-05 4.42121200e-05 4.70669838e-05 4.92958898e-05 5.13862760e-05 5.48379430e-05 5.70269767e-05 5.87421273e-05 6.21229483e-05 6.48718342e-05 6.74141265e-05 6.97221840e-05 7.17083458e-05 7.42529592e-05 7.76763918e-05 8.07935212e-05 8.60635118e-05 8.92745229e-05 9.09644586e-05 9.32170224e-05 9.55384603e-05 9.79794277e-05 1.04306433e-04 1.07771542e-04 1.10073714e-04 1.11422763e-04 1.14848866e-04 1.17467855e-04 1.20539444e-04 1.23860125e-04 1.26452636e-04 1.30833214e-04 1.35126000e-04 1.40001590e-04 1.44169113e-04 1.47908417e-04 1.50490479e-04 1.53825415e-04 1.57100803e-04 1.59987743e-04 1.64015219e-04 1.66578364e-04 1.71190681e-04 1.74615401e-04 1.79971772e-04 1.84423538e-04 1.88188220e-04 1.92711901e-04 1.95274610e-04 1.99301881e-04 2.01710005e-04 2.05605058e-04 2.09672929e-04 2.12849031e-04 2.16931367e-04 2.20618764e-04 2.24332238e-04 2.28239835e-04 2.32662132e-04 2.37040207e-04 2.39645393e-04 2.42978742e-04 2.46755750e-04 2.52406579e-04 2.59210035e-04 2.63487076e-04 2.66574818e-04 2.71650526e-04 2.76303734e-04 2.81624147e-04 2.85434391e-04 2.89994583e-04 2.97824765e-04 3.02717788e-04 3.06664471e-04 3.09106195e-04 3.12523305e-04 3.17049184e-04 3.20863590e-04 3.28589464e-04 3.34565237e-04 3.38165002e-04 3.42712912e-04 3.48933594e-04 3.54008225e-04 3.61289189e-04 3.66781169e-04 3.72932729e-04 3.81646212e-04 3.88888962e-04 3.94297764e-04 4.05586849e-04 4.11939604e-04 4.15741059e-04 4.18424228e-04 4.23879566e-04 4.29913052e-04 4.36897564e-04 4.43300611e-04 4.50963620e-04 4.58542927e-04 4.63909702e-04 4.69167833e-04 4.74200438e-04 4.80562943e-04 4.89014492e-04 4.93748812e-04 5.00880531e-04 5.05199831e-04 5.13593142e-04 5.19621535e-04 5.28735167e-04 5.32929029e-04 5.46259107e-04 5.54318656e-04 5.59857755e-04 5.68395073e-04 5.77018247e-04 5.82408393e-04 5.91759046e-04 5.96920960e-04 6.06235699e-04 6.11606520e-04 6.21113519e-04 6.27652917e-04 6.33586082e-04 6.37812307e-04 6.43930282e-04 6.55175885e-04 6.66880223e-04 6.77211618e-04 6.89364737e-04 6.96816598e-04 7.02965073e-04 7.13055197e-04 7.26685277e-04 7.37603172e-04 7.54328794e-04 7.70485145e-04 7.84270000e-04 7.97114975e-04 8.12746526e-04 8.24328337e-04 8.35481915e-04 8.44122260e-04 8.60638160e-04 8.66287854e-04 8.79951811e-04 9.00338753e-04 9.15077864e-04 9.26012814e-04 9.36833676e-04 9.50368471e-04 9.62266931e-04 9.76385782e-04 9.88384476e-04 1.00554561e-03 1.01836049e-03 1.02825102e-03 1.04274566e-03 1.05953612e-03 1.07809552e-03 1.09990383e-03 1.12263300e-03 1.14469125e-03 1.16287987e-03 1.17853307e-03 1.19495811e-03 1.20723341e-03 1.22164260e-03 1.23469008e-03 1.25546195e-03 1.27404719e-03 1.28567626e-03 1.30152737e-03 1.32925576e-03 1.35433686e-03 1.37492106e-03 1.38445571e-03 1.41296443e-03 1.42543146e-03 1.44817238e-03 1.47074217e-03 1.49496354e-03 1.51756720e-03 1.54134876e-03 1.57494110e-03 1.60647009e-03 1.62747083e-03 1.64995901e-03 1.65777351e-03 1.69234199e-03 1.73228409e-03 1.75258575e-03 1.78435515e-03 1.80704333e-03 1.84824527e-03 1.87722687e-03 1.91840064e-03 1.94661343e-03 2.00368161e-03 2.03455007e-03 2.06296565e-03 2.09053187e-03 2.12627416e-03 2.17304891e-03 2.23765522e-03 2.29161140e-03 2.36086082e-03 2.38768384e-03 2.42215162e-03 2.48556025e-03 2.53714924e-03 2.58209463e-03 2.62770639e-03 2.68067047e-03 2.72015203e-03 2.75909947e-03 2.82270415e-03 2.88671465e-03 2.94564269e-03 3.03355511e-03 3.07795010e-03 3.11994273e-03 3.18364426e-03 3.25810676e-03 3.34811676e-03 3.39607871e-03 3.46346130e-03 3.62722226e-03 3.72819137e-03 3.83519335e-03 3.97382863e-03 4.08946257e-03 4.17395029e-03 4.28776862e-03 4.43198951e-03 4.52097692e-03 4.60953452e-03 4.68463451e-03 4.83508501e-03 4.91270004e-03 5.07145235e-03 5.21086808e-03 5.37266489e-03 5.52128861e-03 5.68992645e-03 5.85030951e-03 6.04644418e-03 6.14869408e-03 6.48510782e-03 6.62380736e-03 6.88475138e-03 7.07540056e-03 7.24881794e-03 7.52245076e-03 7.76488008e-03 7.96945300e-03 8.44824966e-03 8.90482403e-03 9.12571978e-03 9.39824060e-03 9.69874393e-03 1.01366118e-02 1.04661165e-02 1.09519828e-02 1.13076270e-02 1.20639596e-02 1.24593638e-02 1.30436709e-02 1.38709191e-02 1.44490786e-02 1.50973480e-02 1.61409210e-02 1.65070798e-02 1.75762866e-02 1.88799314e-02 2.02298779e-02 2.17393450e-02 2.27513518e-02 2.41847560e-02 2.57784799e-02 2.83395704e-02 3.07154059e-02 3.32706720e-02 3.57286297e-02 3.90814170e-02 4.28903103e-02 4.66165766e-02 5.15284985e-02 5.55577278e-02 6.11601397e-02 6.51105791e-02 7.42105022e-02 8.47180933e-02 9.65402126e-02 1.06314659e-01 1.45995513e-01 1.98988363e-01 
            </HistogramBinning>
          </PDF>
        </CumulativePDF_cls0>
      </Variable>
      <Variable VarIndex="7">
        <CumulativePDF_cls0>
          <PDF Name="GaussTransform var7 cls0" MinNSmooth="0" MaxNSmooth="0" InterpolMethod="1" KDE_type="0" KDE_iter="1" KDE_border="1" KDE_finefactor="0.0000000000000000e+00">
            <Histogram Name="Cumulative_Var7_cls0_original" NBins="308" XMin="-9.9999997473787516e-05" XMax="2.1339248120784760e-01" HasEquidistantBins="0">
              3.24675324e-03 6.49350649e-03 9.74025950e-03 1.29870130e-02 1.62337665e-02 1.94805190e-02 2.27272734e-02 2.59740259e-02 2.92207785e-02 3.24675329e-02 3.57142873e-02 3.89610380e-02 4.22077924e-02 4.54545468e-02 4.87012975e-02 5.19480519e-02 5.51948063e-02 5.84415570e-02 6.16883114e-02 6.49350658e-02 6.81818202e-02 7.14285746e-02 7.46753216e-02 7.79220760e-02 8.11688304e-02 8.44155848e-02 8.76623392e-02 9.09090936e-02 9.41558406e-02 9.74025950e-02 1.00649349e-01 1.03896104e-01 1.07142858e-01 1.10389613e-01 1.13636367e-01 1.16883114e-01 1.20129868e-01 1.23376623e-01 1.26623377e-01 1.29870132e-01 1.33116886e-01 1.36363640e-01 1.39610395e-01 1.42857149e-01 1.46103889e-01 1.49350643e-01 1.52597398e-01 1.55844152e-01 1.59090906e-01 1.62337661e-01 1.65584415e-01 1.68831170e-01 1.72077924e-01 1.75324678e-01 1.78571433e-01 1.81818187e-01 1.85064942e-01 1.88311681e-01 1.91558436e-01 1.94805190e-01 1.98051944e-01 2.01298699e-01 2.04545453e-01 2.07792208e-01 2.11038962e-01 2.14285716e-01 2.17532471e-01 2.20779225e-01 2.24025980e-01 2.27272734e-01 2.30519474e-01 2.33766228e-01 2.37012982e-01 2.40259737e-01 2.43506491e-01 2.46753246e-01 2.50000000e-01 2.53246754e-01 2.56493509e-01 2.59740263e-01 2.62987018e-01 2.66233772e-01 2.69480526e-01 2.72727281e-01 2.75974035e-01 2.79220790e-01 2.82467544e-01 2.85714298e-01 2.88961053e-01 2.92207778e-01 2.95454532e-01 2.98701286e-01 3.01948041e-01 3.05194795e-01 3.08441550e-01 3.11688304e-01 3.14935058e-01 3.18181813e-01 3.21428567e-01 3.24675322e-01 3.27922076e-01 3.31168830e-01 3.34415585e-01 3.37662339e-01 3.40909094e-01 3.44155848e-01 3.47402602e-01 3.50649357e-01 3.53896111e-01 3.57142866e-01 3.60389620e-01 3.63636374e-01 3.66883129e-01 3.70129883e-01 3.73376638e-01 3.76623362e-01 3.79870117e-01 3.83116871e-01 3.86363626e-01 3.89610380e-01 3.92857134e-01 3.96103889e-01 3.99350643e-01 4.02597398e-01 4.05844152e-01 4.09090906e-01 4.12337661e-01 4.15584415e-01 4.18831170e-01 4.22077924e-01 4.25324678e-01 4.28571433e-01 4.31818187e-01 4.35064942e-01 4.38311696e-01 4.41558450e-01 4.44805205e-01 4.48051959e-01 4.51298714e-01 4.54545468e-01 4.57792222e-01 4.61038947e-01 4.64285702e-01 4.67532456e-01 4.70779210e-01 4.74025965e-01 4.77272719e-01 4.80519474e-01 4.83766228e-01 4.87012982e-01 4.90259737e-01 4.93506491e-01 4.96753246e-01 5.00000000e-01 5.03246725e-01 5.06493509e-01 5.09740233e-01 5.12987018e-01 5.16233742e-01 5.19480526e-01 5.22727251e-01 5.25974035e-01 5.29220760e-01 5.32467544e-01 5.35714269e-01 5.38961053e-01 5.42207778e-01 5.45454562e-01 5.48701286e-01 5.51948071e-01 5.55194795e-01 5.58441579e-01 5.61688304e-01 5.64935088e-01 5.68181813e-01 5.71428597e-01 5.74675322e-01 5.77922106e-01 5.81168830e-01 5.84415555e-01 5.87662339e-01 5.90909064e-01 5.94155848e-01 5.97402573e-01 6.00649357e-01 6.03896081e-01 6.07142866e-01 6.10389590e-01 6.13636374e-01 6.16883099e-01 6.20129883e-01 6.23376608e-01 6.26623392e-01 6.29870117e-01 6.33116901e-01 6.36363626e-01 6.39610410e-01 6.42857134e-01 6.46103919e-01 6.49350643e-01 6.52597427e-01 6.55844152e-01 6.59090936e-01 6.62337661e-01 6.65584445e-01 6.68831170e-01 6.72077894e-01 6.75324678e-01 6.78571403e-01 6.81818187e-01 6.85064912e-01 6.88311696e-01 6.91558421e-01 6.94805205e-01 6.98051929e-01 7.01298714e-01 7.04545438e-01 7.07792222e-01 7.11038947e-01 7.14285731e-01 7.17532456e-01 7.20779240e-01 7.24025965e-01 7.27272749e-01 7.30519474e-01 7.33766258e-01 7.37012982e-01 7.40259767e-01 7.43506491e-01 7.46753275e-01 7.50000000e-01 7.53246725e-01 7.56493509e-01 7.59740233e-01 7.62987018e-01 7.66233742e-01 7.69480526e-01 7.72727251e-01 7.75974035e-01 7.79220760e-01 7.82467544e-01 7.85714269e-01 7.88961053e-01 7.92207778e-01 7.95454562e-01 7.98701286e-01 8.01948071e-01 8.05194795e-01 8.08441579e-01 8.11688304e-01 8.14935088e-01 8.18181813e-01 8.21428597e-01 8.24675322e-01 8.27922106e-01 8.31168830e-01 8.34415555e-01 8.37662339e-01 8.40909064e-01 8.44155848e-01 8.47402573e-01 8.50649357e-01 8.53896081e-01 8.57142866e-01 8.60389590e-01 8.63636374e-01 8.66883099e-01 8.70129883e-01 8.73376608e-01 8.76623392e-01 8.79870117e-01 8.83116901e-01 8.86363626e-01 8.89610410e-01 8.92857134e-01 8.96103919e-01 8.99350643e-01 9.02597427e-01 9.05844152e-01 9.09090936e-01 9.12337661e-01 9.15584445e-01 9.18831170e-01 9.22077894e-01 9.25324678e-01 9.28571403e-01 9.31818187e-01 9.35064912e-01 9.38311696e-01 9.41558421e-01 9.44805205e-01 9.48051929e-01 9.51298714e-01 9.54545438e-01 9.57792222e-01 9.61038947e-01 9.64285731e-01 9.67532456e-01 9.70779240e-01 9.74025965e-01 9.77272749e-01 9.80519474e-01 9.83766258e-01 9.87012982e-01 9.90259767e-01 9.93506491e-01 9.96753275e-01 1.00000000e+00 
            </Histogram>
            <HistogramBinning NBins="308">
              -9.99999975e-05 0.00000000e+00 1.09388584e-05 1.49541656e-05 2.10251692e-05 2.52991140e-05 2.78267362e-05 3.09045390e-05 3.51347771e-05 3.67777320e-05 3.93500050e-05 4.18217460e-05 4.37725466e-05 4.59930561e-05 4.91517785e-05 5.09701313e-05 5.42451562e-05 5.68062933e-05 5.91050666e-05 6.13278389e-05 6.37835838e-05 6.63420869e-05 6.93764305e-05 7.26107901e-05 7.49220417e-05 7.86929158e-05 8.01974602e-05 8.36897088e-05 8.61547232e-05 8.78394785e-05 9.07236754e-05 9.31360919e-05 9.53266426e-05 9.81668345e-05 9.97165116e-05 1.02134873e-04 1.03843078e-04 1.07941778e-04 1.10144931e-04 1.14367263e-04 1.17648662e-04 1.21851619e-04 1.24027269e-04 1.25955019e-04 1.30061293e-04 1.32060668e-04 1.35609516e-04 1.38506177e-04 1.41358294e-04 1.45252940e-04 1.48925537e-04 1.53381756e-04 1.54651992e-04 1.55765985e-04 1.61475400e-04 1.64125668e-04 1.69068735e-04 1.72499305e-04 1.76840273e-04 1.81816256e-04 1.84259945e-04 1.86263846e-04 1.90523177e-04 1.95037006e-04 1.98747497e-04 2.05152624e-04 2.08328813e-04 2.13336869e-04 2.16337430e-04 2.19813854e-04 2.22485003e-04 2.28596604e-04 2.31868849e-04 2.34559484e-04 2.38004752e-04 2.42225637e-04 2.44262861e-04 2.46224517e-04 2.52374914e-04 2.56035622e-04 2.61741981e-04 2.67109077e-04 2.70773045e-04 2.76225444e-04 2.79827684e-04 2.88307929e-04 2.91414734e-04 2.94250611e-04 2.99864943e-04 3.02461820e-04 3.04722111e-04 3.09396826e-04 3.14097822e-04 3.19078128e-04 3.24983877e-04 3.28590279e-04 3.33033357e-04 3.40043654e-04 3.43936495e-04 3.47293360e-04 3.54855525e-04 3.59016209e-04 3.64812469e-04 3.72872397e-04 3.77624150e-04 3.81514837e-04 3.85210355e-04 3.93962895e-04 3.96813411e-04 4.03772108e-04 4.09802044e-04 4.16949566e-04 4.24240628e-04 4.32655943e-04 4.37936309e-04 4.47364931e-04 4.56125737e-04 4.59020259e-04 4.60972777e-04 4.67692676e-04 4.74977423e-04 4.78898059e-04 4.87761339e-04 4.90949140e-04 4.98472189e-04 5.04750002e-04 5.15552470e-04 5.32520411e-04 5.40809473e-04 5.45395422e-04 5.50632481e-04 5.55872452e-04 5.63153648e-04 5.73634461e-04 5.79962390e-04 5.85811213e-04 5.96355821e-04 6.03357563e-04 6.06984831e-04 6.14203629e-04 6.24648877e-04 6.30841067e-04 6.38015452e-04 6.46239379e-04 6.53037918e-04 6.61815400e-04 6.69449044e-04 6.91248395e-04 7.03393423e-04 7.14968890e-04 7.24567450e-04 7.37085997e-04 7.52879481e-04 7.66963989e-04 7.83440191e-04 7.96289649e-04 8.02671420e-04 8.08796671e-04 8.17114953e-04 8.32223683e-04 8.40590277e-04 8.51890538e-04 8.62102606e-04 8.76908132e-04 8.98820057e-04 9.14670643e-04 9.24063497e-04 9.37344041e-04 9.43524938e-04 9.57751297e-04 9.73015325e-04 9.89296357e-04 1.00414874e-03 1.02873531e-03 1.03839952e-03 1.05846196e-03 1.07112678e-03 1.07813149e-03 1.09143159e-03 1.10305136e-03 1.12525083e-03 1.13807863e-03 1.15136534e-03 1.18235277e-03 1.19495147e-03 1.20932946e-03 1.23083009e-03 1.24764151e-03 1.26137142e-03 1.28135702e-03 1.30580110e-03 1.33783778e-03 1.36681576e-03 1.39267673e-03 1.41066825e-03 1.42155087e-03 1.43769523e-03 1.46863423e-03 1.49360474e-03 1.50675909e-03 1.54522248e-03 1.57332385e-03 1.60264375e-03 1.63438160e-03 1.65670994e-03 1.69886579e-03 1.72576495e-03 1.75180612e-03 1.77096867e-03 1.79540052e-03 1.82240887e-03 1.85592100e-03 1.89012405e-03 1.92830234e-03 1.94704195e-03 1.98211218e-03 2.02377280e-03 2.07186164e-03 2.12126109e-03 2.17004982e-03 2.20981194e-03 2.28515337e-03 2.32101255e-03 2.37805652e-03 2.42744340e-03 2.47404142e-03 2.51102308e-03 2.56564445e-03 2.61667510e-03 2.71774689e-03 2.77716015e-03 2.81397137e-03 2.87176832e-03 2.90655694e-03 2.97072716e-03 3.05275107e-03 3.10240989e-03 3.15816933e-03 3.21139721e-03 3.26864235e-03 3.33073735e-03 3.40570090e-03 3.47428536e-03 3.54670361e-03 3.61972768e-03 3.65618523e-03 3.73614579e-03 3.82884173e-03 3.97583935e-03 4.11057007e-03 4.19305637e-03 4.28271620e-03 4.38060658e-03 4.47014254e-03 4.52097086e-03 4.66165971e-03 4.84571047e-03 5.00555336e-03 5.21051278e-03 5.55669237e-03 5.66768181e-03 5.95444581e-03 6.20378088e-03 6.35174010e-03 6.61115116e-03 6.81906287e-03 7.02655222e-03 7.29160896e-03 7.59241823e-03 7.81442970e-03 8.09630752e-03 8.33883230e-03 8.77414271e-03 9.06431861e-03 9.73093137e-03 1.00960601e-02 1.05704339e-02 1.12129115e-02 1.15638217e-02 1.21288430e-02 1.28383301e-02 1.34105235e-02 1.47310458e-02 1.52987428e-02 1.57711711e-02 1.68997645e-02 1.87864304e-02 2.03739852e-02 2.21536718e-02 2.40907185e-02 2.52871737e-02 2.70862337e-02 2.98044048e-02 3.11755668e-02 3.32514420e-02 3.51221561e-02 3.79937738e-02 4.18718383e-02 4.63276021e-02 5.06996065e-02 5.64081073e-02 6.30115569e-02 6.60961419e-02 7.38667101e-02 8.41450319e-02 9.81966928e-02 1.15018412e-01 1.36320382e-01 2.13392481e-01 
            </HistogramBinning>
          </PDF>
        </CumulativePDF_cls0>
      </Variable>
      <Variable VarIndex="8">
        <CumulativePDF_cls0>
          <PDF Name="GaussTransform var8 cls0" MinNSmooth="0" MaxNSmooth="0" InterpolMethod="1" KDE_type="0" KDE_iter="1" KDE_border="1" KDE_finefactor="0.0000000000000000e+00">
            <Histogram Name="Cumulative_Var8_cls0_original" NBins="309" XMin="-9.9999997473787516e-05" XMax="1.4791390299797058e-01" HasEquidistantBins="0">
              3.23624606e-03 6.47249212e-03 9.70873795e-03 1.29449842e-02 1.61812305e-02 1.94174759e-02 2.26537213e-02 2.58899685e-02 2.91262139e-02 3.23624611e-02 3.55987065e-02 3.88349518e-02 4.20711972e-02 4.53074425e-02 4.85436879e-02 5.17799370e-02 5.50161824e-02 5.82524277e-02 6.14886731e-02 6.47249222e-02 6.79611638e-02 7.11974129e-02 7.44336545e-02 7.76699036e-02 8.09061453e-02 8.41423944e-02 8.73786435e-02 9.06148851e-02 9.38511342e-02 9.70873758e-02 1.00323625e-01 1.03559874e-01 1.06796116e-01 1.10032365e-01 1.13268606e-01 1.16504855e-01 1.19741097e-01 1.22977346e-01 1.26213595e-01 1.29449844e-01 1.32686079e-01 1.35922328e-01 1.39158577e-01 1.42394826e-01 1.45631075e-01 1.48867309e-01 1.52103558e-01 1.55339807e-01 1.58576056e-01 1.61812291e-01 1.65048540e-01 1.68284789e-01 1.71521038e-01 1.74757287e-01 1.77993521e-01 1.81229770e-01 1.84466019e-01 1.87702268e-01 1.90938517e-01 1.94174752e-01 1.97411001e-01 2.00647250e-01 2.03883499e-01 2.07119748e-01 2.10355982e-01 2.13592231e-01 2.16828480e-01 2.20064729e-01 2.23300964e-01 2.26537213e-01 2.29773462e-01 2.33009711e-01 2.36245960e-01 2.39482194e-01 2.42718443e-01 2.45954692e-01 2.49190941e-01 2.52427191e-01 2.55663425e-01 2.58899689e-01 2.62135923e-01 2.65372157e-01 2.68608421e-01 2.71844655e-01 2.75080919e-01 2.78317153e-01 2.81553388e-01 2.84789652e-01 2.88025886e-01 2.91262150e-01 2.94498384e-01 2.97734618e-01 3.00970882e-01 3.04207116e-01 3.07443380e-01 3.10679615e-01 3.13915849e-01 3.17152113e-01 3.20388347e-01 3.23624581e-01 3.26860845e-01 3.30097079e-01 3.33333343e-01 3.36569577e-01 3.39805812e-01 3.43042076e-01 3.46278310e-01 3.49514574e-01 3.52750808e-01 3.55987042e-01 3.59223306e-01 3.62459540e-01 3.65695804e-01 3.68932039e-01 3.72168273e-01 3.75404537e-01 3.78640771e-01 3.81877035e-01 3.85113269e-01 3.88349503e-01 3.91585767e-01 3.94822001e-01 3.98058265e-01 4.01294500e-01 4.04530734e-01 4.07766998e-01 4.11003232e-01 4.14239496e-01 4.17475730e-01 4.20711964e-01 4.23948228e-01 4.27184463e-01 4.30420727e-01 4.33656961e-01 4.36893195e-01 4.40129459e-01 4.43365693e-01 4.46601927e-01 4.49838191e-01 4.53074425e-01 4.56310689e-01 4.59546924e-01 4.62783158e-01 4.66019422e-01 4.69255656e-01 4.72491920e-01 4.75728154e-01 4.78964388e-01 4.82200652e-01 4.85436887e-01 4.88673151e-01 4.91909385e-01 4.95145619e-01 4.98381883e-01 5.01618147e-01 5.04854381e-01 5.08090615e-01 5.11326849e-01 5.14563084e-01 5.17799377e-01 5.21035612e-01 5.24271846e-01 5.27508080e-01 5.30744314e-01 5.33980608e-01 5.37216842e-01 5.40453076e-01 5.43689311e-01 5.46925545e-01 5.50161839e-01 5.53398073e-01 5.56634307e-01 5.59870541e-01 5.63106775e-01 5.66343069e-01 5.69579303e-01 5.72815537e-01 5.76051772e-01 5.79288006e-01 5.82524300e-01 5.85760534e-01 5.88996768e-01 5.92233002e-01 5.95469236e-01 5.98705530e-01 6.01941764e-01 6.05177999e-01 6.08414233e-01 6.11650467e-01 6.14886761e-01 6.18122995e-01 6.21359229e-01 6.24595463e-01 6.27831697e-01 6.31067932e-01 6.34304225e-01 6.37540460e-01 6.40776694e-01 6.44012928e-01 6.47249162e-01 6.50485456e-01 6.53721690e-01 6.56957924e-01 6.60194159e-01 6.63430393e-01 6.66666687e-01 6.69902921e-01 6.73139155e-01 6.76375389e-01 6.79611623e-01 6.82847917e-01 6.86084151e-01 6.89320385e-01 6.92556620e-01 6.95792854e-01 6.99029148e-01 7.02265382e-01 7.05501616e-01 7.08737850e-01 7.11974084e-01 7.15210378e-01 7.18446612e-01 7.21682847e-01 7.24919081e-01 7.28155315e-01 7.31391609e-01 7.34627843e-01 7.37864077e-01 7.41100311e-01 7.44336545e-01 7.47572839e-01 7.50809073e-01 7.54045308e-01 7.57281542e-01 7.60517776e-01 7.63754070e-01 7.66990304e-01 7.70226538e-01 7.73462772e-01 7.76699007e-01 7.79935300e-01 7.83171535e-01 7.86407769e-01 7.89644003e-01 7.92880237e-01 7.96116531e-01 7.99352765e-01 8.02588999e-01 8.05825233e-01 8.09061468e-01 8.12297761e-01 8.15533996e-01 8.18770230e-01 8.22006464e-01 8.25242698e-01 8.28478992e-01 8.31715226e-01 8.34951460e-01 8.38187695e-01 8.41423929e-01 8.44660223e-01 8.47896457e-01 8.51132691e-01 8.54368925e-01 8.57605159e-01 8.60841453e-01 8.64077687e-01 8.67313921e-01 8.70550156e-01 8.73786390e-01 8.77022624e-01 8.80258918e-01 8.83495152e-01 8.86731386e-01 8.89967620e-01 8.93203855e-01 8.96440148e-01 8.99676383e-01 9.02912617e-01 9.06148851e-01 9.09385085e-01 9.12621379e-01 9.15857613e-01 9.19093847e-01 9.22330081e-01 9.25566316e-01 9.28802609e-01 9.32038844e-01 9.35275078e-01 9.38511312e-01 9.41747546e-01 9.44983840e-01 9.48220074e-01 9.51456308e-01 9.54692543e-01 9.57928777e-01 9.61165071e-01 9.64401305e-01 9.67637539e-01 9.70873773e-01 9.74110007e-01 9.77346301e-01 9.80582535e-01 9.83818769e-01 9.87055004e-01 9.90291238e-01 9.93527532e-01 9.96763766e-01 1.00000000e+00 
            </Histogram>
            <HistogramBinning NBins="309">
              -9.99999975e-05 0.00000000e+00 1.09588373e-05 1.74973138e-05 2.26377288e-05 2.75395487e-05 2.95693008e-05 3.45479857e-05 3.68715228e-05 3.89667039e-05 4.20585347e-05 4.45008372e-05 4.64634904e-05 5.05686548e-05 5.27236261e-05 5.71041892e-05 5.85879716e-05 6.09813469e-05 6.32489973e-05 6.66322157e-05 7.13690461e-05 7.50346953e-05 7.73454303e-05 7.87106692e-05 8.07414326e-05 8.34808889e-05 8.55705075e-05 9.11919851e-05 9.53806302e-05 9.83134378e-05 1.01019279e-04 1.03639082e-04 1.05593957e-04 1.07362837e-04 1.09185981e-04 1.11814297e-04 1.14781469e-04 1.18871038e-04 1.20779820e-04 1.23999358e-04 1.26864121e-04 1.30995541e-04 1.35363574e-04 1.38463598e-04 1.42571793e-04 1.45536280e-04 1.49088068e-04 1.52037959e-04 1.55168964e-04 1.58741663e-04 1.61317192e-04 1.63598015e-04 1.67823251e-04 1.70502448e-04 1.73734021e-04 1.76310830e-04 1.79200506e-04 1.81518728e-04 1.85293946e-04 1.90528386e-04 1.94824475e-04 1.99486225e-04 2.03445423e-04 2.05964650e-04 2.09197766e-04 2.11692794e-04 2.16910485e-04 2.21595343e-04 2.23949159e-04 2.28363424e-04 2.33448911e-04 2.38864945e-04 2.43669041e-04 2.47770862e-04 2.51045654e-04 2.54556362e-04 2.56793312e-04 2.59619788e-04 2.64013506e-04 2.67658703e-04 2.71411380e-04 2.77996412e-04 2.83236557e-04 2.88691401e-04 2.91069387e-04 2.95478530e-04 3.02697852e-04 3.05553811e-04 3.09502939e-04 3.14075267e-04 3.20346502e-04 3.26015317e-04 3.29816481e-04 3.35248944e-04 3.42676038e-04 3.47550056e-04 3.49157199e-04 3.52290866e-04 3.59887490e-04 3.63431289e-04 3.70486960e-04 3.74176976e-04 3.78713768e-04 3.82770901e-04 3.88645276e-04 3.93097347e-04 3.97162628e-04 4.00431774e-04 4.06054955e-04 4.10857203e-04 4.18003066e-04 4.27888415e-04 4.31471330e-04 4.36041417e-04 4.41353419e-04 4.45117010e-04 4.53728484e-04 4.58911411e-04 4.63190256e-04 4.72119922e-04 4.78445087e-04 4.89124446e-04 4.96187713e-04 5.02848183e-04 5.14597050e-04 5.20012865e-04 5.27340511e-04 5.37794782e-04 5.43234404e-04 5.50819968e-04 5.54840080e-04 5.62626636e-04 5.73241618e-04 5.80756459e-04 5.83706307e-04 5.94848068e-04 6.03218272e-04 6.13506418e-04 6.21667190e-04 6.28542388e-04 6.33389514e-04 6.43895473e-04 6.60391466e-04 6.71657908e-04 6.87021471e-04 6.95384282e-04 7.08963547e-04 7.30279018e-04 7.43011304e-04 7.54984096e-04 7.61717907e-04 7.69364939e-04 7.76822038e-04 7.96156470e-04 8.06476921e-04 8.14110623e-04 8.26698320e-04 8.42039764e-04 8.52690253e-04 8.61378736e-04 8.81191110e-04 9.02221014e-04 9.14886128e-04 9.29939095e-04 9.46949935e-04 9.62200458e-04 9.73961898e-04 9.83395614e-04 9.99162905e-04 1.01250852e-03 1.03784609e-03 1.05591561e-03 1.07023155e-03 1.08765345e-03 1.10575766e-03 1.12103671e-03 1.13804999e-03 1.15648657e-03 1.17273501e-03 1.18727528e-03 1.20295072e-03 1.21203775e-03 1.22537115e-03 1.24835642e-03 1.26847578e-03 1.28964067e-03 1.33588095e-03 1.35761395e-03 1.37144793e-03 1.39495917e-03 1.42322923e-03 1.43766101e-03 1.44733139e-03 1.47067895e-03 1.49238086e-03 1.51348021e-03 1.52870105e-03 1.56725501e-03 1.59948808e-03 1.63298112e-03 1.64751499e-03 1.66576111e-03 1.69045723e-03 1.72183465e-03 1.74506055e-03 1.78514922e-03 1.83489663e-03 1.88158976e-03 1.92342920e-03 1.94577244e-03 1.97422039e-03 2.00626347e-03 2.04923167e-03 2.07475992e-03 2.11262726e-03 2.17030849e-03 2.20703194e-03 2.27538589e-03 2.33127223e-03 2.37564137e-03 2.43156985e-03 2.49065482e-03 2.53712386e-03 2.58651795e-03 2.66379560e-03 2.68611335e-03 2.74399272e-03 2.79712351e-03 2.87705194e-03 2.93266424e-03 2.99362373e-03 3.05291079e-03 3.13201477e-03 3.16073326e-03 3.22166085e-03 3.27205332e-03 3.34804156e-03 3.43131507e-03 3.51074524e-03 3.58161004e-03 3.70928389e-03 3.84939555e-03 3.94577067e-03 4.01870580e-03 4.09161998e-03 4.15343791e-03 4.24661394e-03 4.36134962e-03 4.46483400e-03 4.60374402e-03 4.71370807e-03 4.85384651e-03 4.95281443e-03 5.04337810e-03 5.16978838e-03 5.31356269e-03 5.40241878e-03 5.61160874e-03 5.79831889e-03 5.99704031e-03 6.27412926e-03 6.47138199e-03 6.70604734e-03 6.88501913e-03 7.12495530e-03 7.35659711e-03 7.58919865e-03 7.82470498e-03 7.89889228e-03 8.26632977e-03 8.59994628e-03 8.98849964e-03 9.44657717e-03 9.95076820e-03 1.06703825e-02 1.12524750e-02 1.17872776e-02 1.23220291e-02 1.28895137e-02 1.34732295e-02 1.43131763e-02 1.52067728e-02 1.56076439e-02 1.65721811e-02 1.72557458e-02 1.85408592e-02 1.88818052e-02 1.96177177e-02 2.10802406e-02 2.31684577e-02 2.41245851e-02 2.55711582e-02 2.67085172e-02 2.95603238e-02 3.16987410e-02 3.47710401e-02 3.69959921e-02 4.09902260e-02 4.76907417e-02 5.07001281e-02 5.29248714e-02 5.93117215e-02 6.36495128e-02 6.96909577e-02 7.89978802e-02 8.45821202e-02 9.26897675e-02 1.05854273e-01 1.23835132e-01 1.47913903e-01 
            </HistogramBinning>
          </PDF>
        </CumulativePDF_cls0>
      </Variable>
      <Variable VarIndex="9">
        <CumulativePDF_cls0>
          <PDF Name="GaussTransform var9 cls0" MinNSmooth="0" MaxNSmooth="0" InterpolMethod="1" KDE_type="0" KDE_iter="1" KDE_border="1" KDE_finefactor="0.0000000000000000e+00">
            <Histogram Name="Cumulative_Var9_cls0_original" NBins="311" XMin="-9.9999997473787516e-05" XMax="2.3810642957687378e-01" HasEquidistantBins="0">
