<?xml version="1.0"?>
<MethodSetup Method="DNN::DNN_CPU">
  <GeneralInfo>
    <Info name="TMVA Release" value="4.2.1 [262657]"/>
    <Info name="ROOT Release" value="6.14/04 [396804]"/>
    <Info name="Creator" value="chrispap"/>
    <Info name="Date" value="Mon Jun 10 11:05:11 2019"/>
    <Info name="Host" value="Darwin Chriss-MacBook-Pro.local 18.5.0 Darwin Kernel Version 18.5.0: Mon Mar 11 20:40:32 PDT 2019; root:xnu-4903.251.3~3/RELEASE_X86_64 x86_64"/>
    <Info name="Dir" value="/Users/chrispap/Documents/deadCellRegression"/>
    <Info name="Training events" value="340000"/>
    <Info name="TrainingTime" value="1.53981685e+03"/>
    <Info name="AnalysisType" value="Regression"/>
  </GeneralInfo>
  <Options>
    <Option name="V" modified="Yes">True</Option>
    <Option name="VerbosityLevel" modified="No">Verbose</Option>
    <Option name="VarTransform" modified="Yes">G</Option>
    <Option name="H" modified="Yes">False</Option>
    <Option name="CreateMVAPdfs" modified="No">False</Option>
    <Option name="IgnoreNegWeightsInTraining" modified="No">False</Option>
    <Option name="Layout" modified="Yes">SYMMRELU|15,Layout=SYMMRELU|50,Layout=SYMMRELU|50,Layout=SYMMRELU|40,Layout=SYMMRELU|40,Layout=SYMMRELU|40,LINEAR</Option>
    <Option name="ValidationSize" modified="No">20%</Option>
    <Option name="ErrorStrategy" modified="Yes">SUMOFSQUARES</Option>
    <Option name="WeightInitialization" modified="Yes">XAVIERUNIFORM</Option>
    <Option name="Architecture" modified="Yes">CPU</Option>
    <Option name="TrainingStrategy" modified="Yes">LearningRate=1e-2,Momentum=0.5,Repetitions=1,ConvergenceSteps=20,BatchSize=50,TestRepetitions=10,WeightDecay=0.01,Regularization=NONE,DropConfig=0.2+0.2+0.2+0.,DropRepetitions=2|LearningRate=1e-3,Momentum=0.7,Repetitions=1,ConvergenceSteps=20,BatchSize=50,TestRepetitions=5,WeightDecay=0.01,Regularization=L2,DropConfig=0.1+0.1+0.1,DropRepetitions=1|LearningRate=1e-4,Momentum=0.3,Repetitions=1,ConvergenceSteps=20,BatchSize=50,TestRepetitions=5,WeightDecay=0.01,Regularization=NONE|LearningRate=1e-4,Momentum=0.2,Repetitions=1,ConvergenceSteps=20,BatchSize=50,TestRepetitions=5,WeightDecay=0.01,Regularization=NONE</Option>
  </Options>
  <Variables NVar="31">
    <Variable VarIndex="0" Expression="layer" Label="layer" Title="layer" Unit="units" Internal="layer" Type="F" Min="0.00000000e+00" Max="2.70000000e+01"/>
    <Variable VarIndex="1" Expression="previousLayer" Label="previousLayer" Title="previousLayer" Unit="units" Internal="previousLayer" Type="F" Min="0.00000000e+00" Max="7.62468872e+01"/>
    <Variable VarIndex="2" Expression="nextLayer" Label="nextLayer" Title="nextLayer" Unit="units" Internal="nextLayer" Type="F" Min="0.00000000e+00" Max="8.46103516e+01"/>
    <Variable VarIndex="3" Expression="sameLayer" Label="sameLayer" Title="sameLayer" Unit="units" Internal="sameLayer" Type="F" Min="0.00000000e+00" Max="4.98487892e+01"/>
    <Variable VarIndex="4" Expression="pnCells" Label="pnCells" Title="pnCells" Unit="units" Internal="pnCells" Type="F" Min="0.00000000e+00" Max="5.78554916e+01"/>
    <Variable VarIndex="5" Expression="sum1" Label="sum1" Title="sum1" Unit="units" Internal="sum1" Type="F" Min="0.00000000e+00" Max="9.82863464e+01"/>
    <Variable VarIndex="6" Expression="sum2" Label="sum2" Title="sum2" Unit="units" Internal="sum2" Type="F" Min="0.00000000e+00" Max="1.05349121e+02"/>
    <Variable VarIndex="7" Expression="sum3" Label="sum3" Title="sum3" Unit="units" Internal="sum3" Type="F" Min="0.00000000e+00" Max="9.06638031e+01"/>
    <Variable VarIndex="8" Expression="sum4" Label="sum4" Title="sum4" Unit="units" Internal="sum4" Type="F" Min="0.00000000e+00" Max="9.31199493e+01"/>
    <Variable VarIndex="9" Expression="sum5" Label="sum5" Title="sum5" Unit="units" Internal="sum5" Type="F" Min="0.00000000e+00" Max="8.58919220e+01"/>
    <Variable VarIndex="10" Expression="sum6" Label="sum6" Title="sum6" Unit="units" Internal="sum6" Type="F" Min="0.00000000e+00" Max="9.08678970e+01"/>
    <Variable VarIndex="11" Expression="n1" Label="n1" Title="neighbor 1" Unit="units" Internal="n1" Type="F" Min="0.00000000e+00" Max="3.96745682e+01"/>
    <Variable VarIndex="12" Expression="n2" Label="n2" Title="neighbor 2" Unit="units" Internal="n2" Type="F" Min="0.00000000e+00" Max="4.11825790e+01"/>
    <Variable VarIndex="13" Expression="n3" Label="n3" Title="neighbor 3" Unit="units" Internal="n3" Type="F" Min="0.00000000e+00" Max="3.82966118e+01"/>
    <Variable VarIndex="14" Expression="n4" Label="n4" Title="neighbor 4" Unit="units" Internal="n4" Type="F" Min="0.00000000e+00" Max="4.21379547e+01"/>
    <Variable VarIndex="15" Expression="n5" Label="n5" Title="neighbor 5" Unit="units" Internal="n5" Type="F" Min="0.00000000e+00" Max="3.90856895e+01"/>
    <Variable VarIndex="16" Expression="n6" Label="n6" Title="neighbor 6" Unit="units" Internal="n6" Type="F" Min="0.00000000e+00" Max="4.21379547e+01"/>
    <Variable VarIndex="17" Expression="nup" Label="nup" Title="neighbor up" Unit="units" Internal="nup" Type="F" Min="0.00000000e+00" Max="3.88826370e+01"/>
    <Variable VarIndex="18" Expression="ndown" Label="ndown" Title="neighbor down" Unit="units" Internal="ndown" Type="F" Min="0.00000000e+00" Max="3.93664093e+01"/>
    <Variable VarIndex="19" Expression="un1" Label="un1" Title="up 1" Unit="units" Internal="un1" Type="F" Min="0.00000000e+00" Max="3.84026794e+01"/>
    <Variable VarIndex="20" Expression="un2" Label="un2" Title="up 2" Unit="units" Internal="un2" Type="F" Min="0.00000000e+00" Max="4.21379547e+01"/>
    <Variable VarIndex="21" Expression="un3" Label="un3" Title="up 3" Unit="units" Internal="un3" Type="F" Min="0.00000000e+00" Max="3.95018005e+01"/>
    <Variable VarIndex="22" Expression="un4" Label="un4" Title="up 4" Unit="units" Internal="un4" Type="F" Min="0.00000000e+00" Max="3.78733978e+01"/>
    <Variable VarIndex="23" Expression="un5" Label="un5" Title="up 5" Unit="units" Internal="un5" Type="F" Min="0.00000000e+00" Max="3.85553780e+01"/>
    <Variable VarIndex="24" Expression="un6" Label="un6" Title="up 6" Unit="units" Internal="un6" Type="F" Min="0.00000000e+00" Max="3.91514397e+01"/>
    <Variable VarIndex="25" Expression="dn1" Label="dn1" Title="down 1" Unit="units" Internal="dn1" Type="F" Min="0.00000000e+00" Max="3.90856895e+01"/>
    <Variable VarIndex="26" Expression="dn2" Label="dn2" Title="down 2" Unit="units" Internal="dn2" Type="F" Min="0.00000000e+00" Max="4.11825790e+01"/>
    <Variable VarIndex="27" Expression="dn3" Label="dn3" Title="down 3" Unit="units" Internal="dn3" Type="F" Min="0.00000000e+00" Max="3.90856895e+01"/>
    <Variable VarIndex="28" Expression="dn4" Label="dn4" Title="down 4" Unit="units" Internal="dn4" Type="F" Min="0.00000000e+00" Max="3.79081841e+01"/>
    <Variable VarIndex="29" Expression="dn5" Label="dn5" Title="down 5" Unit="units" Internal="dn5" Type="F" Min="0.00000000e+00" Max="3.92146568e+01"/>
    <Variable VarIndex="30" Expression="dn6" Label="dn6" Title="down 6" Unit="units" Internal="dn6" Type="F" Min="0.00000000e+00" Max="3.95015526e+01"/>
  </Variables>
  <Spectators NSpec="0"/>
  <Classes NClass="1">
    <Class Name="Regression" Index="0"/>
  </Classes>
  <Targets NTrgt="1">
    <Target TargetIndex="0" Expression="dead" Label="dead" Title="dead" Unit="" Internal="dead" Type="F" Min="5.21323644e-03" Max="3.96249657e+01"/>
  </Targets>
  <Transformations NTransformations="1">
    <Transform Name="Gauss" FlatOrGauss="Gauss">
      <Selection>
        <Input NInputs="31">
          <Input Type="Variable" Label="layer" Expression="layer"/>
          <Input Type="Variable" Label="previousLayer" Expression="previousLayer"/>
          <Input Type="Variable" Label="nextLayer" Expression="nextLayer"/>
          <Input Type="Variable" Label="sameLayer" Expression="sameLayer"/>
          <Input Type="Variable" Label="pnCells" Expression="pnCells"/>
          <Input Type="Variable" Label="sum1" Expression="sum1"/>
          <Input Type="Variable" Label="sum2" Expression="sum2"/>
          <Input Type="Variable" Label="sum3" Expression="sum3"/>
          <Input Type="Variable" Label="sum4" Expression="sum4"/>
          <Input Type="Variable" Label="sum5" Expression="sum5"/>
          <Input Type="Variable" Label="sum6" Expression="sum6"/>
          <Input Type="Variable" Label="n1" Expression="n1"/>
          <Input Type="Variable" Label="n2" Expression="n2"/>
          <Input Type="Variable" Label="n3" Expression="n3"/>
          <Input Type="Variable" Label="n4" Expression="n4"/>
          <Input Type="Variable" Label="n5" Expression="n5"/>
          <Input Type="Variable" Label="n6" Expression="n6"/>
          <Input Type="Variable" Label="nup" Expression="nup"/>
          <Input Type="Variable" Label="ndown" Expression="ndown"/>
          <Input Type="Variable" Label="un1" Expression="un1"/>
          <Input Type="Variable" Label="un2" Expression="un2"/>
          <Input Type="Variable" Label="un3" Expression="un3"/>
          <Input Type="Variable" Label="un4" Expression="un4"/>
          <Input Type="Variable" Label="un5" Expression="un5"/>
          <Input Type="Variable" Label="un6" Expression="un6"/>
          <Input Type="Variable" Label="dn1" Expression="dn1"/>
          <Input Type="Variable" Label="dn2" Expression="dn2"/>
          <Input Type="Variable" Label="dn3" Expression="dn3"/>
          <Input Type="Variable" Label="dn4" Expression="dn4"/>
          <Input Type="Variable" Label="dn5" Expression="dn5"/>
          <Input Type="Variable" Label="dn6" Expression="dn6"/>
        </Input>
        <Output NOutputs="31">
          <Output Type="Variable" Label="layer" Expression="layer"/>
          <Output Type="Variable" Label="previousLayer" Expression="previousLayer"/>
          <Output Type="Variable" Label="nextLayer" Expression="nextLayer"/>
          <Output Type="Variable" Label="sameLayer" Expression="sameLayer"/>
          <Output Type="Variable" Label="pnCells" Expression="pnCells"/>
          <Output Type="Variable" Label="sum1" Expression="sum1"/>
          <Output Type="Variable" Label="sum2" Expression="sum2"/>
          <Output Type="Variable" Label="sum3" Expression="sum3"/>
          <Output Type="Variable" Label="sum4" Expression="sum4"/>
          <Output Type="Variable" Label="sum5" Expression="sum5"/>
          <Output Type="Variable" Label="sum6" Expression="sum6"/>
          <Output Type="Variable" Label="n1" Expression="n1"/>
          <Output Type="Variable" Label="n2" Expression="n2"/>
          <Output Type="Variable" Label="n3" Expression="n3"/>
          <Output Type="Variable" Label="n4" Expression="n4"/>
          <Output Type="Variable" Label="n5" Expression="n5"/>
          <Output Type="Variable" Label="n6" Expression="n6"/>
          <Output Type="Variable" Label="nup" Expression="nup"/>
          <Output Type="Variable" Label="ndown" Expression="ndown"/>
          <Output Type="Variable" Label="un1" Expression="un1"/>
          <Output Type="Variable" Label="un2" Expression="un2"/>
          <Output Type="Variable" Label="un3" Expression="un3"/>
          <Output Type="Variable" Label="un4" Expression="un4"/>
          <Output Type="Variable" Label="un5" Expression="un5"/>
          <Output Type="Variable" Label="un6" Expression="un6"/>
          <Output Type="Variable" Label="dn1" Expression="dn1"/>
          <Output Type="Variable" Label="dn2" Expression="dn2"/>
          <Output Type="Variable" Label="dn3" Expression="dn3"/>
          <Output Type="Variable" Label="dn4" Expression="dn4"/>
          <Output Type="Variable" Label="dn5" Expression="dn5"/>
          <Output Type="Variable" Label="dn6" Expression="dn6"/>
        </Output>
      </Selection>
      <Variable VarIndex="0">
        <CumulativePDF_cls0>
          <PDF Name="GaussTransform var0 cls0" MinNSmooth="0" MaxNSmooth="0" InterpolMethod="1" KDE_type="0" KDE_iter="1" KDE_border="1" KDE_finefactor="0.0000000000000000e+00">
            <Histogram Name="Cumulative_Var0_cls0_original" NBins="29" XMin="-9.9999997473787516e-05" XMax="2.7000000000000000e+01" HasEquidistantBins="0">
              0.00000000e+00 1.97985047e-03 7.21349288e-03 1.61384251e-02 2.79975161e-02 4.61960211e-02 7.52269775e-02 1.13596126e-01 1.58984348e-01 2.10582361e-01 2.66055614e-01 3.23793858e-01 3.82809520e-01 4.42069918e-01 5.01330316e-01 5.59747636e-01 6.16461992e-01 6.71289742e-01 7.23861516e-01 7.72713780e-01 8.16673636e-01 8.55686069e-01 8.89610469e-01 9.18898106e-01 9.43426669e-01 9.63384509e-01 9.79614019e-01 9.92187798e-01 1.00000000e+00 
            </Histogram>
            <HistogramBinning NBins="29">
              -9.99999975e-05 0.00000000e+00 1.00000000e+00 2.00000000e+00 3.00000000e+00 4.00000000e+00 5.00000000e+00 6.00000000e+00 7.00000000e+00 8.00000000e+00 9.00000000e+00 1.00000000e+01 1.10000000e+01 1.20000000e+01 1.30000000e+01 1.40000000e+01 1.50000000e+01 1.60000000e+01 1.70000000e+01 1.80000000e+01 1.90000000e+01 2.00000000e+01 2.10000000e+01 2.20000000e+01 2.30000000e+01 2.40000000e+01 2.50000000e+01 2.60000000e+01 2.70000000e+01 2.70000000e+01 
            </HistogramBinning>
          </PDF>
        </CumulativePDF_cls0>
      </Variable>
      <Variable VarIndex="1">
        <CumulativePDF_cls0>
          <PDF Name="GaussTransform var1 cls0" MinNSmooth="0" MaxNSmooth="0" InterpolMethod="1" KDE_type="0" KDE_iter="1" KDE_border="1" KDE_finefactor="0.0000000000000000e+00">
            <Histogram Name="Cumulative_Var1_cls0_original" NBins="1849" XMin="-9.9999997473787516e-05" XMax="7.6246887207031250e+01" HasEquidistantBins="0">
              5.40832873e-04 1.08166575e-03 1.62249862e-03 2.16333149e-03 2.70416448e-03 3.24499724e-03 3.78583022e-03 4.32666298e-03 4.86749597e-03 5.40832896e-03 5.94916148e-03 6.48999447e-03 7.03082746e-03 7.57166045e-03 8.11249297e-03 8.65332596e-03 9.19415895e-03 9.73499194e-03 1.02758249e-02 1.08166579e-02 1.13574909e-02 1.18983230e-02 1.24391560e-02 1.29799889e-02 1.35208219e-02 1.40616549e-02 1.46024879e-02 1.51433209e-02 1.56841539e-02 1.62249859e-02 1.67658199e-02 1.73066519e-02 1.78474858e-02 1.83883179e-02 1.89291518e-02 1.94699839e-02 2.00108159e-02 2.05516499e-02 2.10924819e-02 2.16333158e-02 2.21741479e-02 2.27149818e-02 2.32558139e-02 2.37966459e-02 2.43374798e-02 2.48783119e-02 2.54191458e-02 2.59599779e-02 2.65008118e-02 2.70416439e-02 2.75824778e-02 2.81233098e-02 2.86641419e-02 2.92049758e-02 2.97458079e-02 3.02866418e-02 3.08274738e-02 3.13683078e-02 3.19091417e-02 3.24499719e-02 3.29908058e-02 3.35316397e-02 3.40724699e-02 3.46133038e-02 3.51541378e-02 3.56949717e-02 3.62358019e-02 3.67766358e-02 3.73174697e-02 3.78583036e-02 3.83991338e-02 3.89399678e-02 3.94808017e-02 4.00216319e-02 4.05624658e-02 4.11032997e-02 4.16441336e-02 4.21849638e-02 4.27257977e-02 4.32666317e-02 4.38074619e-02 4.43482958e-02 4.48891297e-02 4.54299636e-02 4.59707938e-02 4.65116277e-02 4.70524617e-02 4.75932918e-02 4.81341258e-02 4.86749597e-02 4.92157936e-02 4.97566238e-02 5.02974577e-02 5.08382916e-02 5.13791256e-02 5.19199558e-02 5.24607897e-02 5.30016236e-02 5.35424538e-02 5.40832877e-02 5.46241216e-02 5.51649556e-02 5.57057858e-02 5.62466197e-02 5.67874536e-02 5.73282838e-02 5.78691177e-02 5.84099516e-02 5.89507855e-02 5.94916157e-02 6.00324497e-02 6.05732836e-02 6.11141175e-02 6.16549477e-02 6.21957816e-02 6.27366155e-02 6.32774457e-02 6.38182834e-02 6.43591136e-02 6.48999438e-02 6.54407814e-02 6.59816116e-02 6.65224418e-02 6.70632794e-02 6.76041096e-02 6.81449398e-02 6.86857775e-02 6.92266077e-02 6.97674453e-02 7.03082755e-02 7.08491057e-02 7.13899434e-02 7.19307736e-02 7.24716038e-02 7.30124414e-02 7.35532716e-02 7.40941018e-02 7.46349394e-02 7.51757696e-02 7.57166073e-02 7.62574375e-02 7.67982677e-02 7.73391053e-02 7.78799355e-02 7.84207657e-02 7.89616033e-02 7.95024335e-02 8.00432637e-02 8.05841014e-02 8.11249316e-02 8.16657618e-02 8.22065994e-02 8.27474296e-02 8.32882673e-02 8.38290974e-02 8.43699276e-02 8.49107653e-02 8.54515955e-02 8.59924257e-02 8.65332633e-02 8.70740935e-02 8.76149237e-02 8.81557614e-02 8.86965916e-02 8.92374292e-02 8.97782594e-02 9.03190896e-02 9.08599272e-02 9.14007574e-02 9.19415876e-02 9.24824253e-02 9.30232555e-02 9.35640857e-02 9.41049233e-02 9.46457535e-02 9.51865837e-02 9.57274213e-02 9.62682515e-02 9.68090892e-02 9.73499194e-02 9.78907496e-02 9.84315872e-02 9.89724174e-02 9.95132476e-02 1.00054085e-01 1.00594915e-01 1.01135746e-01 1.01676583e-01 1.02217413e-01 1.02758251e-01 1.03299081e-01 1.03839912e-01 1.04380749e-01 1.04921579e-01 1.05462410e-01 1.06003247e-01 1.06544077e-01 1.07084908e-01 1.07625745e-01 1.08166575e-01 1.08707413e-01 1.09248243e-01 1.09789073e-01 1.10329911e-01 1.10870741e-01 1.11411572e-01 1.11952409e-01 1.12493239e-01 1.13034070e-01 1.13574907e-01 1.14115737e-01 1.14656568e-01 1.15197405e-01 1.15738235e-01 1.16279073e-01 1.16819903e-01 1.17360733e-01 1.17901571e-01 1.18442401e-01 1.18983231e-01 1.19524069e-01 1.20064899e-01 1.20605730e-01 1.21146567e-01 1.21687397e-01 1.22228235e-01 1.22769065e-01 1.23309895e-01 1.23850733e-01 1.24391563e-01 1.24932393e-01 1.25473231e-01 1.26014069e-01 1.26554891e-01 1.27095729e-01 1.27636567e-01 1.28177390e-01 1.28718227e-01 1.29259065e-01 1.29799888e-01 1.30340725e-01 1.30881563e-01 1.31422386e-01 1.31963223e-01 1.32504061e-01 1.33044884e-01 1.33585721e-01 1.34126559e-01 1.34667382e-01 1.35208219e-01 1.35749057e-01 1.36289880e-01 1.36830717e-01 1.37371555e-01 1.37912378e-01 1.38453215e-01 1.38994053e-01 1.39534891e-01 1.40075713e-01 1.40616551e-01 1.41157389e-01 1.41698211e-01 1.42239049e-01 1.42779887e-01 1.43320709e-01 1.43861547e-01 1.44402385e-01 1.44943208e-01 1.45484045e-01 1.46024883e-01 1.46565706e-01 1.47106543e-01 1.47647381e-01 1.48188204e-01 1.48729041e-01 1.49269879e-01 1.49810702e-01 1.50351539e-01 1.50892377e-01 1.51433215e-01 1.51974037e-01 1.52514875e-01 1.53055713e-01 1.53596535e-01 1.54137373e-01 1.54678211e-01 1.55219033e-01 1.55759871e-01 1.56300709e-01 1.56841531e-01 1.57382369e-01 1.57923207e-01 1.58464029e-01 1.59004867e-01 1.59545705e-01 1.60086527e-01 1.60627365e-01 1.61168203e-01 1.61709026e-01 1.62249863e-01 1.62790701e-01 1.63331524e-01 1.63872361e-01 1.64413199e-01 1.64954036e-01 1.65494859e-01 1.66035697e-01 1.66576535e-01 1.67117357e-01 1.67658195e-01 1.68199033e-01 1.68739855e-01 1.69280693e-01 1.69821531e-01 1.70362353e-01 1.70903191e-01 1.71444029e-01 1.71984851e-01 1.72525689e-01 1.73066527e-01 1.73607349e-01 1.74148187e-01 1.74689025e-01 1.75229847e-01 1.75770685e-01 1.76311523e-01 1.76852345e-01 1.77393183e-01 1.77934021e-01 1.78474858e-01 1.79015681e-01 1.79556519e-01 1.80097356e-01 1.80638179e-01 1.81179017e-01 1.81719854e-01 1.82260677e-01 1.82801515e-01 1.83342353e-01 1.83883175e-01 1.84424013e-01 1.84964851e-01 1.85505673e-01 1.86046511e-01 1.86587349e-01 1.87128171e-01 1.87669009e-01 1.88209847e-01 1.88750669e-01 1.89291507e-01 1.89832345e-01 1.90373167e-01 1.90914005e-01 1.91454843e-01 1.91995680e-01 1.92536503e-01 1.93077341e-01 1.93618178e-01 1.94159001e-01 1.94699839e-01 1.95240676e-01 1.95781499e-01 1.96322337e-01 1.96863174e-01 1.97403997e-01 1.97944835e-01 1.98485672e-01 1.99026495e-01 1.99567333e-01 2.00108171e-01 2.00648993e-01 2.01189831e-01 2.01730669e-01 2.02271491e-01 2.02812329e-01 2.03353167e-01 2.03893989e-01 2.04434827e-01 2.04975665e-01 2.05516502e-01 2.06057325e-01 2.06598163e-01 2.07139000e-01 2.07679823e-01 2.08220661e-01 2.08761498e-01 2.09302321e-01 2.09843159e-01 2.10383996e-01 2.10924819e-01 2.11465657e-01 2.12006494e-01 2.12547317e-01 2.13088155e-01 2.13628992e-01 2.14169815e-01 2.14710653e-01 2.15251490e-01 2.15792313e-01 2.16333151e-01 2.16873989e-01 2.17414826e-01 2.17955649e-01 2.18496487e-01 2.19037324e-01 2.19578147e-01 2.20118985e-01 2.20659822e-01 2.21200645e-01 2.21741483e-01 2.22282320e-01 2.22823143e-01 2.23363981e-01 2.23904818e-01 2.24445641e-01 2.24986479e-01 2.25527316e-01 2.26068139e-01 2.26608977e-01 2.27149814e-01 2.27690637e-01 2.28231475e-01 2.28772312e-01 2.29313135e-01 2.29853973e-01 2.30394810e-01 2.30935648e-01 2.31476471e-01 2.32017308e-01 2.32558146e-01 2.33098969e-01 2.33639807e-01 2.34180644e-01 2.34721467e-01 2.35262305e-01 2.35803142e-01 2.36343965e-01 2.36884803e-01 2.37425640e-01 2.37966463e-01 2.38507301e-01 2.39048138e-01 2.39588961e-01 2.40129799e-01 2.40670636e-01 2.41211459e-01 2.41752297e-01 2.42293134e-01 2.42833957e-01 2.43374795e-01 2.43915632e-01 2.44456470e-01 2.44997293e-01 2.45538130e-01 2.46078968e-01 2.46619791e-01 2.47160628e-01 2.47701466e-01 2.48242289e-01 2.48783126e-01 2.49323964e-01 2.49864787e-01 2.50405639e-01 2.50946462e-01 2.51487285e-01 2.52028137e-01 2.52568960e-01 2.53109783e-01 2.53650635e-01 2.54191458e-01 2.54732281e-01 2.55273134e-01 2.55813956e-01 2.56354779e-01 2.56895632e-01 2.57436454e-01 2.57977277e-01 2.58518130e-01 2.59058952e-01 2.59599775e-01 2.60140628e-01 2.60681450e-01 2.61222273e-01 2.61763126e-01 2.62303948e-01 2.62844771e-01 2.63385624e-01 2.63926446e-01 2.64467269e-01 2.65008122e-01 2.65548944e-01 2.66089767e-01 2.66630620e-01 2.67171443e-01 2.67712265e-01 2.68253118e-01 2.68793941e-01 2.69334763e-01 2.69875616e-01 2.70416439e-01 2.70957261e-01 2.71498114e-01 2.72038937e-01 2.72579759e-01 2.73120612e-01 2.73661435e-01 2.74202257e-01 2.74743110e-01 2.75283933e-01 2.75824755e-01 2.76365608e-01 2.76906431e-01 2.77447283e-01 2.77988106e-01 2.78528929e-01 2.79069781e-01 2.79610604e-01 2.80151427e-01 2.80692279e-01 2.81233102e-01 2.81773925e-01 2.82314777e-01 2.82855600e-01 2.83396423e-01 2.83937275e-01 2.84478098e-01 2.85018921e-01 2.85559773e-01 2.86100596e-01 2.86641419e-01 2.87182271e-01 2.87723094e-01 2.88263917e-01 2.88804770e-01 2.89345592e-01 2.89886415e-01 2.90427268e-01 2.90968090e-01 2.91508913e-01 2.92049766e-01 2.92590588e-01 2.93131411e-01 2.93672264e-01 2.94213086e-01 2.94753909e-01 2.95294762e-01 2.95835584e-01 2.96376407e-01 2.96917260e-01 2.97458082e-01 2.97998905e-01 2.98539758e-01 2.99080580e-01 2.99621403e-01 3.00162256e-01 3.00703079e-01 3.01243901e-01 3.01784754e-01 3.02325577e-01 3.02866429e-01 3.03407252e-01 3.03948075e-01 3.04488927e-01 3.05029750e-01 3.05570573e-01 3.06111425e-01 3.06652248e-01 3.07193071e-01 3.07733923e-01 3.08274746e-01 3.08815569e-01 3.09356421e-01 3.09897244e-01 3.10438067e-01 3.10978919e-01 3.11519742e-01 3.12060565e-01 3.12601417e-01 3.13142240e-01 3.13683063e-01 3.14223915e-01 3.14764738e-01 3.15305561e-01 3.15846413e-01 3.16387236e-01 3.16928059e-01 3.17468911e-01 3.18009734e-01 3.18550557e-01 3.19091409e-01 3.19632232e-01 3.20173055e-01 3.20713907e-01 3.21254730e-01 3.21795553e-01 3.22336406e-01 3.22877228e-01 3.23418051e-01 3.23958904e-01 3.24499726e-01 3.25040549e-01 3.25581402e-01 3.26122224e-01 3.26663047e-01 3.27203900e-01 3.27744722e-01 3.28285545e-01 3.28826398e-01 3.29367220e-01 3.29908073e-01 3.30448896e-01 3.30989718e-01 3.31530571e-01 3.32071394e-01 3.32612216e-01 3.33153069e-01 3.33693892e-01 3.34234715e-01 3.34775567e-01 3.35316390e-01 3.35857213e-01 3.36398065e-01 3.36938888e-01 3.37479711e-01 3.38020563e-01 3.38561386e-01 3.39102209e-01 3.39643061e-01 3.40183884e-01 3.40724707e-01 3.41265559e-01 3.41806382e-01 3.42347205e-01 3.42888057e-01 3.43428880e-01 3.43969703e-01 3.44510555e-01 3.45051378e-01 3.45592201e-01 3.46133053e-01 3.46673876e-01 3.47214699e-01 3.47755551e-01 3.48296374e-01 3.48837197e-01 3.49378049e-01 3.49918872e-01 3.50459695e-01 3.51000547e-01 3.51541370e-01 3.52082193e-01 3.52623045e-01 3.53163868e-01 3.53704691e-01 3.54245543e-01 3.54786366e-01 3.55327219e-01 3.55868042e-01 3.56408864e-01 3.56949717e-01 3.57490540e-01 3.58031362e-01 3.58572215e-01 3.59113038e-01 3.59653860e-01 3.60194713e-01 3.60735536e-01 3.61276358e-01 3.61817211e-01 3.62358034e-01 3.62898856e-01 3.63439709e-01 3.63980532e-01 3.64521354e-01 3.65062207e-01 3.65603030e-01 3.66143852e-01 3.66684705e-01 3.67225528e-01 3.67766351e-01 3.68307203e-01 3.68848026e-01 3.69388849e-01 3.69929701e-01 3.70470524e-01 3.71011347e-01 3.71552199e-01 3.72093022e-01 3.72633845e-01 3.73174697e-01 3.73715520e-01 3.74256343e-01 3.74797195e-01 3.75338018e-01 3.75878841e-01 3.76419693e-01 3.76960516e-01 3.77501339e-01 3.78042191e-01 3.78583014e-01 3.79123837e-01 3.79664689e-01 3.80205512e-01 3.80746335e-01 3.81287187e-01 3.81828010e-01 3.82368863e-01 3.82909685e-01 3.83450508e-01 3.83991361e-01 3.84532183e-01 3.85073006e-01 3.85613859e-01 3.86154681e-01 3.86695504e-01 3.87236357e-01 3.87777179e-01 3.88318002e-01 3.88858855e-01 3.89399678e-01 3.89940500e-01 3.90481353e-01 3.91022176e-01 3.91562998e-01 3.92103851e-01 3.92644674e-01 3.93185496e-01 3.93726349e-01 3.94267172e-01 3.94807994e-01 3.95348847e-01 3.95889670e-01 3.96430492e-01 3.96971345e-01 3.97512168e-01 3.98052990e-01 3.98593843e-01 3.99134666e-01 3.99675488e-01 4.00216341e-01 4.00757164e-01 4.01297987e-01 4.01838839e-01 4.02379662e-01 4.02920485e-01 4.03461337e-01 4.04002160e-01 4.04542983e-01 4.05083835e-01 4.05624658e-01 4.06165481e-01 4.06706333e-01 4.07247156e-01 4.07787979e-01 4.08328831e-01 4.08869654e-01 4.09410506e-01 4.09951329e-01 4.10492152e-01 4.11033005e-01 4.11573827e-01 4.12114650e-01 4.12655503e-01 4.13196325e-01 4.13737148e-01 4.14278001e-01 4.14818823e-01 4.15359646e-01 4.15900499e-01 4.16441321e-01 4.16982144e-01 4.17522997e-01 4.18063819e-01 4.18604642e-01 4.19145495e-01 4.19686317e-01 4.20227140e-01 4.20767993e-01 4.21308815e-01 4.21849638e-01 4.22390491e-01 4.22931314e-01 4.23472136e-01 4.24012989e-01 4.24553812e-01 4.25094634e-01 4.25635487e-01 4.26176310e-01 4.26717132e-01 4.27257985e-01 4.27798808e-01 4.28339630e-01 4.28880483e-01 4.29421306e-01 4.29962128e-01 4.30502981e-01 4.31043804e-01 4.31584626e-01 4.32125479e-01 4.32666302e-01 4.33207124e-01 4.33747977e-01 4.34288800e-01 4.34829652e-01 4.35370475e-01 4.35911298e-01 4.36452150e-01 4.36992973e-01 4.37533796e-01 4.38074648e-01 4.38615471e-01 4.39156294e-01 4.39697146e-01 4.40237969e-01 4.40778792e-01 4.41319644e-01 4.41860467e-01 4.42401290e-01 4.42942142e-01 4.43482965e-01 4.44023788e-01 4.44564641e-01 4.45105463e-01 4.45646286e-01 4.46187139e-01 4.46727961e-01 4.47268784e-01 4.47809637e-01 4.48350459e-01 4.48891282e-01 4.49432135e-01 4.49972957e-01 4.50513780e-01 4.51054633e-01 4.51595455e-01 4.52136278e-01 4.52677131e-01 4.53217953e-01 4.53758776e-01 4.54299629e-01 4.54840451e-01 4.55381274e-01 4.55922127e-01 4.56462950e-01 4.57003772e-01 4.57544625e-01 4.58085448e-01 4.58626270e-01 4.59167123e-01 4.59707946e-01 4.60248768e-01 4.60789621e-01 4.61330444e-01 4.61871296e-01 4.62412119e-01 4.62952942e-01 4.63493794e-01 4.64034617e-01 4.64575440e-01 4.65116292e-01 4.65657115e-01 4.66197938e-01 4.66738790e-01 4.67279613e-01 4.67820436e-01 4.68361288e-01 4.68902111e-01 4.69442934e-01 4.69983786e-01 4.70524609e-01 4.71065432e-01 4.71606284e-01 4.72147107e-01 4.72687930e-01 4.73228782e-01 4.73769605e-01 4.74310428e-01 4.74851280e-01 4.75392103e-01 4.75932926e-01 4.76473778e-01 4.77014601e-01 4.77555424e-01 4.78096277e-01 4.78637099e-01 4.79177922e-01 4.79718775e-01 4.80259597e-01 4.80800420e-01 4.81341273e-01 4.81882095e-01 4.82422918e-01 4.82963771e-01 4.83504593e-01 4.84045416e-01 4.84586269e-01 4.85127091e-01 4.85667914e-01 4.86208767e-01 4.86749589e-01 4.87290442e-01 4.87831265e-01 4.88372087e-01 4.88912940e-01 4.89453763e-01 4.89994586e-01 4.90535438e-01 4.91076261e-01 4.91617084e-01 4.92157936e-01 4.92698759e-01 4.93239582e-01 4.93780434e-01 4.94321257e-01 4.94862080e-01 4.95402932e-01 4.95943755e-01 4.96484578e-01 4.97025430e-01 4.97566253e-01 4.98107076e-01 4.98647928e-01 4.99188751e-01 4.99729574e-01 5.00270426e-01 5.00811279e-01 5.01352072e-01 5.01892924e-01 5.02433777e-01 5.02974570e-01 5.03515422e-01 5.04056275e-01 5.04597068e-01 5.05137920e-01 5.05678773e-01 5.06219566e-01 5.06760418e-01 5.07301271e-01 5.07842064e-01 5.08382916e-01 5.08923769e-01 5.09464562e-01 5.10005414e-01 5.10546267e-01 5.11087060e-01 5.11627913e-01 5.12168765e-01 5.12709558e-01 5.13250411e-01 5.13791263e-01 5.14332056e-01 5.14872909e-01 5.15413761e-01 5.15954554e-01 5.16495407e-01 5.17036259e-01 5.17577052e-01 5.18117905e-01 5.18658757e-01 5.19199550e-01 5.19740403e-01 5.20281255e-01 5.20822048e-01 5.21362901e-01 5.21903753e-01 5.22444546e-01 5.22985399e-01 5.23526251e-01 5.24067044e-01 5.24607897e-01 5.25148749e-01 5.25689542e-01 5.26230395e-01 5.26771247e-01 5.27312040e-01 5.27852893e-01 5.28393745e-01 5.28934538e-01 5.29475391e-01 5.30016243e-01 5.30557036e-01 5.31097889e-01 5.31638741e-01 5.32179534e-01 5.32720387e-01 5.33261240e-01 5.33802032e-01 5.34342885e-01 5.34883738e-01 5.35424531e-01 5.35965383e-01 5.36506236e-01 5.37047029e-01 5.37587881e-01 5.38128734e-01 5.38669527e-01 5.39210379e-01 5.39751232e-01 5.40292025e-01 5.40832877e-01 5.41373730e-01 5.41914523e-01 5.42455375e-01 5.42996228e-01 5.43537021e-01 5.44077873e-01 5.44618726e-01 5.45159519e-01 5.45700371e-01 5.46241224e-01 5.46782017e-01 5.47322869e-01 5.47863722e-01 5.48404515e-01 5.48945367e-01 5.49486220e-01 5.50027013e-01 5.50567865e-01 5.51108718e-01 5.51649511e-01 5.52190363e-01 5.52731216e-01 5.53272069e-01 5.53812861e-01 5.54353714e-01 5.54894567e-01 5.55435359e-01 5.55976212e-01 5.56517065e-01 5.57057858e-01 5.57598710e-01 5.58139563e-01 5.58680356e-01 5.59221208e-01 5.59762061e-01 5.60302854e-01 5.60843706e-01 5.61384559e-01 5.61925352e-01 5.62466204e-01 5.63007057e-01 5.63547850e-01 5.64088702e-01 5.64629555e-01 5.65170348e-01 5.65711200e-01 5.66252053e-01 5.66792846e-01 5.67333698e-01 5.67874551e-01 5.68415344e-01 5.68956196e-01 5.69497049e-01 5.70037842e-01 5.70578694e-01 5.71119547e-01 5.71660340e-01 5.72201192e-01 5.72742045e-01 5.73282838e-01 5.73823690e-01 5.74364543e-01 5.74905336e-01 5.75446188e-01 5.75987041e-01 5.76527834e-01 5.77068686e-01 5.77609539e-01 5.78150332e-01 5.78691185e-01 5.79232037e-01 5.79772830e-01 5.80313683e-01 5.80854535e-01 5.81395328e-01 5.81936181e-01 5.82477033e-01 5.83017826e-01 5.83558679e-01 5.84099531e-01 5.84640324e-01 5.85181177e-01 5.85722029e-01 5.86262822e-01 5.86803675e-01 5.87344527e-01 5.87885320e-01 5.88426173e-01 5.88967025e-01 5.89507818e-01 5.90048671e-01 5.90589523e-01 5.91130316e-01 5.91671169e-01 5.92212021e-01 5.92752814e-01 5.93293667e-01 5.93834519e-01 5.94375312e-01 5.94916165e-01 5.95457017e-01 5.95997810e-01 5.96538663e-01 5.97079515e-01 5.97620308e-01 5.98161161e-01 5.98702013e-01 5.99242806e-01 5.99783659e-01 6.00324512e-01 6.00865304e-01 6.01406157e-01 6.01947010e-01 6.02487803e-01 6.03028655e-01 6.03569508e-01 6.04110301e-01 6.04651153e-01 6.05192006e-01 6.05732858e-01 6.06273651e-01 6.06814504e-01 6.07355356e-01 6.07896149e-01 6.08437002e-01 6.08977854e-01 6.09518647e-01 6.10059500e-01 6.10600352e-01 6.11141145e-01 6.11681998e-01 6.12222850e-01 6.12763643e-01 6.13304496e-01 6.13845348e-01 6.14386141e-01 6.14926994e-01 6.15467846e-01 6.16008639e-01 6.16549492e-01 6.17090344e-01 6.17631137e-01 6.18171990e-01 6.18712842e-01 6.19253635e-01 6.19794488e-01 6.20335340e-01 6.20876133e-01 6.21416986e-01 6.21957839e-01 6.22498631e-01 6.23039484e-01 6.23580337e-01 6.24121130e-01 6.24661982e-01 6.25202835e-01 6.25743628e-01 6.26284480e-01 6.26825333e-01 6.27366126e-01 6.27906978e-01 6.28447831e-01 6.28988624e-01 6.29529476e-01 6.30070329e-01 6.30611122e-01 6.31151974e-01 6.31692827e-01 6.32233620e-01 6.32774472e-01 6.33315325e-01 6.33856118e-01 6.34396970e-01 6.34937823e-01 6.35478616e-01 6.36019468e-01 6.36560321e-01 6.37101114e-01 6.37641966e-01 6.38182819e-01 6.38723612e-01 6.39264464e-01 6.39805317e-01 6.40346110e-01 6.40886962e-01 6.41427815e-01 6.41968608e-01 6.42509460e-01 6.43050313e-01 6.43591106e-01 6.44131958e-01 6.44672811e-01 6.45213604e-01 6.45754457e-01 6.46295309e-01 6.46836102e-01 6.47376955e-01 6.47917807e-01 6.48458600e-01 6.48999453e-01 6.49540305e-01 6.50081098e-01 6.50621951e-01 6.51162803e-01 6.51703596e-01 6.52244449e-01 6.52785301e-01 6.53326094e-01 6.53866947e-01 6.54407799e-01 6.54948592e-01 6.55489445e-01 6.56030297e-01 6.56571090e-01 6.57111943e-01 6.57652795e-01 6.58193648e-01 6.58734441e-01 6.59275293e-01 6.59816146e-01 6.60356939e-01 6.60897791e-01 6.61438644e-01 6.61979437e-01 6.62520289e-01 6.63061142e-01 6.63601935e-01 6.64142787e-01 6.64683640e-01 6.65224433e-01 6.65765285e-01 6.66306138e-01 6.66846931e-01 6.67387784e-01 6.67928636e-01 6.68469429e-01 6.69010282e-01 6.69551134e-01 6.70091927e-01 6.70632780e-01 6.71173632e-01 6.71714425e-01 6.72255278e-01 6.72796130e-01 6.73336923e-01 6.73877776e-01 6.74418628e-01 6.74959421e-01 6.75500274e-01 6.76041126e-01 6.76581919e-01 6.77122772e-01 6.77663624e-01 6.78204417e-01 6.78745270e-01 6.79286122e-01 6.79826915e-01 6.80367768e-01 6.80908620e-01 6.81449413e-01 6.81990266e-01 6.82531118e-01 6.83071911e-01 6.83612764e-01 6.84153616e-01 6.84694409e-01 6.85235262e-01 6.85776114e-01 6.86316907e-01 6.86857760e-01 6.87398612e-01 6.87939405e-01 6.88480258e-01 6.89021111e-01 6.89561903e-01 6.90102756e-01 6.90643609e-01 6.91184402e-01 6.91725254e-01 6.92266107e-01 6.92806900e-01 6.93347752e-01 6.93888605e-01 6.94429398e-01 6.94970250e-01 6.95511103e-01 6.96051896e-01 6.96592748e-01 6.97133601e-01 6.97674394e-01 6.98215246e-01 6.98756099e-01 6.99296892e-01 6.99837744e-01 7.00378597e-01 7.00919390e-01 7.01460242e-01 7.02001095e-01 7.02541888e-01 7.03082740e-01 7.03623593e-01 7.04164386e-01 7.04705238e-01 7.05246091e-01 7.05786884e-01 7.06327736e-01 7.06868589e-01 7.07409382e-01 7.07950234e-01 7.08491087e-01 7.09031880e-01 7.09572732e-01 7.10113585e-01 7.10654438e-01 7.11195230e-01 7.11736083e-01 7.12276936e-01 7.12817729e-01 7.13358581e-01 7.13899434e-01 7.14440227e-01 7.14981079e-01 7.15521932e-01 7.16062725e-01 7.16603577e-01 7.17144430e-01 7.17685223e-01 7.18226075e-01 7.18766928e-01 7.19307721e-01 7.19848573e-01 7.20389426e-01 7.20930219e-01 7.21471071e-01 7.22011924e-01 7.22552717e-01 7.23093569e-01 7.23634422e-01 7.24175215e-01 7.24716067e-01 7.25256920e-01 7.25797713e-01 7.26338565e-01 7.26879418e-01 7.27420211e-01 7.27961063e-01 7.28501916e-01 7.29042709e-01 7.29583561e-01 7.30124414e-01 7.30665207e-01 7.31206059e-01 7.31746912e-01 7.32287705e-01 7.32828557e-01 7.33369410e-01 7.33910203e-01 7.34451056e-01 7.34991908e-01 7.35532701e-01 7.36073554e-01 7.36614406e-01 7.37155199e-01 7.37696052e-01 7.38236904e-01 7.38777697e-01 7.39318550e-01 7.39859402e-01 7.40400195e-01 7.40941048e-01 7.41481900e-01 7.42022693e-01 7.42563546e-01 7.43104398e-01 7.43645191e-01 7.44186044e-01 7.44726896e-01 7.45267689e-01 7.45808542e-01 7.46349394e-01 7.46890187e-01 7.47431040e-01 7.47971892e-01 7.48512685e-01 7.49053538e-01 7.49594390e-01 7.50135183e-01 7.50676036e-01 7.51216888e-01 7.51757681e-01 7.52298534e-01 7.52839386e-01 7.53380179e-01 7.53921032e-01 7.54461884e-01 7.55002677e-01 7.55543530e-01 7.56084383e-01 7.56625175e-01 7.57166028e-01 7.57706881e-01 7.58247674e-01 7.58788526e-01 7.59329379e-01 7.59870172e-01 7.60411024e-01 7.60951877e-01 7.61492670e-01 7.62033522e-01 7.62574375e-01 7.63115168e-01 7.63656020e-01 7.64196873e-01 7.64737725e-01 7.65278518e-01 7.65819371e-01 7.66360223e-01 7.66901016e-01 7.67441869e-01 7.67982721e-01 7.68523514e-01 7.69064367e-01 7.69605219e-01 7.70146012e-01 7.70686865e-01 7.71227717e-01 7.71768510e-01 7.72309363e-01 7.72850215e-01 7.73391008e-01 7.73931861e-01 7.74472713e-01 7.75013506e-01 7.75554359e-01 7.76095212e-01 7.76636004e-01 7.77176857e-01 7.77717710e-01 7.78258502e-01 7.78799355e-01 7.79340208e-01 7.79881001e-01 7.80421853e-01 7.80962706e-01 7.81503499e-01 7.82044351e-01 7.82585204e-01 7.83125997e-01 7.83666849e-01 7.84207702e-01 7.84748495e-01 7.85289347e-01 7.85830200e-01 7.86370993e-01 7.86911845e-01 7.87452698e-01 7.87993491e-01 7.88534343e-01 7.89075196e-01 7.89615989e-01 7.90156841e-01 7.90697694e-01 7.91238487e-01 7.91779339e-01 7.92320192e-01 7.92860985e-01 7.93401837e-01 7.93942690e-01 7.94483483e-01 7.95024335e-01 7.95565188e-01 7.96105981e-01 7.96646833e-01 7.97187686e-01 7.97728479e-01 7.98269331e-01 7.98810184e-01 7.99350977e-01 7.99891829e-01 8.00432682e-01 8.00973475e-01 8.01514328e-01 8.02055180e-01 8.02595973e-01 8.03136826e-01 8.03677678e-01 8.04218471e-01 8.04759324e-01 8.05300176e-01 8.05840969e-01 8.06381822e-01 8.06922674e-01 8.07463467e-01 8.08004320e-01 8.08545172e-01 8.09085965e-01 8.09626818e-01 8.10167670e-01 8.10708463e-01 8.11249316e-01 8.11790168e-01 8.12330961e-01 8.12871814e-01 8.13412666e-01 8.13953459e-01 8.14494312e-01 8.15035164e-01 8.15575957e-01 8.16116810e-01 8.16657662e-01 8.17198515e-01 8.17739308e-01 8.18280160e-01 8.18821013e-01 8.19361806e-01 8.19902658e-01 8.20443511e-01 8.20984304e-01 8.21525156e-01 8.22066009e-01 8.22606802e-01 8.23147655e-01 8.23688507e-01 8.24229300e-01 8.24770153e-01 8.25311005e-01 8.25851798e-01 8.26392651e-01 8.26933503e-01 8.27474296e-01 8.28015149e-01 8.28556001e-01 8.29096794e-01 8.29637647e-01 8.30178499e-01 8.30719292e-01 8.31260145e-01 8.31800997e-01 8.32341790e-01 8.32882643e-01 8.33423495e-01 8.33964288e-01 8.34505141e-01 8.35045993e-01 8.35586786e-01 8.36127639e-01 8.36668491e-01 8.37209284e-01 8.37750137e-01 8.38290989e-01 8.38831782e-01 8.39372635e-01 8.39913487e-01 8.40454280e-01 8.40995133e-01 8.41535985e-01 8.42076778e-01 8.42617631e-01 8.43158484e-01 8.43699276e-01 8.44240129e-01 8.44780982e-01 8.45321774e-01 8.45862627e-01 8.46403480e-01 8.46944273e-01 8.47485125e-01 8.48025978e-01 8.48566771e-01 8.49107623e-01 8.49648476e-01 8.50189269e-01 8.50730121e-01 8.51270974e-01 8.51811767e-01 8.52352619e-01 8.52893472e-01 8.53434265e-01 8.53975117e-01 8.54515970e-01 8.55056763e-01 8.55597615e-01 8.56138468e-01 8.56679261e-01 8.57220113e-01 8.57760966e-01 8.58301759e-01 8.58842611e-01 8.59383464e-01 8.59924257e-01 8.60465109e-01 8.61005962e-01 8.61546755e-01 8.62087607e-01 8.62628460e-01 8.63169253e-01 8.63710105e-01 8.64250958e-01 8.64791751e-01 8.65332603e-01 8.65873456e-01 8.66414249e-01 8.66955101e-01 8.67495954e-01 8.68036747e-01 8.68577600e-01 8.69118452e-01 8.69659305e-01 8.70200098e-01 8.70740950e-01 8.71281803e-01 8.71822596e-01 8.72363448e-01 8.72904301e-01 8.73445094e-01 8.73985946e-01 8.74526799e-01 8.75067592e-01 8.75608444e-01 8.76149297e-01 8.76690090e-01 8.77230942e-01 8.77771795e-01 8.78312588e-01 8.78853440e-01 8.79394293e-01 8.79935086e-01 8.80475938e-01 8.81016791e-01 8.81557584e-01 8.82098436e-01 8.82639289e-01 8.83180082e-01 8.83720934e-01 8.84261787e-01 8.84802580e-01 8.85343432e-01 8.85884285e-01 8.86425078e-01 8.86965930e-01 8.87506783e-01 8.88047576e-01 8.88588428e-01 8.89129281e-01 8.89670074e-01 8.90210927e-01 8.90751779e-01 8.91292572e-01 8.91833425e-01 8.92374277e-01 8.92915070e-01 8.93455923e-01 8.93996775e-01 8.94537568e-01 8.95078421e-01 8.95619273e-01 8.96160066e-01 8.96700919e-01 8.97241771e-01 8.97782564e-01 8.98323417e-01 8.98864269e-01 8.99405062e-01 8.99945915e-01 9.00486767e-01 9.01027560e-01 9.01568413e-01 9.02109265e-01 9.02650058e-01 9.03190911e-01 9.03731763e-01 9.04272556e-01 9.04813409e-01 9.05354261e-01 9.05895054e-01 9.06435907e-01 9.06976759e-01 9.07517552e-01 9.08058405e-01 9.08599257e-01 9.09140050e-01 9.09680903e-01 9.10221756e-01 9.10762548e-01 9.11303401e-01 9.11844254e-01 9.12385046e-01 9.12925899e-01 9.13466752e-01 9.14007545e-01 9.14548397e-01 9.15089250e-01 9.15630043e-01 9.16170895e-01 9.16711748e-01 9.17252541e-01 9.17793393e-01 9.18334246e-01 9.18875039e-01 9.19415891e-01 9.19956744e-01 9.20497537e-01 9.21038389e-01 9.21579242e-01 9.22120094e-01 9.22660887e-01 9.23201740e-01 9.23742592e-01 9.24283385e-01 9.24824238e-01 9.25365090e-01 9.25905883e-01 9.26446736e-01 9.26987588e-01 9.27528381e-01 9.28069234e-01 9.28610086e-01 9.29150879e-01 9.29691732e-01 9.30232584e-01 9.30773377e-01 9.31314230e-01 9.31855083e-01 9.32395875e-01 9.32936728e-01 9.33477581e-01 9.34018373e-01 9.34559226e-01 9.35100079e-01 9.35640872e-01 9.36181724e-01 9.36722577e-01 9.37263370e-01 9.37804222e-01 9.38345075e-01 9.38885868e-01 9.39426720e-01 9.39967573e-01 9.40508366e-01 9.41049218e-01 9.41590071e-01 9.42130864e-01 9.42671716e-01 9.43212569e-01 9.43753362e-01 9.44294214e-01 9.44835067e-01 9.45375860e-01 9.45916712e-01 9.46457565e-01 9.46998358e-01 9.47539210e-01 9.48080063e-01 9.48620856e-01 9.49161708e-01 9.49702561e-01 9.50243354e-01 9.50784206e-01 9.51325059e-01 9.51865852e-01 9.52406704e-01 9.52947557e-01 9.53488350e-01 9.54029202e-01 9.54570055e-01 9.55110848e-01 9.55651700e-01 9.56192553e-01 9.56733346e-01 9.57274199e-01 9.57815051e-01 9.58355844e-01 9.58896697e-01 9.59437549e-01 9.59978342e-01 9.60519195e-01 9.61060047e-01 9.61600840e-01 9.62141693e-01 9.62682545e-01 9.63223338e-01 9.63764191e-01 9.64305043e-01 9.64845836e-01 9.65386689e-01 9.65927541e-01 9.66468334e-01 9.67009187e-01 9.67550039e-01 9.68090832e-01 9.68631685e-01 9.69172537e-01 9.69713330e-01 9.70254183e-01 9.70795035e-01 9.71335828e-01 9.71876681e-01 9.72417533e-01 9.72958326e-01 9.73499179e-01 9.74040031e-01 9.74580884e-01 9.75121677e-01 9.75662529e-01 9.76203382e-01 9.76744175e-01 9.77285028e-01 9.77825880e-01 9.78366673e-01 9.78907526e-01 9.79448378e-01 9.79989171e-01 9.80530024e-01 9.81070876e-01 9.81611669e-01 9.82152522e-01 9.82693374e-01 9.83234167e-01 9.83775020e-01 9.84315872e-01 9.84856665e-01 9.85397518e-01 9.85938370e-01 9.86479163e-01 9.87020016e-01 9.87560868e-01 9.88101661e-01 9.88642514e-01 9.89183366e-01 9.89724159e-01 9.90265012e-01 9.90805864e-01 9.91346657e-01 9.91887510e-01 9.92428362e-01 9.92969155e-01 9.93510008e-01 9.94050860e-01 9.94591653e-01 9.95132506e-01 9.95673358e-01 9.96214151e-01 9.96755004e-01 9.97295856e-01 9.97836649e-01 9.98377502e-01 9.98918355e-01 9.99459147e-01 1.00000000e+00 
            </Histogram>
            <HistogramBinning NBins="1849">
              -9.99999975e-05 0.00000000e+00 5.48574794e-03 5.94636332e-03 6.11910643e-03 6.74518896e-03 6.97285589e-03 7.17897946e-03 7.74109410e-03 7.97326025e-03 8.14659894e-03 8.41030106e-03 8.81201401e-03 8.99718609e-03 9.15841945e-03 9.37820319e-03 9.69157182e-03 9.87105537e-03 1.00100348e-02 1.01437019e-02 1.02966670e-02 1.05461236e-02 1.07538477e-02 1.08944746e-02 1.10434750e-02 1.11567518e-02 1.12995775e-02 1.14920381e-02 1.16687538e-02 1.18450755e-02 1.20059513e-02 1.21613499e-02 1.23094767e-02 1.24878278e-02 1.26636382e-02 1.28477532e-02 1.30041046e-02 1.31431352e-02 1.32821985e-02 1.34680802e-02 1.36580700e-02 1.38556492e-02 1.40641825e-02 1.42449923e-02 1.44218709e-02 1.46154603e-02 1.48249473e-02 1.50171025e-02 1.51887657e-02 1.53886434e-02 1.55985076e-02 1.58078950e-02 1.59998257e-02 1.62079576e-02 1.64140929e-02 1.66102368e-02 1.68246180e-02 1.70725882e-02 1.73043832e-02 1.75238363e-02 1.77587625e-02 1.80158745e-02 1.82298645e-02 1.84462145e-02 1.86483525e-02 1.88895538e-02 1.91267990e-02 1.93464626e-02 1.95533298e-02 1.97973363e-02 2.00239085e-02 2.02447027e-02 2.04481781e-02 2.06832848e-02 2.09284928e-02 2.11432818e-02 2.13915221e-02 2.16191094e-02 2.18639895e-02 2.21042354e-02 2.23464537e-02 2.25631949e-02 2.27856766e-02 2.30132584e-02 2.32014917e-02 2.34357454e-02 2.36304440e-02 2.38550641e-02 2.40782592e-02 2.42896620e-02 2.45181452e-02 2.47192457e-02 2.49393024e-02 2.51886100e-02 2.53990870e-02 2.55763866e-02 2.57942956e-02 2.60398053e-02 2.63042115e-02 2.65259519e-02 2.67677531e-02 2.70095300e-02 2.72577051e-02 2.74584889e-02 2.76802201e-02 2.79047638e-02 2.81342901e-02 2.83565000e-02 2.85895076e-02 2.88048331e-02 2.90347021e-02 2.92396080e-02 2.95104403e-02 2.97516510e-02 2.99810413e-02 3.02128028e-02 3.04493792e-02 3.06797363e-02 3.09151113e-02 3.11562736e-02 3.13935839e-02 3.16287801e-02 3.18893269e-02 3.21503058e-02 3.23731937e-02 3.26438881e-02 3.28719020e-02 3.31263021e-02 3.33994329e-02 3.36556360e-02 3.38810980e-02 3.41220871e-02 3.44077200e-02 3.46430428e-02 3.48728821e-02 3.51127088e-02 3.53705473e-02 3.56207676e-02 3.58646326e-02 3.60808000e-02 3.63511592e-02 3.65929343e-02 3.68005037e-02 3.70511599e-02 3.72777842e-02 3.75345983e-02 3.77543680e-02 3.79992239e-02 3.82330939e-02 3.84681188e-02 3.86808254e-02 3.89271341e-02 3.91730443e-02 3.93907800e-02 3.96232344e-02 3.98493856e-02 4.00927849e-02 4.03611958e-02 4.06245403e-02 4.08698581e-02 4.11352217e-02 4.13597003e-02 4.16235477e-02 4.18603495e-02 4.20997404e-02 4.23547029e-02 4.25986759e-02 4.28637117e-02 4.31231037e-02 4.34511192e-02 4.37110290e-02 4.39400226e-02 4.41961363e-02 4.44483608e-02 4.46987301e-02 4.49693576e-02 4.52164225e-02 4.55402508e-02 4.58149612e-02 4.60995585e-02 4.63655740e-02 4.66430895e-02 4.68807779e-02 4.71251272e-02 4.74250391e-02 4.76846695e-02 4.79303263e-02 4.82160226e-02 4.84715588e-02 4.87646945e-02 4.90453914e-02 4.93201762e-02 4.95501086e-02 4.98478264e-02 5.00916839e-02 5.03573045e-02 5.06219380e-02 5.09010404e-02 5.11739925e-02 5.14386073e-02 5.17342426e-02 5.20034730e-02 5.22434749e-02 5.25256991e-02 5.28467782e-02 5.31304628e-02 5.34031354e-02 5.36566377e-02 5.39025627e-02 5.42141683e-02 5.44619001e-02 5.47405258e-02 5.50413504e-02 5.53020015e-02 5.56003898e-02 5.58540933e-02 5.61571941e-02 5.64442575e-02 5.66945970e-02 5.69821149e-02 5.72454110e-02 5.75068332e-02 5.77792600e-02 5.80999032e-02 5.83737642e-02 5.86207323e-02 5.88713735e-02 5.91601133e-02 5.94379529e-02 5.97261116e-02 6.00381978e-02 6.03222027e-02 6.05811961e-02 6.08861856e-02 6.11905120e-02 6.14869148e-02 6.18237108e-02 6.21081106e-02 6.23656735e-02 6.26431853e-02 6.29742593e-02 6.32860512e-02 6.36032373e-02 6.39036819e-02 6.41833246e-02 6.44618571e-02 6.47756308e-02 6.50203750e-02 6.53033555e-02 6.55690208e-02 6.58891052e-02 6.61624819e-02 6.64488450e-02 6.67410046e-02 6.70515820e-02 6.73383102e-02 6.76821247e-02 6.79779649e-02 6.82323128e-02 6.85105175e-02 6.88199475e-02 6.91157356e-02 6.94152564e-02 6.97097406e-02 6.99778870e-02 7.02691004e-02 7.05945343e-02 7.08829015e-02 7.11788163e-02 7.15024546e-02 7.18161911e-02 7.21456259e-02 7.24762529e-02 7.27604106e-02 7.30613917e-02 7.33608902e-02 7.36727417e-02 7.40016475e-02 7.43028224e-02 7.45767206e-02 7.48884752e-02 7.52475932e-02 7.55513310e-02 7.58476257e-02 7.61367679e-02 7.64643103e-02 7.67313689e-02 7.70189613e-02 7.73226917e-02 7.76308328e-02 7.79348314e-02 7.82202929e-02 7.85551146e-02 7.89035782e-02 7.92086348e-02 7.95051605e-02 7.98312947e-02 8.01638514e-02 8.05003196e-02 8.07777345e-02 8.11139196e-02 8.14001784e-02 8.17115158e-02 8.20280090e-02 8.23622197e-02 8.26608241e-02 8.29114243e-02 8.32354799e-02 8.35418701e-02 8.38667750e-02 8.41579884e-02 8.44960436e-02 8.48061070e-02 8.51235464e-02 8.54501873e-02 8.57616737e-02 8.61314014e-02 8.64644051e-02 8.67854655e-02 8.70929062e-02 8.74155983e-02 8.77522081e-02 8.80445391e-02 8.83974731e-02 8.87273848e-02 8.90753418e-02 8.94095078e-02 8.97937045e-02 9.01255533e-02 9.04711112e-02 9.08165127e-02 9.11152810e-02 9.14357305e-02 9.17346925e-02 9.20867771e-02 9.24590975e-02 9.27795321e-02 9.31025743e-02 9.34777930e-02 9.38952491e-02 9.42800194e-02 9.46018845e-02 9.49634239e-02 9.52665508e-02 9.56017375e-02 9.59384590e-02 9.62532014e-02 9.66049284e-02 9.69677642e-02 9.73201543e-02 9.76340771e-02 9.79361087e-02 9.82846692e-02 9.86642987e-02 9.90188941e-02 9.93328094e-02 9.97021198e-02 1.00032344e-01 1.00374728e-01 1.00687273e-01 1.01061031e-01 1.01398021e-01 1.01743050e-01 1.02076158e-01 1.02431044e-01 1.02791756e-01 1.03155419e-01 1.03480220e-01 1.03823967e-01 1.04178086e-01 1.04532547e-01 1.04960181e-01 1.05319962e-01 1.05604172e-01 1.05978593e-01 1.06340952e-01 1.06746852e-01 1.07112385e-01 1.07482955e-01 1.07831605e-01 1.08224854e-01 1.08594403e-01 1.08934104e-01 1.09325871e-01 1.09667361e-01 1.10041097e-01 1.10434704e-01 1.10771492e-01 1.11106411e-01 1.11481912e-01 1.11889660e-01 1.12261668e-01 1.12667218e-01 1.13088779e-01 1.13452852e-01 1.13851741e-01 1.14200532e-01 1.14591785e-01 1.14988521e-01 1.15418524e-01 1.15787134e-01 1.16153106e-01 1.16549447e-01 1.16911232e-01 1.17304906e-01 1.17684901e-01 1.18063733e-01 1.18529975e-01 1.18925720e-01 1.19381107e-01 1.19744070e-01 1.20138660e-01 1.20469876e-01 1.20896071e-01 1.21265709e-01 1.21614233e-01 1.22023083e-01 1.22447640e-01 1.22834817e-01 1.23223700e-01 1.23644315e-01 1.24042086e-01 1.24377877e-01 1.24781266e-01 1.25165030e-01 1.25553265e-01 1.25948206e-01 1.26366258e-01 1.26773447e-01 1.27191827e-01 1.27579659e-01 1.28021553e-01 1.28437445e-01 1.28869206e-01 1.29287452e-01 1.29693627e-01 1.30103722e-01 1.30500481e-01 1.30876958e-01 1.31360486e-01 1.31827846e-01 1.32259786e-01 1.32628471e-01 1.33033708e-01 1.33404285e-01 1.33787349e-01 1.34225070e-01 1.34637535e-01 1.35052696e-01 1.35383993e-01 1.35804415e-01 1.36205494e-01 1.36574760e-01 1.37064263e-01 1.37435019e-01 1.37814671e-01 1.38208017e-01 1.38606474e-01 1.39048979e-01 1.39453590e-01 1.39834598e-01 1.40223742e-01 1.40613541e-01 1.41001135e-01 1.41399652e-01 1.41765997e-01 1.42177597e-01 1.42652094e-01 1.43072188e-01 1.43487215e-01 1.43922180e-01 1.44326538e-01 1.44761518e-01 1.45179883e-01 1.45617262e-01 1.46055862e-01 1.46445081e-01 1.46854207e-01 1.47299111e-01 1.47718534e-01 1.48158133e-01 1.48628294e-01 1.49096340e-01 1.49514437e-01 1.49996072e-01 1.50438234e-01 1.50835112e-01 1.51248887e-01 1.51706874e-01 1.52139306e-01 1.52561277e-01 1.52986974e-01 1.53443530e-01 1.53877497e-01 1.54360414e-01 1.54892206e-01 1.55330494e-01 1.55863509e-01 1.56291097e-01 1.56748384e-01 1.57154918e-01 1.57608896e-01 1.58073604e-01 1.58563897e-01 1.58988565e-01 1.59439027e-01 1.59872770e-01 1.60322025e-01 1.60844684e-01 1.61309883e-01 1.61803126e-01 1.62243038e-01 1.62705258e-01 1.63192958e-01 1.63725466e-01 1.64227709e-01 1.64719060e-01 1.65257305e-01 1.65618777e-01 1.66162342e-01 1.66688934e-01 1.67141899e-01 1.67687088e-01 1.68160319e-01 1.68720722e-01 1.69194758e-01 1.69662789e-01 1.70115680e-01 1.70762241e-01 1.71252787e-01 1.71805695e-01 1.72313511e-01 1.72823861e-01 1.73326045e-01 1.73744351e-01 1.74186200e-01 1.74705029e-01 1.75170839e-01 1.75667286e-01 1.76162869e-01 1.76661685e-01 1.77145571e-01 1.77598894e-01 1.78110495e-01 1.78597137e-01 1.79061279e-01 1.79595605e-01 1.80164948e-01 1.80625230e-01 1.81089580e-01 1.81525514e-01 1.82079673e-01 1.82516858e-01 1.82990253e-01 1.83508843e-01 1.84048384e-01 1.84641734e-01 1.85150802e-01 1.85620815e-01 1.86051086e-01 1.86563596e-01 1.87007427e-01 1.87587813e-01 1.88019097e-01 1.88527048e-01 1.89089522e-01 1.89616203e-01 1.90187350e-01 1.90684810e-01 1.91206306e-01 1.91731453e-01 1.92244649e-01 1.92783326e-01 1.93354219e-01 1.93836510e-01 1.94301069e-01 1.94781885e-01 1.95347413e-01 1.95874169e-01 1.96387842e-01 1.96925938e-01 1.97464406e-01 1.98015720e-01 1.98508829e-01 1.99057996e-01 1.99541539e-01 2.00046524e-01 2.00590372e-01 2.01158732e-01 2.01671645e-01 2.02155173e-01 2.02711791e-01 2.03258589e-01 2.03902453e-01 2.04518318e-01 2.05166712e-01 2.05639958e-01 2.06250817e-01 2.06767976e-01 2.07362264e-01 2.07908511e-01 2.08452851e-01 2.08990306e-01 2.09467143e-01 2.09987253e-01 2.10569680e-01 2.11119711e-01 2.11602658e-01 2.12197185e-01 2.12740928e-01 2.13306814e-01 2.13842511e-01 2.14367479e-01 2.14904189e-01 2.15390146e-01 2.15937093e-01 2.16524825e-01 2.17130885e-01 2.17679188e-01 2.18280137e-01 2.18938440e-01 2.19379276e-01 2.19935432e-01 2.20528781e-01 2.21152961e-01 2.21855238e-01 2.22435951e-01 2.23021328e-01 2.23556519e-01 2.24061191e-01 2.24617600e-01 2.25146458e-01 2.25743741e-01 2.26295590e-01 2.26829335e-01 2.27485582e-01 2.28060037e-01 2.28676975e-01 2.29360893e-01 2.29953676e-01 2.30625942e-01 2.31265038e-01 2.31925339e-01 2.32491434e-01 2.33026713e-01 2.33589485e-01 2.34188572e-01 2.34799847e-01 2.35411584e-01 2.36060649e-01 2.36647174e-01 2.37278581e-01 2.37942755e-01 2.38575369e-01 2.39160106e-01 2.39751443e-01 2.40412116e-01 2.40954518e-01 2.41629586e-01 2.42281929e-01 2.42922276e-01 2.43535340e-01 2.44136289e-01 2.44785294e-01 2.45437026e-01 2.46166050e-01 2.46815696e-01 2.47445032e-01 2.48142794e-01 2.48805732e-01 2.49408439e-01 2.50014782e-01 2.50676751e-01 2.51256108e-01 2.51857728e-01 2.52480716e-01 2.53104508e-01 2.53750533e-01 2.54462004e-01 2.55049169e-01 2.55675286e-01 2.56254882e-01 2.56831169e-01 2.57472992e-01 2.57990211e-01 2.58619666e-01 2.59359181e-01 2.60115236e-01 2.60690868e-01 2.61386722e-01 2.62086719e-01 2.62785912e-01 2.63395697e-01 2.64125735e-01 2.64721006e-01 2.65364230e-01 2.65999049e-01 2.66734630e-01 2.67530501e-01 2.68193156e-01 2.68874377e-01 2.69578695e-01 2.70247519e-01 2.70927846e-01 2.71507919e-01 2.72198647e-01 2.72881091e-01 2.73561954e-01 2.74234563e-01 2.74881572e-01 2.75577158e-01 2.76358217e-01 2.77025670e-01 2.77690113e-01 2.78373510e-01 2.79115617e-01 2.79745758e-01 2.80506998e-01 2.81162649e-01 2.81863064e-01 2.82589853e-01 2.83278942e-01 2.83977121e-01 2.84699887e-01 2.85504699e-01 2.86267668e-01 2.86900342e-01 2.87617922e-01 2.88446635e-01 2.89189160e-01 2.89822102e-01 2.90557772e-01 2.91237414e-01 2.91896492e-01 2.92729288e-01 2.93454707e-01 2.94114977e-01 2.94787049e-01 2.95557112e-01 2.96373129e-01 2.97052443e-01 2.97797471e-01 2.98421919e-01 2.99163461e-01 2.99903274e-01 3.00613105e-01 3.01322520e-01 3.02147508e-01 3.02878559e-01 3.03545535e-01 3.04295599e-01 3.05154294e-01 3.05859327e-01 3.06646854e-01 3.07398677e-01 3.08287203e-01 3.09110671e-01 3.09944659e-01 3.10744524e-01 3.11573803e-01 3.12469184e-01 3.13259184e-01 3.14045787e-01 3.14875782e-01 3.15567195e-01 3.16364110e-01 3.17107439e-01 3.17865789e-01 3.18690449e-01 3.19479823e-01 3.20291251e-01 3.21013987e-01 3.21753204e-01 3.22613537e-01 3.23359340e-01 3.24192405e-01 3.24906319e-01 3.25659811e-01 3.26472074e-01 3.27240586e-01 3.28014374e-01 3.28747451e-01 3.29472512e-01 3.30373615e-01 3.31206441e-01 3.32073867e-01 3.32970232e-01 3.33723009e-01 3.34495097e-01 3.35385293e-01 3.36256564e-01 3.37066919e-01 3.38049829e-01 3.38811696e-01 3.39529991e-01 3.40453327e-01 3.41342628e-01 3.42239141e-01 3.43087733e-01 3.44065934e-01 3.44868243e-01 3.45634520e-01 3.46426249e-01 3.47417921e-01 3.48307759e-01 3.49112004e-01 3.49971145e-01 3.50738853e-01 3.51525515e-01 3.52444649e-01 3.53340328e-01 3.54295135e-01 3.55193198e-01 3.56168866e-01 3.57004255e-01 3.57908994e-01 3.58840257e-01 3.59737515e-01 3.60498786e-01 3.61456543e-01 3.62390131e-01 3.63429606e-01 3.64296645e-01 3.65131706e-01 3.66041720e-01 3.66852313e-01 3.67825508e-01 3.68741870e-01 3.69596779e-01 3.70535612e-01 3.71565104e-01 3.72634858e-01 3.73380333e-01 3.74419332e-01 3.75373691e-01 3.76273543e-01 3.77174348e-01 3.78186285e-01 3.79015446e-01 3.79761219e-01 3.80721688e-01 3.81693065e-01 3.82802457e-01 3.83608907e-01 3.84522915e-01 3.85452837e-01 3.86384726e-01 3.87584329e-01 3.88456643e-01 3.89390349e-01 3.90330762e-01 3.91320318e-01 3.92166644e-01 3.93182039e-01 3.94159526e-01 3.95141989e-01 3.96108091e-01 3.97066236e-01 3.98029566e-01 3.99024487e-01 4.00018156e-01 4.00924325e-01 4.01913375e-01 4.03023601e-01 4.04032618e-01 4.04912382e-01 4.05919492e-01 4.06905502e-01 4.08136100e-01 4.09050226e-01 4.10143733e-01 4.11178291e-01 4.12156314e-01 4.13210869e-01 4.14365023e-01 4.15394813e-01 4.16578501e-01 4.17524248e-01 4.18505430e-01 4.19549912e-01 4.20629740e-01 4.21684355e-01 4.22610015e-01 4.23572898e-01 4.24549341e-01 4.25619572e-01 4.26621825e-01 4.27579224e-01 4.28684413e-01 4.29811060e-01 4.30891275e-01 4.31889385e-01 4.33012426e-01 4.34115112e-01 4.35153544e-01 4.36149597e-01 4.37199861e-01 4.38244760e-01 4.39270496e-01 4.40292686e-01 4.41533834e-01 4.42545354e-01 4.43715960e-01 4.44770724e-01 4.45834070e-01 4.46820319e-01 4.47912872e-01 4.49088782e-01 4.50204551e-01 4.51381832e-01 4.52459544e-01 4.53614593e-01 4.54715341e-01 4.55882907e-01 4.57154810e-01 4.58299220e-01 4.59382474e-01 4.60518539e-01 4.61713731e-01 4.62759018e-01 4.63853359e-01 4.64979410e-01 4.66145128e-01 4.67546195e-01 4.68767822e-01 4.69992161e-01 4.70981866e-01 4.72231328e-01 4.73399550e-01 4.74601150e-01 4.75801826e-01 4.76998508e-01 4.78259325e-01 4.79421824e-01 4.80784476e-01 4.81936097e-01 4.83208954e-01 4.84389812e-01 4.85678673e-01 4.86986101e-01 4.88260895e-01 4.89384651e-01 4.90534246e-01 4.91921246e-01 4.93193924e-01 4.94454741e-01 4.95871723e-01 4.97085869e-01 4.98404056e-01 4.99680728e-01 5.00910282e-01 5.02062678e-01 5.03428459e-01 5.04550338e-01 5.05968571e-01 5.07372081e-01 5.08637011e-01 5.09732544e-01 5.11071801e-01 5.12327552e-01 5.13550878e-01 5.14949620e-01 5.16244113e-01 5.17625093e-01 5.18867135e-01 5.20183563e-01 5.21367073e-01 5.22607923e-01 5.24042547e-01 5.25333047e-01 5.26569009e-01 5.28031826e-01 5.29323220e-01 5.30689120e-01 5.32163322e-01 5.33478141e-01 5.34896672e-01 5.36160946e-01 5.37540317e-01 5.38812280e-01 5.40178299e-01 5.41381061e-01 5.42707086e-01 5.43994725e-01 5.45628667e-01 5.47045350e-01 5.48530459e-01 5.49873292e-01 5.51272035e-01 5.52768826e-01 5.54297090e-01 5.55671573e-01 5.57184458e-01 5.58465242e-01 5.59806883e-01 5.61136186e-01 5.62454879e-01 5.63892543e-01 5.65297902e-01 5.66787958e-01 5.68365097e-01 5.69705009e-01 5.71252942e-01 5.72707951e-01 5.74031949e-01 5.75720906e-01 5.77101231e-01 5.78659594e-01 5.80246150e-01 5.81821442e-01 5.83295345e-01 5.84806979e-01 5.86266518e-01 5.87765098e-01 5.89399695e-01 5.90877950e-01 5.92183411e-01 5.93812466e-01 5.95393300e-01 5.96862078e-01 5.98287106e-01 5.99753618e-01 6.01268709e-01 6.02923632e-01 6.04497731e-01 6.05935812e-01 6.07355952e-01 6.09081030e-01 6.10589445e-01 6.12059534e-01 6.13659799e-01 6.15189254e-01 6.17037117e-01 6.18600607e-01 6.20189071e-01 6.21791124e-01 6.23331189e-01 6.24938607e-01 6.26486063e-01 6.28185809e-01 6.29789472e-01 6.31323755e-01 6.33094907e-01 6.34601355e-01 6.36212587e-01 6.37832999e-01 6.39866889e-01 6.41488135e-01 6.43180490e-01 6.45042419e-01 6.46657467e-01 6.48193479e-01 6.49955034e-01 6.51852548e-01 6.53458118e-01 6.55110180e-01 6.56996608e-01 6.58839345e-01 6.60762012e-01 6.62528157e-01 6.64244473e-01 6.65913522e-01 6.67766988e-01 6.69462204e-01 6.71299040e-01 6.73223853e-01 6.75089002e-01 6.76879823e-01 6.78748429e-01 6.80466413e-01 6.82113588e-01 6.83972061e-01 6.85484827e-01 6.87084138e-01 6.88839674e-01 6.90784216e-01 6.92629099e-01 6.94717646e-01 6.96487129e-01 6.98274374e-01 6.99990571e-01 7.01654255e-01 7.03482747e-01 7.05253601e-01 7.07365513e-01 7.09343433e-01 7.11305261e-01 7.13100910e-01 7.14879632e-01 7.16995716e-01 7.18696952e-01 7.20831037e-01 7.22589910e-01 7.24381149e-01 7.26196229e-01 7.28019655e-01 7.30053544e-01 7.31811166e-01 7.33695388e-01 7.35492468e-01 7.37370849e-01 7.39234805e-01 7.40988195e-01 7.43192434e-01 7.45351195e-01 7.47253060e-01 7.49307334e-01 7.51266301e-01 7.53246367e-01 7.55307496e-01 7.57650256e-01 7.59916246e-01 7.61900723e-01 7.63856292e-01 7.65686512e-01 7.67643034e-01 7.69645631e-01 7.71907449e-01 7.73889661e-01 7.76145160e-01 7.78464913e-01 7.80790925e-01 7.82757044e-01 7.84813166e-01 7.87059665e-01 7.89302707e-01 7.91419089e-01 7.93618083e-01 7.95863867e-01 7.98139513e-01 8.00244629e-01 8.02363098e-01 8.04595649e-01 8.06855023e-01 8.09047520e-01 8.11237931e-01 8.13306510e-01 8.15170169e-01 8.17038417e-01 8.19296479e-01 8.21663022e-01 8.24040234e-01 8.26275766e-01 8.28793108e-01 8.31409514e-01 8.33670020e-01 8.35923374e-01 8.38122189e-01 8.40395808e-01 8.42819989e-01 8.44936252e-01 8.47228050e-01 8.49954724e-01 8.52279305e-01 8.54672492e-01 8.57037663e-01 8.59446943e-01 8.61606836e-01 8.63624096e-01 8.66129518e-01 8.68452191e-01 8.71006429e-01 8.73185515e-01 8.75754833e-01 8.78216207e-01 8.80708456e-01 8.83162260e-01 8.85588050e-01 8.88273358e-01 8.90651107e-01 8.93134058e-01 8.95921588e-01 8.98772717e-01 9.01523471e-01 9.04069364e-01 9.06668186e-01 9.09384012e-01 9.11824703e-01 9.14246678e-01 9.16993320e-01 9.19298053e-01 9.22450840e-01 9.24992681e-01 9.27302480e-01 9.29749906e-01 9.32604790e-01 9.35359299e-01 9.37938809e-01 9.40473378e-01 9.43313301e-01 9.46028650e-01 9.49121237e-01 9.51942861e-01 9.54817235e-01 9.57814813e-01 9.60704863e-01 9.63441551e-01 9.65972781e-01 9.68580127e-01 9.71349239e-01 9.74200547e-01 9.77081418e-01 9.79823649e-01 9.82772946e-01 9.85443175e-01 9.88179803e-01 9.91304994e-01 9.94260728e-01 9.97103810e-01 1.00023603e+00 1.00344443e+00 1.00621963e+00 1.00927496e+00 1.01254594e+00 1.01597166e+00 1.01908135e+00 1.02233768e+00 1.02524030e+00 1.02778494e+00 1.03075123e+00 1.03372669e+00 1.03680468e+00 1.03968835e+00 1.04256070e+00 1.04564440e+00 1.04870176e+00 1.05206084e+00 1.05526805e+00 1.05847263e+00 1.06163311e+00 1.06468070e+00 1.06801963e+00 1.07121348e+00 1.07430995e+00 1.07761478e+00 1.08061528e+00 1.08389854e+00 1.08722150e+00 1.09086359e+00 1.09446383e+00 1.09755921e+00 1.10039210e+00 1.10348392e+00 1.10675621e+00 1.11030960e+00 1.11362278e+00 1.11728644e+00 1.12086606e+00 1.12415349e+00 1.12759566e+00 1.13088441e+00 1.13416004e+00 1.13793349e+00 1.14127707e+00 1.14465582e+00 1.14820290e+00 1.15220511e+00 1.15552938e+00 1.15915167e+00 1.16251886e+00 1.16613460e+00 1.16982448e+00 1.17364895e+00 1.17809761e+00 1.18185937e+00 1.18520951e+00 1.18930686e+00 1.19305754e+00 1.19664645e+00 1.20058739e+00 1.20414925e+00 1.20800495e+00 1.21154058e+00 1.21571827e+00 1.21985269e+00 1.22365355e+00 1.22743964e+00 1.23127270e+00 1.23537755e+00 1.23939979e+00 1.24307323e+00 1.24695599e+00 1.25079226e+00 1.25514412e+00 1.25913870e+00 1.26332569e+00 1.26705837e+00 1.27124012e+00 1.27480447e+00 1.27919018e+00 1.28262544e+00 1.28605342e+00 1.28991151e+00 1.29395151e+00 1.29811680e+00 1.30200553e+00 1.30652499e+00 1.31082010e+00 1.31467366e+00 1.31886280e+00 1.32319272e+00 1.32763934e+00 1.33202195e+00 1.33643091e+00 1.34086168e+00 1.34541845e+00 1.34990001e+00 1.35469592e+00 1.35932910e+00 1.36420763e+00 1.36834860e+00 1.37208676e+00 1.37706196e+00 1.38123703e+00 1.38586199e+00 1.39007783e+00 1.39473093e+00 1.39904547e+00 1.40386105e+00 1.40859795e+00 1.41283643e+00 1.41719413e+00 1.42211974e+00 1.42666531e+00 1.43076420e+00 1.43555319e+00 1.44022143e+00 1.44493937e+00 1.44928694e+00 1.45399499e+00 1.45859480e+00 1.46290958e+00 1.46772027e+00 1.47329748e+00 1.47880471e+00 1.48374534e+00 1.48884511e+00 1.49383235e+00 1.49865937e+00 1.50365400e+00 1.50842690e+00 1.51321828e+00 1.51814306e+00 1.52316606e+00 1.52922225e+00 1.53408194e+00 1.53976035e+00 1.54472148e+00 1.55021083e+00 1.55578208e+00 1.56104505e+00 1.56620502e+00 1.57158041e+00 1.57677650e+00 1.58180547e+00 1.58616400e+00 1.59189630e+00 1.59758961e+00 1.60300243e+00 1.60870278e+00 1.61397338e+00 1.61947954e+00 1.62518275e+00 1.63126290e+00 1.63664937e+00 1.64278233e+00 1.64809585e+00 1.65364873e+00 1.65991855e+00 1.66603804e+00 1.67086971e+00 1.67695355e+00 1.68377423e+00 1.69068253e+00 1.69657254e+00 1.70245290e+00 1.70898080e+00 1.71502388e+00 1.72103810e+00 1.72793472e+00 1.73437583e+00 1.74007297e+00 1.74643898e+00 1.75223053e+00 1.75853050e+00 1.76459634e+00 1.77074480e+00 1.77758968e+00 1.78306675e+00 1.78909791e+00 1.79582679e+00 1.80262232e+00 1.80964804e+00 1.81652296e+00 1.82268882e+00 1.83011806e+00 1.83709455e+00 1.84380054e+00 1.85059881e+00 1.85743427e+00 1.86453521e+00 1.87086844e+00 1.87779248e+00 1.88396275e+00 1.89098310e+00 1.89805281e+00 1.90511513e+00 1.91140807e+00 1.91771913e+00 1.92436886e+00 1.93099928e+00 1.93765867e+00 1.94478512e+00 1.95222616e+00 1.95989573e+00 1.96738863e+00 1.97459328e+00 1.98168862e+00 1.99033225e+00 1.99793053e+00 2.00506186e+00 2.01351738e+00 2.02127481e+00 2.02884698e+00 2.03691244e+00 2.04401326e+00 2.05236268e+00 2.06001687e+00 2.06735039e+00 2.07507920e+00 2.08310246e+00 2.09140182e+00 2.09916568e+00 2.10750556e+00 2.11606383e+00 2.12404823e+00 2.13241458e+00 2.14003873e+00 2.14912033e+00 2.15734649e+00 2.16502047e+00 2.17344141e+00 2.18185210e+00 2.19015908e+00 2.20006180e+00 2.20838857e+00 2.21697426e+00 2.22606611e+00 2.23530197e+00 2.24508095e+00 2.25342631e+00 2.26073503e+00 2.27076721e+00 2.28094316e+00 2.28937578e+00 2.29832959e+00 2.30725002e+00 2.31652737e+00 2.32574177e+00 2.33330774e+00 2.34260154e+00 2.35230041e+00 2.36130381e+00 2.37192917e+00 2.38181949e+00 2.39095283e+00 2.40121746e+00 2.41052103e+00 2.41998267e+00 2.42849588e+00 2.43914557e+00 2.44724464e+00 2.45778775e+00 2.46674705e+00 2.47686028e+00 2.48635030e+00 2.49688649e+00 2.50757885e+00 2.51861453e+00 2.52975702e+00 2.54051948e+00 2.55012584e+00 2.56200862e+00 2.57350707e+00 2.58478212e+00 2.59511948e+00 2.60617709e+00 2.61746097e+00 2.62836933e+00 2.63813782e+00 2.64982390e+00 2.66116738e+00 2.67226553e+00 2.68291855e+00 2.69412589e+00 2.70660615e+00 2.71828103e+00 2.73009944e+00 2.74249077e+00 2.75613952e+00 2.76676464e+00 2.77884531e+00 2.79068422e+00 2.80281687e+00 2.81404686e+00 2.82508707e+00 2.83707237e+00 2.85021734e+00 2.86383033e+00 2.87685680e+00 2.89015365e+00 2.90277267e+00 2.91518879e+00 2.92740154e+00 2.93957901e+00 2.95402145e+00 2.96752763e+00 2.98135853e+00 2.99331784e+00 3.00821018e+00 3.02386904e+00 3.03713441e+00 3.05037260e+00 3.06502295e+00 3.07871675e+00 3.09347177e+00 3.10667229e+00 3.11994648e+00 3.13568258e+00 3.15081835e+00 3.16635299e+00 3.18297172e+00 3.19717622e+00 3.21376419e+00 3.22962189e+00 3.24482751e+00 3.25972939e+00 3.27543139e+00 3.29023647e+00 3.30483913e+00 3.31986976e+00 3.33403397e+00 3.34961200e+00 3.36581993e+00 3.38348746e+00 3.39894581e+00 3.41536736e+00 3.43418288e+00 3.45081162e+00 3.46697736e+00 3.48302197e+00 3.50057101e+00 3.51789427e+00 3.53313065e+00 3.55038786e+00 3.56675339e+00 3.58653426e+00 3.60466456e+00 3.61979842e+00 3.63993740e+00 3.65513420e+00 3.67279935e+00 3.69038773e+00 3.70781136e+00 3.72391248e+00 3.74143624e+00 3.75945067e+00 3.77632523e+00 3.79439163e+00 3.81122661e+00 3.82852721e+00 3.84761453e+00 3.86606359e+00 3.88617396e+00 3.90523982e+00 3.92560339e+00 3.94728231e+00 3.96774602e+00 3.98599243e+00 4.00653219e+00 4.02677202e+00 4.04506779e+00 4.06364775e+00 4.08511353e+00 4.10794258e+00 4.12924480e+00 4.15041113e+00 4.17143106e+00 4.19178486e+00 4.21185398e+00 4.23449373e+00 4.25570822e+00 4.27717829e+00 4.29668188e+00 4.31879234e+00 4.33784056e+00 4.35998344e+00 4.38509130e+00 4.40947533e+00 4.43451595e+00 4.45803404e+00 4.47899628e+00 4.50085211e+00 4.52730370e+00 4.54955387e+00 4.57082081e+00 4.59671593e+00 4.62059879e+00 4.64727497e+00 4.66991663e+00 4.69341612e+00 4.72240782e+00 4.74930334e+00 4.77867031e+00 4.80566931e+00 4.83058023e+00 4.85525703e+00 4.88042498e+00 4.90970039e+00 4.93725300e+00 4.96442842e+00 4.99248600e+00 5.02047110e+00 5.05075693e+00 5.08139277e+00 5.10860777e+00 5.13886356e+00 5.16615629e+00 5.19503975e+00 5.22311735e+00 5.25286722e+00 5.28326321e+00 5.31234026e+00 5.34173679e+00 5.37325859e+00 5.40478230e+00 5.43871260e+00 5.46883821e+00 5.50209999e+00 5.53083181e+00 5.56324244e+00 5.59802151e+00 5.62802124e+00 5.65885544e+00 5.68893814e+00 5.72280550e+00 5.75497627e+00 5.78180504e+00 5.81475258e+00 5.84964228e+00 5.88423967e+00 5.91888332e+00 5.95049477e+00 5.98656654e+00 6.02086592e+00 6.05620241e+00 6.08755684e+00 6.12839508e+00 6.17080688e+00 6.20894289e+00 6.24306774e+00 6.27520370e+00 6.31716871e+00 6.35471630e+00 6.39437866e+00 6.42857647e+00 6.46378851e+00 6.50923252e+00 6.55417061e+00 6.59021664e+00 6.62707853e+00 6.66609335e+00 6.70285225e+00 6.74206734e+00 6.78577471e+00 6.82502174e+00 6.87197018e+00 6.91589355e+00 6.95859289e+00 7.00038195e+00 7.05059242e+00 7.09484005e+00 7.13866997e+00 7.18346500e+00 7.23108530e+00 7.28276062e+00 7.33482122e+00 7.38051987e+00 7.42837524e+00 7.47505331e+00 7.52770519e+00 7.57577467e+00 7.62965679e+00 7.67434406e+00 7.72342539e+00 7.77474499e+00 7.82746649e+00 7.88602304e+00 7.94003677e+00 7.99708748e+00 8.05267429e+00 8.10152245e+00 8.15619183e+00 8.21643448e+00 8.27755356e+00 8.33070183e+00 8.38678932e+00 8.44487572e+00 8.50651264e+00 8.56945801e+00 8.62367153e+00 8.68727112e+00 8.75249767e+00 8.81139851e+00 8.87296486e+00 8.93181229e+00 8.99252701e+00 9.06110001e+00 9.12340450e+00 9.19360352e+00 9.25636959e+00 9.32560062e+00 9.39921761e+00 9.46682835e+00 9.53726864e+00 9.60726357e+00 9.67982674e+00 9.74447823e+00 9.81325722e+00 9.89581680e+00 9.97282028e+00 1.00414219e+01 1.01196938e+01 1.02024870e+01 1.02812176e+01 1.03515987e+01 1.04411364e+01 1.05205011e+01 1.06003456e+01 1.06916943e+01 1.07756491e+01 1.08559427e+01 1.09449005e+01 1.10161858e+01 1.11114588e+01 1.11966343e+01 1.12837286e+01 1.13872290e+01 1.14765110e+01 1.15627213e+01 1.16621151e+01 1.17710238e+01 1.18689184e+01 1.19690704e+01 1.20675554e+01 1.21590595e+01 1.22530594e+01 1.23634481e+01 1.24543362e+01 1.25642815e+01 1.26699057e+01 1.27686338e+01 1.28783550e+01 1.29899902e+01 1.30959072e+01 1.32035704e+01 1.33287888e+01 1.34502659e+01 1.35688000e+01 1.36809750e+01 1.37947598e+01 1.39133959e+01 1.40395021e+01 1.41946115e+01 1.43115902e+01 1.44543676e+01 1.45975361e+01 1.47549820e+01 1.49001455e+01 1.50552816e+01 1.51853189e+01 1.53464518e+01 1.55103550e+01 1.56661720e+01 1.58225126e+01 1.59935141e+01 1.61652241e+01 1.63095856e+01 1.64811802e+01 1.66544037e+01 1.68173389e+01 1.69845409e+01 1.71790409e+01 1.73680878e+01 1.75859451e+01 1.77618885e+01 1.79460621e+01 1.81719723e+01 1.83800220e+01 1.85949059e+01 1.88152275e+01 1.90550632e+01 1.92886448e+01 1.95154533e+01 1.97426014e+01 1.99878178e+01 2.02250557e+01 2.05324955e+01 2.07886944e+01 2.10555038e+01 2.13714485e+01 2.16483040e+01 2.19975090e+01 2.23268127e+01 2.26464996e+01 2.29767723e+01 2.33141212e+01 2.36934433e+01 2.40895634e+01 2.45236187e+01 2.48995285e+01 2.52645779e+01 2.56682720e+01 2.60866013e+01 2.64962387e+01 2.68910789e+01 2.73374405e+01 2.78345528e+01 2.83200932e+01 2.88685513e+01 2.94189720e+01 2.99390545e+01 3.05584373e+01 3.12392998e+01 3.18877392e+01 3.26379967e+01 3.32993927e+01 3.40809441e+01 3.48896217e+01 3.60617104e+01 3.71056938e+01 3.84121284e+01 3.97893753e+01 4.11368332e+01 4.27587814e+01 4.51235886e+01 4.91321831e+01 5.46116562e+01 6.85141907e+01 7.62468872e+01 
            </HistogramBinning>
          </PDF>
        </CumulativePDF_cls0>
      </Variable>
      <Variable VarIndex="2">
        <CumulativePDF_cls0>
          <PDF Name="GaussTransform var2 cls0" MinNSmooth="0" MaxNSmooth="0" InterpolMethod="1" KDE_type="0" KDE_iter="1" KDE_border="1" KDE_finefactor="0.0000000000000000e+00">
            <Histogram Name="Cumulative_Var2_cls0_original" NBins="1840" XMin="-9.9999997473787516e-05" XMax="8.4610351562500000e+01" HasEquidistantBins="0">
              5.43478236e-04 1.08695647e-03 1.63043477e-03 2.17391294e-03 2.71739135e-03 3.26086953e-03 3.80434771e-03 4.34782589e-03 4.89130430e-03 5.43478271e-03 5.97826065e-03 6.52173907e-03 7.06521748e-03 7.60869542e-03 8.15217383e-03 8.69565178e-03 9.23913065e-03 9.78260860e-03 1.03260865e-02 1.08695654e-02 1.14130434e-02 1.19565213e-02 1.25000002e-02 1.30434781e-02 1.35869561e-02 1.41304350e-02 1.46739129e-02 1.52173908e-02 1.57608688e-02 1.63043477e-02 1.68478265e-02 1.73913036e-02 1.79347824e-02 1.84782613e-02 1.90217383e-02 1.95652172e-02 2.01086961e-02 2.06521731e-02 2.11956520e-02 2.17391308e-02 2.22826079e-02 2.28260867e-02 2.33695656e-02 2.39130426e-02 2.44565215e-02 2.50000004e-02 2.55434774e-02 2.60869563e-02 2.66304351e-02 2.71739122e-02 2.77173910e-02 2.82608699e-02 2.88043469e-02 2.93478258e-02 2.98913047e-02 3.04347817e-02 3.09782606e-02 3.15217376e-02 3.20652165e-02 3.26086953e-02 3.31521742e-02 3.36956531e-02 3.42391320e-02 3.47826071e-02 3.53260860e-02 3.58695649e-02 3.64130437e-02 3.69565226e-02 3.75000015e-02 3.80434766e-02 3.85869555e-02 3.91304344e-02 3.96739133e-02 4.02173921e-02 4.07608710e-02 4.13043462e-02 4.18478251e-02 4.23913039e-02 4.29347828e-02 4.34782617e-02 4.40217406e-02 4.45652157e-02 4.51086946e-02 4.56521735e-02 4.61956523e-02 4.67391312e-02 4.72826101e-02 4.78260852e-02 4.83695641e-02 4.89130430e-02 4.94565219e-02 5.00000007e-02 5.05434796e-02 5.10869548e-02 5.16304336e-02 5.21739125e-02 5.27173914e-02 5.32608703e-02 5.38043492e-02 5.43478243e-02 5.48913032e-02 5.54347821e-02 5.59782609e-02 5.65217398e-02 5.70652187e-02 5.76086938e-02 5.81521727e-02 5.86956516e-02 5.92391305e-02 5.97826093e-02 6.03260882e-02 6.08695634e-02 6.14130422e-02 6.19565211e-02 6.25000000e-02 6.30434752e-02 6.35869578e-02 6.41304329e-02 6.46739155e-02 6.52173907e-02 6.57608733e-02 6.63043484e-02 6.68478236e-02 6.73913062e-02 6.79347813e-02 6.84782639e-02 6.90217391e-02 6.95652142e-02 7.01086968e-02 7.06521720e-02 7.11956546e-02 7.17391297e-02 7.22826123e-02 7.28260875e-02 7.33695626e-02 7.39130452e-02 7.44565204e-02 7.50000030e-02 7.55434781e-02 7.60869533e-02 7.66304359e-02 7.71739110e-02 7.77173936e-02 7.82608688e-02 7.88043514e-02 7.93478265e-02 7.98913017e-02 8.04347843e-02 8.09782594e-02 8.15217420e-02 8.20652172e-02 8.26086923e-02 8.31521749e-02 8.36956501e-02 8.42391327e-02 8.47826079e-02 8.53260905e-02 8.58695656e-02 8.64130408e-02 8.69565234e-02 8.74999985e-02 8.80434811e-02 8.85869563e-02 8.91304314e-02 8.96739140e-02 9.02173892e-02 9.07608718e-02 9.13043469e-02 9.18478295e-02 9.23913047e-02 9.29347798e-02 9.34782624e-02 9.40217376e-02 9.45652202e-02 9.51086953e-02 9.56521705e-02 9.61956531e-02 9.67391282e-02 9.72826108e-02 9.78260860e-02 9.83695686e-02 9.89130437e-02 9.94565189e-02 1.00000001e-01 1.00543477e-01 1.01086959e-01 1.01630434e-01 1.02173910e-01 1.02717392e-01 1.03260867e-01 1.03804350e-01 1.04347825e-01 1.04891308e-01 1.05434783e-01 1.05978258e-01 1.06521741e-01 1.07065216e-01 1.07608698e-01 1.08152173e-01 1.08695649e-01 1.09239131e-01 1.09782606e-01 1.10326089e-01 1.10869564e-01 1.11413047e-01 1.11956522e-01 1.12499997e-01 1.13043480e-01 1.13586955e-01 1.14130437e-01 1.14673913e-01 1.15217388e-01 1.15760870e-01 1.16304345e-01 1.16847828e-01 1.17391303e-01 1.17934786e-01 1.18478261e-01 1.19021736e-01 1.19565219e-01 1.20108694e-01 1.20652176e-01 1.21195652e-01 1.21739127e-01 1.22282609e-01 1.22826084e-01 1.23369567e-01 1.23913042e-01 1.24456525e-01 1.25000000e-01 1.25543475e-01 1.26086950e-01 1.26630440e-01 1.27173916e-01 1.27717391e-01 1.28260866e-01 1.28804341e-01 1.29347831e-01 1.29891306e-01 1.30434781e-01 1.30978256e-01 1.31521747e-01 1.32065222e-01 1.32608697e-01 1.33152172e-01 1.33695647e-01 1.34239137e-01 1.34782612e-01 1.35326087e-01 1.35869563e-01 1.36413038e-01 1.36956528e-01 1.37500003e-01 1.38043478e-01 1.38586953e-01 1.39130428e-01 1.39673918e-01 1.40217394e-01 1.40760869e-01 1.41304344e-01 1.41847819e-01 1.42391309e-01 1.42934784e-01 1.43478259e-01 1.44021735e-01 1.44565225e-01 1.45108700e-01 1.45652175e-01 1.46195650e-01 1.46739125e-01 1.47282615e-01 1.47826090e-01 1.48369566e-01 1.48913041e-01 1.49456516e-01 1.50000006e-01 1.50543481e-01 1.51086956e-01 1.51630431e-01 1.52173907e-01 1.52717397e-01 1.53260872e-01 1.53804347e-01 1.54347822e-01 1.54891297e-01 1.55434787e-01 1.55978262e-01 1.56521738e-01 1.57065213e-01 1.57608703e-01 1.58152178e-01 1.58695653e-01 1.59239128e-01 1.59782603e-01 1.60326093e-01 1.60869569e-01 1.61413044e-01 1.61956519e-01 1.62499994e-01 1.63043484e-01 1.63586959e-01 1.64130434e-01 1.64673910e-01 1.65217385e-01 1.65760875e-01 1.66304350e-01 1.66847825e-01 1.67391300e-01 1.67934775e-01 1.68478265e-01 1.69021741e-01 1.69565216e-01 1.70108691e-01 1.70652181e-01 1.71195656e-01 1.71739131e-01 1.72282606e-01 1.72826082e-01 1.73369572e-01 1.73913047e-01 1.74456522e-01 1.74999997e-01 1.75543472e-01 1.76086962e-01 1.76630437e-01 1.77173913e-01 1.77717388e-01 1.78260863e-01 1.78804353e-01 1.79347828e-01 1.79891303e-01 1.80434778e-01 1.80978253e-01 1.81521744e-01 1.82065219e-01 1.82608694e-01 1.83152169e-01 1.83695659e-01 1.84239134e-01 1.84782609e-01 1.85326084e-01 1.85869560e-01 1.86413050e-01 1.86956525e-01 1.87500000e-01 1.88043475e-01 1.88586950e-01 1.89130440e-01 1.89673916e-01 1.90217391e-01 1.90760866e-01 1.91304341e-01 1.91847831e-01 1.92391306e-01 1.92934781e-01 1.93478256e-01 1.94021747e-01 1.94565222e-01 1.95108697e-01 1.95652172e-01 1.96195647e-01 1.96739137e-01 1.97282612e-01 1.97826087e-01 1.98369563e-01 1.98913038e-01 1.99456528e-01 2.00000003e-01 2.00543478e-01 2.01086953e-01 2.01630428e-01 2.02173918e-01 2.02717394e-01 2.03260869e-01 2.03804344e-01 2.04347819e-01 2.04891309e-01 2.05434784e-01 2.05978259e-01 2.06521735e-01 2.07065225e-01 2.07608700e-01 2.08152175e-01 2.08695650e-01 2.09239125e-01 2.09782615e-01 2.10326090e-01 2.10869566e-01 2.11413041e-01 2.11956516e-01 2.12500006e-01 2.13043481e-01 2.13586956e-01 2.14130431e-01 2.14673907e-01 2.15217397e-01 2.15760872e-01 2.16304347e-01 2.16847822e-01 2.17391297e-01 2.17934787e-01 2.18478262e-01 2.19021738e-01 2.19565213e-01 2.20108703e-01 2.20652178e-01 2.21195653e-01 2.21739128e-01 2.22282603e-01 2.22826093e-01 2.23369569e-01 2.23913044e-01 2.24456519e-01 2.24999994e-01 2.25543484e-01 2.26086959e-01 2.26630434e-01 2.27173910e-01 2.27717385e-01 2.28260875e-01 2.28804350e-01 2.29347825e-01 2.29891300e-01 2.30434775e-01 2.30978265e-01 2.31521741e-01 2.32065216e-01 2.32608691e-01 2.33152181e-01 2.33695656e-01 2.34239131e-01 2.34782606e-01 2.35326082e-01 2.35869572e-01 2.36413047e-01 2.36956522e-01 2.37499997e-01 2.38043472e-01 2.38586962e-01 2.39130437e-01 2.39673913e-01 2.40217388e-01 2.40760863e-01 2.41304353e-01 2.41847828e-01 2.42391303e-01 2.42934778e-01 2.43478253e-01 2.44021744e-01 2.44565219e-01 2.45108694e-01 2.45652169e-01 2.46195659e-01 2.46739134e-01 2.47282609e-01 2.47826084e-01 2.48369560e-01 2.48913050e-01 2.49456525e-01 2.50000000e-01 2.50543475e-01 2.51086950e-01 2.51630425e-01 2.52173901e-01 2.52717406e-01 2.53260881e-01 2.53804356e-01 2.54347831e-01 2.54891306e-01 2.55434781e-01 2.55978256e-01 2.56521732e-01 2.57065207e-01 2.57608682e-01 2.58152187e-01 2.58695662e-01 2.59239137e-01 2.59782612e-01 2.60326087e-01 2.60869563e-01 2.61413038e-01 2.61956513e-01 2.62499988e-01 2.63043493e-01 2.63586968e-01 2.64130443e-01 2.64673918e-01 2.65217394e-01 2.65760869e-01 2.66304344e-01 2.66847819e-01 2.67391294e-01 2.67934769e-01 2.68478274e-01 2.69021749e-01 2.69565225e-01 2.70108700e-01 2.70652175e-01 2.71195650e-01 2.71739125e-01 2.72282600e-01 2.72826076e-01 2.73369551e-01 2.73913056e-01 2.74456531e-01 2.75000006e-01 2.75543481e-01 2.76086956e-01 2.76630431e-01 2.77173907e-01 2.77717382e-01 2.78260857e-01 2.78804362e-01 2.79347837e-01 2.79891312e-01 2.80434787e-01 2.80978262e-01 2.81521738e-01 2.82065213e-01 2.82608688e-01 2.83152163e-01 2.83695638e-01 2.84239143e-01 2.84782618e-01 2.85326093e-01 2.85869569e-01 2.86413044e-01 2.86956519e-01 2.87499994e-01 2.88043469e-01 2.88586944e-01 2.89130449e-01 2.89673924e-01 2.90217400e-01 2.90760875e-01 2.91304350e-01 2.91847825e-01 2.92391300e-01 2.92934775e-01 2.93478251e-01 2.94021726e-01 2.94565231e-01 2.95108706e-01 2.95652181e-01 2.96195656e-01 2.96739131e-01 2.97282606e-01 2.97826082e-01 2.98369557e-01 2.98913032e-01 2.99456507e-01 3.00000012e-01 3.00543487e-01 3.01086962e-01 3.01630437e-01 3.02173913e-01 3.02717388e-01 3.03260863e-01 3.03804338e-01 3.04347813e-01 3.04891318e-01 3.05434793e-01 3.05978268e-01 3.06521744e-01 3.07065219e-01 3.07608694e-01 3.08152169e-01 3.08695644e-01 3.09239119e-01 3.09782594e-01 3.10326099e-01 3.10869575e-01 3.11413050e-01 3.11956525e-01 3.12500000e-01 3.13043475e-01 3.13586950e-01 3.14130425e-01 3.14673901e-01 3.15217406e-01 3.15760881e-01 3.16304356e-01 3.16847831e-01 3.17391306e-01 3.17934781e-01 3.18478256e-01 3.19021732e-01 3.19565207e-01 3.20108682e-01 3.20652187e-01 3.21195662e-01 3.21739137e-01 3.22282612e-01 3.22826087e-01 3.23369563e-01 3.23913038e-01 3.24456513e-01 3.24999988e-01 3.25543493e-01 3.26086968e-01 3.26630443e-01 3.27173918e-01 3.27717394e-01 3.28260869e-01 3.28804344e-01 3.29347819e-01 3.29891294e-01 3.30434769e-01 3.30978274e-01 3.31521749e-01 3.32065225e-01 3.32608700e-01 3.33152175e-01 3.33695650e-01 3.34239125e-01 3.34782600e-01 3.35326076e-01 3.35869551e-01 3.36413056e-01 3.36956531e-01 3.37500006e-01 3.38043481e-01 3.38586956e-01 3.39130431e-01 3.39673907e-01 3.40217382e-01 3.40760857e-01 3.41304362e-01 3.41847837e-01 3.42391312e-01 3.42934787e-01 3.43478262e-01 3.44021738e-01 3.44565213e-01 3.45108688e-01 3.45652163e-01 3.46195638e-01 3.46739143e-01 3.47282618e-01 3.47826093e-01 3.48369569e-01 3.48913044e-01 3.49456519e-01 3.49999994e-01 3.50543469e-01 3.51086944e-01 3.51630449e-01 3.52173924e-01 3.52717400e-01 3.53260875e-01 3.53804350e-01 3.54347825e-01 3.54891300e-01 3.55434775e-01 3.55978251e-01 3.56521726e-01 3.57065231e-01 3.57608706e-01 3.58152181e-01 3.58695656e-01 3.59239131e-01 3.59782606e-01 3.60326082e-01 3.60869557e-01 3.61413032e-01 3.61956507e-01 3.62500012e-01 3.63043487e-01 3.63586962e-01 3.64130437e-01 3.64673913e-01 3.65217388e-01 3.65760863e-01 3.66304338e-01 3.66847813e-01 3.67391318e-01 3.67934793e-01 3.68478268e-01 3.69021744e-01 3.69565219e-01 3.70108694e-01 3.70652169e-01 3.71195644e-01 3.71739119e-01 3.72282594e-01 3.72826099e-01 3.73369575e-01 3.73913050e-01 3.74456525e-01 3.75000000e-01 3.75543475e-01 3.76086950e-01 3.76630425e-01 3.77173901e-01 3.77717406e-01 3.78260881e-01 3.78804356e-01 3.79347831e-01 3.79891306e-01 3.80434781e-01 3.80978256e-01 3.81521732e-01 3.82065207e-01 3.82608682e-01 3.83152187e-01 3.83695662e-01 3.84239137e-01 3.84782612e-01 3.85326087e-01 3.85869563e-01 3.86413038e-01 3.86956513e-01 3.87499988e-01 3.88043493e-01 3.88586968e-01 3.89130443e-01 3.89673918e-01 3.90217394e-01 3.90760869e-01 3.91304344e-01 3.91847819e-01 3.92391294e-01 3.92934769e-01 3.93478274e-01 3.94021749e-01 3.94565225e-01 3.95108700e-01 3.95652175e-01 3.96195650e-01 3.96739125e-01 3.97282600e-01 3.97826076e-01 3.98369551e-01 3.98913056e-01 3.99456531e-01 4.00000006e-01 4.00543481e-01 4.01086956e-01 4.01630431e-01 4.02173907e-01 4.02717382e-01 4.03260857e-01 4.03804362e-01 4.04347837e-01 4.04891312e-01 4.05434787e-01 4.05978262e-01 4.06521738e-01 4.07065213e-01 4.07608688e-01 4.08152163e-01 4.08695638e-01 4.09239143e-01 4.09782618e-01 4.10326093e-01 4.10869569e-01 4.11413044e-01 4.11956519e-01 4.12499994e-01 4.13043469e-01 4.13586944e-01 4.14130449e-01 4.14673924e-01 4.15217400e-01 4.15760875e-01 4.16304350e-01 4.16847825e-01 4.17391300e-01 4.17934775e-01 4.18478251e-01 4.19021726e-01 4.19565231e-01 4.20108706e-01 4.20652181e-01 4.21195656e-01 4.21739131e-01 4.22282606e-01 4.22826082e-01 4.23369557e-01 4.23913032e-01 4.24456507e-01 4.25000012e-01 4.25543487e-01 4.26086962e-01 4.26630437e-01 4.27173913e-01 4.27717388e-01 4.28260863e-01 4.28804338e-01 4.29347813e-01 4.29891318e-01 4.30434793e-01 4.30978268e-01 4.31521744e-01 4.32065219e-01 4.32608694e-01 4.33152169e-01 4.33695644e-01 4.34239119e-01 4.34782594e-01 4.35326099e-01 4.35869575e-01 4.36413050e-01 4.36956525e-01 4.37500000e-01 4.38043475e-01 4.38586950e-01 4.39130425e-01 4.39673901e-01 4.40217406e-01 4.40760881e-01 4.41304356e-01 4.41847831e-01 4.42391306e-01 4.42934781e-01 4.43478256e-01 4.44021732e-01 4.44565207e-01 4.45108682e-01 4.45652187e-01 4.46195662e-01 4.46739137e-01 4.47282612e-01 4.47826087e-01 4.48369563e-01 4.48913038e-01 4.49456513e-01 4.49999988e-01 4.50543493e-01 4.51086968e-01 4.51630443e-01 4.52173918e-01 4.52717394e-01 4.53260869e-01 4.53804344e-01 4.54347819e-01 4.54891294e-01 4.55434769e-01 4.55978274e-01 4.56521749e-01 4.57065225e-01 4.57608700e-01 4.58152175e-01 4.58695650e-01 4.59239125e-01 4.59782600e-01 4.60326076e-01 4.60869551e-01 4.61413056e-01 4.61956531e-01 4.62500006e-01 4.63043481e-01 4.63586956e-01 4.64130431e-01 4.64673907e-01 4.65217382e-01 4.65760857e-01 4.66304362e-01 4.66847837e-01 4.67391312e-01 4.67934787e-01 4.68478262e-01 4.69021738e-01 4.69565213e-01 4.70108688e-01 4.70652163e-01 4.71195638e-01 4.71739143e-01 4.72282618e-01 4.72826093e-01 4.73369569e-01 4.73913044e-01 4.74456519e-01 4.74999994e-01 4.75543469e-01 4.76086944e-01 4.76630449e-01 4.77173924e-01 4.77717400e-01 4.78260875e-01 4.78804350e-01 4.79347825e-01 4.79891300e-01 4.80434775e-01 4.80978251e-01 4.81521726e-01 4.82065231e-01 4.82608706e-01 4.83152181e-01 4.83695656e-01 4.84239131e-01 4.84782606e-01 4.85326082e-01 4.85869557e-01 4.86413032e-01 4.86956507e-01 4.87500012e-01 4.88043487e-01 4.88586962e-01 4.89130437e-01 4.89673913e-01 4.90217388e-01 4.90760863e-01 4.91304338e-01 4.91847813e-01 4.92391318e-01 4.92934793e-01 4.93478268e-01 4.94021744e-01 4.94565219e-01 4.95108694e-01 4.95652169e-01 4.96195644e-01 4.96739119e-01 4.97282594e-01 4.97826099e-01 4.98369575e-01 4.98913050e-01 4.99456525e-01 5.00000000e-01 5.00543475e-01 5.01086950e-01 5.01630425e-01 5.02173901e-01 5.02717376e-01 5.03260851e-01 5.03804326e-01 5.04347801e-01 5.04891276e-01 5.05434811e-01 5.05978286e-01 5.06521761e-01 5.07065237e-01 5.07608712e-01 5.08152187e-01 5.08695662e-01 5.09239137e-01 5.09782612e-01 5.10326087e-01 5.10869563e-01 5.11413038e-01 5.11956513e-01 5.12499988e-01 5.13043463e-01 5.13586938e-01 5.14130414e-01 5.14673889e-01 5.15217364e-01 5.15760899e-01 5.16304374e-01 5.16847849e-01 5.17391324e-01 5.17934799e-01 5.18478274e-01 5.19021749e-01 5.19565225e-01 5.20108700e-01 5.20652175e-01 5.21195650e-01 5.21739125e-01 5.22282600e-01 5.22826076e-01 5.23369551e-01 5.23913026e-01 5.24456501e-01 5.24999976e-01 5.25543451e-01 5.26086986e-01 5.26630461e-01 5.27173936e-01 5.27717412e-01 5.28260887e-01 5.28804362e-01 5.29347837e-01 5.29891312e-01 5.30434787e-01 5.30978262e-01 5.31521738e-01 5.32065213e-01 5.32608688e-01 5.33152163e-01 5.33695638e-01 5.34239113e-01 5.34782588e-01 5.35326064e-01 5.35869539e-01 5.36413014e-01 5.36956549e-01 5.37500024e-01 5.38043499e-01 5.38586974e-01 5.39130449e-01 5.39673924e-01 5.40217400e-01 5.40760875e-01 5.41304350e-01 5.41847825e-01 5.42391300e-01 5.42934775e-01 5.43478251e-01 5.44021726e-01 5.44565201e-01 5.45108676e-01 5.45652151e-01 5.46195626e-01 5.46739101e-01 5.47282636e-01 5.47826111e-01 5.48369586e-01 5.48913062e-01 5.49456537e-01 5.50000012e-01 5.50543487e-01 5.51086962e-01 5.51630437e-01 5.52173913e-01 5.52717388e-01 5.53260863e-01 5.53804338e-01 5.54347813e-01 5.54891288e-01 5.55434763e-01 5.55978239e-01 5.56521714e-01 5.57065189e-01 5.57608724e-01 5.58152199e-01 5.58695674e-01 5.59239149e-01 5.59782624e-01 5.60326099e-01 5.60869575e-01 5.61413050e-01 5.61956525e-01 5.62500000e-01 5.63043475e-01 5.63586950e-01 5.64130425e-01 5.64673901e-01 5.65217376e-01 5.65760851e-01 5.66304326e-01 5.66847801e-01 5.67391276e-01 5.67934811e-01 5.68478286e-01 5.69021761e-01 5.69565237e-01 5.70108712e-01 5.70652187e-01 5.71195662e-01 5.71739137e-01 5.72282612e-01 5.72826087e-01 5.73369563e-01 5.73913038e-01 5.74456513e-01 5.74999988e-01 5.75543463e-01 5.76086938e-01 5.76630414e-01 5.77173889e-01 5.77717364e-01 5.78260899e-01 5.78804374e-01 5.79347849e-01 5.79891324e-01 5.80434799e-01 5.80978274e-01 5.81521749e-01 5.82065225e-01 5.82608700e-01 5.83152175e-01 5.83695650e-01 5.84239125e-01 5.84782600e-01 5.85326076e-01 5.85869551e-01 5.86413026e-01 5.86956501e-01 5.87499976e-01 5.88043451e-01 5.88586986e-01 5.89130461e-01 5.89673936e-01 5.90217412e-01 5.90760887e-01 5.91304362e-01 5.91847837e-01 5.92391312e-01 5.92934787e-01 5.93478262e-01 5.94021738e-01 5.94565213e-01 5.95108688e-01 5.95652163e-01 5.96195638e-01 5.96739113e-01 5.97282588e-01 5.97826064e-01 5.98369539e-01 5.98913014e-01 5.99456549e-01 6.00000024e-01 6.00543499e-01 6.01086974e-01 6.01630449e-01 6.02173924e-01 6.02717400e-01 6.03260875e-01 6.03804350e-01 6.04347825e-01 6.04891300e-01 6.05434775e-01 6.05978251e-01 6.06521726e-01 6.07065201e-01 6.07608676e-01 6.08152151e-01 6.08695626e-01 6.09239101e-01 6.09782636e-01 6.10326111e-01 6.10869586e-01 6.11413062e-01 6.11956537e-01 6.12500012e-01 6.13043487e-01 6.13586962e-01 6.14130437e-01 6.14673913e-01 6.15217388e-01 6.15760863e-01 6.16304338e-01 6.16847813e-01 6.17391288e-01 6.17934763e-01 6.18478239e-01 6.19021714e-01 6.19565189e-01 6.20108724e-01 6.20652199e-01 6.21195674e-01 6.21739149e-01 6.22282624e-01 6.22826099e-01 6.23369575e-01 6.23913050e-01 6.24456525e-01 6.25000000e-01 6.25543475e-01 6.26086950e-01 6.26630425e-01 6.27173901e-01 6.27717376e-01 6.28260851e-01 6.28804326e-01 6.29347801e-01 6.29891276e-01 6.30434811e-01 6.30978286e-01 6.31521761e-01 6.32065237e-01 6.32608712e-01 6.33152187e-01 6.33695662e-01 6.34239137e-01 6.34782612e-01 6.35326087e-01 6.35869563e-01 6.36413038e-01 6.36956513e-01 6.37499988e-01 6.38043463e-01 6.38586938e-01 6.39130414e-01 6.39673889e-01 6.40217364e-01 6.40760899e-01 6.41304374e-01 6.41847849e-01 6.42391324e-01 6.42934799e-01 6.43478274e-01 6.44021749e-01 6.44565225e-01 6.45108700e-01 6.45652175e-01 6.46195650e-01 6.46739125e-01 6.47282600e-01 6.47826076e-01 6.48369551e-01 6.48913026e-01 6.49456501e-01 6.49999976e-01 6.50543451e-01 6.51086986e-01 6.51630461e-01 6.52173936e-01 6.52717412e-01 6.53260887e-01 6.53804362e-01 6.54347837e-01 6.54891312e-01 6.55434787e-01 6.55978262e-01 6.56521738e-01 6.57065213e-01 6.57608688e-01 6.58152163e-01 6.58695638e-01 6.59239113e-01 6.59782588e-01 6.60326064e-01 6.60869539e-01 6.61413014e-01 6.61956549e-01 6.62500024e-01 6.63043499e-01 6.63586974e-01 6.64130449e-01 6.64673924e-01 6.65217400e-01 6.65760875e-01 6.66304350e-01 6.66847825e-01 6.67391300e-01 6.67934775e-01 6.68478251e-01 6.69021726e-01 6.69565201e-01 6.70108676e-01 6.70652151e-01 6.71195626e-01 6.71739101e-01 6.72282636e-01 6.72826111e-01 6.73369586e-01 6.73913062e-01 6.74456537e-01 6.75000012e-01 6.75543487e-01 6.76086962e-01 6.76630437e-01 6.77173913e-01 6.77717388e-01 6.78260863e-01 6.78804338e-01 6.79347813e-01 6.79891288e-01 6.80434763e-01 6.80978239e-01 6.81521714e-01 6.82065189e-01 6.82608724e-01 6.83152199e-01 6.83695674e-01 6.84239149e-01 6.84782624e-01 6.85326099e-01 6.85869575e-01 6.86413050e-01 6.86956525e-01 6.87500000e-01 6.88043475e-01 6.88586950e-01 6.89130425e-01 6.89673901e-01 6.90217376e-01 6.90760851e-01 6.91304326e-01 6.91847801e-01 6.92391276e-01 6.92934811e-01 6.93478286e-01 6.94021761e-01 6.94565237e-01 6.95108712e-01 6.95652187e-01 6.96195662e-01 6.96739137e-01 6.97282612e-01 6.97826087e-01 6.98369563e-01 6.98913038e-01 6.99456513e-01 6.99999988e-01 7.00543463e-01 7.01086938e-01 7.01630414e-01 7.02173889e-01 7.02717364e-01 7.03260899e-01 7.03804374e-01 7.04347849e-01 7.04891324e-01 7.05434799e-01 7.05978274e-01 7.06521749e-01 7.07065225e-01 7.07608700e-01 7.08152175e-01 7.08695650e-01 7.09239125e-01 7.09782600e-01 7.10326076e-01 7.10869551e-01 7.11413026e-01 7.11956501e-01 7.12499976e-01 7.13043451e-01 7.13586986e-01 7.14130461e-01 7.14673936e-01 7.15217412e-01 7.15760887e-01 7.16304362e-01 7.16847837e-01 7.17391312e-01 7.17934787e-01 7.18478262e-01 7.19021738e-01 7.19565213e-01 7.20108688e-01 7.20652163e-01 7.21195638e-01 7.21739113e-01 7.22282588e-01 7.22826064e-01 7.23369539e-01 7.23913014e-01 7.24456549e-01 7.25000024e-01 7.25543499e-01 7.26086974e-01 7.26630449e-01 7.27173924e-01 7.27717400e-01 7.28260875e-01 7.28804350e-01 7.29347825e-01 7.29891300e-01 7.30434775e-01 7.30978251e-01 7.31521726e-01 7.32065201e-01 7.32608676e-01 7.33152151e-01 7.33695626e-01 7.34239101e-01 7.34782636e-01 7.35326111e-01 7.35869586e-01 7.36413062e-01 7.36956537e-01 7.37500012e-01 7.38043487e-01 7.38586962e-01 7.39130437e-01 7.39673913e-01 7.40217388e-01 7.40760863e-01 7.41304338e-01 7.41847813e-01 7.42391288e-01 7.42934763e-01 7.43478239e-01 7.44021714e-01 7.44565189e-01 7.45108724e-01 7.45652199e-01 7.46195674e-01 7.46739149e-01 7.47282624e-01 7.47826099e-01 7.48369575e-01 7.48913050e-01 7.49456525e-01 7.50000000e-01 7.50543475e-01 7.51086950e-01 7.51630425e-01 7.52173901e-01 7.52717376e-01 7.53260851e-01 7.53804326e-01 7.54347801e-01 7.54891276e-01 7.55434811e-01 7.55978286e-01 7.56521761e-01 7.57065237e-01 7.57608712e-01 7.58152187e-01 7.58695662e-01 7.59239137e-01 7.59782612e-01 7.60326087e-01 7.60869563e-01 7.61413038e-01 7.61956513e-01 7.62499988e-01 7.63043463e-01 7.63586938e-01 7.64130414e-01 7.64673889e-01 7.65217364e-01 7.65760899e-01 7.66304374e-01 7.66847849e-01 7.67391324e-01 7.67934799e-01 7.68478274e-01 7.69021749e-01 7.69565225e-01 7.70108700e-01 7.70652175e-01 7.71195650e-01 7.71739125e-01 7.72282600e-01 7.72826076e-01 7.73369551e-01 7.73913026e-01 7.74456501e-01 7.74999976e-01 7.75543451e-01 7.76086986e-01 7.76630461e-01 7.77173936e-01 7.77717412e-01 7.78260887e-01 7.78804362e-01 7.79347837e-01 7.79891312e-01 7.80434787e-01 7.80978262e-01 7.81521738e-01 7.82065213e-01 7.82608688e-01 7.83152163e-01 7.83695638e-01 7.84239113e-01 7.84782588e-01 7.85326064e-01 7.85869539e-01 7.86413014e-01 7.86956549e-01 7.87500024e-01 7.88043499e-01 7.88586974e-01 7.89130449e-01 7.89673924e-01 7.90217400e-01 7.90760875e-01 7.91304350e-01 7.91847825e-01 7.92391300e-01 7.92934775e-01 7.93478251e-01 7.94021726e-01 7.94565201e-01 7.95108676e-01 7.95652151e-01 7.96195626e-01 7.96739101e-01 7.97282636e-01 7.97826111e-01 7.98369586e-01 7.98913062e-01 7.99456537e-01 8.00000012e-01 8.00543487e-01 8.01086962e-01 8.01630437e-01 8.02173913e-01 8.02717388e-01 8.03260863e-01 8.03804338e-01 8.04347813e-01 8.04891288e-01 8.05434763e-01 8.05978239e-01 8.06521714e-01 8.07065189e-01 8.07608724e-01 8.08152199e-01 8.08695674e-01 8.09239149e-01 8.09782624e-01 8.10326099e-01 8.10869575e-01 8.11413050e-01 8.11956525e-01 8.12500000e-01 8.13043475e-01 8.13586950e-01 8.14130425e-01 8.14673901e-01 8.15217376e-01 8.15760851e-01 8.16304326e-01 8.16847801e-01 8.17391276e-01 8.17934811e-01 8.18478286e-01 8.19021761e-01 8.19565237e-01 8.20108712e-01 8.20652187e-01 8.21195662e-01 8.21739137e-01 8.22282612e-01 8.22826087e-01 8.23369563e-01 8.23913038e-01 8.24456513e-01 8.24999988e-01 8.25543463e-01 8.26086938e-01 8.26630414e-01 8.27173889e-01 8.27717364e-01 8.28260899e-01 8.28804374e-01 8.29347849e-01 8.29891324e-01 8.30434799e-01 8.30978274e-01 8.31521749e-01 8.32065225e-01 8.32608700e-01 8.33152175e-01 8.33695650e-01 8.34239125e-01 8.34782600e-01 8.35326076e-01 8.35869551e-01 8.36413026e-01 8.36956501e-01 8.37499976e-01 8.38043451e-01 8.38586986e-01 8.39130461e-01 8.39673936e-01 8.40217412e-01 8.40760887e-01 8.41304362e-01 8.41847837e-01 8.42391312e-01 8.42934787e-01 8.43478262e-01 8.44021738e-01 8.44565213e-01 8.45108688e-01 8.45652163e-01 8.46195638e-01 8.46739113e-01 8.47282588e-01 8.47826064e-01 8.48369539e-01 8.48913014e-01 8.49456549e-01 8.50000024e-01 8.50543499e-01 8.51086974e-01 8.51630449e-01 8.52173924e-01 8.52717400e-01 8.53260875e-01 8.53804350e-01 8.54347825e-01 8.54891300e-01 8.55434775e-01 8.55978251e-01 8.56521726e-01 8.57065201e-01 8.57608676e-01 8.58152151e-01 8.58695626e-01 8.59239101e-01 8.59782636e-01 8.60326111e-01 8.60869586e-01 8.61413062e-01 8.61956537e-01 8.62500012e-01 8.63043487e-01 8.63586962e-01 8.64130437e-01 8.64673913e-01 8.65217388e-01 8.65760863e-01 8.66304338e-01 8.66847813e-01 8.67391288e-01 8.67934763e-01 8.68478239e-01 8.69021714e-01 8.69565189e-01 8.70108724e-01 8.70652199e-01 8.71195674e-01 8.71739149e-01 8.72282624e-01 8.72826099e-01 8.73369575e-01 8.73913050e-01 8.74456525e-01 8.75000000e-01 8.75543475e-01 8.76086950e-01 8.76630425e-01 8.77173901e-01 8.77717376e-01 8.78260851e-01 8.78804326e-01 8.79347801e-01 8.79891276e-01 8.80434811e-01 8.80978286e-01 8.81521761e-01 8.82065237e-01 8.82608712e-01 8.83152187e-01 8.83695662e-01 8.84239137e-01 8.84782612e-01 8.85326087e-01 8.85869563e-01 8.86413038e-01 8.86956513e-01 8.87499988e-01 8.88043463e-01 8.88586938e-01 8.89130414e-01 8.89673889e-01 8.90217364e-01 8.90760899e-01 8.91304374e-01 8.91847849e-01 8.92391324e-01 8.92934799e-01 8.93478274e-01 8.94021749e-01 8.94565225e-01 8.95108700e-01 8.95652175e-01 8.96195650e-01 8.96739125e-01 8.97282600e-01 8.97826076e-01 8.98369551e-01 8.98913026e-01 8.99456501e-01 8.99999976e-01 9.00543451e-01 9.01086986e-01 9.01630461e-01 9.02173936e-01 9.02717412e-01 9.03260887e-01 9.03804362e-01 9.04347837e-01 9.04891312e-01 9.05434787e-01 9.05978262e-01 9.06521738e-01 9.07065213e-01 9.07608688e-01 9.08152163e-01 9.08695638e-01 9.09239113e-01 9.09782588e-01 9.10326064e-01 9.10869539e-01 9.11413014e-01 9.11956549e-01 9.12500024e-01 9.13043499e-01 9.13586974e-01 9.14130449e-01 9.14673924e-01 9.15217400e-01 9.15760875e-01 9.16304350e-01 9.16847825e-01 9.17391300e-01 9.17934775e-01 9.18478251e-01 9.19021726e-01 9.19565201e-01 9.20108676e-01 9.20652151e-01 9.21195626e-01 9.21739101e-01 9.22282636e-01 9.22826111e-01 9.23369586e-01 9.23913062e-01 9.24456537e-01 9.25000012e-01 9.25543487e-01 9.26086962e-01 9.26630437e-01 9.27173913e-01 9.27717388e-01 9.28260863e-01 9.28804338e-01 9.29347813e-01 9.29891288e-01 9.30434763e-01 9.30978239e-01 9.31521714e-01 9.32065189e-01 9.32608724e-01 9.33152199e-01 9.33695674e-01 9.34239149e-01 9.34782624e-01 9.35326099e-01 9.35869575e-01 9.36413050e-01 9.36956525e-01 9.37500000e-01 9.38043475e-01 9.38586950e-01 9.39130425e-01 9.39673901e-01 9.40217376e-01 9.40760851e-01 9.41304326e-01 9.41847801e-01 9.42391276e-01 9.42934811e-01 9.43478286e-01 9.44021761e-01 9.44565237e-01 9.45108712e-01 9.45652187e-01 9.46195662e-01 9.46739137e-01 9.47282612e-01 9.47826087e-01 9.48369563e-01 9.48913038e-01 9.49456513e-01 9.49999988e-01 9.50543463e-01 9.51086938e-01 9.51630414e-01 9.52173889e-01 9.52717364e-01 9.53260899e-01 9.53804374e-01 9.54347849e-01 9.54891324e-01 9.55434799e-01 9.55978274e-01 9.56521749e-01 9.57065225e-01 9.57608700e-01 9.58152175e-01 9.58695650e-01 9.59239125e-01 9.59782600e-01 9.60326076e-01 9.60869551e-01 9.61413026e-01 9.61956501e-01 9.62499976e-01 9.63043451e-01 9.63586986e-01 9.64130461e-01 9.64673936e-01 9.65217412e-01 9.65760887e-01 9.66304362e-01 9.66847837e-01 9.67391312e-01 9.67934787e-01 9.68478262e-01 9.69021738e-01 9.69565213e-01 9.70108688e-01 9.70652163e-01 9.71195638e-01 9.71739113e-01 9.72282588e-01 9.72826064e-01 9.73369539e-01 9.73913014e-01 9.74456549e-01 9.75000024e-01 9.75543499e-01 9.76086974e-01 9.76630449e-01 9.77173924e-01 9.77717400e-01 9.78260875e-01 9.78804350e-01 9.79347825e-01 9.79891300e-01 9.80434775e-01 9.80978251e-01 9.81521726e-01 9.82065201e-01 9.82608676e-01 9.83152151e-01 9.83695626e-01 9.84239101e-01 9.84782636e-01 9.85326111e-01 9.85869586e-01 9.86413062e-01 9.86956537e-01 9.87500012e-01 9.88043487e-01 9.88586962e-01 9.89130437e-01 9.89673913e-01 9.90217388e-01 9.90760863e-01 9.91304338e-01 9.91847813e-01 9.92391288e-01 9.92934763e-01 9.93478239e-01 9.94021714e-01 9.94565189e-01 9.95108724e-01 9.95652199e-01 9.96195674e-01 9.96739149e-01 9.97282624e-01 9.97826099e-01 9.98369575e-01 9.98913050e-01 9.99456525e-01 1.00000000e+00 
            </Histogram>
            <HistogramBinning NBins="1840">
