<?xml version="1.0"?>
<MethodSetup Method="DNN::DNN_CPU">
  <GeneralInfo>
    <Info name="TMVA Release" value="4.2.1 [262657]"/>
    <Info name="ROOT Release" value="6.14/04 [396804]"/>
    <Info name="Creator" value="chrispap"/>
    <Info name="Date" value="Fri Jan 24 07:29:39 2020"/>
    <Info name="Host" value="Darwin Chriss-MacBook-Pro.local 18.5.0 Darwin Kernel Version 18.5.0: Mon Mar 11 20:40:32 PDT 2019; root:xnu-4903.251.3~3/RELEASE_X86_64 x86_64"/>
    <Info name="Dir" value="/Users/chrispap/Documents/deadCellRegression"/>
    <Info name="Training events" value="330000"/>
    <Info name="TrainingTime" value="1.09663922e+04"/>
    <Info name="AnalysisType" value="Regression"/>
  </GeneralInfo>
  <Options>
    <Option name="V" modified="Yes">True</Option>
    <Option name="VerbosityLevel" modified="No">Verbose</Option>
    <Option name="VarTransform" modified="Yes">G</Option>
    <Option name="H" modified="Yes">False</Option>
    <Option name="CreateMVAPdfs" modified="No">False</Option>
    <Option name="IgnoreNegWeightsInTraining" modified="No">False</Option>
    <Option name="Layout" modified="Yes">SYMMRELU|32,Layout=SYMMRELU|50,Layout=SYMMRELU|40,Layout=SYMMRELU|30,LINEAR</Option>
    <Option name="ValidationSize" modified="No">20%</Option>
    <Option name="ErrorStrategy" modified="Yes">SUMOFSQUARES</Option>
    <Option name="WeightInitialization" modified="Yes">XAVIERUNIFORM</Option>
    <Option name="Architecture" modified="Yes">CPU</Option>
    <Option name="TrainingStrategy" modified="Yes">LearningRate=1e-4,Momentum=0.5,Repetitions=1,ConvergenceSteps=20,BatchSize=200,TestRepetitions=10,WeightDecay=0.01,Regularization=NONE,DropConfig=0.2+0.2+0.2+0.,DropRepetitions=2|LearningRate=1e-4,Momentum=0.7,Repetitions=1,ConvergenceSteps=20,BatchSize=200,TestRepetitions=5,WeightDecay=0.01,Regularization=L2,DropConfig=0.1+0.1+0.1,DropRepetitions=1|LearningRate=1e-5,Momentum=0.3,Repetitions=1,ConvergenceSteps=20,BatchSize=200,TestRepetitions=5,WeightDecay=0.01,Regularization=NONE|LearningRate=1e-6,Momentum=0.1,Repetitions=1,ConvergenceSteps=20,BatchSize=200,TestRepetitions=5,WeightDecay=0.01,Regularization=NONE</Option>
  </Options>
  <Variables NVar="9">
    <Variable VarIndex="0" Expression="layer" Label="layer" Title="layer" Unit="units" Internal="layer" Type="F" Min="1.00000000e+00" Max="2.80000000e+01"/>
    <Variable VarIndex="1" Expression="n1" Label="n1" Title="neighbor 1" Unit="units" Internal="n1" Type="F" Min="0.00000000e+00" Max="8.73935223e+00"/>
    <Variable VarIndex="2" Expression="n2" Label="n2" Title="neighbor 2" Unit="units" Internal="n2" Type="F" Min="0.00000000e+00" Max="8.25387001e+00"/>
    <Variable VarIndex="3" Expression="n3" Label="n3" Title="neighbor 3" Unit="units" Internal="n3" Type="F" Min="0.00000000e+00" Max="9.40374279e+00"/>
    <Variable VarIndex="4" Expression="n4" Label="n4" Title="neighbor 4" Unit="units" Internal="n4" Type="F" Min="0.00000000e+00" Max="8.19992828e+00"/>
    <Variable VarIndex="5" Expression="n5" Label="n5" Title="neighbor 5" Unit="units" Internal="n5" Type="F" Min="0.00000000e+00" Max="8.95512199e+00"/>
    <Variable VarIndex="6" Expression="n6" Label="n6" Title="neighbor 6" Unit="units" Internal="n6" Type="F" Min="0.00000000e+00" Max="8.88095093e+00"/>
    <Variable VarIndex="7" Expression="nup" Label="nup" Title="neighbor up" Unit="units" Internal="nup" Type="F" Min="0.00000000e+00" Max="8.61798191e+00"/>
    <Variable VarIndex="8" Expression="ndown" Label="ndown" Title="neighbor down" Unit="units" Internal="ndown" Type="F" Min="0.00000000e+00" Max="9.18437767e+00"/>
  </Variables>
  <Spectators NSpec="0"/>
  <Classes NClass="1">
    <Class Name="Regression" Index="0"/>
  </Classes>
  <Targets NTrgt="1">
    <Target TargetIndex="0" Expression="dead" Label="dead" Title="dead" Unit="" Internal="dead" Type="F" Min="4.24786936e-03" Max="1.03078518e+01"/>
  </Targets>
  <Transformations NTransformations="1">
    <Transform Name="Gauss" FlatOrGauss="Gauss">
      <Selection>
        <Input NInputs="9">
          <Input Type="Variable" Label="layer" Expression="layer"/>
          <Input Type="Variable" Label="n1" Expression="n1"/>
          <Input Type="Variable" Label="n2" Expression="n2"/>
          <Input Type="Variable" Label="n3" Expression="n3"/>
          <Input Type="Variable" Label="n4" Expression="n4"/>
          <Input Type="Variable" Label="n5" Expression="n5"/>
          <Input Type="Variable" Label="n6" Expression="n6"/>
          <Input Type="Variable" Label="nup" Expression="nup"/>
          <Input Type="Variable" Label="ndown" Expression="ndown"/>
        </Input>
        <Output NOutputs="9">
          <Output Type="Variable" Label="layer" Expression="layer"/>
          <Output Type="Variable" Label="n1" Expression="n1"/>
          <Output Type="Variable" Label="n2" Expression="n2"/>
          <Output Type="Variable" Label="n3" Expression="n3"/>
          <Output Type="Variable" Label="n4" Expression="n4"/>
          <Output Type="Variable" Label="n5" Expression="n5"/>
          <Output Type="Variable" Label="n6" Expression="n6"/>
          <Output Type="Variable" Label="nup" Expression="nup"/>
          <Output Type="Variable" Label="ndown" Expression="ndown"/>
        </Output>
      </Selection>
      <Variable VarIndex="0">
        <CumulativePDF_cls0>
          <PDF Name="GaussTransform var0 cls0" MinNSmooth="0" MaxNSmooth="0" InterpolMethod="1" KDE_type="0" KDE_iter="1" KDE_border="1" KDE_finefactor="0.0000000000000000e+00">
            <Histogram Name="Cumulative_Var0_cls0_original" NBins="29" XMin="9.9989998340606689e-01" XMax="2.8000000000000000e+01" HasEquidistantBins="0">
              0.00000000e+00 9.67970584e-03 2.66165361e-02 5.03990054e-02 8.30947757e-02 1.25679582e-01 1.75884321e-01 2.33121052e-01 2.95867950e-01 3.60648543e-01 4.26126242e-01 4.91969615e-01 5.57161510e-01 6.21178985e-01 6.82405829e-01 7.37590730e-01 7.86432981e-01 8.29678357e-01 8.66509140e-01 8.96998405e-01 9.21934009e-01 9.42518055e-01 9.59145129e-01 9.71840799e-01 9.81269717e-01 9.88377154e-01 9.93898153e-01 9.97898340e-01 1.00000000e+00 
            </Histogram>
            <HistogramBinning NBins="29">
              9.99899983e-01 1.00000000e+00 2.00000000e+00 3.00000000e+00 4.00000000e+00 5.00000000e+00 6.00000000e+00 7.00000000e+00 8.00000000e+00 9.00000000e+00 1.00000000e+01 1.10000000e+01 1.20000000e+01 1.30000000e+01 1.40000000e+01 1.50000000e+01 1.60000000e+01 1.70000000e+01 1.80000000e+01 1.90000000e+01 2.00000000e+01 2.10000000e+01 2.20000000e+01 2.30000000e+01 2.40000000e+01 2.50000000e+01 2.60000000e+01 2.70000000e+01 2.80000000e+01 2.80000000e+01 
            </HistogramBinning>
          </PDF>
        </CumulativePDF_cls0>
      </Variable>
      <Variable VarIndex="1">
        <CumulativePDF_cls0>
          <PDF Name="GaussTransform var1 cls0" MinNSmooth="0" MaxNSmooth="0" InterpolMethod="1" KDE_type="0" KDE_iter="1" KDE_border="1" KDE_finefactor="0.0000000000000000e+00">
            <Histogram Name="Cumulative_Var1_cls0_original" NBins="744" XMin="-9.9999997473787516e-05" XMax="8.7393522262573242e+00" HasEquidistantBins="0">
              0.00000000e+00 8.46010167e-04 1.98213896e-03 3.13449814e-03 4.29497240e-03 5.49145788e-03 6.75996579e-03 8.06702115e-03 9.37914848e-03 1.06938118e-02 1.20084751e-02 1.33271962e-02 1.46621475e-02 1.60173867e-02 1.73807405e-02 1.87517032e-02 2.01378819e-02 2.15316676e-02 2.29254551e-02 2.43192408e-02 2.57723704e-02 2.72858553e-02 2.87420284e-02 3.01398728e-02 3.15377153e-02 3.29355597e-02 3.42880934e-02 3.55351306e-02 3.67199518e-02 3.79482210e-02 3.92546020e-02 4.05936092e-02 4.19813097e-02 4.34663929e-02 4.50001657e-02 4.65420559e-02 4.81001735e-02 4.96664084e-02 5.12326434e-02 5.27988784e-02 5.42291813e-02 5.53876273e-02 5.66459931e-02 5.83760515e-02 6.02481291e-02 6.19325414e-02 6.35231212e-02 6.51137009e-02 6.67042807e-02 6.82948604e-02 6.98854402e-02 7.13177770e-02 7.24336207e-02 7.35616311e-02 7.50304833e-02 7.66697526e-02 7.83090293e-02 7.99706131e-02 8.16768333e-02 8.34053755e-02 8.51339102e-02 8.68624523e-02 8.84170234e-02 8.96236524e-02 9.08302814e-02 9.23848525e-02 9.41133872e-02 9.58419293e-02 9.75704640e-02 9.92990062e-02 1.01027541e-01 1.02777384e-01 1.04569830e-01 1.06159396e-01 1.07300594e-01 1.08422525e-01 1.09954268e-01 1.11684836e-01 1.13403231e-01 1.15115538e-01 1.16827846e-01 1.18540153e-01 1.20252468e-01 1.21964775e-01 1.23476230e-01 1.24585986e-01 1.25640959e-01 1.26988083e-01 1.28481284e-01 1.29974484e-01 1.31467685e-01 1.32985905e-01 1.34562582e-01 1.36172980e-01 1.37750685e-01 1.39270678e-01 1.40763357e-01 1.42250985e-01 1.43736064e-01 1.45221144e-01 1.46706223e-01 1.48144484e-01 1.49471432e-01 1.50727823e-01 1.52030423e-01 1.53426066e-01 1.54862463e-01 1.56298846e-01 1.57726958e-01 1.59166902e-01 1.60662800e-01 1.62188470e-01 1.63680822e-01 1.65115342e-01 1.66503042e-01 1.67893454e-01 1.69321045e-01 1.70759141e-01 1.72183022e-01 1.73600465e-01 1.75011843e-01 1.76412389e-01 1.77808210e-01 1.79157361e-01 1.80413187e-01 1.81622356e-01 1.82831511e-01 1.84040681e-01 1.85234293e-01 1.86356217e-01 1.87376037e-01 1.88374206e-01 1.89492747e-01 1.90773591e-01 1.92130953e-01 1.93510115e-01 1.94833234e-01 1.95989639e-01 1.97025687e-01 1.98096901e-01 1.99373186e-01 2.00934321e-01 2.02636674e-01 2.04217762e-01 2.05543160e-01 2.06711754e-01 2.07904682e-01 2.09195003e-01 2.10507378e-01 2.11772591e-01 2.13012189e-01 2.14247733e-01 2.15481237e-01 2.16714755e-01 2.17948258e-01 2.19181776e-01 2.20391616e-01 2.21554115e-01 2.22688898e-01 2.23814204e-01 2.24934101e-01 2.26063982e-01 2.27213353e-01 2.28370383e-01 2.29544774e-01 2.30760366e-01 2.31997937e-01 2.33235508e-01 2.34491333e-01 2.35783681e-01 2.37094283e-01 2.38404900e-01 2.39695549e-01 2.40938872e-01 2.42150739e-01 2.43376136e-01 2.44633317e-01 2.45903343e-01 2.47172698e-01 2.48444751e-01 2.49718845e-01 2.50994951e-01 2.52275139e-01 2.53557324e-01 2.54839540e-01 2.56121725e-01 2.57412046e-01 2.58718610e-01 2.60033280e-01 2.61347920e-01 2.62662590e-01 2.63977259e-01 2.65291929e-01 2.66576141e-01 2.67799526e-01 2.68943757e-01 2.69990623e-01 2.70988792e-01 2.71986961e-01 2.72985131e-01 2.74011701e-01 2.75095075e-01 2.76204854e-01 2.77338952e-01 2.78527826e-01 2.79769450e-01 2.81059772e-01 2.82374442e-01 2.83689082e-01 2.84925640e-01 2.85975546e-01 2.86925018e-01 2.88028687e-01 2.89387822e-01 2.90834516e-01 2.92186558e-01 2.93456078e-01 2.94785649e-01 2.96171546e-01 2.97476619e-01 2.98686147e-01 2.99944520e-01 3.01395804e-01 3.02986383e-01 3.04535449e-01 3.05966347e-01 3.07276428e-01 3.08451623e-01 3.09559345e-01 3.10667068e-01 3.11840981e-01 3.13160479e-01 3.14571261e-01 3.15926731e-01 3.17130089e-01 3.18272024e-01 3.19557041e-01 3.21038306e-01 3.22596431e-01 3.24154556e-01 3.25712681e-01 3.27201813e-01 3.28552991e-01 3.29835206e-01 3.31117392e-01 3.32399607e-01 3.33681792e-01 3.34938645e-01 3.36142540e-01 3.37303042e-01 3.38436276e-01 3.39571625e-01 3.40759665e-01 3.42014313e-01 3.43296528e-01 3.44578713e-01 3.45860928e-01 3.47181171e-01 3.48580033e-01 3.50057989e-01 3.51602942e-01 3.53168666e-01 3.54726791e-01 3.56197655e-01 3.57494056e-01 3.58703226e-01 3.59912395e-01 3.61105323e-01 3.62261087e-01 3.63416135e-01 3.64659101e-01 3.66028249e-01 3.67461145e-01 3.68851095e-01 3.70143056e-01 3.71380121e-01 3.72646600e-01 3.73974681e-01 3.75329942e-01 3.76685172e-01 3.78040403e-01 3.79395664e-01 3.80753428e-01 3.82116288e-01 3.83481652e-01 3.84847045e-01 3.86209548e-01 3.87565643e-01 3.88918161e-01 3.90272230e-01 3.91628653e-01 3.92990977e-01 3.94363463e-01 3.95735949e-01 3.97098303e-01 3.98460627e-01 3.99833113e-01 4.01265204e-01 4.02819514e-01 4.04442549e-01 4.06016916e-01 4.07468259e-01 4.08810556e-01 4.10117120e-01 4.11421806e-01 4.12722766e-01 4.14025933e-01 4.15337890e-01 4.16652560e-01 4.17956412e-01 4.19245362e-01 4.20530111e-01 4.21818554e-01 4.23108876e-01 4.24410343e-01 4.25745398e-01 4.27112311e-01 4.28458929e-01 4.29735869e-01 4.30978268e-01 4.32281762e-01 4.33679610e-01 4.35115993e-01 4.36552405e-01 4.37985748e-01 4.39415365e-01 4.40844327e-01 4.42235410e-01 4.43553120e-01 4.44835305e-01 4.46117520e-01 4.47399706e-01 4.48681921e-01 4.49964136e-01 4.51246321e-01 4.52528536e-01 4.53810722e-01 4.55088884e-01 4.56358910e-01 4.57650751e-01 4.58994329e-01 4.60375011e-01 4.61787969e-01 4.63234693e-01 4.64677662e-01 4.66065705e-01 4.67391193e-01 4.68697727e-01 4.70043510e-01 4.71447766e-01 4.72870231e-01 4.74277526e-01 4.75673109e-01 4.77079064e-01 4.78515446e-01 4.79968071e-01 4.81412560e-01 4.82847959e-01 4.84242737e-01 4.85545248e-01 4.86786872e-01 4.88060951e-01 4.89406049e-01 4.90776688e-01 4.92135465e-01 4.93488342e-01 4.94834781e-01 4.96166706e-01 4.97489482e-01 4.98814523e-01 5.00144482e-01 5.01471519e-01 5.02784073e-01 5.04080594e-01 5.05370915e-01 5.06661236e-01 5.07951558e-01 5.09241879e-01 5.10548949e-01 5.11897564e-01 5.13279200e-01 5.14668882e-01 5.16058624e-01 5.17433167e-01 5.18775105e-01 5.20078182e-01 5.21344066e-01 5.22598147e-01 5.23855984e-01 5.25117934e-01 5.26387930e-01 5.27662039e-01 5.28936088e-01 5.30244708e-01 5.31622231e-01 5.33034325e-01 5.34446359e-01 5.35858393e-01 5.37270427e-01 5.38681209e-01 5.40090322e-01 5.41498721e-01 5.42892575e-01 5.44250190e-01 5.45573652e-01 5.46882868e-01 5.48197567e-01 5.49525738e-01 5.50871372e-01 5.52239597e-01 5.53619206e-01 5.54998755e-01 5.56378365e-01 5.57757974e-01 5.59131444e-01 5.60492754e-01 5.61847985e-01 5.63203275e-01 5.64550400e-01 5.65881252e-01 5.67202628e-01 5.68521082e-01 5.69844186e-01 5.71181834e-01 5.72528958e-01 5.73870659e-01 5.75202346e-01 5.76531768e-01 5.77862680e-01 5.79193592e-01 5.80524504e-01 5.81859410e-01 5.83202481e-01 5.84551632e-01 5.85904837e-01 5.87260067e-01 5.88615358e-01 5.89970589e-01 5.91325819e-01 5.92670918e-01 5.93995690e-01 5.95310390e-01 5.96625030e-01 5.97939730e-01 5.99254370e-01 6.00593865e-01 6.01992905e-01 6.03431165e-01 6.04848444e-01 6.06212795e-01 6.07542694e-01 6.08865499e-01 6.10188246e-01 6.11532509e-01 6.12927139e-01 6.14352703e-01 6.15756631e-01 6.17118657e-01 6.18450463e-01 6.19745255e-01 6.20999038e-01 6.22242033e-01 6.23525321e-01 6.24871373e-01 6.26244843e-01 6.27618372e-01 6.28987312e-01 6.30347133e-01 6.31702363e-01 6.33057594e-01 6.34412825e-01 6.35768056e-01 6.37121260e-01 6.38468385e-01 6.39809430e-01 6.41148448e-01 6.42487466e-01 6.43818319e-01 6.45133018e-01 6.46431446e-01 6.47713661e-01 6.48987710e-01 6.50261819e-01 6.51554167e-01 6.52883053e-01 6.54235482e-01 6.55598581e-01 6.56933546e-01 6.58191383e-01 6.59408689e-01 6.60660088e-01 6.61971390e-01 6.63326025e-01 6.64695680e-01 6.66062355e-01 6.67425692e-01 6.68789029e-01 6.70152426e-01 6.71515763e-01 6.72879100e-01 6.74255669e-01 6.75662816e-01 6.77086830e-01 6.78491950e-01 6.79864943e-01 6.81219161e-01 6.82563245e-01 6.83902264e-01 6.85241282e-01 6.86580300e-01 6.87937498e-01 6.89337790e-01 6.90757930e-01 6.92130744e-01 6.93438053e-01 6.94732368e-01 6.96038723e-01 6.97360218e-01 6.98714912e-01 7.00090170e-01 7.01445639e-01 7.02756286e-01 7.04038441e-01 7.05339611e-01 7.06678629e-01 7.08029091e-01 7.09376216e-01 7.10723341e-01 7.12063372e-01 7.13389218e-01 7.14715004e-01 7.16055036e-01 7.17402160e-01 7.18749285e-01 7.20096409e-01 7.21443534e-01 7.22784579e-01 7.24113464e-01 7.25436211e-01 7.26759017e-01 7.28081763e-01 7.29418755e-01 7.30784178e-01 7.32143462e-01 7.33462155e-01 7.34780371e-01 7.36138165e-01 7.37510145e-01 7.38870978e-01 7.40226209e-01 7.41581440e-01 7.42936671e-01 7.44291902e-01 7.45647132e-01 7.46996284e-01 7.48333275e-01 7.49664187e-01 7.50995100e-01 7.52325952e-01 7.53656864e-01 7.54987776e-01 7.56514907e-01 7.58434713e-01 7.60261595e-01 7.61510372e-01 7.62759089e-01 7.64586031e-01 7.66437829e-01 7.67761111e-01 7.68979907e-01 7.70518243e-01 7.72038817e-01 7.73204386e-01 7.74369895e-01 7.75890470e-01 7.77411103e-01 7.78576612e-01 7.79756367e-01 7.81319559e-01 7.82812774e-01 7.83782542e-01 7.84709692e-01 7.86075056e-01 7.87441492e-01 7.88371682e-01 7.89301872e-01 7.90668309e-01 7.92034686e-01 7.92964876e-01 7.93827534e-01 7.94991314e-01 7.96326935e-01 7.97711968e-01 7.99124002e-01 8.00523579e-01 8.01901579e-01 8.03253174e-01 8.04589927e-01 8.05930257e-01 8.07245851e-01 8.08486998e-01 8.09651911e-01 8.10788035e-01 8.11924160e-01 8.13115060e-01 8.14415514e-01 8.15770745e-01 8.17125976e-01 8.18481207e-01 8.19838524e-01 8.21199834e-01 8.22563171e-01 8.23915601e-01 8.25246274e-01 8.26618731e-01 8.28116000e-01 8.29690337e-01 8.31207871e-01 8.32626820e-01 8.34019840e-01 8.35423768e-01 8.36827695e-01 8.38231623e-01 8.39635551e-01 8.40986729e-01 8.42232406e-01 8.43425333e-01 8.44618261e-01 8.45811188e-01 8.47065032e-01 8.48440528e-01 8.49876940e-01 8.51313293e-01 8.52749705e-01 8.54210436e-01 8.55561137e-01 8.56732786e-01 8.57973874e-01 8.59329104e-01 8.60684335e-01 8.62039566e-01 8.63405287e-01 8.64791989e-01 8.66168857e-01 8.67502451e-01 8.68803859e-01 8.70122015e-01 8.71513784e-01 8.72966409e-01 8.74410868e-01 8.75814795e-01 8.77153456e-01 8.78384113e-01 8.79551232e-01 8.80775332e-01 8.82102430e-01 8.83473873e-01 8.84845376e-01 8.86263549e-01 8.87785494e-01 8.89348209e-01 8.90805542e-01 8.92081916e-01 8.93243134e-01 8.94435644e-01 8.95733953e-01 8.97086978e-01 8.98422062e-01 8.99701595e-01 9.00943220e-01 9.02220190e-01 9.03574109e-01 9.04962778e-01 9.06341732e-01 9.07713532e-01 9.09085035e-01 9.10456479e-01 9.11827981e-01 9.13179159e-01 9.14489746e-01 9.15780067e-01 9.17070389e-01 9.18376923e-01 9.19715941e-01 9.21071172e-01 9.22426403e-01 9.23781633e-01 9.25136864e-01 9.26486075e-01 9.27823007e-01 9.29153919e-01 9.30480778e-01 9.31799471e-01 9.33114111e-01 9.34428811e-01 9.35743451e-01 9.37072098e-01 9.38428581e-01 9.39799011e-01 9.41169500e-01 9.42524076e-01 9.43842113e-01 9.45140541e-01 9.46461976e-01 9.47823524e-01 9.49202538e-01 9.50561523e-01 9.51881528e-01 9.53184545e-01 9.54511464e-01 9.55880105e-01 9.57271039e-01 9.58647668e-01 9.59991038e-01 9.61313605e-01 9.62643564e-01 9.63995218e-01 9.65355277e-01 9.66700971e-01 9.68026102e-01 9.69342768e-01 9.70659494e-01 9.71979737e-01 9.73307073e-01 9.74637926e-01 9.75968838e-01 9.77299750e-01 9.78630662e-01 9.79961514e-01 9.81292427e-01 9.82627392e-01 9.83970463e-01 9.85317588e-01 9.86664712e-01 9.88011837e-01 9.89358962e-01 9.90706086e-01 9.92053211e-01 9.93400335e-01 9.94743347e-01 9.96078312e-01 9.97409225e-01 9.98725891e-01 1.00000000e+00 
            </Histogram>
            <HistogramBinning NBins="744">
              -9.99999975e-05 0.00000000e+00 4.60584508e-03 5.66135533e-03 5.93094435e-03 5.93381235e-03 6.20338274e-03 6.47309469e-03 6.74280711e-03 7.01251905e-03 7.23287510e-03 7.28240563e-03 7.55212456e-03 7.82165676e-03 8.09136871e-03 8.35723989e-03 8.36128090e-03 8.63079354e-03 8.84018093e-03 8.90050549e-03 9.16600507e-03 9.17043630e-03 9.43559315e-03 9.43992939e-03 9.63940285e-03 9.70518123e-03 9.70987417e-03 9.97477025e-03 9.97935422e-03 9.97959264e-03 1.02443583e-02 1.02490671e-02 1.02493111e-02 1.04477368e-02 1.05187790e-02 1.05190305e-02 1.05276462e-02 1.07884919e-02 1.07887499e-02 1.08443284e-02 1.10531244e-02 1.10582048e-02 1.10584684e-02 1.11098122e-02 1.13227107e-02 1.13279158e-02 1.13281859e-02 1.14049492e-02 1.15976296e-02 1.15979053e-02 1.16242757e-02 1.18618887e-02 1.18673407e-02 1.18676247e-02 1.20492540e-02 1.20550804e-02 1.21370526e-02 1.21373432e-02 1.22822532e-02 1.24067655e-02 1.24070607e-02 1.24168480e-02 1.26706548e-02 1.26764774e-02 1.26767801e-02 1.27209062e-02 1.29402429e-02 1.29461894e-02 1.29464995e-02 1.30703673e-02 1.32159013e-02 1.32162180e-02 1.32541806e-02 1.34794191e-02 1.34856142e-02 1.34859364e-02 1.35982092e-02 1.37490071e-02 1.37553271e-02 1.37556549e-02 1.38175366e-02 1.40250381e-02 1.40253743e-02 1.40506430e-02 1.42881842e-02 1.42947519e-02 1.42950928e-02 1.43774021e-02 1.45577723e-02 1.45644648e-02 1.45648113e-02 1.48273604e-02 1.48341758e-02 1.48345297e-02 1.48675768e-02 1.51038878e-02 1.51042491e-02 1.51334908e-02 1.53665375e-02 1.53735997e-02 1.53739676e-02 1.56433135e-02 1.56436861e-02 1.56640299e-02 1.59057137e-02 1.59130264e-02 1.59134064e-02 1.60730574e-02 1.61827374e-02 1.61831249e-02 1.64448917e-02 1.64524503e-02 1.64528433e-02 1.67144798e-02 1.67221632e-02 1.67225618e-02 1.69840679e-02 1.69918742e-02 1.69922803e-02 1.72615871e-02 1.72620006e-02 1.72785353e-02 1.75312981e-02 1.75317172e-02 1.76807847e-02 1.78010110e-02 1.78014357e-02 1.80707239e-02 1.80711541e-02 1.83320101e-02 1.83404349e-02 1.84840150e-02 1.86101459e-02 1.86105929e-02 1.88798588e-02 1.88803095e-02 1.88862924e-02 1.91495717e-02 1.92788057e-02 1.94192845e-02 1.94197483e-02 1.96889956e-02 1.96894668e-02 1.99495405e-02 1.99591853e-02 2.00913213e-02 2.02284213e-02 2.02289037e-02 2.04931479e-02 2.04986222e-02 2.07678471e-02 2.07683425e-02 2.08949726e-02 2.10375581e-02 2.10380610e-02 2.13072710e-02 2.13077795e-02 2.15769839e-02 2.15774998e-02 2.18466967e-02 2.18472164e-02 2.21004523e-02 2.21164096e-02 2.21169367e-02 2.23861188e-02 2.25022789e-02 2.26558316e-02 2.26563718e-02 2.29150113e-02 2.29260921e-02 2.31952593e-02 2.31958106e-02 2.34541874e-02 2.34655309e-02 2.37077568e-02 2.37346813e-02 2.37352494e-02 2.40043942e-02 2.40049697e-02 2.42741052e-02 2.42746864e-02 2.45114099e-02 2.45438181e-02 2.48021297e-02 2.48141214e-02 2.49017943e-02 2.50832420e-02 2.50838399e-02 2.53413096e-02 2.53535602e-02 2.56226659e-02 2.56232787e-02 2.58804858e-02 2.58929990e-02 2.61193402e-02 2.61620916e-02 2.64196619e-02 2.64318027e-02 2.65205409e-02 2.67015155e-02 2.67021526e-02 2.69712284e-02 2.69718729e-02 2.72409413e-02 2.72415895e-02 2.75106542e-02 2.75113098e-02 2.77803671e-02 2.77810302e-02 2.80500762e-02 2.81278472e-02 2.83197910e-02 2.83204690e-02 2.85895038e-02 2.85901856e-02 2.88599040e-02 2.89321914e-02 2.91296225e-02 2.93851327e-02 2.93993410e-02 2.96683516e-02 2.96690594e-02 2.99380645e-02 2.99387798e-02 3.02077755e-02 3.04634869e-02 3.04782186e-02 3.07330750e-02 3.07479352e-02 3.10169123e-02 3.10176536e-02 3.12866271e-02 3.13424617e-02 3.15570906e-02 3.18114273e-02 3.18268128e-02 3.20957638e-02 3.21461149e-02 3.23654748e-02 3.25479396e-02 3.26359682e-02 3.29049006e-02 3.29497680e-02 3.31746154e-02 3.33523862e-02 3.34451236e-02 3.37140374e-02 3.37534174e-02 3.39845605e-02 3.42534631e-02 3.42542790e-02 3.45240012e-02 3.47769000e-02 3.47937159e-02 3.50625962e-02 3.52899879e-02 3.53331491e-02 3.55856642e-02 3.56028713e-02 3.58717330e-02 3.61414477e-02 3.61423083e-02 3.64111587e-02 3.65494080e-02 3.66808698e-02 3.69505845e-02 3.69514637e-02 3.72202918e-02 3.74727808e-02 3.74909043e-02 3.77597176e-02 3.77725847e-02 3.80303413e-02 3.82991433e-02 3.85511369e-02 3.85697782e-02 3.88207249e-02 3.88394967e-02 3.91082801e-02 3.93779911e-02 3.93789336e-02 3.96477059e-02 3.97817641e-02 3.99183705e-02 4.01871316e-02 4.01880890e-02 4.04578075e-02 4.07265536e-02 4.09674644e-02 4.09972444e-02 4.12659794e-02 4.13881242e-02 4.15366851e-02 4.18054014e-02 4.20751162e-02 4.21917737e-02 4.23458405e-02 4.26145419e-02 4.26155590e-02 4.28852811e-02 4.31549996e-02 4.34236787e-02 4.36933935e-02 4.37990762e-02 4.39641550e-02 4.42328192e-02 4.44820896e-02 4.45035920e-02 4.47733141e-02 4.50419523e-02 4.53116633e-02 4.54063825e-02 4.55824621e-02 4.58521843e-02 4.61219028e-02 4.63905185e-02 4.66387905e-02 4.69083749e-02 4.70136888e-02 4.72007804e-02 4.74693626e-02 4.77390774e-02 4.80087884e-02 4.82203215e-02 4.82796542e-02 4.85493727e-02 4.88179252e-02 4.90876362e-02 4.93573509e-02 4.94246483e-02 4.96282429e-02 4.98979613e-02 5.01676798e-02 5.04361950e-02 5.06826192e-02 5.09756207e-02 5.12217917e-02 5.14337756e-02 5.15162796e-02 5.17859980e-02 5.20557128e-02 5.23241833e-02 5.25938943e-02 5.28636053e-02 5.31089120e-02 5.34030311e-02 5.36480881e-02 5.38447388e-02 5.39437458e-02 5.42134605e-02 5.44831790e-02 5.47529012e-02 5.50502203e-02 5.54520451e-02 5.55620603e-02 5.58538698e-02 5.62298484e-02 5.63712157e-02 5.66575229e-02 5.70331365e-02 5.71803711e-02 5.74500896e-02 5.78364171e-02 5.79895265e-02 5.82592450e-02 5.85289672e-02 5.87986819e-02 5.90684004e-02 5.93381189e-02 5.96078411e-02 5.98761290e-02 6.01472780e-02 6.04169965e-02 6.06867187e-02 6.10776134e-02 6.14794418e-02 6.17641136e-02 6.20338246e-02 6.23035394e-02 6.25747442e-02 6.28429651e-02 6.31141812e-02 6.33838996e-02 6.38903975e-02 6.41915277e-02 6.44612387e-02 6.47309497e-02 6.50022179e-02 6.52719364e-02 6.55416548e-02 6.60795122e-02 6.63492307e-02 6.66205287e-02 6.71050176e-02 6.73971027e-02 6.76977858e-02 6.79674968e-02 6.83104843e-02 6.87450394e-02 6.90463483e-02 6.93160594e-02 6.95874318e-02 7.01251924e-02 7.03965798e-02 7.07231387e-02 7.11713284e-02 7.14737549e-02 7.17451796e-02 7.20148981e-02 7.25526065e-02 7.28240535e-02 7.33617395e-02 7.36314505e-02 7.39360601e-02 7.44063929e-02 7.47103021e-02 7.51415342e-02 7.55194351e-02 7.57909566e-02 7.63285756e-02 7.65982866e-02 7.68679976e-02 7.71395564e-02 7.75524974e-02 7.79468492e-02 7.82184303e-02 7.87559822e-02 7.90275857e-02 7.95285702e-02 7.98348337e-02 8.03373307e-02 8.06458965e-02 8.11689347e-02 8.14550593e-02 8.19925368e-02 8.22642148e-02 8.28016773e-02 8.31800476e-02 8.36108029e-02 8.41115788e-02 8.44199508e-02 8.49203393e-02 8.52311179e-02 8.57685059e-02 8.60402733e-02 8.65776464e-02 8.68494287e-02 8.73867869e-02 8.79262090e-02 8.84018093e-02 8.87374580e-02 8.92747641e-02 8.96072835e-02 9.00839046e-02 9.05816853e-02 9.08952132e-02 9.14346501e-02 9.19740945e-02 9.24222767e-02 9.30079892e-02 9.35471654e-02 9.39841792e-02 9.44015607e-02 9.49387252e-02 9.54781547e-02 9.60198790e-02 9.65569988e-02 9.70518142e-02 9.73684564e-02 9.80456397e-02 9.84474644e-02 9.89844054e-02 9.95238274e-02 1.00063257e-01 1.00602679e-01 1.00874797e-01 1.01414241e-01 1.01953678e-01 1.02493115e-01 1.03032559e-01 1.03791527e-01 1.04378656e-01 1.04876697e-01 1.05457507e-01 1.05996929e-01 1.06536359e-01 1.07078336e-01 1.07835352e-01 1.08157210e-01 1.08913712e-01 1.09503187e-01 1.10042617e-01 1.10584676e-01 1.11305915e-01 1.11930594e-01 1.12472706e-01 1.13279164e-01 1.13821305e-01 1.14575058e-01 1.15169890e-01 1.15976289e-01 1.16515718e-01 1.17057934e-01 1.17737956e-01 1.18403688e-01 1.18945964e-01 1.19744271e-01 1.20294556e-01 1.21045187e-01 1.21853948e-01 1.22557051e-01 1.23258509e-01 1.24067649e-01 1.24819420e-01 1.25416219e-01 1.26173481e-01 1.26767799e-01 1.27573907e-01 1.28324077e-01 1.28986284e-01 1.29734710e-01 1.30593583e-01 1.31353021e-01 1.32162184e-01 1.32971331e-01 1.33777305e-01 1.34794205e-01 1.35418728e-01 1.36474431e-01 1.37283549e-01 1.38096005e-01 1.39031932e-01 1.39916360e-01 1.40793160e-01 1.41602337e-01 1.42612249e-01 1.43486932e-01 1.44299522e-01 1.45308137e-01 1.46264806e-01 1.47262901e-01 1.48273945e-01 1.49150893e-01 1.50229752e-01 1.51042476e-01 1.52117714e-01 1.53126195e-01 1.54009387e-01 1.55084565e-01 1.56163409e-01 1.57242268e-01 1.58319607e-01 1.59134045e-01 1.60328731e-01 1.61483452e-01 1.62370682e-01 1.63543358e-01 1.64528430e-01 1.66757956e-01 1.69166699e-01 1.69244468e-01 1.69248492e-01 1.69492841e-01 1.75906420e-01 1.75987288e-01 1.75991476e-01 1.75999984e-01 1.82646126e-01 1.82730079e-01 1.82734445e-01 1.82747036e-01 1.89385831e-01 1.89472869e-01 1.89477414e-01 1.89574942e-01 1.96125552e-01 1.96215704e-01 1.96220368e-01 1.96493119e-01 2.02865258e-01 2.02958480e-01 2.02963322e-01 2.03324154e-01 2.09604949e-01 2.09701285e-01 2.09706306e-01 2.10557044e-01 2.16344669e-01 2.16444120e-01 2.16449291e-01 2.16986269e-01 2.23084375e-01 2.23186895e-01 2.23192245e-01 2.25826442e-01 2.29929715e-01 2.29935229e-01 2.32657507e-01 2.36672521e-01 2.36675754e-01 2.40694016e-01 2.43415326e-01 2.43421152e-01 2.50043243e-01 2.50158161e-01 2.50164121e-01 2.52146065e-01 2.56900966e-01 2.56907105e-01 2.62191743e-01 2.63643742e-01 2.63650060e-01 2.70386577e-01 2.70393044e-01 2.72237420e-01 2.77129382e-01 2.77136028e-01 2.82289773e-01 2.83872157e-01 2.83878952e-01 2.90614992e-01 2.90621907e-01 2.97221184e-01 2.97357798e-01 3.02374393e-01 3.04100603e-01 3.04107845e-01 3.10843408e-01 3.12420040e-01 3.17586243e-01 3.17593813e-01 3.24180007e-01 3.24336767e-01 3.31071824e-01 3.32511365e-01 3.37814629e-01 3.42557013e-01 3.44557434e-01 3.51300240e-01 3.51308644e-01 3.58043075e-01 3.58051598e-01 3.64785880e-01 3.71357977e-01 3.71537536e-01 3.78271461e-01 3.82739663e-01 3.85014296e-01 3.91757101e-01 3.92785311e-01 3.98499906e-01 4.05242711e-01 4.11796242e-01 4.11995322e-01 4.18728322e-01 4.25275683e-01 4.32015359e-01 4.32967961e-01 4.38967228e-01 4.45699573e-01 4.52442348e-01 4.59185183e-01 4.65713918e-01 4.72670764e-01 4.79193360e-01 4.83196229e-01 4.92672771e-01 4.99412477e-01 5.06152153e-01 5.13127625e-01 5.19870460e-01 5.26613235e-01 5.33356071e-01 5.40111780e-01 5.53330123e-01 5.60327232e-01 5.67070127e-01 5.73826611e-01 5.87298512e-01 5.94041348e-01 6.07526898e-01 6.14284396e-01 6.27755344e-01 6.34513319e-01 6.47983730e-01 6.61469400e-01 6.74063802e-01 6.81697786e-01 6.94155097e-01 7.03877270e-01 7.15411842e-01 7.28897452e-01 7.44401157e-01 7.62611508e-01 7.76097059e-01 7.89582729e-01 8.04657400e-01 8.23296785e-01 8.36802304e-01 8.57010782e-01 8.77239227e-01 8.97467673e-01 9.17696059e-01 9.37924504e-01 9.64452386e-01 9.85124111e-01 1.01163042e+00 1.03234839e+00 1.05932021e+00 1.08626616e+00 1.11323750e+00 1.14020860e+00 1.17392266e+00 1.20763683e+00 1.24138045e+00 1.27506495e+00 1.32165694e+00 1.36272120e+00 1.40992093e+00 1.46319115e+00 1.50785375e+00 1.55826271e+00 1.61835575e+00 1.67289031e+00 1.73357594e+00 1.80100369e+00 1.87954319e+00 1.94934559e+00 2.03025937e+00 2.12465858e+00 2.21231508e+00 2.32019997e+00 2.44157052e+00 2.57269359e+00 2.72476816e+00 2.87985277e+00 3.05516577e+00 3.25078487e+00 3.45671153e+00 3.72099376e+00 4.04940557e+00 4.44418430e+00 4.92292356e+00 5.78600264e+00 8.73935223e+00 
            </HistogramBinning>
          </PDF>
        </CumulativePDF_cls0>
      </Variable>
      <Variable VarIndex="2">
        <CumulativePDF_cls0>
          <PDF Name="GaussTransform var2 cls0" MinNSmooth="0" MaxNSmooth="0" InterpolMethod="1" KDE_type="0" KDE_iter="1" KDE_border="1" KDE_finefactor="0.0000000000000000e+00">
            <Histogram Name="Cumulative_Var2_cls0_original" NBins="738" XMin="-9.9999997473787516e-05" XMax="8.2538700103759766e+00" HasEquidistantBins="0">
              1.32474268e-03 2.64948537e-03 3.97422817e-03 5.29420050e-03 6.60244608e-03 7.92034622e-03 9.28413030e-03 1.06842583e-02 1.20737394e-02 1.34311914e-02 1.47743337e-02 1.61174759e-02 1.74606163e-02 1.87209621e-02 1.99715979e-02 2.12953184e-02 2.26599257e-02 2.40654200e-02 2.54709143e-02 2.68764086e-02 2.81939972e-02 2.95284502e-02 3.09635885e-02 3.23946364e-02 3.38256881e-02 3.52567360e-02 3.66877839e-02 3.80861238e-02 3.94163169e-02 4.07356098e-02 4.21585664e-02 4.37408127e-02 4.54308130e-02 4.71180901e-02 4.87453975e-02 5.03484271e-02 5.19621894e-02 5.35813197e-02 5.52086271e-02 5.68522885e-02 5.84080443e-02 5.97716309e-02 6.11577034e-02 6.27809241e-02 6.45349771e-02 6.63135722e-02 6.81126043e-02 6.99279904e-02 7.17515573e-02 7.35751241e-02 7.53986835e-02 7.70157725e-02 7.82198980e-02 7.93749616e-02 8.08448493e-02 8.24511200e-02 8.40153024e-02 8.56156945e-02 8.73588473e-02 8.92151222e-02 9.10686776e-02 9.28622559e-02 9.44003761e-02 9.54868719e-02 9.65657756e-02 9.80811566e-02 9.98147726e-02 1.01548381e-01 1.03281997e-01 1.05015613e-01 1.06749222e-01 1.08517081e-01 1.10353425e-01 1.11970000e-01 1.13078550e-01 1.14135742e-01 1.15598217e-01 1.17277659e-01 1.18990831e-01 1.20724440e-01 1.22441702e-01 1.24128297e-01 1.25804409e-01 1.27486154e-01 1.28905952e-01 1.29796267e-01 1.30701914e-01 1.32167727e-01 1.33878857e-01 1.35520473e-01 1.37127325e-01 1.38728067e-01 1.40315682e-01 1.41895786e-01 1.43446609e-01 1.44939497e-01 1.46403253e-01 1.47867009e-01 1.49330780e-01 1.50816515e-01 1.52355567e-01 1.53932109e-01 1.55495703e-01 1.57024369e-01 1.58537194e-01 1.60045922e-01 1.61526039e-01 1.62961170e-01 1.64375871e-01 1.65794149e-01 1.67219564e-01 1.68632224e-01 1.70006022e-01 1.71355307e-01 1.72717348e-01 1.74104959e-01 1.75503299e-01 1.76901639e-01 1.78299978e-01 1.79661527e-01 1.80945382e-01 1.82184249e-01 1.83419049e-01 1.84653834e-01 1.85888633e-01 1.87127516e-01 1.88374564e-01 1.89625710e-01 1.90876856e-01 1.92128003e-01 1.93383232e-01 1.94646657e-01 1.95914149e-01 1.97181657e-01 1.98449150e-01 1.99716657e-01 2.00984150e-01 2.02212811e-01 2.03335166e-01 2.04361424e-01 2.05359071e-01 2.06356719e-01 2.07380936e-01 2.08521694e-01 2.09815770e-01 2.11173221e-01 2.12530673e-01 2.13888124e-01 2.15245575e-01 2.16547832e-01 2.17739701e-01 2.18876362e-01 2.20013022e-01 2.21149683e-01 2.22286344e-01 2.23478794e-01 2.24827811e-01 2.26339281e-01 2.27917522e-01 2.29449421e-01 2.30890021e-01 2.32247204e-01 2.33517349e-01 2.34743968e-01 2.35970572e-01 2.37197191e-01 2.38374740e-01 2.39454165e-01 2.40490645e-01 2.41539404e-01 2.42594287e-01 2.43649185e-01 2.44712248e-01 2.45791659e-01 2.46981487e-01 2.48273507e-01 2.49565542e-01 2.50927597e-01 2.52327472e-01 2.53695130e-01 2.55062819e-01 2.56430507e-01 2.57758290e-01 2.59001762e-01 2.60200202e-01 2.61376023e-01 2.62503713e-01 2.63589948e-01 2.64642090e-01 2.65680641e-01 2.66740888e-01 2.67830342e-01 2.68937796e-01 2.70048887e-01 2.71155536e-01 2.72259474e-01 2.73363441e-01 2.74467379e-01 2.75571346e-01 2.76665926e-01 2.77739048e-01 2.78810292e-01 2.79933304e-01 2.81126529e-01 2.82339364e-01 2.83534110e-01 2.84678936e-01 2.85742015e-01 2.86764205e-01 2.87786365e-01 2.88808554e-01 2.89883882e-01 2.91065514e-01 2.92300314e-01 2.93535113e-01 2.94769883e-01 2.96004683e-01 2.97255814e-01 2.98539668e-01 2.99875677e-01 3.01233113e-01 3.02576274e-01 3.03962350e-01 3.05384189e-01 3.06829542e-01 3.08336228e-01 3.09873581e-01 3.11410934e-01 3.12948316e-01 3.14485669e-01 3.16039383e-01 3.17625791e-01 3.19228560e-01 3.20831329e-01 3.22434127e-01 3.24036896e-01 3.25629443e-01 3.27200532e-01 3.28759342e-01 3.30317140e-01 3.31874937e-01 3.33407193e-01 3.34888339e-01 3.36343914e-01 3.37799489e-01 3.39261979e-01 3.40738267e-01 3.42221439e-01 3.43717903e-01 3.45241636e-01 3.46768081e-01 3.48241389e-01 3.49642783e-01 3.51022989e-01 3.52420717e-01 3.53814989e-01 3.55184704e-01 3.56542140e-01 3.57899606e-01 3.59257042e-01 3.60627025e-01 3.62022042e-01 3.63461286e-01 3.64964694e-01 3.66483808e-01 3.67932498e-01 3.69302183e-01 3.70657176e-01 3.72022808e-01 3.73374134e-01 3.74696821e-01 3.76005203e-01 3.77277821e-01 3.78466278e-01 3.79604310e-01 3.80784571e-01 3.82042885e-01 3.83349210e-01 3.84684175e-01 3.86033446e-01 3.87382746e-01 3.88732016e-01 3.90081286e-01 3.91430557e-01 3.92779827e-01 3.94129097e-01 3.95478398e-01 3.96827668e-01 3.98172855e-01 3.99509847e-01 4.00842786e-01 4.02175695e-01 4.03467715e-01 4.04677987e-01 4.05847371e-01 4.07016724e-01 4.08186108e-01 4.09361601e-01 4.10551935e-01 4.11753505e-01 4.12957639e-01 4.14161742e-01 4.15365875e-01 4.16600674e-01 4.17936325e-01 4.19393837e-01 4.20899957e-01 4.22345191e-01 4.23690051e-01 4.24992293e-01 4.26292509e-01 4.27588642e-01 4.28886294e-01 4.30191100e-01 4.31499481e-01 4.32807863e-01 4.34134662e-01 4.35498238e-01 4.36880231e-01 4.38262224e-01 4.39642161e-01 4.41018015e-01 4.42391813e-01 4.43753362e-01 4.45090353e-01 4.46421146e-01 4.47735429e-01 4.48987931e-01 4.50198174e-01 4.51438427e-01 4.52752948e-01 4.54135627e-01 4.55558479e-01 4.56989527e-01 4.58394766e-01 4.59765762e-01 4.61127400e-01 4.62495327e-01 4.63827550e-01 4.65078712e-01 4.66299862e-01 4.67599988e-01 4.69010681e-01 4.70466256e-01 4.71921861e-01 4.73377436e-01 4.74833012e-01 4.76278365e-01 4.77703303e-01 4.79117990e-01 4.80532676e-01 4.81933057e-01 4.83304828e-01 4.84662265e-01 4.86015975e-01 4.87368673e-01 4.88730997e-01 4.90095139e-01 4.91437048e-01 4.92745131e-01 4.94032860e-01 4.95326281e-01 4.96634096e-01 4.97968882e-01 4.99350518e-01 5.00757039e-01 5.02163529e-01 5.03555775e-01 5.04919350e-01 5.06268620e-01 5.07617891e-01 5.08967161e-01 5.10318518e-01 5.11673868e-01 5.13034940e-01 5.14403105e-01 5.15769780e-01 5.17126203e-01 5.18474936e-01 5.19818604e-01 5.21159708e-01 5.22500813e-01 5.23841918e-01 5.25178909e-01 5.26507735e-01 5.27832508e-01 5.29157221e-01 5.30480921e-01 5.31803668e-01 5.33131480e-01 5.34468472e-01 5.35809577e-01 5.37150681e-01 5.38491786e-01 5.39832830e-01 5.41173935e-01 5.42519152e-01 5.43872476e-01 5.45229971e-01 5.46577334e-01 5.47904670e-01 5.49246430e-01 5.50642073e-01 5.52056730e-01 5.53411484e-01 5.54682016e-01 5.55930078e-01 5.57224333e-01 5.58565438e-01 5.59908628e-01 5.61241567e-01 5.62554061e-01 5.63825667e-01 5.65076768e-01 5.66327929e-01 5.67579091e-01 5.68830252e-01 5.70046604e-01 5.71263015e-01 5.72583675e-01 5.73973835e-01 5.75363994e-01 5.76754153e-01 5.78144312e-01 5.79534471e-01 5.80916464e-01 5.82282066e-01 5.83639562e-01 5.84996998e-01 5.86354434e-01 5.87711871e-01 5.89093864e-01 5.90534747e-01 5.92014730e-01 5.93475044e-01 5.94891012e-01 5.96281171e-01 5.97653449e-01 5.99008322e-01 6.00357592e-01 6.01706862e-01 6.03056133e-01 6.04405403e-01 6.05778575e-01 6.07207358e-01 6.08667910e-01 6.10096693e-01 6.11461639e-01 6.12786353e-01 6.14102960e-01 6.15419507e-01 6.16744757e-01 6.18116021e-01 6.19563401e-01 6.21051729e-01 6.22498095e-01 6.23864770e-01 6.25195622e-01 6.26526475e-01 6.27857387e-01 6.29172385e-01 6.30478263e-01 6.31813228e-01 6.33172691e-01 6.34536266e-01 6.35901928e-01 6.37267530e-01 6.38620377e-01 6.39947712e-01 6.41252756e-01 6.42535865e-01 6.43806696e-01 6.45090759e-01 6.46397650e-01 6.47714198e-01 6.49034858e-01 6.50363684e-01 6.51696622e-01 6.53029501e-01 6.54362440e-01 6.55703545e-01 6.57071233e-01 6.58479750e-01 6.59923077e-01 6.61378682e-01 6.62834227e-01 6.64277554e-01 6.65690243e-01 6.67050719e-01 6.68384671e-01 6.69741094e-01 6.71093464e-01 6.72426403e-01 6.73759282e-01 6.75092220e-01 6.76425159e-01 6.77758038e-01 6.79103255e-01 6.80479109e-01 6.81877434e-01 6.83267593e-01 6.84635282e-01 6.85994744e-01 6.87358379e-01 6.88723981e-01 6.90089583e-01 6.91455245e-01 6.92820847e-01 6.94172144e-01 6.95490003e-01 6.96788847e-01 6.98107183e-01 6.99461401e-01 7.00834155e-01 7.02208996e-01 7.03583837e-01 7.04956353e-01 7.06318140e-01 7.07665384e-01 7.09006488e-01 7.10347593e-01 7.11690724e-01 7.13037968e-01 7.14387238e-01 7.15735853e-01 7.17087150e-01 7.18447328e-01 7.19812930e-01 7.21173108e-01 7.22523749e-01 7.23870993e-01 7.25219607e-01 7.26568878e-01 7.27919877e-01 7.29274213e-01 7.30628252e-01 7.31970072e-01 7.33292103e-01 7.34608650e-01 7.35947013e-01 7.37317979e-01 7.38704503e-01 7.40080357e-01 7.41429627e-01 7.42755413e-01 7.44073749e-01 7.45401800e-01 7.46744931e-01 7.48094261e-01 7.49443531e-01 7.50774920e-01 7.52065718e-01 7.53329813e-01 7.54549801e-01 7.55689025e-01 7.57007599e-01 7.58766472e-01 7.60516405e-01 7.61808455e-01 7.63052464e-01 7.64658272e-01 7.66243696e-01 7.67426372e-01 7.68600821e-01 7.70161688e-01 7.71726131e-01 7.72911370e-01 7.74044931e-01 7.75454521e-01 7.76864111e-01 7.77997732e-01 7.79131293e-01 7.80540884e-01 7.81889677e-01 7.82840788e-01 7.83843040e-01 7.85345137e-01 7.86797643e-01 7.87651181e-01 7.88494468e-01 7.89916277e-01 7.91321814e-01 7.92116046e-01 7.92803645e-01 7.93889165e-01 7.95265675e-01 7.96857595e-01 7.98574805e-01 8.00180852e-01 8.01599801e-01 8.02955210e-01 8.04320812e-01 8.05670083e-01 8.06986690e-01 8.08286905e-01 8.09587121e-01 8.10887337e-01 8.12187493e-01 8.13493848e-01 8.14812481e-01 8.16137195e-01 8.17525864e-01 8.19057941e-01 8.20612311e-01 8.21875036e-01 8.22741866e-01 8.23478222e-01 8.24301720e-01 8.25224996e-01 8.26223254e-01 8.27265561e-01 8.28320444e-01 8.29375327e-01 8.30473125e-01 8.31726313e-01 8.33161473e-01 8.34666133e-01 8.36170793e-01 8.37675393e-01 8.39180052e-01 8.40684712e-01 8.42205703e-01 8.43759418e-01 8.45329463e-01 8.46899569e-01 8.48420560e-01 8.49843442e-01 8.51202309e-01 8.52524757e-01 8.53820443e-01 8.55122447e-01 8.56445551e-01 8.57778490e-01 8.59156370e-01 8.60624194e-01 8.62137020e-01 8.63649845e-01 8.65087032e-01 8.66372943e-01 8.67583215e-01 8.68793488e-01 8.70007813e-01 8.71236444e-01 8.72481465e-01 8.73732626e-01 8.75066042e-01 8.76577079e-01 8.78187299e-01 8.79760683e-01 8.81223679e-01 8.82578552e-01 8.83895099e-01 8.85211706e-01 8.86528254e-01 8.87844801e-01 8.89140964e-01 8.90396178e-01 8.91630948e-01 8.92865777e-01 8.94100547e-01 8.95361900e-01 8.96676421e-01 8.98044884e-01 8.99468005e-01 9.00894940e-01 9.02274907e-01 9.03603733e-01 9.04869199e-01 9.06106055e-01 9.07400370e-01 9.08780038e-01 9.10194755e-01 9.11609411e-01 9.13030267e-01 9.14463341e-01 9.15902555e-01 9.17341828e-01 9.18781042e-01 9.20220256e-01 9.21659470e-01 9.23098683e-01 9.24529731e-01 9.25934255e-01 9.27308023e-01 9.28667545e-01 9.30024981e-01 9.31359589e-01 9.32639718e-01 9.33879972e-01 9.35122907e-01 9.36393142e-01 9.37692344e-01 9.39010620e-01 9.40335333e-01 9.41660106e-01 9.42984819e-01 9.44309592e-01 9.45634305e-01 9.46971357e-01 9.48338985e-01 9.49729145e-01 9.51111138e-01 9.52470660e-01 9.53821957e-01 9.55177367e-01 9.56537485e-01 9.57897723e-01 9.59249735e-01 9.60599005e-01 9.61963296e-01 9.63344991e-01 9.64729607e-01 9.66111600e-01 9.67487454e-01 9.68851030e-01 9.70208526e-01 9.71565962e-01 9.72925484e-01 9.74289060e-01 9.75654662e-01 9.77020323e-01 9.78381872e-01 9.79735196e-01 9.81084466e-01 9.82433736e-01 9.83783007e-01 9.85132337e-01 9.86484230e-01 9.87842202e-01 9.89203393e-01 9.90560353e-01 9.91910160e-01 9.93256509e-01 9.94603574e-01 9.95952189e-01 9.97301459e-01 9.98650730e-01 1.00000000e+00 
            </Histogram>
            <HistogramBinning NBins="738">
              -9.99999975e-05 0.00000000e+00 4.57462808e-03 5.66395791e-03 5.93094435e-03 5.93381235e-03 6.20338274e-03 6.47309469e-03 6.74280711e-03 7.00929761e-03 7.23287510e-03 7.28240563e-03 7.55212456e-03 7.82165676e-03 8.03672057e-03 8.09156243e-03 8.36128090e-03 8.63079354e-03 8.84018093e-03 8.90050549e-03 9.16600507e-03 9.17043630e-03 9.43559315e-03 9.43992939e-03 9.47601628e-03 9.70518123e-03 9.70987417e-03 9.97477025e-03 9.97959264e-03 1.00456607e-02 1.02443583e-02 1.02490671e-02 1.02493111e-02 1.04474863e-02 1.05187790e-02 1.05190305e-02 1.05276462e-02 1.07884919e-02 1.07887499e-02 1.08443284e-02 1.10531244e-02 1.10582048e-02 1.10584684e-02 1.12459697e-02 1.13227107e-02 1.13279158e-02 1.13281859e-02 1.14049492e-02 1.15976296e-02 1.15979053e-02 1.16242757e-02 1.18618887e-02 1.18673407e-02 1.18676247e-02 1.20492540e-02 1.20550804e-02 1.21370526e-02 1.21373432e-02 1.22822532e-02 1.24067655e-02 1.24070607e-02 1.24168480e-02 1.26706548e-02 1.26764774e-02 1.26767801e-02 1.27209062e-02 1.29402429e-02 1.29461894e-02 1.29464995e-02 1.30703673e-02 1.32159013e-02 1.32162180e-02 1.32541806e-02 1.34794191e-02 1.34856142e-02 1.34859364e-02 1.36558218e-02 1.37490071e-02 1.37553271e-02 1.37556549e-02 1.40185952e-02 1.40250381e-02 1.40253743e-02 1.40506430e-02 1.42881842e-02 1.42947519e-02 1.42950928e-02 1.44657502e-02 1.45577723e-02 1.45644648e-02 1.45648113e-02 1.48341758e-02 1.48345297e-02 1.48607455e-02 1.50969494e-02 1.51038878e-02 1.51042491e-02 1.52697694e-02 1.53735997e-02 1.53739676e-02 1.56361256e-02 1.56433135e-02 1.56436861e-02 1.59057137e-02 1.59130264e-02 1.59134064e-02 1.60730574e-02 1.61827374e-02 1.61831249e-02 1.64448917e-02 1.64524503e-02 1.64528433e-02 1.64752770e-02 1.67221632e-02 1.67225618e-02 1.69840679e-02 1.69918742e-02 1.69922803e-02 1.72615871e-02 1.72620006e-02 1.75232440e-02 1.75312981e-02 1.76803619e-02 1.78010110e-02 1.78014357e-02 1.80707239e-02 1.80711541e-02 1.80821884e-02 1.83404349e-02 1.83408726e-02 1.86015982e-02 1.86101459e-02 1.88711863e-02 1.88798588e-02 1.88858416e-02 1.91495717e-02 1.91500299e-02 1.94103625e-02 1.94192845e-02 1.96799506e-02 1.96889956e-02 1.96894947e-02 1.99587084e-02 1.99591853e-02 2.02284213e-02 2.02289037e-02 2.04931479e-02 2.04986222e-02 2.07678471e-02 2.07683425e-02 2.10278947e-02 2.10375581e-02 2.12967992e-02 2.13072710e-02 2.13077795e-02 2.15769839e-02 2.15774998e-02 2.18466967e-02 2.18472164e-02 2.21062489e-02 2.21169367e-02 2.23861188e-02 2.23866571e-02 2.26454213e-02 2.26563718e-02 2.29041055e-02 2.29255464e-02 2.29260921e-02 2.31952593e-02 2.32485514e-02 2.34649722e-02 2.34655309e-02 2.37346813e-02 2.37352494e-02 2.40043942e-02 2.40049697e-02 2.42741052e-02 2.42746864e-02 2.45325435e-02 2.45438181e-02 2.48135310e-02 2.48141214e-02 2.50717197e-02 2.50838399e-02 2.53150668e-02 2.53529549e-02 2.53535602e-02 2.56226659e-02 2.57168878e-02 2.58923788e-02 2.58929990e-02 2.61620916e-02 2.61627156e-02 2.64318027e-02 2.65205409e-02 2.67015155e-02 2.67021526e-02 2.69712284e-02 2.69718729e-02 2.72409413e-02 2.73241941e-02 2.75106542e-02 2.75113098e-02 2.77803671e-02 2.77810302e-02 2.80500762e-02 2.81285215e-02 2.83204690e-02 2.85296775e-02 2.85895038e-02 2.88592167e-02 2.88599040e-02 2.91289296e-02 2.91296225e-02 2.93986388e-02 2.93993410e-02 2.96683516e-02 2.97351535e-02 2.99380645e-02 3.01369801e-02 3.02077755e-02 3.04634869e-02 3.04782186e-02 3.07330750e-02 3.07471994e-02 3.09406333e-02 3.10169123e-02 3.12866271e-02 3.13424617e-02 3.15563381e-02 3.17450464e-02 3.18260528e-02 3.20957638e-02 3.20965312e-02 3.23654748e-02 3.25479396e-02 3.26351859e-02 3.29049006e-02 3.29056866e-02 3.31746154e-02 3.31754014e-02 3.34443264e-02 3.36985514e-02 3.37148421e-02 3.39837484e-02 3.41552421e-02 3.42534631e-02 3.45231742e-02 3.45240012e-02 3.47928852e-02 3.49588953e-02 3.50634344e-02 3.53323072e-02 3.53607237e-02 3.56028713e-02 3.58717330e-02 3.58725898e-02 3.61423083e-02 3.64111587e-02 3.64120267e-02 3.66808698e-02 3.69505845e-02 3.69514637e-02 3.72202918e-02 3.73698547e-02 3.74909043e-02 3.77597176e-02 3.77725847e-02 3.80303413e-02 3.82991433e-02 3.85576114e-02 3.85697782e-02 3.88385691e-02 3.90903130e-02 3.91092151e-02 3.93779911e-02 3.96477059e-02 3.96486521e-02 3.99174169e-02 4.01836000e-02 4.01913747e-02 4.04578075e-02 4.07265536e-02 4.09774333e-02 4.09972444e-02 4.12669629e-02 4.15356942e-02 4.17861976e-02 4.18064035e-02 4.20751162e-02 4.23253775e-02 4.23458405e-02 4.26145419e-02 4.28842530e-02 4.29954268e-02 4.31549996e-02 4.34247144e-02 4.36933935e-02 4.39429097e-02 4.39641550e-02 4.42338735e-02 4.45025265e-02 4.47722375e-02 4.50045578e-02 4.50430289e-02 4.53127436e-02 4.55813780e-02 4.58300225e-02 4.60996106e-02 4.62100394e-02 4.63916212e-02 4.66602296e-02 4.69299443e-02 4.71779667e-02 4.74155135e-02 4.74704988e-02 4.77402136e-02 4.80099395e-02 4.82784994e-02 4.85482104e-02 4.87954952e-02 4.90228198e-02 4.90888059e-02 4.93585207e-02 4.96270619e-02 4.98967767e-02 5.01664840e-02 5.04361950e-02 5.06301336e-02 5.07071204e-02 5.09768389e-02 5.12453318e-02 5.15150428e-02 5.17847575e-02 5.20305596e-02 5.22134341e-02 5.23254313e-02 5.25951535e-02 5.28648719e-02 5.31345904e-02 5.34043051e-02 5.36727421e-02 5.39424568e-02 5.42121679e-02 5.44818826e-02 5.47515936e-02 5.50213084e-02 5.52910194e-02 5.55607341e-02 5.58304414e-02 5.61001524e-02 5.63698672e-02 5.66395819e-02 5.69092929e-02 5.71527369e-02 5.74487187e-02 5.76919131e-02 5.78643829e-02 5.82578592e-02 5.85006736e-02 5.87702654e-02 5.90398535e-02 5.90684824e-02 5.94703071e-02 5.98486215e-02 6.01182058e-02 6.02739602e-02 6.06573857e-02 6.09549768e-02 6.12246916e-02 6.14943989e-02 6.17655925e-02 6.20353073e-02 6.23050258e-02 6.28140941e-02 6.31126761e-02 6.33838996e-02 6.36536255e-02 6.39233440e-02 6.42922297e-02 6.46940470e-02 6.50006607e-02 6.52703717e-02 6.55400902e-02 6.58113733e-02 6.60810918e-02 6.63508028e-02 6.66205287e-02 6.71050176e-02 6.74280748e-02 6.76994026e-02 6.79691210e-02 6.84754550e-02 6.87450394e-02 6.90480024e-02 6.93177134e-02 6.95874318e-02 7.01251924e-02 7.03949034e-02 7.06662983e-02 7.11232796e-02 7.14409202e-02 7.17434660e-02 7.20148981e-02 7.25192726e-02 7.28223175e-02 7.30988160e-02 7.36314505e-02 7.39029273e-02 7.44405836e-02 7.47120827e-02 7.51415342e-02 7.55194351e-02 7.59451911e-02 7.63285756e-02 7.65982866e-02 7.71377087e-02 7.74074271e-02 7.79468492e-02 7.82165602e-02 7.87198022e-02 7.90257007e-02 7.95285702e-02 7.98348337e-02 8.01064596e-02 8.06439742e-02 8.09156150e-02 8.14156905e-02 8.17228183e-02 8.22244510e-02 8.25339258e-02 8.30332264e-02 8.35723951e-02 8.38805288e-02 8.43835473e-02 8.47464204e-02 8.52290839e-02 8.57685059e-02 8.60402733e-02 8.65797102e-02 8.71170685e-02 8.76162276e-02 8.79999921e-02 8.84656385e-02 8.89641792e-02 8.92747641e-02 8.98141935e-02 9.03121084e-02 9.08127651e-02 9.11649242e-02 9.17021856e-02 9.22416076e-02 9.25135314e-02 9.30529684e-02 9.35901627e-02 9.41295922e-02 9.46690142e-02 9.51891094e-02 9.56346840e-02 9.62430537e-02 9.65593085e-02 9.70987454e-02 9.76358503e-02 9.81752723e-02 9.87147018e-02 9.92511287e-02 9.96529460e-02 1.00286879e-01 1.00826055e-01 1.01260267e-01 1.01951241e-01 1.02490664e-01 1.03030086e-01 1.03569515e-01 1.04108937e-01 1.04648367e-01 1.05187789e-01 1.05727211e-01 1.06269181e-01 1.06885828e-01 1.07565768e-01 1.08091302e-01 1.08694047e-01 1.09233476e-01 1.09772898e-01 1.10502265e-01 1.11121468e-01 1.11707740e-01 1.12202995e-01 1.12957522e-01 1.13548875e-01 1.14091009e-01 1.14844643e-01 1.15436867e-01 1.15979053e-01 1.16785407e-01 1.17333308e-01 1.18133985e-01 1.18943110e-01 1.19482540e-01 1.20291680e-01 1.20949745e-01 1.21643141e-01 1.22393116e-01 1.22988798e-01 1.23531185e-01 1.24337360e-01 1.25089005e-01 1.25713870e-01 1.26575321e-01 1.27307251e-01 1.28116384e-01 1.28922477e-01 1.29731610e-01 1.30540743e-01 1.31349891e-01 1.32098302e-01 1.32698461e-01 1.33507580e-01 1.34316728e-01 1.35129094e-01 1.36204705e-01 1.37013853e-01 1.37822971e-01 1.38566419e-01 1.39377192e-01 1.40250385e-01 1.41059533e-01 1.41868651e-01 1.42881840e-01 1.43690616e-01 1.44565791e-01 1.45461157e-01 1.46264806e-01 1.47266418e-01 1.48075581e-01 1.49082378e-01 1.50160730e-01 1.51042476e-01 1.52117714e-01 1.52926862e-01 1.54005721e-01 1.54818550e-01 1.55893698e-01 1.56972557e-01 1.58051401e-01 1.59123257e-01 1.60209104e-01 1.61287948e-01 1.62366807e-01 1.63445637e-01 1.64528430e-01 1.66356117e-01 1.69166699e-01 1.69244468e-01 1.69248492e-01 1.69570759e-01 1.75906420e-01 1.75987288e-01 1.75991476e-01 1.75999984e-01 1.82646126e-01 1.82730079e-01 1.82734445e-01 1.82747036e-01 1.89385831e-01 1.89472869e-01 1.89477414e-01 1.89662054e-01 1.96125552e-01 1.96215704e-01 1.96220368e-01 1.96493119e-01 2.02865258e-01 2.02958480e-01 2.02963322e-01 2.03230768e-01 2.09604949e-01 2.09701285e-01 2.09706306e-01 2.09753394e-01 2.16344669e-01 2.16444120e-01 2.16449291e-01 2.18091488e-01 2.23084375e-01 2.23186895e-01 2.23192245e-01 2.27031916e-01 2.29929715e-01 2.29935229e-01 2.32657507e-01 2.36672521e-01 2.36675754e-01 2.38684893e-01 2.43415326e-01 2.43421152e-01 2.50043243e-01 2.50158161e-01 2.50164121e-01 2.52146065e-01 2.56900966e-01 2.56907105e-01 2.62191743e-01 2.63643742e-01 2.63650060e-01 2.70262361e-01 2.70386577e-01 2.72237420e-01 2.77002096e-01 2.77129382e-01 2.82153338e-01 2.83741772e-01 2.83872157e-01 2.90481478e-01 2.90614992e-01 2.92328715e-01 2.97357798e-01 2.97364891e-01 3.03960890e-01 3.04100603e-01 3.10700595e-01 3.10843408e-01 3.12420040e-01 3.17586243e-01 3.17593813e-01 3.24329019e-01 3.24336767e-01 3.31071824e-01 3.32358629e-01 3.37814629e-01 3.37822706e-01 3.44557434e-01 3.51138830e-01 3.51300240e-01 3.57878566e-01 3.58051598e-01 3.64618272e-01 3.64794612e-01 3.71528655e-01 3.78097683e-01 3.78280520e-01 3.85014296e-01 3.91577095e-01 3.91766459e-01 3.98499906e-01 4.02830958e-01 4.05242711e-01 4.11985487e-01 4.18535948e-01 4.22922283e-01 4.25471127e-01 4.32213932e-01 4.38956738e-01 4.43013638e-01 4.52234536e-01 4.53059256e-01 4.63104934e-01 4.65927958e-01 4.72933203e-01 4.79425043e-01 4.86156404e-01 4.93241906e-01 5.03287613e-01 5.06396890e-01 5.13333261e-01 5.23378909e-01 5.33356071e-01 5.40098846e-01 5.46841681e-01 5.53584456e-01 5.60340643e-01 5.73607206e-01 5.80555737e-01 5.93698502e-01 6.00784123e-01 6.13789856e-01 6.21027410e-01 6.34498179e-01 6.47686064e-01 6.54726565e-01 6.68212175e-01 6.81384623e-01 6.94155097e-01 7.08343565e-01 7.21822858e-01 7.34000385e-01 7.48781681e-01 7.62611508e-01 7.76097059e-01 7.95959651e-01 8.09811175e-01 8.24748635e-01 8.43525171e-01 8.63753617e-01 8.83575916e-01 9.04210389e-01 9.24438834e-01 9.44667339e-01 9.71192122e-01 9.91866887e-01 1.01211953e+00 1.03906655e+00 1.06554794e+00 1.09300900e+00 1.11998034e+00 1.14697886e+00 1.18012309e+00 1.21437955e+00 1.24809361e+00 1.29529333e+00 1.32900727e+00 1.37725997e+00 1.43014932e+00 1.47734904e+00 1.53129148e+00 1.58523381e+00 1.64591944e+00 1.71256018e+00 1.77403247e+00 1.84820330e+00 1.92237425e+00 2.01677370e+00 2.11059308e+00 2.20100403e+00 2.31150651e+00 2.42022967e+00 2.54945540e+00 2.69105434e+00 2.84613895e+00 3.01470256e+00 3.21561575e+00 3.45140529e+00 3.68898988e+00 4.05984449e+00 4.49138355e+00 5.19461107e+00 6.66256714e+00 8.25387001e+00 
            </HistogramBinning>
          </PDF>
        </CumulativePDF_cls0>
      </Variable>
      <Variable VarIndex="3">
        <CumulativePDF_cls0>
          <PDF Name="GaussTransform var3 cls0" MinNSmooth="0" MaxNSmooth="0" InterpolMethod="1" KDE_type="0" KDE_iter="1" KDE_border="1" KDE_finefactor="0.0000000000000000e+00">
            <Histogram Name="Cumulative_Var3_cls0_original" NBins="747" XMin="-9.9999997473787516e-05" XMax="9.4037427902221680e+00" HasEquidistantBins="0">
              3.41764862e-05 9.10702860e-04 2.08476582e-03 3.28295305e-03 4.50928602e-03 5.74969128e-03 6.99411752e-03 8.28830060e-03 9.66993533e-03 1.10932859e-02 1.25166355e-02 1.39550641e-02 1.54266637e-02 1.69103257e-02 1.83578003e-02 1.97540093e-02 2.11291108e-02 2.25042123e-02 2.39034370e-02 2.53509115e-02 2.68225111e-02 2.82941107e-02 2.97134407e-02 3.10037695e-02 3.21962610e-02 3.33941132e-02 3.46415564e-02 3.59121151e-02 3.71826775e-02 3.84532399e-02 3.97479236e-02 4.10908610e-02 4.24719937e-02 4.38812710e-02 4.53046188e-02 4.67340015e-02 4.81754430e-02 4.96229194e-02 5.10703959e-02 5.25178686e-02 5.37713431e-02 5.46368100e-02 5.55520356e-02 5.69547825e-02 5.86198792e-02 6.03221692e-02 6.20430559e-02 6.37639463e-02 6.54848292e-02 6.72057196e-02 6.89266026e-02 7.04027265e-02 7.13893175e-02 7.24492967e-02 7.41455555e-02 7.61147216e-02 7.79934227e-02 7.98268914e-02 8.16603601e-02 8.34938288e-02 8.53252858e-02 8.71527269e-02 8.87685642e-02 8.99652466e-02 9.11453441e-02 9.27114263e-02 9.44529250e-02 9.61592346e-02 9.78479534e-02 9.95366722e-02 1.01225391e-01 1.02914117e-01 1.04602836e-01 1.06126703e-01 1.07320875e-01 1.08508252e-01 1.10011764e-01 1.11726619e-01 1.13560088e-01 1.15441807e-01 1.17206924e-01 1.18802160e-01 1.20337844e-01 1.21895134e-01 1.23286314e-01 1.24323674e-01 1.25445470e-01 1.27089962e-01 1.28909349e-01 1.30555853e-01 1.32115915e-01 1.33655027e-01 1.35145158e-01 1.36606857e-01 1.38101250e-01 1.39661133e-01 1.41247630e-01 1.42786384e-01 1.44239157e-01 1.45636186e-01 1.47042215e-01 1.48487344e-01 1.49950907e-01 1.51414454e-01 1.52878016e-01 1.54323488e-01 1.55732766e-01 1.57123938e-01 1.58515126e-01 1.59906313e-01 1.61297500e-01 1.62688673e-01 1.64079860e-01 1.65452957e-01 1.66789860e-01 1.68108672e-01 1.69427484e-01 1.70746297e-01 1.72119379e-01 1.73601031e-01 1.75136968e-01 1.76672891e-01 1.78136155e-01 1.79428235e-01 1.80616885e-01 1.81889355e-01 1.83341071e-01 1.84893787e-01 1.86397597e-01 1.87744766e-01 1.88944712e-01 1.90094650e-01 1.91244587e-01 1.92394525e-01 1.93542451e-01 1.94686353e-01 1.95828259e-01 1.96970150e-01 1.98132157e-01 1.99334368e-01 2.00556681e-01 2.01778993e-01 2.02981189e-01 2.04143196e-01 2.05285087e-01 2.06426993e-01 2.07576931e-01 2.08785161e-01 2.10085884e-01 2.11456969e-01 2.12889031e-01 2.14339852e-01 2.15715617e-01 2.16988191e-01 2.18218550e-01 2.19448894e-01 2.20679253e-01 2.21909612e-01 2.23158553e-01 2.24386394e-01 2.25574538e-01 2.26758644e-01 2.27884963e-01 2.28966042e-01 2.30055675e-01 2.31145307e-01 2.32234925e-01 2.33329579e-01 2.34434292e-01 2.35544011e-01 2.36659780e-01 2.37784088e-01 2.38907382e-01 2.40027174e-01 2.41161019e-01 2.42382824e-01 2.43738338e-01 2.45153636e-01 2.46583015e-01 2.48026475e-01 2.49469936e-01 2.50913382e-01 2.52332717e-01 2.53732115e-01 2.55089611e-01 2.56311923e-01 2.57418990e-01 2.58536756e-01 2.59793907e-01 2.61232078e-01 2.62750179e-01 2.64213741e-01 2.65574098e-01 2.66888618e-01 2.68206030e-01 2.69524813e-01 2.70843625e-01 2.72166461e-01 2.73493320e-01 2.74820179e-01 2.76121885e-01 2.77422607e-01 2.78747439e-01 2.80072302e-01 2.81397134e-01 2.82721967e-01 2.84084022e-01 2.85467148e-01 2.86834210e-01 2.88201272e-01 2.89568335e-01 2.90935397e-01 2.92240143e-01 2.93380022e-01 2.94377178e-01 2.95334101e-01 2.96297073e-01 2.97272116e-01 2.98253179e-01 2.99234241e-01 3.00237417e-01 3.01284850e-01 3.02379161e-01 3.03523064e-01 3.04782242e-01 3.06267232e-01 3.07931840e-01 3.09593737e-01 3.11138391e-01 3.12606454e-01 3.14089805e-01 3.15598071e-01 3.17109883e-01 3.18579465e-01 3.19959015e-01 3.21287811e-01 3.22641462e-01 3.24048042e-01 3.25465620e-01 3.26854885e-01 3.28229994e-01 3.29605073e-01 3.30980182e-01 3.32347244e-01 3.33698213e-01 3.35041165e-01 3.36376041e-01 3.37672740e-01 3.38917166e-01 3.40139478e-01 3.41361791e-01 3.42584103e-01 3.43821317e-01 3.45048159e-01 3.46208811e-01 3.47366810e-01 3.48651260e-01 3.50073457e-01 3.51545036e-01 3.53016645e-01 3.54488254e-01 3.55959833e-01 3.57431442e-01 3.58929694e-01 3.60485882e-01 3.62041235e-01 3.63449186e-01 3.64663452e-01 3.65767419e-01 3.66814554e-01 3.67869020e-01 3.69035035e-01 3.70359540e-01 3.71788591e-01 3.73214871e-01 3.74555886e-01 3.75792474e-01 3.76956463e-01 3.78096461e-01 3.79265308e-01 3.80482256e-01 3.81736726e-01 3.83028746e-01 3.84334147e-01 3.85602266e-01 3.86820316e-01 3.88018519e-01 3.89216691e-01 3.90414894e-01 3.91613066e-01 3.92861515e-01 3.94210488e-01 3.95609707e-01 3.97008926e-01 3.98408651e-01 3.99809390e-01 4.01202589e-01 4.02579695e-01 4.03945744e-01 4.05305773e-01 4.06662792e-01 4.08019781e-01 4.09379661e-01 4.10745859e-01 4.12115604e-01 4.13482666e-01 4.14845049e-01 4.16201025e-01 4.17548329e-01 4.18891251e-01 4.20234203e-01 4.21577126e-01 4.22920078e-01 4.24263000e-01 4.25579816e-01 4.26844329e-01 4.28082734e-01 4.29317117e-01 4.30543423e-01 4.31737512e-01 4.32863414e-01 4.33942318e-01 4.35039997e-01 4.36184555e-01 4.37347919e-01 4.38614041e-01 4.40071642e-01 4.41594511e-01 4.43096250e-01 4.44598019e-01 4.46099758e-01 4.47595507e-01 4.49079156e-01 4.50486928e-01 4.51754987e-01 4.52953160e-01 4.54151362e-01 4.55396861e-01 4.56759483e-01 4.58198905e-01 4.59555805e-01 4.60747212e-01 4.61878538e-01 4.63055730e-01 4.64275509e-01 4.65475708e-01 4.66609567e-01 4.67735380e-01 4.68950421e-01 4.70289916e-01 4.71711934e-01 4.73112494e-01 4.74415213e-01 4.75642800e-01 4.76867825e-01 4.78158921e-01 4.79538202e-01 4.80956763e-01 4.82347965e-01 4.83694911e-01 4.85008955e-01 4.86291319e-01 4.87572938e-01 4.88884717e-01 4.90211576e-01 4.91538405e-01 4.92865264e-01 4.94192123e-01 4.95518982e-01 4.96831745e-01 4.98116374e-01 4.99386936e-01 5.00657499e-01 5.01940131e-01 5.03246903e-01 5.04565716e-01 5.05884528e-01 5.07203281e-01 5.08528173e-01 5.09865046e-01 5.11207998e-01 5.12550950e-01 5.13893843e-01 5.15232801e-01 5.16563654e-01 5.17890513e-01 5.19217372e-01 5.20544231e-01 5.21869183e-01 5.23182511e-01 5.24474502e-01 5.25753081e-01 5.27034879e-01 5.28325737e-01 5.29620409e-01 5.30916512e-01 5.32228529e-01 5.33568799e-01 5.34911752e-01 5.36216378e-01 5.37478328e-01 5.38724780e-01 5.39971173e-01 5.41217625e-01 5.42478144e-01 5.43766797e-01 5.45069516e-01 5.46372235e-01 5.47674954e-01 5.48977673e-01 5.50259829e-01 5.51521361e-01 5.52782834e-01 5.54054439e-01 5.55366695e-01 5.56709647e-01 5.58052540e-01 5.59395492e-01 5.60738444e-01 5.62081337e-01 5.63424289e-01 5.64755201e-01 5.66062927e-01 5.67356586e-01 5.68647265e-01 5.69937944e-01 5.71228623e-01 5.72519243e-01 5.73809922e-01 5.75105786e-01 5.76408029e-01 5.77725470e-01 5.79076469e-01 5.80448866e-01 5.81804693e-01 5.83126724e-01 5.84433436e-01 5.85740209e-01 5.87043941e-01 5.88341653e-01 5.89636326e-01 5.90930998e-01 5.92225671e-01 5.93520403e-01 5.94815075e-01 5.96111774e-01 5.97412467e-01 5.98715186e-01 6.00017965e-01 6.01320684e-01 6.02623403e-01 6.03937149e-01 6.05273068e-01 6.06626570e-01 6.07993126e-01 6.09374225e-01 6.10773504e-01 6.12181246e-01 6.13573968e-01 6.14943027e-01 6.16302013e-01 6.17661059e-01 6.19010031e-01 6.20338857e-01 6.21657670e-01 6.22976482e-01 6.24295294e-01 6.25614107e-01 6.26942992e-01 6.28291965e-01 6.29650950e-01 6.31009996e-01 6.32368982e-01 6.33717954e-01 6.35046840e-01 6.36365652e-01 6.37684464e-01 6.39003277e-01 6.40322089e-01 6.41640902e-01 6.42959714e-01 6.44278526e-01 6.45629466e-01 6.47012591e-01 6.48395777e-01 6.49762809e-01 6.51065528e-01 6.52320027e-01 6.53574526e-01 6.54828966e-01 6.56083465e-01 6.57351494e-01 6.58653259e-01 6.59981072e-01 6.61312938e-01 6.62641346e-01 6.63968205e-01 6.65295005e-01 6.66621864e-01 6.67948723e-01 6.69275582e-01 6.70602441e-01 6.71929300e-01 6.73251271e-01 6.74573600e-01 6.75911188e-01 6.77266836e-01 6.78639293e-01 6.80014372e-01 6.81362689e-01 6.82680964e-01 6.83994949e-01 6.85313761e-01 6.86632574e-01 6.87948823e-01 6.89260125e-01 6.90568864e-01 6.91874087e-01 6.93172336e-01 6.94467008e-01 6.95761681e-01 6.97066426e-01 6.98391259e-01 6.99726164e-01 7.01061070e-01 7.02397943e-01 7.03739583e-01 7.05083847e-01 7.06417382e-01 7.07728148e-01 7.09023356e-01 7.10313499e-01 7.11603642e-01 7.12896824e-01 7.14208126e-01 7.15552568e-01 7.16913581e-01 7.18274593e-01 7.19623089e-01 7.20946431e-01 7.22257197e-01 7.23567963e-01 7.24878728e-01 7.26193488e-01 7.27516353e-01 7.28843212e-01 7.30170071e-01 7.31496871e-01 7.32826233e-01 7.34161496e-01 7.35500038e-01 7.36835301e-01 7.38152087e-01 7.39441276e-01 7.40717828e-01 7.41980851e-01 7.43194640e-01 7.44343877e-01 7.45460331e-01 7.46587157e-01 7.47740090e-01 7.49150872e-01 7.51053870e-01 7.52906442e-01 7.54165947e-01 7.55425453e-01 7.57278025e-01 7.59130597e-01 7.60390103e-01 7.61661649e-01 7.63550401e-01 7.65436649e-01 7.66700685e-01 7.67857134e-01 7.69420743e-01 7.70977795e-01 7.72114635e-01 7.73167074e-01 7.74470806e-01 7.75774539e-01 7.76826978e-01 7.77879417e-01 7.79183149e-01 7.80475795e-01 7.81495094e-01 7.82533467e-01 7.83883393e-01 7.85233378e-01 7.86271751e-01 7.87248433e-01 7.88413465e-01 7.89755046e-01 7.91288316e-01 7.92928815e-01 7.94453979e-01 7.95781553e-01 7.97021687e-01 7.98255980e-01 7.99590886e-01 8.01167011e-01 8.02879870e-01 8.04473817e-01 8.05873036e-01 8.07191551e-01 8.08470368e-01 8.09772134e-01 8.11254442e-01 8.12886834e-01 8.14507544e-01 8.16057920e-01 8.17577720e-01 8.19097579e-01 8.20593059e-01 8.22026074e-01 8.23413551e-01 8.24809432e-01 8.26236129e-01 8.27677906e-01 8.29124033e-01 8.30580831e-01 8.32040071e-01 8.33495617e-01 8.34951103e-01 8.36392581e-01 8.37805867e-01 8.39205086e-01 8.40604305e-01 8.42003524e-01 8.43402803e-01 8.44802022e-01 8.46201241e-01 8.47600460e-01 8.48961473e-01 8.50246131e-01 8.51492524e-01 8.52738976e-01 8.53985429e-01 8.55231881e-01 8.56478274e-01 8.57724726e-01 8.58991265e-01 8.60298038e-01 8.61624897e-01 8.62951756e-01 8.64278555e-01 8.65605414e-01 8.66932273e-01 8.68277252e-01 8.69658351e-01 8.71057570e-01 8.72456789e-01 8.73856008e-01 8.75255287e-01 8.76612246e-01 8.77884865e-01 8.79115224e-01 8.80345523e-01 8.81575882e-01 8.82850468e-01 8.84200275e-01 8.85592639e-01 8.87029171e-01 8.88497055e-01 8.89915407e-01 8.91225159e-01 8.92455518e-01 8.93694699e-01 8.94987583e-01 8.96306396e-01 8.97625208e-01 8.98944020e-01 9.00262833e-01 9.01581645e-01 9.02898431e-01 9.04211223e-01 9.05521989e-01 9.06832755e-01 9.08143520e-01 9.09454286e-01 9.10765052e-01 9.12075877e-01 9.13386643e-01 9.14699376e-01 9.16047335e-01 9.17428493e-01 9.18782473e-01 9.20113325e-01 9.21448231e-01 9.22783136e-01 9.24118042e-01 9.25452948e-01 9.26787794e-01 9.28130746e-01 9.29489791e-01 9.30856824e-01 9.32223916e-01 9.33574855e-01 9.34893668e-01 9.36196387e-01 9.37499106e-01 9.38801885e-01 9.40123677e-01 9.41483736e-01 9.42858815e-01 9.44225848e-01 9.45588887e-01 9.46944892e-01 9.48286831e-01 9.49621737e-01 9.50956643e-01 9.52279449e-01 9.53578174e-01 9.54884887e-01 9.56231892e-01 9.57588851e-01 9.58925784e-01 9.60252643e-01 9.61579502e-01 9.62906361e-01 9.64233160e-01 9.65561509e-01 9.66893077e-01 9.68226016e-01 9.69551742e-01 9.70862269e-01 9.72162902e-01 9.73467410e-01 9.74781752e-01 9.76100564e-01 9.77419376e-01 9.78742242e-01 9.80073094e-01 9.81408000e-01 9.82742906e-01 9.84075785e-01 9.85404611e-01 9.86731470e-01 9.88058329e-01 9.89385188e-01 9.90712047e-01 9.92038906e-01 9.93365765e-01 9.94692564e-01 9.96019423e-01 9.97346282e-01 9.98673141e-01 1.00000000e+00 
            </Histogram>
            <HistogramBinning NBins="747">
              -9.99999975e-05 0.00000000e+00 4.57462808e-03 5.66395791e-03 5.93367033e-03 6.02739584e-03 6.20353036e-03 6.47309469e-03 6.74280711e-03 7.01251905e-03 7.23304786e-03 7.28240563e-03 7.55212456e-03 7.82165676e-03 8.08765087e-03 8.16897862e-03 8.36128090e-03 8.63079354e-03 8.84018093e-03 8.90050549e-03 9.17021744e-03 9.17043630e-03 9.43559315e-03 9.44015477e-03 9.64383315e-03 9.70964227e-03 9.70987417e-03 9.97935422e-03 9.97959264e-03 1.00410450e-02 1.02443583e-02 1.02490671e-02 1.02493111e-02 1.04477368e-02 1.05187790e-02 1.05190305e-02 1.07835354e-02 1.07884919e-02 1.07887499e-02 1.08493129e-02 1.10531244e-02 1.10582048e-02 1.10584684e-02 1.12459697e-02 1.13227107e-02 1.13279158e-02 1.13281859e-02 1.15923006e-02 1.15976296e-02 1.15979053e-02 1.16242757e-02 1.18618887e-02 1.18673407e-02 1.18676247e-02 1.20492540e-02 1.20550804e-02 1.21370526e-02 1.21373432e-02 1.22822532e-02 1.24067655e-02 1.24070607e-02 1.24168480e-02 1.26706548e-02 1.26764774e-02 1.26767801e-02 1.27209062e-02 1.28587512e-02 1.29461894e-02 1.29464995e-02 1.30703673e-02 1.32159013e-02 1.32162180e-02 1.32541806e-02 1.33971265e-02 1.34856142e-02 1.34859364e-02 1.35982092e-02 1.37238856e-02 1.37553271e-02 1.37556549e-02 1.40185952e-02 1.40250381e-02 1.40253743e-02 1.40368612e-02 1.42881842e-02 1.42947519e-02 1.42950928e-02 1.44657502e-02 1.45577723e-02 1.45644648e-02 1.45648113e-02 1.48341758e-02 1.48345297e-02 1.48607455e-02 1.50969494e-02 1.51038878e-02 1.51042491e-02 1.52694033e-02 1.53735997e-02 1.53739676e-02 1.56361256e-02 1.56433135e-02 1.56436861e-02 1.56712309e-02 1.59130264e-02 1.59134064e-02 1.60656739e-02 1.61753017e-02 1.61827374e-02 1.61831249e-02 1.64524503e-02 1.64528433e-02 1.64748840e-02 1.67221632e-02 1.67225618e-02 1.68767087e-02 1.69918742e-02 1.69922803e-02 1.72615871e-02 1.72620006e-02 1.75232440e-02 1.75312981e-02 1.75317172e-02 1.76807847e-02 1.78010110e-02 1.78014357e-02 1.80707239e-02 1.80711541e-02 1.83320101e-02 1.83408726e-02 1.84840150e-02 1.86101459e-02 1.86105929e-02 1.88798588e-02 1.88803095e-02 1.91407744e-02 1.91495717e-02 1.92876663e-02 1.94192845e-02 1.94197483e-02 1.96889956e-02 1.96894668e-02 1.99587084e-02 1.99591853e-02 2.02191286e-02 2.02284213e-02 2.02289037e-02 2.04981342e-02 2.04986222e-02 2.07678471e-02 2.07683425e-02 2.10278947e-02 2.10380610e-02 2.12973095e-02 2.13072710e-02 2.13077795e-02 2.15769839e-02 2.15774998e-02 2.18466967e-02 2.18472164e-02 2.21009813e-02 2.21164096e-02 2.23861188e-02 2.23866571e-02 2.25022789e-02 2.26558316e-02 2.28935834e-02 2.29255464e-02 2.29260921e-02 2.31952593e-02 2.31958106e-02 2.34541874e-02 2.34649722e-02 2.37077568e-02 2.37346813e-02 2.37352494e-02 2.40043942e-02 2.40049697e-02 2.42629535e-02 2.42746864e-02 2.45119948e-02 2.45438181e-02 2.48021297e-02 2.48141214e-02 2.50717197e-02 2.50832420e-02 2.53034327e-02 2.53529549e-02 2.53535602e-02 2.56226659e-02 2.56232787e-02 2.58804858e-02 2.58929990e-02 2.61187162e-02 2.61620916e-02 2.64196619e-02 2.64324360e-02 2.65211780e-02 2.67015155e-02 2.69223694e-02 2.69712284e-02 2.72284281e-02 2.72415895e-02 2.74157431e-02 2.75113098e-02 2.77266838e-02 2.77803671e-02 2.80500762e-02 2.80507486e-02 2.83067785e-02 2.83204690e-02 2.85763685e-02 2.85901856e-02 2.88592167e-02 2.89182086e-02 2.91289296e-02 2.91296225e-02 2.93986388e-02 2.93993410e-02 2.96690594e-02 2.97351535e-02 2.99380645e-02 3.01938988e-02 3.02084982e-02 3.04774884e-02 3.04782186e-02 3.07471994e-02 3.09264194e-02 3.10169123e-02 3.12722512e-02 3.12873721e-02 3.15563381e-02 3.15570906e-02 3.18260528e-02 3.20810191e-02 3.20965312e-02 3.23654748e-02 3.23662497e-02 3.26351859e-02 3.28897834e-02 3.29056866e-02 3.31746154e-02 3.31754014e-02 3.34443264e-02 3.36561948e-02 3.37148421e-02 3.39681357e-02 3.39845605e-02 3.42534631e-02 3.42542790e-02 3.45240012e-02 3.47769000e-02 3.47937159e-02 3.50625962e-02 3.50634344e-02 3.53331491e-02 3.55856642e-02 3.56028713e-02 3.58717330e-02 3.61248441e-02 3.61423083e-02 3.64111587e-02 3.64120267e-02 3.66808698e-02 3.69505845e-02 3.69514637e-02 3.72202918e-02 3.74727808e-02 3.74909043e-02 3.77597176e-02 3.80119570e-02 3.80303413e-02 3.82991433e-02 3.85688543e-02 3.85753326e-02 3.88394967e-02 3.91082801e-02 3.93599011e-02 3.93789336e-02 3.96477059e-02 3.98990810e-02 3.99183705e-02 4.01871316e-02 4.04568426e-02 4.05844674e-02 4.07265536e-02 4.09862958e-02 4.09972444e-02 4.12659794e-02 4.15166132e-02 4.15366851e-02 4.18064035e-02 4.20751162e-02 4.23448272e-02 4.23458405e-02 4.26145419e-02 4.28842530e-02 4.31341417e-02 4.31549996e-02 4.34236787e-02 4.36933935e-02 4.39429097e-02 4.39641550e-02 4.42328192e-02 4.45025265e-02 4.46037948e-02 4.50045578e-02 4.50430289e-02 4.53116633e-02 4.55813780e-02 4.58082110e-02 4.58521843e-02 4.61219028e-02 4.63905185e-02 4.66602296e-02 4.69299443e-02 4.70136888e-02 4.72007804e-02 4.74693626e-02 4.77390774e-02 4.78173420e-02 4.80099395e-02 4.82784994e-02 4.85493727e-02 4.88179252e-02 4.90876362e-02 4.93346751e-02 4.94246483e-02 4.96282429e-02 4.98979613e-02 5.01664840e-02 5.04361950e-02 5.07059097e-02 5.09522036e-02 5.10319546e-02 5.12465574e-02 5.15162796e-02 5.17859980e-02 5.20544685e-02 5.23241833e-02 5.25938943e-02 5.26392609e-02 5.30167222e-02 5.31345904e-02 5.34043051e-02 5.36740273e-02 5.39437458e-02 5.42134605e-02 5.44818826e-02 5.47515936e-02 5.50213084e-02 5.52910194e-02 5.55607341e-02 5.58304414e-02 5.61001524e-02 5.63698672e-02 5.66395819e-02 5.69092929e-02 5.71527369e-02 5.74347824e-02 5.76919131e-02 5.79615012e-02 5.82578592e-02 5.85275702e-02 5.87702654e-02 5.90398535e-02 5.93094416e-02 5.95790334e-02 5.98721355e-02 6.01182058e-02 6.03877977e-02 6.06757887e-02 6.09549768e-02 6.12246916e-02 6.14943989e-02 6.17655925e-02 6.20353073e-02 6.23050258e-02 6.26849234e-02 6.30836859e-02 6.33532703e-02 6.36521056e-02 6.39218166e-02 6.41915277e-02 6.44627735e-02 6.47324994e-02 6.50958791e-02 6.54977039e-02 6.57795668e-02 6.60795122e-02 6.63492307e-02 6.66205287e-02 6.68902472e-02 6.71599656e-02 6.75084442e-02 6.79362714e-02 6.82372153e-02 6.85085580e-02 6.87782839e-02 6.91141412e-02 6.95176348e-02 6.98554814e-02 7.01251924e-02 7.03965798e-02 7.06662983e-02 7.09360242e-02 7.14409202e-02 7.17434660e-02 7.20131770e-02 7.22846165e-02 7.25543350e-02 7.30920285e-02 7.33617395e-02 7.36332089e-02 7.39360601e-02 7.44405836e-02 7.47120827e-02 7.51433298e-02 7.55194351e-02 7.57909566e-02 7.63285756e-02 7.65982866e-02 7.71022737e-02 7.74074271e-02 7.76789933e-02 7.79543221e-02 7.84862787e-02 7.87578672e-02 7.92954117e-02 7.95670226e-02 8.01045522e-02 8.03742632e-02 8.08765143e-02 8.11834037e-02 8.15332904e-02 8.19745436e-02 8.23365673e-02 8.27762485e-02 8.31780583e-02 8.36108029e-02 8.41115788e-02 8.44199508e-02 8.49593803e-02 8.54595229e-02 8.57685059e-02 8.62682834e-02 8.65776464e-02 8.71170685e-02 8.75981525e-02 8.79283100e-02 8.84656385e-02 8.88036340e-02 8.92747641e-02 8.98141935e-02 9.03121084e-02 9.08127651e-02 9.11649242e-02 9.17021856e-02 9.22416076e-02 9.25135314e-02 9.30529684e-02 9.35901627e-02 9.38621238e-02 9.44015607e-02 9.49387252e-02 9.54781547e-02 9.59734544e-02 9.64383334e-02 9.68401656e-02 9.73684564e-02 9.79078934e-02 9.84449759e-02 9.89844054e-02 9.95238274e-02 1.00063257e-01 1.00602679e-01 1.01142108e-01 1.01662077e-01 1.02063909e-01 1.02490664e-01 1.03032559e-01 1.03571996e-01 1.04111426e-01 1.04650863e-01 1.05230153e-01 1.05729744e-01 1.06487408e-01 1.07075781e-01 1.07689478e-01 1.08157210e-01 1.08897552e-01 1.09503187e-01 1.10042617e-01 1.10582039e-01 1.11124121e-01 1.11930594e-01 1.12472706e-01 1.13279164e-01 1.13821305e-01 1.14520527e-01 1.15167141e-01 1.15709327e-01 1.16462179e-01 1.17055140e-01 1.17735140e-01 1.18403688e-01 1.18945964e-01 1.19752258e-01 1.20561384e-01 1.21351577e-01 1.21912874e-01 1.22722022e-01 1.23528227e-01 1.24164358e-01 1.24879770e-01 1.25685930e-01 1.26228362e-01 1.27034485e-01 1.27780795e-01 1.28386125e-01 1.29461899e-01 1.30271032e-01 1.31080180e-01 1.31892458e-01 1.32701606e-01 1.33507580e-01 1.34524599e-01 1.35395572e-01 1.36207953e-01 1.37220487e-01 1.38092697e-01 1.38901830e-01 1.39710963e-01 1.40642613e-01 1.41598955e-01 1.42408088e-01 1.43220648e-01 1.44255683e-01 1.45105213e-01 1.46116897e-01 1.46993205e-01 1.47872120e-01 1.48884743e-01 1.49963617e-01 1.51086733e-01 1.52117714e-01 1.53126195e-01 1.54275417e-01 1.55088276e-01 1.56091675e-01 1.57114118e-01 1.58248380e-01 1.59134045e-01 1.60328731e-01 1.61483452e-01 1.62366807e-01 1.63449541e-01 1.64524496e-01 1.65607303e-01 1.69166699e-01 1.69244468e-01 1.69248492e-01 1.69492841e-01 1.75906420e-01 1.75987288e-01 1.75991476e-01 1.75999984e-01 1.82345375e-01 1.82730079e-01 1.82734445e-01 1.82747036e-01 1.89385831e-01 1.89472869e-01 1.89477414e-01 1.89662054e-01 1.96125552e-01 1.96215704e-01 1.96220368e-01 1.96493119e-01 2.02865258e-01 2.02958480e-01 2.02963322e-01 2.03725979e-01 2.09604949e-01 2.09701285e-01 2.09706306e-01 2.09753394e-01 2.16344669e-01 2.16444120e-01 2.16449291e-01 2.16986269e-01 2.23084375e-01 2.23186895e-01 2.23192245e-01 2.27439180e-01 2.29929715e-01 2.29935229e-01 2.32657507e-01 2.36563787e-01 2.36672521e-01 2.36678168e-01 2.43303508e-01 2.43415326e-01 2.43421152e-01 2.50043243e-01 2.50158161e-01 2.50164121e-01 2.52146065e-01 2.56900966e-01 2.56907105e-01 2.62191743e-01 2.63643742e-01 2.63650060e-01 2.70386577e-01 2.70393044e-01 2.72237420e-01 2.77129382e-01 2.77136028e-01 2.83741772e-01 2.83872157e-01 2.83878952e-01 2.90614992e-01 2.90621907e-01 2.97221184e-01 2.97357798e-01 3.02374393e-01 3.04100603e-01 3.04107845e-01 3.10843408e-01 3.10850829e-01 3.17440331e-01 3.17586243e-01 3.24180007e-01 3.24329019e-01 3.31071824e-01 3.31079721e-01 3.37814629e-01 3.37822706e-01 3.44399154e-01 3.44565690e-01 3.51300240e-01 3.52602661e-01 3.58043075e-01 3.62648308e-01 3.64785880e-01 3.71528655e-01 3.72522771e-01 3.78271461e-01 3.82739663e-01 3.85014296e-01 3.91757101e-01 3.92785311e-01 3.98499906e-01 4.05242711e-01 4.11985487e-01 4.12876636e-01 4.18728322e-01 4.25471127e-01 4.32213932e-01 4.32967961e-01 4.38956738e-01 4.45699573e-01 4.52442348e-01 4.58974242e-01 4.63116020e-01 4.72453624e-01 4.73150581e-01 4.79425043e-01 4.86156404e-01 4.92910951e-01 4.99653965e-01 5.06384850e-01 5.13333261e-01 5.23378909e-01 5.33179522e-01 5.40098846e-01 5.46841681e-01 5.53584456e-01 5.63561559e-01 5.73607206e-01 5.80555737e-01 5.87312520e-01 6.00784123e-01 6.07541442e-01 6.21012568e-01 6.33589923e-01 6.41240954e-01 6.54425800e-01 6.61485195e-01 6.74955010e-01 6.88124359e-01 6.95199966e-01 7.14246452e-01 7.24292099e-01 7.42041945e-01 7.54429042e-01 7.69354284e-01 7.82858670e-01 8.03068340e-01 8.22918475e-01 8.36782336e-01 8.56617033e-01 8.76836181e-01 8.95068347e-01 9.10953224e-01 9.31181669e-01 9.51432884e-01 9.75433648e-01 9.98609722e-01 1.02558100e+00 1.04580951e+00 1.07278061e+00 1.09924662e+00 1.12672305e+00 1.15625548e+00 1.18740845e+00 1.22112250e+00 1.25425994e+00 1.28855050e+00 1.32839668e+00 1.36946428e+00 1.42275262e+00 1.46319115e+00 1.50785375e+00 1.55808187e+00 1.61220515e+00 1.66614759e+00 1.73951900e+00 1.80774677e+00 1.88866031e+00 1.96957397e+00 2.05628538e+00 2.14488697e+00 2.25847673e+00 2.36065674e+00 2.47414732e+00 2.60339785e+00 2.74499679e+00 2.90682411e+00 3.08888006e+00 3.28442144e+00 3.52703166e+00 3.79687452e+00 4.15424347e+00 4.60601187e+00 5.30052042e+00 7.45147657e+00 9.40374279e+00 
            </HistogramBinning>
          </PDF>
        </CumulativePDF_cls0>
      </Variable>
      <Variable VarIndex="4">
        <CumulativePDF_cls0>
          <PDF Name="GaussTransform var4 cls0" MinNSmooth="0" MaxNSmooth="0" InterpolMethod="1" KDE_type="0" KDE_iter="1" KDE_border="1" KDE_finefactor="0.0000000000000000e+00">
            <Histogram Name="Cumulative_Var4_cls0_original" NBins="744" XMin="-9.9999997473787516e-05" XMax="8.1999282836914062e+00" HasEquidistantBins="0">
              1.37434225e-04 1.11454772e-03 2.47533177e-03 3.82735766e-03 5.03908610e-03 6.18268736e-03 7.39163673e-03 8.72303080e-03 1.01135420e-02 1.15040522e-02 1.28945634e-02 1.43405702e-02 1.59063265e-02 1.75151154e-02 1.90157760e-02 2.03434639e-02 2.15620138e-02 2.28070058e-02 2.41449680e-02 2.55263858e-02 2.68923901e-02 2.82275733e-02 2.95433048e-02 3.08509506e-02 3.21282819e-02 3.33523862e-02 3.45890447e-02 3.59598771e-02 3.74726355e-02 3.90068404e-02 4.04967219e-02 4.19680774e-02 4.34313454e-02 4.48784493e-02 4.63174656e-02 4.77564819e-02 4.91954982e-02 5.06309792e-02 5.20593859e-02 5.34842536e-02 5.47772497e-02 5.58064878e-02 5.69039434e-02 5.84015697e-02 6.00992888e-02 6.17970042e-02 6.34967387e-02 6.52005225e-02 6.69063255e-02 6.86121210e-02 7.03179240e-02 7.18327314e-02 7.29655549e-02 7.40902945e-02 7.55808502e-02 7.72543103e-02 7.89277777e-02 8.06617886e-02 8.25337395e-02 8.44739899e-02 8.63104835e-02 8.79836157e-02 8.94132853e-02 9.04934704e-02 9.15780365e-02 9.30208489e-02 9.47316960e-02 9.66598243e-02 9.87455845e-02 1.00790933e-01 1.02706924e-01 1.04509488e-01 1.06204428e-01 1.07655063e-01 1.08724728e-01 1.09770134e-01 1.11148015e-01 1.12692125e-01 1.14236243e-01 1.15780354e-01 1.17324471e-01 1.18868582e-01 1.20433412e-01 1.22039676e-01 1.23658068e-01 1.25259280e-01 1.26851901e-01 1.28440976e-01 1.30012885e-01 1.31561041e-01 1.33079886e-01 1.34560332e-01 1.36046350e-01 1.37581870e-01 1.39139116e-01 1.40690312e-01 1.42276868e-01 1.43940225e-01 1.45603582e-01 1.47190139e-01 1.48671597e-01 1.50019661e-01 1.51301041e-01 1.52572811e-01 1.53825387e-01 1.55085027e-01 1.56378016e-01 1.57722041e-01 1.59144893e-01 1.60628542e-01 1.62096366e-01 1.63476095e-01 1.64785758e-01 1.66094497e-01 1.67430028e-01 1.68780118e-01 1.70118198e-01 1.71432912e-01 1.72738299e-01 1.74021840e-01 1.75258502e-01 1.76471144e-01 1.77683800e-01 1.78896457e-01 1.80109113e-01 1.81358144e-01 1.82679936e-01 1.84038118e-01 1.85396284e-01 1.86746120e-01 1.88077271e-01 1.89411193e-01 1.90820903e-01 1.92349851e-01 1.93918556e-01 1.95381835e-01 1.96666569e-01 1.97843343e-01 1.99054822e-01 2.00362474e-01 2.01713577e-01 2.03064412e-01 2.04414755e-01 2.05764845e-01 2.07114935e-01 2.08465025e-01 2.09815115e-01 2.11165205e-01 2.12491035e-01 2.13768378e-01 2.14935556e-01 2.15929598e-01 2.16853574e-01 2.17835486e-01 2.18846023e-01 2.19808072e-01 2.20762014e-01 2.21837237e-01 2.23068088e-01 2.24452540e-01 2.26018876e-01 2.27561310e-01 2.28874013e-01 2.30039507e-01 2.31130898e-01 2.32184559e-01 2.33293802e-01 2.34492645e-01 2.35729545e-01 2.37032652e-01 2.38468125e-01 2.39969805e-01 2.41471469e-01 2.42973149e-01 2.44376287e-01 2.45582372e-01 2.46689931e-01 2.47797489e-01 2.48931319e-01 2.50117689e-01 2.51330346e-01 2.52543002e-01 2.53755659e-01 2.54990548e-01 2.56269902e-01 2.57571489e-01 2.58873075e-01 2.60174662e-01 2.61476249e-01 2.62777805e-01 2.63982385e-01 2.65255690e-01 2.66585052e-01 2.67915934e-01 2.69590914e-01 2.71263361e-01 2.72700369e-01 2.74122208e-01 2.75528878e-01 2.76935577e-01 2.78302163e-01 2.79586226e-01 2.80832559e-01 2.82048583e-01 2.83187479e-01 2.84251928e-01 2.85246283e-01 2.86219120e-01 2.87278175e-01 2.88482726e-01 2.89793760e-01 2.91139781e-01 2.92489886e-01 2.93839961e-01 2.95190066e-01 2.96540141e-01 2.97890246e-01 2.99258530e-01 3.00663173e-01 3.02086025e-01 3.03508878e-01 3.04931730e-01 3.06352288e-01 3.07770520e-01 3.09185356e-01 3.10552031e-01 3.11834425e-01 3.13077390e-01 3.14320356e-01 3.15563351e-01 3.16833079e-01 3.18156391e-01 3.19506496e-01 3.20856571e-01 3.22206676e-01 3.23556751e-01 3.24906856e-01 3.26264501e-01 3.27635318e-01 3.29009652e-01 3.30404967e-01 3.31773788e-01 3.32992822e-01 3.34100574e-01 3.35303277e-01 3.36752921e-01 3.38385940e-01 3.39981258e-01 3.41462225e-01 3.42937440e-01 3.44433069e-01 3.45920593e-01 3.47408116e-01 3.48873407e-01 3.50294232e-01 3.51692826e-01 3.53091419e-01 3.54510218e-01 3.55969459e-01 3.57448876e-01 3.58928323e-01 3.60407770e-01 3.61866981e-01 3.63285810e-01 3.64678323e-01 3.66058737e-01 3.67394835e-01 3.68638992e-01 3.69827390e-01 3.71069700e-01 3.72410357e-01 3.73780400e-01 3.75124335e-01 3.76490593e-01 3.77937704e-01 3.79425228e-01 3.80852103e-01 3.82178456e-01 3.83467108e-01 3.84803087e-01 3.86206120e-01 3.87627900e-01 3.89020354e-01 3.90385419e-01 3.91751975e-01 3.93126309e-01 3.94472361e-01 3.95761818e-01 3.97022992e-01 3.98271501e-01 3.99494767e-01 4.00663137e-01 4.01744723e-01 4.02817458e-01 4.04041529e-01 4.05459225e-01 4.06954855e-01 4.08450454e-01 4.09878343e-01 4.11170840e-01 4.12395626e-01 4.13620412e-01 4.14870441e-01 4.16171014e-01 4.17496860e-01 4.18822706e-01 4.20136392e-01 4.21425849e-01 4.22703177e-01 4.23980534e-01 4.25274014e-01 4.26599860e-01 4.27946657e-01 4.29303050e-01 4.30631936e-01 4.31880981e-01 4.33069378e-01 4.34265852e-01 4.35540408e-01 4.36909437e-01 4.38316107e-01 4.39722806e-01 4.41119373e-01 4.42497075e-01 4.43866044e-01 4.45213437e-01 4.46519047e-01 4.47804481e-01 4.49089885e-01 4.50401574e-01 4.51765805e-01 4.53156322e-01 4.54546839e-01 4.55937356e-01 4.57327843e-01 4.58704203e-01 4.60052282e-01 4.61386204e-01 4.62720126e-01 4.64054048e-01 4.65387970e-01 4.66721892e-01 4.68035251e-01 4.69307542e-01 4.70520854e-01 4.71649975e-01 4.72749442e-01 4.73943233e-01 4.75296527e-01 4.76751208e-01 4.78190899e-01 4.79557157e-01 4.80874926e-01 4.82193172e-01 4.83532667e-01 4.84887362e-01 4.86231148e-01 4.87531394e-01 4.88800615e-01 4.90088731e-01 4.91415918e-01 4.92766500e-01 4.94129568e-01 4.95493978e-01 4.96848613e-01 4.98187244e-01 4.99502301e-01 5.00811994e-01 5.02146959e-01 5.03518879e-01 5.04917502e-01 5.06313384e-01 5.07687747e-01 5.09051263e-01 5.10419905e-01 5.11797965e-01 5.13180375e-01 5.14562786e-01 5.15933096e-01 5.17279148e-01 5.18613100e-01 5.19934893e-01 5.21232426e-01 5.22517800e-01 5.23797154e-01 5.25070488e-01 5.26349783e-01 5.27643323e-01 5.28952956e-01 5.30270755e-01 5.31588495e-01 5.32906234e-01 5.34211874e-01 5.35493255e-01 5.36762476e-01 5.38031697e-01 5.39300978e-01 5.40570199e-01 5.41839480e-01 5.43108702e-01 5.44377923e-01 5.45647204e-01 5.46912372e-01 5.48169494e-01 5.49422562e-01 5.50675690e-01 5.51928759e-01 5.53181827e-01 5.54457128e-01 5.55776894e-01 5.57118893e-01 5.58460891e-01 5.59808969e-01 5.61169147e-01 5.62535405e-01 5.63901663e-01 5.65267920e-01 5.66634178e-01 5.67998469e-01 5.69356620e-01 5.70708752e-01 5.72058797e-01 5.73408902e-01 5.74759007e-01 5.76109111e-01 5.77459157e-01 5.78809261e-01 5.80172002e-01 5.81559956e-01 5.82960606e-01 5.84361196e-01 5.85739076e-01 5.87069452e-01 5.88373482e-01 5.89679420e-01 5.90991855e-01 5.92302203e-01 5.93601048e-01 5.94894588e-01 5.96201599e-01 5.97533464e-01 5.98874450e-01 6.00192189e-01 6.01474941e-01 6.02750957e-01 6.04057670e-01 6.05403244e-01 6.06765091e-01 6.08114541e-01 6.09440386e-01 6.10755980e-01 6.12073600e-01 6.13392234e-01 6.14713371e-01 6.16040230e-01 6.17383063e-01 6.18754625e-01 6.20137870e-01 6.21492803e-01 6.22793257e-01 6.24054432e-01 6.25331759e-01 6.26661301e-01 6.28021896e-01 6.29374087e-01 6.30702794e-01 6.32020533e-01 6.33338332e-01 6.34666920e-01 6.36019945e-01 6.37382865e-01 6.38720453e-01 6.40016675e-01 6.41294003e-01 6.42594218e-01 6.43932521e-01 6.45283878e-01 6.46628976e-01 6.47971034e-01 6.49313033e-01 6.50657058e-01 6.52005136e-01 6.53355181e-01 6.54705286e-01 6.56055391e-01 6.57405436e-01 6.58755541e-01 6.60105050e-01 6.61453366e-01 6.62796080e-01 6.64127290e-01 6.65453136e-01 6.66788399e-01 6.68138146e-01 6.69492543e-01 6.70844018e-01 6.72194123e-01 6.73528075e-01 6.74829602e-01 6.76125169e-01 6.77440882e-01 6.78766727e-01 6.80092573e-01 6.81418359e-01 6.82744205e-01 6.84072077e-01 6.85407996e-01 6.86754048e-01 6.88104153e-01 6.89454257e-01 6.90804362e-01 6.92150354e-01 6.93483293e-01 6.94802046e-01 6.96115792e-01 6.97429478e-01 6.98743165e-01 7.00063944e-01 7.01398909e-01 7.02740908e-01 7.04082906e-01 7.05424905e-01 7.06758857e-01 7.08076596e-01 7.09382236e-01 7.10678399e-01 7.11971223e-01 7.13277519e-01 7.14603364e-01 7.15936780e-01 7.17271209e-01 7.18609154e-01 7.19951689e-01 7.21299231e-01 7.22649336e-01 7.23999441e-01 7.25349486e-01 7.26696074e-01 7.28035688e-01 7.29371965e-01 7.30705559e-01 7.32033908e-01 7.33359754e-01 7.34685600e-01 7.36011446e-01 7.37337291e-01 7.38679290e-01 7.40037441e-01 7.41381466e-01 7.42713392e-01 7.44047284e-01 7.45381236e-01 7.46715128e-01 7.48049080e-01 7.49382973e-01 7.50699222e-01 7.51980066e-01 7.53243268e-01 7.54460454e-01 7.55585730e-01 7.56918609e-01 7.58758843e-01 7.60622263e-01 7.62024879e-01 7.63318419e-01 7.64854431e-01 7.66390443e-01 7.67683983e-01 7.68977463e-01 7.70513475e-01 7.72007585e-01 7.73175240e-01 7.74327815e-01 7.75776386e-01 7.77214944e-01 7.78337121e-01 7.79443204e-01 7.80833185e-01 7.82163560e-01 7.83090770e-01 7.84021974e-01 7.85364449e-01 7.86698401e-01 7.87603855e-01 7.88509309e-01 7.89843202e-01 7.91122556e-01 7.91864276e-01 7.92555511e-01 7.93683290e-01 7.95077860e-01 7.96581507e-01 7.98133731e-01 7.99604058e-01 8.00959229e-01 8.02268863e-01 8.03580940e-01 8.04896891e-01 8.06209147e-01 8.07523549e-01 8.08861017e-01 8.10194910e-01 8.11435878e-01 8.12552512e-01 8.13608944e-01 8.14644277e-01 8.15683305e-01 8.16796958e-01 8.18013191e-01 8.19305182e-01 8.20662856e-01 8.22053313e-01 8.23443830e-01 8.24834347e-01 8.26263249e-01 8.27768981e-01 8.29313099e-01 8.30855846e-01 8.32380474e-01 8.33903015e-01 8.35474074e-01 8.37058604e-01 8.38548839e-01 8.39914382e-01 8.41229439e-01 8.42474461e-01 8.43658149e-01 8.44850600e-01 8.46040070e-01 8.47302496e-01 8.48640800e-01 8.49979103e-01 8.51360857e-01 8.52840304e-01 8.54362845e-01 8.55793715e-01 8.57056975e-01 8.58204961e-01 8.59324634e-01 8.60444307e-01 8.61641824e-01 8.62994909e-01 8.64425838e-01 8.65856767e-01 8.67287755e-01 8.68718684e-01 8.70134413e-01 8.71519864e-01 8.72871995e-01 8.74173582e-01 8.75428677e-01 8.76673400e-01 8.77925932e-01 8.79179776e-01 8.80457759e-01 8.81804883e-01 8.83195400e-01 8.84519160e-01 8.85706425e-01 8.86842847e-01 8.88100684e-01 8.89566243e-01 8.91164243e-01 8.92751455e-01 8.94263208e-01 8.95717382e-01 8.97104859e-01 8.98422658e-01 8.99716139e-01 9.01009619e-01 9.02324617e-01 9.03689682e-01 9.05083239e-01 9.06446934e-01 9.07751083e-01 9.09025311e-01 9.10328150e-01 9.11680996e-01 9.13055360e-01 9.14429665e-01 9.15806055e-01 9.17186439e-01 9.18568850e-01 9.19951320e-01 9.21333730e-01 9.22720194e-01 9.24109042e-01 9.25490975e-01 9.26864088e-01 9.28201973e-01 9.29467440e-01 9.30682361e-01 9.31908429e-01 9.33173597e-01 9.34459567e-01 9.35750484e-01 9.37044024e-01 9.38337505e-01 9.39630985e-01 9.40939665e-01 9.42285478e-01 9.43658531e-01 9.45025563e-01 9.46371377e-01 9.47705269e-01 9.49036658e-01 9.50369060e-01 9.51703012e-01 9.53036904e-01 9.54382956e-01 9.55753267e-01 9.57135677e-01 9.58518088e-01 9.59900558e-01 9.61278915e-01 9.62643147e-01 9.63991225e-01 9.65333223e-01 9.66675222e-01 9.68017220e-01 9.69360232e-01 9.70705271e-01 9.72051322e-01 9.73397374e-01 9.74738359e-01 9.76069272e-01 9.77395117e-01 9.78720963e-01 9.80046749e-01 9.81372595e-01 9.82698441e-01 9.84028339e-01 9.85366285e-01 9.86708283e-01 9.88050282e-01 9.89390254e-01 9.90726233e-01 9.92060125e-01 9.93394077e-01 9.94727969e-01 9.96061921e-01 9.97392297e-01 9.98708546e-01 1.00000000e+00 
            </Histogram>
            <HistogramBinning NBins="744">
              -9.99999975e-05 0.00000000e+00 4.24786936e-03 5.66135533e-03 5.93094435e-03 5.93381235e-03 6.20338274e-03 6.47309469e-03 6.74280711e-03 7.01251905e-03 7.23304786e-03 7.28240563e-03 7.55212456e-03 7.82165676e-03 8.08765087e-03 8.16897862e-03 8.36128090e-03 8.63079354e-03 8.83611944e-03 8.90050549e-03 9.16600507e-03 9.17043630e-03 9.43559315e-03 9.43992939e-03 9.47601628e-03 9.70964227e-03 9.70987417e-03 9.97477025e-03 9.97935422e-03 9.97959264e-03 1.00459000e-02 1.02490671e-02 1.02493111e-02 1.04426881e-02 1.05139473e-02 1.05187790e-02 1.05190305e-02 1.07884919e-02 1.07887499e-02 1.08443284e-02 1.10531244e-02 1.10582048e-02 1.10584684e-02 1.11098122e-02 1.12514077e-02 1.13279158e-02 1.13281859e-02 1.14049492e-02 1.15976296e-02 1.15979053e-02 1.16242757e-02 1.18618887e-02 1.18673407e-02 1.18676247e-02 1.20492540e-02 1.21314768e-02 1.21370526e-02 1.21373432e-02 1.22822532e-02 1.24067655e-02 1.24070607e-02 1.24168480e-02 1.24569163e-02 1.26764774e-02 1.26767801e-02 1.27209062e-02 1.29402429e-02 1.29461894e-02 1.29464995e-02 1.30703673e-02 1.32159013e-02 1.32162180e-02 1.32541806e-02 1.34794191e-02 1.34856142e-02 1.34859364e-02 1.36558218e-02 1.37490071e-02 1.37553271e-02 1.37556549e-02 1.40185952e-02 1.40250381e-02 1.40253743e-02 1.40639236e-02 1.42881842e-02 1.42947519e-02 1.42950928e-02 1.44657502e-02 1.45644648e-02 1.45648113e-02 1.48273604e-02 1.48341758e-02 1.48345297e-02 1.48675768e-02 1.50969494e-02 1.51038878e-02 1.51042491e-02 1.53665375e-02 1.53735997e-02 1.53739676e-02 1.56433135e-02 1.56436861e-02 1.56640299e-02 1.59057137e-02 1.59130264e-02 1.59134064e-02 1.61753017e-02 1.61827374e-02 1.61831249e-02 1.64524503e-02 1.64528433e-02 1.64748840e-02 1.67221632e-02 1.67225618e-02 1.68767087e-02 1.69918742e-02 1.69922803e-02 1.72615871e-02 1.72620006e-02 1.72785353e-02 1.75312981e-02 1.75317172e-02 1.76803619e-02 1.78010110e-02 1.78014357e-02 1.80707239e-02 1.80711541e-02 1.80826206e-02 1.83404349e-02 1.83408726e-02 1.86015982e-02 1.86101459e-02 1.86105929e-02 1.88798588e-02 1.88803095e-02 1.91407744e-02 1.91500299e-02 1.92876663e-02 1.94192845e-02 1.94197483e-02 1.96889956e-02 1.96894668e-02 1.99587084e-02 1.99591853e-02 2.02191286e-02 2.02289037e-02 2.04931479e-02 2.04986222e-02 2.07678471e-02 2.07683425e-02 2.10278947e-02 2.10380610e-02 2.12967992e-02 2.13072710e-02 2.15670709e-02 2.15769839e-02 2.16986258e-02 2.18466967e-02 2.18472164e-02 2.21062489e-02 2.21169367e-02 2.23861188e-02 2.23866571e-02 2.26454213e-02 2.26563718e-02 2.29041055e-02 2.29255464e-02 2.29260921e-02 2.31952593e-02 2.31958106e-02 2.34649722e-02 2.34655309e-02 2.37237774e-02 2.37346813e-02 2.39933636e-02 2.40049697e-02 2.41095833e-02 2.42741052e-02 2.42746864e-02 2.45438181e-02 2.45444030e-02 2.48135310e-02 2.49017943e-02 2.50832420e-02 2.50838399e-02 2.53413096e-02 2.53535602e-02 2.56226659e-02 2.56232787e-02 2.58804858e-02 2.58923788e-02 2.61187162e-02 2.61620916e-02 2.64196619e-02 2.64318027e-02 2.65205409e-02 2.67015155e-02 2.69223694e-02 2.69712284e-02 2.72284281e-02 2.72415895e-02 2.74477713e-02 2.75113098e-02 2.77260225e-02 2.77803671e-02 2.80371904e-02 2.80507486e-02 2.81278472e-02 2.83197910e-02 2.85296775e-02 2.85895038e-02 2.88459565e-02 2.88599040e-02 2.91155446e-02 2.91296225e-02 2.93851327e-02 2.93993410e-02 2.96683516e-02 2.96690594e-02 2.99243107e-02 2.99387798e-02 3.02077755e-02 3.02084982e-02 3.04774884e-02 3.05388067e-02 3.07479352e-02 3.10026631e-02 3.10176536e-02 3.12866271e-02 3.13424617e-02 3.15563381e-02 3.17442864e-02 3.18260528e-02 3.20810191e-02 3.20965312e-02 3.23654748e-02 3.25329863e-02 3.26351859e-02 3.28897834e-02 3.29056866e-02 3.31593715e-02 3.31754014e-02 3.34289595e-02 3.34451236e-02 3.37140374e-02 3.37534174e-02 3.39837484e-02 3.41552421e-02 3.42542790e-02 3.45231742e-02 3.45411934e-02 3.47928852e-02 3.49588953e-02 3.50634344e-02 3.53323072e-02 3.53607237e-02 3.56028713e-02 3.58717330e-02 3.59435081e-02 3.61423083e-02 3.64111587e-02 3.65662016e-02 3.66817452e-02 3.69505845e-02 3.69680300e-02 3.72211859e-02 3.74900065e-02 3.74909043e-02 3.77606191e-02 3.80119570e-02 3.80303413e-02 3.82991433e-02 3.85511369e-02 3.85697782e-02 3.88385691e-02 3.89771610e-02 3.91092151e-02 3.93779911e-02 3.96294892e-02 3.96486521e-02 3.99174169e-02 4.01686653e-02 4.01880890e-02 4.04568426e-02 4.07078452e-02 4.07275297e-02 4.09962684e-02 4.12470214e-02 4.12669629e-02 4.15356942e-02 4.17899452e-02 4.18064035e-02 4.20751162e-02 4.23253775e-02 4.23458405e-02 4.26145419e-02 4.28842530e-02 4.31539677e-02 4.31549996e-02 4.34247144e-02 4.36933935e-02 4.39429097e-02 4.39641550e-02 4.42328192e-02 4.45025265e-02 4.47516739e-02 4.50045578e-02 4.50430289e-02 4.53127436e-02 4.55813780e-02 4.58082110e-02 4.60996106e-02 4.61219028e-02 4.63905185e-02 4.66602296e-02 4.69299443e-02 4.70136888e-02 4.72007804e-02 4.74693626e-02 4.77390774e-02 4.80087884e-02 4.82563190e-02 4.82796542e-02 4.86209989e-02 4.88190912e-02 4.90888059e-02 4.93585207e-02 4.96270619e-02 4.98738512e-02 5.01664840e-02 5.02283052e-02 5.06068654e-02 5.07071204e-02 5.09768389e-02 5.12465574e-02 5.15150428e-02 5.17859980e-02 5.20544685e-02 5.23001440e-02 5.25697358e-02 5.28393239e-02 5.30410819e-02 5.31345904e-02 5.34043051e-02 5.36740273e-02 5.39437458e-02 5.42134605e-02 5.44818826e-02 5.47515936e-02 5.50213084e-02 5.52910194e-02 5.55352047e-02 5.58304414e-02 5.60743809e-02 5.62556945e-02 5.66135570e-02 5.68560921e-02 5.70593551e-02 5.74223213e-02 5.74611761e-02 5.77198081e-02 5.79895265e-02 5.82648292e-02 5.85289672e-02 5.87986819e-02 5.90684824e-02 5.94703071e-02 5.96078411e-02 5.98775595e-02 6.02739602e-02 6.04169965e-02 6.06867187e-02 6.10495545e-02 6.13890737e-02 6.14958704e-02 6.18812665e-02 6.22830912e-02 6.25732541e-02 6.28429651e-02 6.31126761e-02 6.33838996e-02 6.36536255e-02 6.39233440e-02 6.44316226e-02 6.47309497e-02 6.50022179e-02 6.52719364e-02 6.57795668e-02 6.60491511e-02 6.63187429e-02 6.66189417e-02 6.68886527e-02 6.71599656e-02 6.75068349e-02 6.79086596e-02 6.82372153e-02 6.85085580e-02 6.87782839e-02 6.92842156e-02 6.95537999e-02 6.98554814e-02 7.01268688e-02 7.03965798e-02 7.07231387e-02 7.12040439e-02 7.14754611e-02 7.17451796e-02 7.22496882e-02 7.25526065e-02 7.28223175e-02 7.31324032e-02 7.36314505e-02 7.39029273e-02 7.43378848e-02 7.47103021e-02 7.49818087e-02 7.54847452e-02 7.57891461e-02 7.62935057e-02 7.65982866e-02 7.71377087e-02 7.74074271e-02 7.79110342e-02 7.82165602e-02 7.84881487e-02 7.90257007e-02 7.92973042e-02 7.98348337e-02 8.01064596e-02 8.06069225e-02 8.09136853e-02 8.11853409e-02 8.17228183e-02 8.19944888e-02 8.25319588e-02 8.28036517e-02 8.33410993e-02 8.38419944e-02 8.41522440e-02 8.46896544e-02 8.51899311e-02 8.55008364e-02 8.59986991e-02 8.65378752e-02 8.68494287e-02 8.73867869e-02 8.78858194e-02 8.81980285e-02 8.87353420e-02 8.92337635e-02 8.97729397e-02 9.00860578e-02 9.06233266e-02 9.11627561e-02 9.16164219e-02 9.20182467e-02 9.25113112e-02 9.30507407e-02 9.35471654e-02 9.38621238e-02 9.44015607e-02 9.49387252e-02 9.54781547e-02 9.60175768e-02 9.65126380e-02 9.68290269e-02 9.73684564e-02 9.79078934e-02 9.84449759e-02 9.89389345e-02 9.92564857e-02 1.00017294e-01 1.00454852e-01 1.00872390e-01 1.01411819e-01 1.01951241e-01 1.02490664e-01 1.03221938e-01 1.03791527e-01 1.04378656e-01 1.04918078e-01 1.05457507e-01 1.05999462e-01 1.06538892e-01 1.07296176e-01 1.07884914e-01 1.08424336e-01 1.08963765e-01 1.09648213e-01 1.10312328e-01 1.10851750e-01 1.11391172e-01 1.11933269e-01 1.12472706e-01 1.13227114e-01 1.13766298e-01 1.14360742e-01 1.15114234e-01 1.15709327e-01 1.16515718e-01 1.17270947e-01 1.17864259e-01 1.18406527e-01 1.19212836e-01 1.19755119e-01 1.20561384e-01 1.21103704e-01 1.21909954e-01 1.22719087e-01 1.23360716e-01 1.24067649e-01 1.24610052e-01 1.25372827e-01 1.26173481e-01 1.26767799e-01 1.27573907e-01 1.28383055e-01 1.28986284e-01 1.29734710e-01 1.30540743e-01 1.31289542e-01 1.31892458e-01 1.32698461e-01 1.33507580e-01 1.34316728e-01 1.35125846e-01 1.35938242e-01 1.36747390e-01 1.37553275e-01 1.38362393e-01 1.39377192e-01 1.40185952e-01 1.41059533e-01 1.41868651e-01 1.42677799e-01 1.43486932e-01 1.44299522e-01 1.45108670e-01 1.46184057e-01 1.47068456e-01 1.48004025e-01 1.48884743e-01 1.49960026e-01 1.50769174e-01 1.51848033e-01 1.52694032e-01 1.53665364e-01 1.54545143e-01 1.55510530e-01 1.56436861e-01 1.57515734e-01 1.58594608e-01 1.59926921e-01 1.61018237e-01 1.62100971e-01 1.63445637e-01 1.64448902e-01 1.65552497e-01 1.69166699e-01 1.69244468e-01 1.69248492e-01 1.69492841e-01 1.75906420e-01 1.75987288e-01 1.75991476e-01 1.75999984e-01 1.82646126e-01 1.82730079e-01 1.82734445e-01 1.82747036e-01 1.89385831e-01 1.89472869e-01 1.89477414e-01 1.89574942e-01 1.96125552e-01 1.96215704e-01 1.96220368e-01 1.96402848e-01 2.02865258e-01 2.02958480e-01 2.02963322e-01 2.03324154e-01 2.09604949e-01 2.09701285e-01 2.09706306e-01 2.09753394e-01 2.16344669e-01 2.16444120e-01 2.16449291e-01 2.18493149e-01 2.23084375e-01 2.23186895e-01 2.23192245e-01 2.26630092e-01 2.29929715e-01 2.29935229e-01 2.33862951e-01 2.36672521e-01 2.36675754e-01 2.39086732e-01 2.43415326e-01 2.43421152e-01 2.45886251e-01 2.50158161e-01 2.50164121e-01 2.52146065e-01 2.56782949e-01 2.56900966e-01 2.56907105e-01 2.62191743e-01 2.63643742e-01 2.63650060e-01 2.70386577e-01 2.70393044e-01 2.72237420e-01 2.77129382e-01 2.77136028e-01 2.83741772e-01 2.83872157e-01 2.83878952e-01 2.90614992e-01 2.90621907e-01 2.97221184e-01 2.97357798e-01 3.02374393e-01 3.04100603e-01 3.04107845e-01 3.10843408e-01 3.12420040e-01 3.17586243e-01 3.22317570e-01 3.24329019e-01 3.24336767e-01 3.31071824e-01 3.31079721e-01 3.37814629e-01 3.37822706e-01 3.44557434e-01 3.44565690e-01 3.51300240e-01 3.52602661e-01 3.58043075e-01 3.62648308e-01 3.64785880e-01 3.71528655e-01 3.72693986e-01 3.78271461e-01 3.84837419e-01 3.85023534e-01 3.91766459e-01 3.98499906e-01 3.98509443e-01 4.05242711e-01 4.11985487e-01 4.12876636e-01 4.18728322e-01 4.25471127e-01 4.32213932e-01 4.32967961e-01 4.38967228e-01 4.45699573e-01 4.52442348e-01 4.59185183e-01 4.65927958e-01 4.72670764e-01 4.79413599e-01 4.86156404e-01 4.92899209e-01 4.99642015e-01 5.06384850e-01 5.13127625e-01 5.19882858e-01 5.26613235e-01 5.33424556e-01 5.43470263e-01 5.53515851e-01 5.60327232e-01 5.67083657e-01 5.80289006e-01 5.87298512e-01 5.94055533e-01 6.07526898e-01 6.20727241e-01 6.27755344e-01 6.40946329e-01 6.47999287e-01 6.61469400e-01 6.74644947e-01 6.84109509e-01 7.01603770e-01 7.13918388e-01 7.24292099e-01 7.35640287e-01 7.54082441e-01 7.69000828e-01 7.82480240e-01 7.96325564e-01 8.14703047e-01 8.30039561e-01 8.43545318e-01 8.64931405e-01 8.83982062e-01 9.04210389e-01 9.24438834e-01 9.44667339e-01 9.64895666e-01 9.85479355e-01 1.01561618e+00 1.03906655e+00 1.06584454e+00 1.09300900e+00 1.11998034e+00 1.14695144e+00 1.18012309e+00 1.20766556e+00 1.24135077e+00 1.28180766e+00 1.31698608e+00 1.35716867e+00 1.40253353e+00 1.44363499e+00 1.48409200e+00 1.53803420e+00 1.58527184e+00 1.64849281e+00 1.70876670e+00 1.77403247e+00 1.84146059e+00 1.91563153e+00 2.00328803e+00 2.10054755e+00 2.19882941e+00 2.29997158e+00 2.42139983e+00 2.54945540e+00 2.68431139e+00 2.84613895e+00 3.04842305e+00 3.26419306e+00 3.51698542e+00 3.83733153e+00 4.19470024e+00 4.64209986e+00 5.37543249e+00 8.19992828e+00 
            </HistogramBinning>
          </PDF>
        </CumulativePDF_cls0>
      </Variable>
      <Variable VarIndex="5">
        <CumulativePDF_cls0>
          <PDF Name="GaussTransform var5 cls0" MinNSmooth="0" MaxNSmooth="0" InterpolMethod="1" KDE_type="0" KDE_iter="1" KDE_border="1" KDE_finefactor="0.0000000000000000e+00">
            <Histogram Name="Cumulative_Var5_cls0_original" NBins="736" XMin="-9.9999997473787516e-05" XMax="8.9551219940185547e+00" HasEquidistantBins="0">
