<?xml version="1.0"?>
<MethodSetup Method="DNN::DNN_CPU">
  <GeneralInfo>
    <Info name="TMVA Release" value="4.2.1 [262657]"/>
    <Info name="ROOT Release" value="6.18/00 [397824]"/>
    <Info name="Creator" value="chrispap"/>
    <Info name="Date" value="Mon Aug 26 17:32:19 2019"/>
    <Info name="Host" value="Darwin macitois21.cern.ch 18.6.0 Darwin Kernel Version 18.6.0: Thu Apr 25 23:16:27 PDT 2019; root:xnu-4903.261.4~2/RELEASE_X86_64 x86_64"/>
    <Info name="Dir" value="/Users/chrispap/Documents/deadCellRegression"/>
    <Info name="Training events" value="70000"/>
    <Info name="TrainingTime" value="6.14989647e+02"/>
    <Info name="AnalysisType" value="Regression"/>
  </GeneralInfo>
  <Options>
    <Option name="V" modified="Yes">True</Option>
    <Option name="VerbosityLevel" modified="No">Verbose</Option>
    <Option name="VarTransform" modified="Yes">G</Option>
    <Option name="H" modified="Yes">False</Option>
    <Option name="CreateMVAPdfs" modified="No">False</Option>
    <Option name="IgnoreNegWeightsInTraining" modified="No">False</Option>
    <Option name="Layout" modified="Yes">SYMMRELU|32,Layout=SYMMRELU|50,Layout=SYMMRELU|40,Layout=SYMMRELU|30,LINEAR</Option>
    <Option name="ValidationSize" modified="No">20%</Option>
    <Option name="ErrorStrategy" modified="Yes">SUMOFSQUARES</Option>
    <Option name="WeightInitialization" modified="Yes">XAVIERUNIFORM</Option>
    <Option name="Architecture" modified="Yes">CPU</Option>
    <Option name="TrainingStrategy" modified="Yes">LearningRate=1e-4,Momentum=0.5,Repetitions=1,ConvergenceSteps=20,BatchSize=200,TestRepetitions=10,WeightDecay=0.01,Regularization=NONE,DropConfig=0.2+0.2+0.2+0.,DropRepetitions=2|LearningRate=1e-4,Momentum=0.7,Repetitions=1,ConvergenceSteps=20,BatchSize=200,TestRepetitions=5,WeightDecay=0.01,Regularization=L2,DropConfig=0.1+0.1+0.1,DropRepetitions=1|LearningRate=1e-5,Momentum=0.3,Repetitions=1,ConvergenceSteps=20,BatchSize=200,TestRepetitions=5,WeightDecay=0.01,Regularization=NONE|LearningRate=1e-6,Momentum=0.1,Repetitions=1,ConvergenceSteps=20,BatchSize=200,TestRepetitions=5,WeightDecay=0.01,Regularization=NONE</Option>
  </Options>
  <Variables NVar="31">
    <Variable VarIndex="0" Expression="layer" Label="layer" Title="layer" Unit="units" Internal="layer" Type="F" Min="0.00000000e+00" Max="2.70000000e+01"/>
    <Variable VarIndex="1" Expression="previousLayer" Label="previousLayer" Title="previousLayer" Unit="units" Internal="previousLayer" Type="F" Min="0.00000000e+00" Max="7.03693771e+01"/>
    <Variable VarIndex="2" Expression="nextLayer" Label="nextLayer" Title="nextLayer" Unit="units" Internal="nextLayer" Type="F" Min="0.00000000e+00" Max="7.48623810e+01"/>
    <Variable VarIndex="3" Expression="sameLayer" Label="sameLayer" Title="sameLayer" Unit="units" Internal="sameLayer" Type="F" Min="0.00000000e+00" Max="4.44493523e+01"/>
    <Variable VarIndex="4" Expression="pnCells" Label="pnCells" Title="pnCells" Unit="units" Internal="pnCells" Type="F" Min="0.00000000e+00" Max="5.40080299e+01"/>
    <Variable VarIndex="5" Expression="sum1" Label="sum1" Title="sum1" Unit="units" Internal="sum1" Type="F" Min="0.00000000e+00" Max="8.41871948e+01"/>
    <Variable VarIndex="6" Expression="sum2" Label="sum2" Title="sum2" Unit="units" Internal="sum2" Type="F" Min="0.00000000e+00" Max="8.46711731e+01"/>
    <Variable VarIndex="7" Expression="sum3" Label="sum3" Title="sum3" Unit="units" Internal="sum3" Type="F" Min="0.00000000e+00" Max="8.68207474e+01"/>
    <Variable VarIndex="8" Expression="sum4" Label="sum4" Title="sum4" Unit="units" Internal="sum4" Type="F" Min="0.00000000e+00" Max="9.02298126e+01"/>
    <Variable VarIndex="9" Expression="sum5" Label="sum5" Title="sum5" Unit="units" Internal="sum5" Type="F" Min="0.00000000e+00" Max="8.96017303e+01"/>
    <Variable VarIndex="10" Expression="sum6" Label="sum6" Title="sum6" Unit="units" Internal="sum6" Type="F" Min="0.00000000e+00" Max="9.02015991e+01"/>
    <Variable VarIndex="11" Expression="n1" Label="n1" Title="neighbor 1" Unit="units" Internal="n1" Type="F" Min="0.00000000e+00" Max="3.68856201e+01"/>
    <Variable VarIndex="12" Expression="n2" Label="n2" Title="neighbor 2" Unit="units" Internal="n2" Type="F" Min="0.00000000e+00" Max="3.42702370e+01"/>
    <Variable VarIndex="13" Expression="n3" Label="n3" Title="neighbor 3" Unit="units" Internal="n3" Type="F" Min="0.00000000e+00" Max="3.65779381e+01"/>
    <Variable VarIndex="14" Expression="n4" Label="n4" Title="neighbor 4" Unit="units" Internal="n4" Type="F" Min="0.00000000e+00" Max="3.85301933e+01"/>
    <Variable VarIndex="15" Expression="n5" Label="n5" Title="neighbor 5" Unit="units" Internal="n5" Type="F" Min="0.00000000e+00" Max="3.55118790e+01"/>
    <Variable VarIndex="16" Expression="n6" Label="n6" Title="neighbor 6" Unit="units" Internal="n6" Type="F" Min="0.00000000e+00" Max="3.69345207e+01"/>
    <Variable VarIndex="17" Expression="nup" Label="nup" Title="neighbor up" Unit="units" Internal="nup" Type="F" Min="0.00000000e+00" Max="3.49758720e+01"/>
    <Variable VarIndex="18" Expression="ndown" Label="ndown" Title="neighbor down" Unit="units" Internal="ndown" Type="F" Min="0.00000000e+00" Max="3.85766792e+01"/>
    <Variable VarIndex="19" Expression="un1" Label="un1" Title="up 1" Unit="units" Internal="un1" Type="F" Min="0.00000000e+00" Max="3.64755173e+01"/>
    <Variable VarIndex="20" Expression="un2" Label="un2" Title="up 2" Unit="units" Internal="un2" Type="F" Min="0.00000000e+00" Max="3.98066406e+01"/>
    <Variable VarIndex="21" Expression="un3" Label="un3" Title="up 3" Unit="units" Internal="un3" Type="F" Min="0.00000000e+00" Max="3.64755173e+01"/>
    <Variable VarIndex="22" Expression="un4" Label="un4" Title="up 4" Unit="units" Internal="un4" Type="F" Min="0.00000000e+00" Max="3.73497581e+01"/>
    <Variable VarIndex="23" Expression="un5" Label="un5" Title="up 5" Unit="units" Internal="un5" Type="F" Min="0.00000000e+00" Max="3.78745384e+01"/>
    <Variable VarIndex="24" Expression="un6" Label="un6" Title="up 6" Unit="units" Internal="un6" Type="F" Min="0.00000000e+00" Max="3.64707870e+01"/>
    <Variable VarIndex="25" Expression="dn1" Label="dn1" Title="down 1" Unit="units" Internal="dn1" Type="F" Min="0.00000000e+00" Max="3.67207260e+01"/>
    <Variable VarIndex="26" Expression="dn2" Label="dn2" Title="down 2" Unit="units" Internal="dn2" Type="F" Min="0.00000000e+00" Max="3.75844955e+01"/>
    <Variable VarIndex="27" Expression="dn3" Label="dn3" Title="down 3" Unit="units" Internal="dn3" Type="F" Min="0.00000000e+00" Max="3.79248657e+01"/>
    <Variable VarIndex="28" Expression="dn4" Label="dn4" Title="down 4" Unit="units" Internal="dn4" Type="F" Min="0.00000000e+00" Max="3.60501060e+01"/>
    <Variable VarIndex="29" Expression="dn5" Label="dn5" Title="down 5" Unit="units" Internal="dn5" Type="F" Min="0.00000000e+00" Max="3.64707870e+01"/>
    <Variable VarIndex="30" Expression="dn6" Label="dn6" Title="down 6" Unit="units" Internal="dn6" Type="F" Min="0.00000000e+00" Max="3.50126457e+01"/>
  </Variables>
  <Spectators NSpec="0"/>
  <Classes NClass="1">
    <Class Name="Regression" Index="0"/>
  </Classes>
  <Targets NTrgt="1">
    <Target TargetIndex="0" Expression="dead" Label="dead" Title="dead" Unit="" Internal="dead" Type="F" Min="4.82475385e-03" Max="3.74354172e+01"/>
  </Targets>
  <Transformations NTransformations="1">
    <Transform Name="Gauss" FlatOrGauss="Gauss">
      <Selection>
        <Input NInputs="31">
          <Input Type="Variable" Label="layer" Expression="layer"/>
          <Input Type="Variable" Label="previousLayer" Expression="previousLayer"/>
          <Input Type="Variable" Label="nextLayer" Expression="nextLayer"/>
          <Input Type="Variable" Label="sameLayer" Expression="sameLayer"/>
          <Input Type="Variable" Label="pnCells" Expression="pnCells"/>
          <Input Type="Variable" Label="sum1" Expression="sum1"/>
          <Input Type="Variable" Label="sum2" Expression="sum2"/>
          <Input Type="Variable" Label="sum3" Expression="sum3"/>
          <Input Type="Variable" Label="sum4" Expression="sum4"/>
          <Input Type="Variable" Label="sum5" Expression="sum5"/>
          <Input Type="Variable" Label="sum6" Expression="sum6"/>
          <Input Type="Variable" Label="n1" Expression="n1"/>
          <Input Type="Variable" Label="n2" Expression="n2"/>
          <Input Type="Variable" Label="n3" Expression="n3"/>
          <Input Type="Variable" Label="n4" Expression="n4"/>
          <Input Type="Variable" Label="n5" Expression="n5"/>
          <Input Type="Variable" Label="n6" Expression="n6"/>
          <Input Type="Variable" Label="nup" Expression="nup"/>
          <Input Type="Variable" Label="ndown" Expression="ndown"/>
          <Input Type="Variable" Label="un1" Expression="un1"/>
          <Input Type="Variable" Label="un2" Expression="un2"/>
          <Input Type="Variable" Label="un3" Expression="un3"/>
          <Input Type="Variable" Label="un4" Expression="un4"/>
          <Input Type="Variable" Label="un5" Expression="un5"/>
          <Input Type="Variable" Label="un6" Expression="un6"/>
          <Input Type="Variable" Label="dn1" Expression="dn1"/>
          <Input Type="Variable" Label="dn2" Expression="dn2"/>
          <Input Type="Variable" Label="dn3" Expression="dn3"/>
          <Input Type="Variable" Label="dn4" Expression="dn4"/>
          <Input Type="Variable" Label="dn5" Expression="dn5"/>
          <Input Type="Variable" Label="dn6" Expression="dn6"/>
        </Input>
        <Output NOutputs="31">
          <Output Type="Variable" Label="layer" Expression="layer"/>
          <Output Type="Variable" Label="previousLayer" Expression="previousLayer"/>
          <Output Type="Variable" Label="nextLayer" Expression="nextLayer"/>
          <Output Type="Variable" Label="sameLayer" Expression="sameLayer"/>
          <Output Type="Variable" Label="pnCells" Expression="pnCells"/>
          <Output Type="Variable" Label="sum1" Expression="sum1"/>
          <Output Type="Variable" Label="sum2" Expression="sum2"/>
          <Output Type="Variable" Label="sum3" Expression="sum3"/>
          <Output Type="Variable" Label="sum4" Expression="sum4"/>
          <Output Type="Variable" Label="sum5" Expression="sum5"/>
          <Output Type="Variable" Label="sum6" Expression="sum6"/>
          <Output Type="Variable" Label="n1" Expression="n1"/>
          <Output Type="Variable" Label="n2" Expression="n2"/>
          <Output Type="Variable" Label="n3" Expression="n3"/>
          <Output Type="Variable" Label="n4" Expression="n4"/>
          <Output Type="Variable" Label="n5" Expression="n5"/>
          <Output Type="Variable" Label="n6" Expression="n6"/>
          <Output Type="Variable" Label="nup" Expression="nup"/>
          <Output Type="Variable" Label="ndown" Expression="ndown"/>
          <Output Type="Variable" Label="un1" Expression="un1"/>
          <Output Type="Variable" Label="un2" Expression="un2"/>
          <Output Type="Variable" Label="un3" Expression="un3"/>
          <Output Type="Variable" Label="un4" Expression="un4"/>
          <Output Type="Variable" Label="un5" Expression="un5"/>
          <Output Type="Variable" Label="un6" Expression="un6"/>
          <Output Type="Variable" Label="dn1" Expression="dn1"/>
          <Output Type="Variable" Label="dn2" Expression="dn2"/>
          <Output Type="Variable" Label="dn3" Expression="dn3"/>
          <Output Type="Variable" Label="dn4" Expression="dn4"/>
          <Output Type="Variable" Label="dn5" Expression="dn5"/>
          <Output Type="Variable" Label="dn6" Expression="dn6"/>
        </Output>
      </Selection>
      <Variable VarIndex="0">
        <CumulativePDF_cls0>
          <PDF Name="GaussTransform var0 cls0" MinNSmooth="0" MaxNSmooth="0" InterpolMethod="1" KDE_type="0" KDE_iter="1" KDE_border="1" KDE_finefactor="0.0000000000000000e+00">
            <Histogram Name="Cumulative_Var0_cls0_original" NBins="29" XMin="-9.9999997473787516e-05" XMax="2.7000000000000000e+01" HasEquidistantBins="0">
              0.00000000e+00 1.74565846e-03 6.12679636e-03 1.33707123e-02 2.32802164e-02 3.99481840e-02 6.70743063e-02 1.00942940e-01 1.39365315e-01 1.84197977e-01 2.34324843e-01 2.87235647e-01 3.42748851e-01 4.01596844e-01 4.62115407e-01 5.22633970e-01 5.82285941e-01 6.39193892e-01 6.92466319e-01 7.42150664e-01 7.87170053e-01 8.27162981e-01 8.63439798e-01 8.96666288e-01 9.27487195e-01 9.54956293e-01 9.76914763e-01 9.92480814e-01 1.00000000e+00 
            </Histogram>
            <HistogramBinning NBins="29">
              -9.99999975e-05 0.00000000e+00 1.00000000e+00 2.00000000e+00 3.00000000e+00 4.00000000e+00 5.00000000e+00 6.00000000e+00 7.00000000e+00 8.00000000e+00 9.00000000e+00 1.00000000e+01 1.10000000e+01 1.20000000e+01 1.30000000e+01 1.40000000e+01 1.50000000e+01 1.60000000e+01 1.70000000e+01 1.80000000e+01 1.90000000e+01 2.00000000e+01 2.10000000e+01 2.20000000e+01 2.30000000e+01 2.40000000e+01 2.50000000e+01 2.60000000e+01 2.70000000e+01 2.70000000e+01 
            </HistogramBinning>
          </PDF>
        </CumulativePDF_cls0>
      </Variable>
      <Variable VarIndex="1">
        <CumulativePDF_cls0>
          <PDF Name="GaussTransform var1 cls0" MinNSmooth="0" MaxNSmooth="0" InterpolMethod="1" KDE_type="0" KDE_iter="1" KDE_border="1" KDE_finefactor="0.0000000000000000e+00">
            <Histogram Name="Cumulative_Var1_cls0_original" NBins="1879" XMin="-9.9999997473787516e-05" XMax="7.0369377136230469e+01" HasEquidistantBins="0">
              5.32197999e-04 1.06439600e-03 1.59659388e-03 2.12879200e-03 2.66098999e-03 3.19318776e-03 3.72538576e-03 4.25758399e-03 4.78978176e-03 5.32197999e-03 5.85417775e-03 6.38637552e-03 6.91857375e-03 7.45077152e-03 7.98296928e-03 8.51516798e-03 9.04736575e-03 9.57956351e-03 1.01117613e-02 1.06439600e-02 1.11761577e-02 1.17083555e-02 1.22405533e-02 1.27727510e-02 1.33049497e-02 1.38371475e-02 1.43693453e-02 1.49015430e-02 1.54337417e-02 1.59659386e-02 1.64981373e-02 1.70303360e-02 1.75625328e-02 1.80947315e-02 1.86269283e-02 1.91591270e-02 1.96913257e-02 2.02235226e-02 2.07557213e-02 2.12879200e-02 2.18201168e-02 2.23523155e-02 2.28845123e-02 2.34167110e-02 2.39489097e-02 2.44811065e-02 2.50133052e-02 2.55455021e-02 2.60777008e-02 2.66098995e-02 2.71420963e-02 2.76742950e-02 2.82064937e-02 2.87386905e-02 2.92708892e-02 2.98030861e-02 3.03352848e-02 3.08674835e-02 3.13996822e-02 3.19318771e-02 3.24640758e-02 3.29962745e-02 3.35284732e-02 3.40606719e-02 3.45928669e-02 3.51250656e-02 3.56572643e-02 3.61894630e-02 3.67216617e-02 3.72538567e-02 3.77860554e-02 3.83182541e-02 3.88504528e-02 3.93826514e-02 3.99148501e-02 4.04470451e-02 4.09792438e-02 4.15114425e-02 4.20436412e-02 4.25758399e-02 4.31080349e-02 4.36402336e-02 4.41724323e-02 4.47046310e-02 4.52368297e-02 4.57690246e-02 4.63012233e-02 4.68334220e-02 4.73656207e-02 4.78978194e-02 4.84300144e-02 4.89622131e-02 4.94944118e-02 5.00266105e-02 5.05588092e-02 5.10910042e-02 5.16232029e-02 5.21554016e-02 5.26876003e-02 5.32197990e-02 5.37519939e-02 5.42841926e-02 5.48163913e-02 5.53485900e-02 5.58807887e-02 5.64129874e-02 5.69451824e-02 5.74773811e-02 5.80095798e-02 5.85417785e-02 5.90739772e-02 5.96061721e-02 6.01383708e-02 6.06705695e-02 6.12027682e-02 6.17349669e-02 6.22671619e-02 6.27993643e-02 6.33315593e-02 6.38637543e-02 6.43959567e-02 6.49281517e-02 6.54603541e-02 6.59925491e-02 6.65247440e-02 6.70569465e-02 6.75891414e-02 6.81213439e-02 6.86535388e-02 6.91857338e-02 6.97179362e-02 7.02501312e-02 7.07823336e-02 7.13145286e-02 7.18467236e-02 7.23789260e-02 7.29111210e-02 7.34433234e-02 7.39755183e-02 7.45077133e-02 7.50399157e-02 7.55721107e-02 7.61043131e-02 7.66365081e-02 7.71687031e-02 7.77009055e-02 7.82331005e-02 7.87653029e-02 7.92974979e-02 7.98297003e-02 8.03618953e-02 8.08940902e-02 8.14262927e-02 8.19584876e-02 8.24906901e-02 8.30228850e-02 8.35550800e-02 8.40872824e-02 8.46194774e-02 8.51516798e-02 8.56838748e-02 8.62160698e-02 8.67482722e-02 8.72804672e-02 8.78126696e-02 8.83448645e-02 8.88770595e-02 8.94092619e-02 8.99414569e-02 9.04736593e-02 9.10058543e-02 9.15380493e-02 9.20702517e-02 9.26024467e-02 9.31346491e-02 9.36668441e-02 9.41990390e-02 9.47312415e-02 9.52634364e-02 9.57956389e-02 9.63278338e-02 9.68600288e-02 9.73922312e-02 9.79244262e-02 9.84566286e-02 9.89888236e-02 9.95210186e-02 1.00053221e-01 1.00585416e-01 1.01117618e-01 1.01649813e-01 1.02182008e-01 1.02714211e-01 1.03246406e-01 1.03778608e-01 1.04310803e-01 1.04842998e-01 1.05375201e-01 1.05907395e-01 1.06439598e-01 1.06971793e-01 1.07503988e-01 1.08036190e-01 1.08568385e-01 1.09100588e-01 1.09632783e-01 1.10164985e-01 1.10697180e-01 1.11229375e-01 1.11761577e-01 1.12293772e-01 1.12825975e-01 1.13358170e-01 1.13890365e-01 1.14422567e-01 1.14954762e-01 1.15486965e-01 1.16019160e-01 1.16551355e-01 1.17083557e-01 1.17615752e-01 1.18147954e-01 1.18680149e-01 1.19212344e-01 1.19744547e-01 1.20276742e-01 1.20808944e-01 1.21341139e-01 1.21873334e-01 1.22405536e-01 1.22937731e-01 1.23469934e-01 1.24002129e-01 1.24534324e-01 1.25066519e-01 1.25598729e-01 1.26130924e-01 1.26663119e-01 1.27195314e-01 1.27727509e-01 1.28259718e-01 1.28791913e-01 1.29324108e-01 1.29856303e-01 1.30388498e-01 1.30920708e-01 1.31452903e-01 1.31985098e-01 1.32517293e-01 1.33049488e-01 1.33581698e-01 1.34113893e-01 1.34646088e-01 1.35178283e-01 1.35710478e-01 1.36242688e-01 1.36774883e-01 1.37307078e-01 1.37839273e-01 1.38371468e-01 1.38903677e-01 1.39435872e-01 1.39968067e-01 1.40500262e-01 1.41032457e-01 1.41564667e-01 1.42096862e-01 1.42629057e-01 1.43161252e-01 1.43693447e-01 1.44225657e-01 1.44757852e-01 1.45290047e-01 1.45822242e-01 1.46354437e-01 1.46886647e-01 1.47418842e-01 1.47951037e-01 1.48483232e-01 1.49015427e-01 1.49547637e-01 1.50079831e-01 1.50612026e-01 1.51144221e-01 1.51676416e-01 1.52208626e-01 1.52740821e-01 1.53273016e-01 1.53805211e-01 1.54337406e-01 1.54869616e-01 1.55401811e-01 1.55934006e-01 1.56466201e-01 1.56998411e-01 1.57530606e-01 1.58062801e-01 1.58594996e-01 1.59127191e-01 1.59659401e-01 1.60191596e-01 1.60723791e-01 1.61255985e-01 1.61788180e-01 1.62320390e-01 1.62852585e-01 1.63384780e-01 1.63916975e-01 1.64449170e-01 1.64981380e-01 1.65513575e-01 1.66045770e-01 1.66577965e-01 1.67110160e-01 1.67642370e-01 1.68174565e-01 1.68706760e-01 1.69238955e-01 1.69771150e-01 1.70303360e-01 1.70835555e-01 1.71367750e-01 1.71899945e-01 1.72432140e-01 1.72964349e-01 1.73496544e-01 1.74028739e-01 1.74560934e-01 1.75093129e-01 1.75625339e-01 1.76157534e-01 1.76689729e-01 1.77221924e-01 1.77754119e-01 1.78286329e-01 1.78818524e-01 1.79350719e-01 1.79882914e-01 1.80415109e-01 1.80947319e-01 1.81479514e-01 1.82011709e-01 1.82543904e-01 1.83076099e-01 1.83608308e-01 1.84140503e-01 1.84672698e-01 1.85204893e-01 1.85737088e-01 1.86269298e-01 1.86801493e-01 1.87333688e-01 1.87865883e-01 1.88398078e-01 1.88930288e-01 1.89462483e-01 1.89994678e-01 1.90526873e-01 1.91059068e-01 1.91591278e-01 1.92123473e-01 1.92655668e-01 1.93187863e-01 1.93720058e-01 1.94252267e-01 1.94784462e-01 1.95316657e-01 1.95848852e-01 1.96381047e-01 1.96913257e-01 1.97445452e-01 1.97977647e-01 1.98509842e-01 1.99042037e-01 1.99574247e-01 2.00106442e-01 2.00638637e-01 2.01170832e-01 2.01703027e-01 2.02235237e-01 2.02767432e-01 2.03299627e-01 2.03831822e-01 2.04364017e-01 2.04896227e-01 2.05428421e-01 2.05960616e-01 2.06492811e-01 2.07025006e-01 2.07557216e-01 2.08089411e-01 2.08621606e-01 2.09153801e-01 2.09685996e-01 2.10218206e-01 2.10750401e-01 2.11282596e-01 2.11814791e-01 2.12346986e-01 2.12879196e-01 2.13411391e-01 2.13943586e-01 2.14475781e-01 2.15007976e-01 2.15540186e-01 2.16072381e-01 2.16604576e-01 2.17136770e-01 2.17668965e-01 2.18201175e-01 2.18733370e-01 2.19265565e-01 2.19797760e-01 2.20329970e-01 2.20862165e-01 2.21394360e-01 2.21926555e-01 2.22458750e-01 2.22990960e-01 2.23523155e-01 2.24055350e-01 2.24587545e-01 2.25119740e-01 2.25651950e-01 2.26184145e-01 2.26716340e-01 2.27248535e-01 2.27780730e-01 2.28312939e-01 2.28845134e-01 2.29377329e-01 2.29909524e-01 2.30441719e-01 2.30973929e-01 2.31506124e-01 2.32038319e-01 2.32570514e-01 2.33102709e-01 2.33634919e-01 2.34167114e-01 2.34699309e-01 2.35231504e-01 2.35763699e-01 2.36295909e-01 2.36828104e-01 2.37360299e-01 2.37892494e-01 2.38424689e-01 2.38956898e-01 2.39489093e-01 2.40021288e-01 2.40553483e-01 2.41085678e-01 2.41617888e-01 2.42150083e-01 2.42682278e-01 2.43214473e-01 2.43746668e-01 2.44278878e-01 2.44811073e-01 2.45343268e-01 2.45875463e-01 2.46407658e-01 2.46939868e-01 2.47472063e-01 2.48004258e-01 2.48536453e-01 2.49068648e-01 2.49600857e-01 2.50133038e-01 2.50665247e-01 2.51197457e-01 2.51729637e-01 2.52261847e-01 2.52794027e-01 2.53326237e-01 2.53858447e-01 2.54390627e-01 2.54922837e-01 2.55455017e-01 2.55987227e-01 2.56519437e-01 2.57051617e-01 2.57583827e-01 2.58116007e-01 2.58648217e-01 2.59180427e-01 2.59712607e-01 2.60244817e-01 2.60776997e-01 2.61309206e-01 2.61841416e-01 2.62373596e-01 2.62905806e-01 2.63437986e-01 2.63970196e-01 2.64502406e-01 2.65034586e-01 2.65566796e-01 2.66098976e-01 2.66631186e-01 2.67163396e-01 2.67695576e-01 2.68227786e-01 2.68759966e-01 2.69292176e-01 2.69824386e-01 2.70356566e-01 2.70888776e-01 2.71420956e-01 2.71953166e-01 2.72485375e-01 2.73017555e-01 2.73549765e-01 2.74081945e-01 2.74614155e-01 2.75146365e-01 2.75678545e-01 2.76210755e-01 2.76742935e-01 2.77275145e-01 2.77807355e-01 2.78339535e-01 2.78871745e-01 2.79403925e-01 2.79936135e-01 2.80468345e-01 2.81000525e-01 2.81532735e-01 2.82064915e-01 2.82597125e-01 2.83129334e-01 2.83661515e-01 2.84193724e-01 2.84725904e-01 2.85258114e-01 2.85790324e-01 2.86322504e-01 2.86854714e-01 2.87386894e-01 2.87919104e-01 2.88451314e-01 2.88983494e-01 2.89515704e-01 2.90047884e-01 2.90580094e-01 2.91112304e-01 2.91644484e-01 2.92176694e-01 2.92708874e-01 2.93241084e-01 2.93773293e-01 2.94305474e-01 2.94837683e-01 2.95369864e-01 2.95902073e-01 2.96434283e-01 2.96966463e-01 2.97498673e-01 2.98030853e-01 2.98563063e-01 2.99095273e-01 2.99627453e-01 3.00159663e-01 3.00691843e-01 3.01224053e-01 3.01756263e-01 3.02288443e-01 3.02820653e-01 3.03352833e-01 3.03885043e-01 3.04417253e-01 3.04949433e-01 3.05481642e-01 3.06013823e-01 3.06546032e-01 3.07078242e-01 3.07610422e-01 3.08142632e-01 3.08674812e-01 3.09207022e-01 3.09739232e-01 3.10271412e-01 3.10803622e-01 3.11335802e-01 3.11868012e-01 3.12400222e-01 3.12932402e-01 3.13464612e-01 3.13996822e-01 3.14529002e-01 3.15061212e-01 3.15593392e-01 3.16125602e-01 3.16657811e-01 3.17189991e-01 3.17722201e-01 3.18254381e-01 3.18786591e-01 3.19318801e-01 3.19850981e-01 3.20383191e-01 3.20915371e-01 3.21447581e-01 3.21979791e-01 3.22511971e-01 3.23044181e-01 3.23576361e-01 3.24108571e-01 3.24640781e-01 3.25172961e-01 3.25705171e-01 3.26237351e-01 3.26769561e-01 3.27301770e-01 3.27833951e-01 3.28366160e-01 3.28898340e-01 3.29430550e-01 3.29962760e-01 3.30494940e-01 3.31027150e-01 3.31559330e-01 3.32091540e-01 3.32623750e-01 3.33155930e-01 3.33688140e-01 3.34220320e-01 3.34752530e-01 3.35284740e-01 3.35816920e-01 3.36349130e-01 3.36881310e-01 3.37413520e-01 3.37945729e-01 3.38477910e-01 3.39010119e-01 3.39542300e-01 3.40074509e-01 3.40606719e-01 3.41138899e-01 3.41671109e-01 3.42203289e-01 3.42735499e-01 3.43267709e-01 3.43799889e-01 3.44332099e-01 3.44864279e-01 3.45396489e-01 3.45928699e-01 3.46460879e-01 3.46993089e-01 3.47525269e-01 3.48057479e-01 3.48589689e-01 3.49121869e-01 3.49654078e-01 3.50186259e-01 3.50718468e-01 3.51250678e-01 3.51782858e-01 3.52315068e-01 3.52847248e-01 3.53379458e-01 3.53911668e-01 3.54443848e-01 3.54976058e-01 3.55508238e-01 3.56040448e-01 3.56572658e-01 3.57104838e-01 3.57637048e-01 3.58169228e-01 3.58701438e-01 3.59233648e-01 3.59765828e-01 3.60298038e-01 3.60830218e-01 3.61362427e-01 3.61894637e-01 3.62426817e-01 3.62959027e-01 3.63491207e-01 3.64023417e-01 3.64555627e-01 3.65087807e-01 3.65620017e-01 3.66152197e-01 3.66684407e-01 3.67216617e-01 3.67748797e-01 3.68281007e-01 3.68813187e-01 3.69345397e-01 3.69877607e-01 3.70409787e-01 3.70941997e-01 3.71474177e-01 3.72006387e-01 3.72538596e-01 3.73070776e-01 3.73602986e-01 3.74135166e-01 3.74667376e-01 3.75199586e-01 3.75731766e-01 3.76263976e-01 3.76796156e-01 3.77328366e-01 3.77860576e-01 3.78392756e-01 3.78924966e-01 3.79457146e-01 3.79989356e-01 3.80521566e-01 3.81053746e-01 3.81585956e-01 3.82118136e-01 3.82650346e-01 3.83182555e-01 3.83714736e-01 3.84246945e-01 3.84779125e-01 3.85311335e-01 3.85843545e-01 3.86375725e-01 3.86907935e-01 3.87440115e-01 3.87972325e-01 3.88504535e-01 3.89036715e-01 3.89568925e-01 3.90101105e-01 3.90633315e-01 3.91165525e-01 3.91697705e-01 3.92229915e-01 3.92762095e-01 3.93294305e-01 3.93826514e-01 3.94358695e-01 3.94890904e-01 3.95423084e-01 3.95955294e-01 3.96487504e-01 3.97019684e-01 3.97551894e-01 3.98084074e-01 3.98616284e-01 3.99148494e-01 3.99680674e-01 4.00212884e-01 4.00745064e-01 4.01277274e-01 4.01809484e-01 4.02341664e-01 4.02873874e-01 4.03406054e-01 4.03938264e-01 4.04470474e-01 4.05002654e-01 4.05534863e-01 4.06067044e-01 4.06599253e-01 4.07131463e-01 4.07663643e-01 4.08195853e-01 4.08728033e-01 4.09260243e-01 4.09792453e-01 4.10324633e-01 4.10856843e-01 4.11389023e-01 4.11921233e-01 4.12453443e-01 4.12985623e-01 4.13517833e-01 4.14050013e-01 4.14582223e-01 4.15114433e-01 4.15646613e-01 4.16178823e-01 4.16711003e-01 4.17243212e-01 4.17775422e-01 4.18307602e-01 4.18839812e-01 4.19371992e-01 4.19904202e-01 4.20436412e-01 4.20968592e-01 4.21500802e-01 4.22032982e-01 4.22565192e-01 4.23097402e-01 4.23629582e-01 4.24161792e-01 4.24693972e-01 4.25226182e-01 4.25758392e-01 4.26290572e-01 4.26822782e-01 4.27354962e-01 4.27887172e-01 4.28419381e-01 4.28951561e-01 4.29483771e-01 4.30015951e-01 4.30548161e-01 4.31080371e-01 4.31612551e-01 4.32144761e-01 4.32676941e-01 4.33209151e-01 4.33741361e-01 4.34273541e-01 4.34805751e-01 4.35337931e-01 4.35870141e-01 4.36402351e-01 4.36934531e-01 4.37466741e-01 4.37998950e-01 4.38531131e-01 4.39063340e-01 4.39595520e-01 4.40127730e-01 4.40659940e-01 4.41192120e-01 4.41724330e-01 4.42256510e-01 4.42788720e-01 4.43320930e-01 4.43853110e-01 4.44385320e-01 4.44917500e-01 4.45449710e-01 4.45981920e-01 4.46514100e-01 4.47046310e-01 4.47578490e-01 4.48110700e-01 4.48642910e-01 4.49175090e-01 4.49707299e-01 4.50239480e-01 4.50771689e-01 4.51303899e-01 4.51836079e-01 4.52368289e-01 4.52900469e-01 4.53432679e-01 4.53964889e-01 4.54497069e-01 4.55029279e-01 4.55561459e-01 4.56093669e-01 4.56625879e-01 4.57158059e-01 4.57690269e-01 4.58222449e-01 4.58754659e-01 4.59286869e-01 4.59819049e-01 4.60351259e-01 4.60883439e-01 4.61415648e-01 4.61947858e-01 4.62480038e-01 4.63012248e-01 4.63544428e-01 4.64076638e-01 4.64608848e-01 4.65141028e-01 4.65673238e-01 4.66205418e-01 4.66737628e-01 4.67269838e-01 4.67802018e-01 4.68334228e-01 4.68866408e-01 4.69398618e-01 4.69930828e-01 4.70463008e-01 4.70995218e-01 4.71527398e-01 4.72059608e-01 4.72591817e-01 4.73123997e-01 4.73656207e-01 4.74188387e-01 4.74720597e-01 4.75252807e-01 4.75784987e-01 4.76317197e-01 4.76849377e-01 4.77381587e-01 4.77913797e-01 4.78445977e-01 4.78978187e-01 4.79510367e-01 4.80042577e-01 4.80574787e-01 4.81106967e-01 4.81639177e-01 4.82171357e-01 4.82703567e-01 4.83235776e-01 4.83767956e-01 4.84300166e-01 4.84832346e-01 4.85364556e-01 4.85896766e-01 4.86428946e-01 4.86961156e-01 4.87493336e-01 4.88025546e-01 4.88557756e-01 4.89089936e-01 4.89622146e-01 4.90154326e-01 4.90686536e-01 4.91218746e-01 4.91750926e-01 4.92283136e-01 4.92815316e-01 4.93347526e-01 4.93879735e-01 4.94411916e-01 4.94944125e-01 4.95476305e-01 4.96008515e-01 4.96540725e-01 4.97072905e-01 4.97605115e-01 4.98137295e-01 4.98669505e-01 4.99201715e-01 4.99733895e-01 5.00266075e-01 5.00798285e-01 5.01330495e-01 5.01862705e-01 5.02394915e-01 5.02927065e-01 5.03459275e-01 5.03991485e-01 5.04523695e-01 5.05055904e-01 5.05588055e-01 5.06120265e-01 5.06652474e-01 5.07184684e-01 5.07716894e-01 5.08249044e-01 5.08781254e-01 5.09313464e-01 5.09845674e-01 5.10377884e-01 5.10910034e-01 5.11442244e-01 5.11974454e-01 5.12506664e-01 5.13038874e-01 5.13571024e-01 5.14103234e-01 5.14635444e-01 5.15167654e-01 5.15699863e-01 5.16232014e-01 5.16764224e-01 5.17296433e-01 5.17828643e-01 5.18360853e-01 5.18893003e-01 5.19425213e-01 5.19957423e-01 5.20489633e-01 5.21021843e-01 5.21553993e-01 5.22086203e-01 5.22618413e-01 5.23150623e-01 5.23682833e-01 5.24214983e-01 5.24747193e-01 5.25279403e-01 5.25811613e-01 5.26343822e-01 5.26875973e-01 5.27408183e-01 5.27940392e-01 5.28472602e-01 5.29004812e-01 5.29536963e-01 5.30069172e-01 5.30601382e-01 5.31133592e-01 5.31665802e-01 5.32197952e-01 5.32730162e-01 5.33262372e-01 5.33794582e-01 5.34326792e-01 5.34858942e-01 5.35391152e-01 5.35923362e-01 5.36455572e-01 5.36987782e-01 5.37519932e-01 5.38052142e-01 5.38584352e-01 5.39116561e-01 5.39648771e-01 5.40180922e-01 5.40713131e-01 5.41245341e-01 5.41777551e-01 5.42309761e-01 5.42841911e-01 5.43374121e-01 5.43906331e-01 5.44438541e-01 5.44970751e-01 5.45502901e-01 5.46035111e-01 5.46567321e-01 5.47099531e-01 5.47631741e-01 5.48163891e-01 5.48696101e-01 5.49228311e-01 5.49760520e-01 5.50292730e-01 5.50824881e-01 5.51357090e-01 5.51889300e-01 5.52421510e-01 5.52953720e-01 5.53485870e-01 5.54018080e-01 5.54550290e-01 5.55082500e-01 5.55614710e-01 5.56146860e-01 5.56679070e-01 5.57211280e-01 5.57743490e-01 5.58275700e-01 5.58807850e-01 5.59340060e-01 5.59872270e-01 5.60404480e-01 5.60936689e-01 5.61468840e-01 5.62001050e-01 5.62533259e-01 5.63065469e-01 5.63597679e-01 5.64129829e-01 5.64662039e-01 5.65194249e-01 5.65726459e-01 5.66258669e-01 5.66790819e-01 5.67323029e-01 5.67855239e-01 5.68387449e-01 5.68919659e-01 5.69451809e-01 5.69984019e-01 5.70516229e-01 5.71048439e-01 5.71580648e-01 5.72112799e-01 5.72645009e-01 5.73177218e-01 5.73709428e-01 5.74241638e-01 5.74773788e-01 5.75305998e-01 5.75838208e-01 5.76370418e-01 5.76902628e-01 5.77434778e-01 5.77966988e-01 5.78499198e-01 5.79031408e-01 5.79563618e-01 5.80095768e-01 5.80627978e-01 5.81160188e-01 5.81692398e-01 5.82224607e-01 5.82756758e-01 5.83288968e-01 5.83821177e-01 5.84353387e-01 5.84885597e-01 5.85417747e-01 5.85949957e-01 5.86482167e-01 5.87014377e-01 5.87546587e-01 5.88078737e-01 5.88610947e-01 5.89143157e-01 5.89675367e-01 5.90207577e-01 5.90739727e-01 5.91271937e-01 5.91804147e-01 5.92336357e-01 5.92868567e-01 5.93400717e-01 5.93932927e-01 5.94465137e-01 5.94997346e-01 5.95529556e-01 5.96061707e-01 5.96593916e-01 5.97126126e-01 5.97658336e-01 5.98190546e-01 5.98722696e-01 5.99254906e-01 5.99787116e-01 6.00319326e-01 6.00851536e-01 6.01383686e-01 6.01915896e-01 6.02448106e-01 6.02980316e-01 6.03512526e-01 6.04044676e-01 6.04576886e-01 6.05109096e-01 6.05641305e-01 6.06173515e-01 6.06705666e-01 6.07237875e-01 6.07770085e-01 6.08302295e-01 6.08834505e-01 6.09366655e-01 6.09898865e-01 6.10431075e-01 6.10963285e-01 6.11495495e-01 6.12027645e-01 6.12559855e-01 6.13092065e-01 6.13624275e-01 6.14156485e-01 6.14688635e-01 6.15220845e-01 6.15753055e-01 6.16285264e-01 6.16817474e-01 6.17349625e-01 6.17881835e-01 6.18414044e-01 6.18946254e-01 6.19478464e-01 6.20010614e-01 6.20542824e-01 6.21075034e-01 6.21607244e-01 6.22139454e-01 6.22671604e-01 6.23203814e-01 6.23736024e-01 6.24268234e-01 6.24800444e-01 6.25332654e-01 6.25864804e-01 6.26397014e-01 6.26929224e-01 6.27461433e-01 6.27993643e-01 6.28525794e-01 6.29058003e-01 6.29590213e-01 6.30122423e-01 6.30654633e-01 6.31186783e-01 6.31718993e-01 6.32251203e-01 6.32783413e-01 6.33315623e-01 6.33847773e-01 6.34379983e-01 6.34912193e-01 6.35444403e-01 6.35976613e-01 6.36508763e-01 6.37040973e-01 6.37573183e-01 6.38105392e-01 6.38637602e-01 6.39169753e-01 6.39701962e-01 6.40234172e-01 6.40766382e-01 6.41298592e-01 6.41830742e-01 6.42362952e-01 6.42895162e-01 6.43427372e-01 6.43959582e-01 6.44491732e-01 6.45023942e-01 6.45556152e-01 6.46088362e-01 6.46620572e-01 6.47152722e-01 6.47684932e-01 6.48217142e-01 6.48749352e-01 6.49281561e-01 6.49813712e-01 6.50345922e-01 6.50878131e-01 6.51410341e-01 6.51942551e-01 6.52474701e-01 6.53006911e-01 6.53539121e-01 6.54071331e-01 6.54603541e-01 6.55135691e-01 6.55667901e-01 6.56200111e-01 6.56732321e-01 6.57264531e-01 6.57796681e-01 6.58328891e-01 6.58861101e-01 6.59393311e-01 6.59925520e-01 6.60457671e-01 6.60989881e-01 6.61522090e-01 6.62054300e-01 6.62586510e-01 6.63118660e-01 6.63650870e-01 6.64183080e-01 6.64715290e-01 6.65247500e-01 6.65779650e-01 6.66311860e-01 6.66844070e-01 6.67376280e-01 6.67908490e-01 6.68440640e-01 6.68972850e-01 6.69505060e-01 6.70037270e-01 6.70569479e-01 6.71101630e-01 6.71633840e-01 6.72166049e-01 6.72698259e-01 6.73230469e-01 6.73762619e-01 6.74294829e-01 6.74827039e-01 6.75359249e-01 6.75891459e-01 6.76423609e-01 6.76955819e-01 6.77488029e-01 6.78020239e-01 6.78552449e-01 6.79084599e-01 6.79616809e-01 6.80149019e-01 6.80681229e-01 6.81213439e-01 6.81745589e-01 6.82277799e-01 6.82810009e-01 6.83342218e-01 6.83874428e-01 6.84406579e-01 6.84938788e-01 6.85470998e-01 6.86003208e-01 6.86535418e-01 6.87067568e-01 6.87599778e-01 6.88131988e-01 6.88664198e-01 6.89196408e-01 6.89728558e-01 6.90260768e-01 6.90792978e-01 6.91325188e-01 6.91857398e-01 6.92389548e-01 6.92921758e-01 6.93453968e-01 6.93986177e-01 6.94518387e-01 6.95050538e-01 6.95582747e-01 6.96114957e-01 6.96647167e-01 6.97179377e-01 6.97711527e-01 6.98243737e-01 6.98775947e-01 6.99308157e-01 6.99840367e-01 7.00372517e-01 7.00904727e-01 7.01436937e-01 7.01969147e-01 7.02501357e-01 7.03033507e-01 7.03565717e-01 7.04097927e-01 7.04630136e-01 7.05162346e-01 7.05694497e-01 7.06226707e-01 7.06758916e-01 7.07291126e-01 7.07823336e-01 7.08355486e-01 7.08887696e-01 7.09419906e-01 7.09952116e-01 7.10484326e-01 7.11016476e-01 7.11548686e-01 7.12080896e-01 7.12613106e-01 7.13145316e-01 7.13677466e-01 7.14209676e-01 7.14741886e-01 7.15274096e-01 7.15806305e-01 7.16338456e-01 7.16870666e-01 7.17402875e-01 7.17935085e-01 7.18467295e-01 7.18999445e-01 7.19531655e-01 7.20063865e-01 7.20596075e-01 7.21128285e-01 7.21660435e-01 7.22192645e-01 7.22724855e-01 7.23257065e-01 7.23789275e-01 7.24321425e-01 7.24853635e-01 7.25385845e-01 7.25918055e-01 7.26450264e-01 7.26982415e-01 7.27514625e-01 7.28046834e-01 7.28579044e-01 7.29111254e-01 7.29643404e-01 7.30175614e-01 7.30707824e-01 7.31240034e-01 7.31772244e-01 7.32304394e-01 7.32836604e-01 7.33368814e-01 7.33901024e-01 7.34433234e-01 7.34965384e-01 7.35497594e-01 7.36029804e-01 7.36562014e-01 7.37094223e-01 7.37626374e-01 7.38158584e-01 7.38690794e-01 7.39223003e-01 7.39755213e-01 7.40287364e-01 7.40819573e-01 7.41351783e-01 7.41883993e-01 7.42416203e-01 7.42948353e-01 7.43480563e-01 7.44012773e-01 7.44544983e-01 7.45077193e-01 7.45609343e-01 7.46141553e-01 7.46673763e-01 7.47205973e-01 7.47738183e-01 7.48270333e-01 7.48802543e-01 7.49334753e-01 7.49866962e-01 7.50399172e-01 7.50931323e-01 7.51463532e-01 7.51995742e-01 7.52527952e-01 7.53060162e-01 7.53592312e-01 7.54124522e-01 7.54656732e-01 7.55188942e-01 7.55721152e-01 7.56253302e-01 7.56785512e-01 7.57317722e-01 7.57849932e-01 7.58382142e-01 7.58914292e-01 7.59446502e-01 7.59978712e-01 7.60510921e-01 7.61043131e-01 7.61575282e-01 7.62107491e-01 7.62639701e-01 7.63171911e-01 7.63704121e-01 7.64236271e-01 7.64768481e-01 7.65300691e-01 7.65832901e-01 7.66365111e-01 7.66897261e-01 7.67429471e-01 7.67961681e-01 7.68493891e-01 7.69026101e-01 7.69558251e-01 7.70090461e-01 7.70622671e-01 7.71154881e-01 7.71687090e-01 7.72219241e-01 7.72751451e-01 7.73283660e-01 7.73815870e-01 7.74348080e-01 7.74880230e-01 7.75412440e-01 7.75944650e-01 7.76476860e-01 7.77009070e-01 7.77541220e-01 7.78073430e-01 7.78605640e-01 7.79137850e-01 7.79670060e-01 7.80202210e-01 7.80734420e-01 7.81266630e-01 7.81798840e-01 7.82331049e-01 7.82863200e-01 7.83395410e-01 7.83927619e-01 7.84459829e-01 7.84992039e-01 7.85524189e-01 7.86056399e-01 7.86588609e-01 7.87120819e-01 7.87653029e-01 7.88185179e-01 7.88717389e-01 7.89249599e-01 7.89781809e-01 7.90314019e-01 7.90846169e-01 7.91378379e-01 7.91910589e-01 7.92442799e-01 7.92975008e-01 7.93507159e-01 7.94039369e-01 7.94571579e-01 7.95103788e-01 7.95635998e-01 7.96168149e-01 7.96700358e-01 7.97232568e-01 7.97764778e-01 7.98296988e-01 7.98829138e-01 7.99361348e-01 7.99893558e-01 8.00425768e-01 8.00957978e-01 8.01490128e-01 8.02022338e-01 8.02554548e-01 8.03086758e-01 8.03618968e-01 8.04151118e-01 8.04683328e-01 8.05215538e-01 8.05747747e-01 8.06279957e-01 8.06812108e-01 8.07344317e-01 8.07876527e-01 8.08408737e-01 8.08940947e-01 8.09473097e-01 8.10005307e-01 8.10537517e-01 8.11069727e-01 8.11601937e-01 8.12134087e-01 8.12666297e-01 8.13198507e-01 8.13730717e-01 8.14262927e-01 8.14795077e-01 8.15327287e-01 8.15859497e-01 8.16391706e-01 8.16923916e-01 8.17456067e-01 8.17988276e-01 8.18520486e-01 8.19052696e-01 8.19584906e-01 8.20117056e-01 8.20649266e-01 8.21181476e-01 8.21713686e-01 8.22245896e-01 8.22778046e-01 8.23310256e-01 8.23842466e-01 8.24374676e-01 8.24906886e-01 8.25439036e-01 8.25971246e-01 8.26503456e-01 8.27035666e-01 8.27567875e-01 8.28100026e-01 8.28632236e-01 8.29164445e-01 8.29696655e-01 8.30228865e-01 8.30761015e-01 8.31293225e-01 8.31825435e-01 8.32357645e-01 8.32889855e-01 8.33422005e-01 8.33954215e-01 8.34486425e-01 8.35018635e-01 8.35550845e-01 8.36082995e-01 8.36615205e-01 8.37147415e-01 8.37679625e-01 8.38211834e-01 8.38743985e-01 8.39276195e-01 8.39808404e-01 8.40340614e-01 8.40872824e-01 8.41404974e-01 8.41937184e-01 8.42469394e-01 8.43001604e-01 8.43533814e-01 8.44065964e-01 8.44598174e-01 8.45130384e-01 8.45662594e-01 8.46194804e-01 8.46726954e-01 8.47259164e-01 8.47791374e-01 8.48323584e-01 8.48855793e-01 8.49387944e-01 8.49920154e-01 8.50452363e-01 8.50984573e-01 8.51516783e-01 8.52048934e-01 8.52581143e-01 8.53113353e-01 8.53645563e-01 8.54177773e-01 8.54709923e-01 8.55242133e-01 8.55774343e-01 8.56306553e-01 8.56838763e-01 8.57370913e-01 8.57903123e-01 8.58435333e-01 8.58967543e-01 8.59499753e-01 8.60031903e-01 8.60564113e-01 8.61096323e-01 8.61628532e-01 8.62160742e-01 8.62692893e-01 8.63225102e-01 8.63757312e-01 8.64289522e-01 8.64821732e-01 8.65353882e-01 8.65886092e-01 8.66418302e-01 8.66950512e-01 8.67482722e-01 8.68014872e-01 8.68547082e-01 8.69079292e-01 8.69611502e-01 8.70143712e-01 8.70675862e-01 8.71208072e-01 8.71740282e-01 8.72272491e-01 8.72804701e-01 8.73336852e-01 8.73869061e-01 8.74401271e-01 8.74933481e-01 8.75465691e-01 8.75997901e-01 8.76530051e-01 8.77062261e-01 8.77594471e-01 8.78126681e-01 8.78658891e-01 8.79191041e-01 8.79723251e-01 8.80255461e-01 8.80787671e-01 8.81319880e-01 8.81852031e-01 8.82384241e-01 8.82916451e-01 8.83448660e-01 8.83980870e-01 8.84513021e-01 8.85045230e-01 8.85577440e-01 8.86109650e-01 8.86641860e-01 8.87174010e-01 8.87706220e-01 8.88238430e-01 8.88770640e-01 8.89302850e-01 8.89835000e-01 8.90367210e-01 8.90899420e-01 8.91431630e-01 8.91963840e-01 8.92495990e-01 8.93028200e-01 8.93560410e-01 8.94092619e-01 8.94624829e-01 8.95156980e-01 8.95689189e-01 8.96221399e-01 8.96753609e-01 8.97285819e-01 8.97817969e-01 8.98350179e-01 8.98882389e-01 8.99414599e-01 8.99946809e-01 9.00478959e-01 9.01011169e-01 9.01543379e-01 9.02075589e-01 9.02607799e-01 9.03139949e-01 9.03672159e-01 9.04204369e-01 9.04736578e-01 9.05268788e-01 9.05800939e-01 9.06333148e-01 9.06865358e-01 9.07397568e-01 9.07929778e-01 9.08461928e-01 9.08994138e-01 9.09526348e-01 9.10058558e-01 9.10590768e-01 9.11122918e-01 9.11655128e-01 9.12187338e-01 9.12719548e-01 9.13251758e-01 9.13783908e-01 9.14316118e-01 9.14848328e-01 9.15380538e-01 9.15912747e-01 9.16444898e-01 9.16977108e-01 9.17509317e-01 9.18041527e-01 9.18573737e-01 9.19105887e-01 9.19638097e-01 9.20170307e-01 9.20702517e-01 9.21234727e-01 9.21766877e-01 9.22299087e-01 9.22831297e-01 9.23363507e-01 9.23895717e-01 9.24427867e-01 9.24960077e-01 9.25492287e-01 9.26024497e-01 9.26556706e-01 9.27088857e-01 9.27621067e-01 9.28153276e-01 9.28685486e-01 9.29217696e-01 9.29749846e-01 9.30282056e-01 9.30814266e-01 9.31346476e-01 9.31878686e-01 9.32410836e-01 9.32943046e-01 9.33475256e-01 9.34007466e-01 9.34539676e-01 9.35071826e-01 9.35604036e-01 9.36136246e-01 9.36668456e-01 9.37200665e-01 9.37732816e-01 9.38265026e-01 9.38797235e-01 9.39329445e-01 9.39861655e-01 9.40393806e-01 9.40926015e-01 9.41458225e-01 9.41990435e-01 9.42522645e-01 9.43054795e-01 9.43587005e-01 9.44119215e-01 9.44651425e-01 9.45183635e-01 9.45715785e-01 9.46247995e-01 9.46780205e-01 9.47312415e-01 9.47844625e-01 9.48376775e-01 9.48908985e-01 9.49441195e-01 9.49973404e-01 9.50505614e-01 9.51037765e-01 9.51569974e-01 9.52102184e-01 9.52634394e-01 9.53166604e-01 9.53698754e-01 9.54230964e-01 9.54763174e-01 9.55295384e-01 9.55827594e-01 9.56359744e-01 9.56891954e-01 9.57424164e-01 9.57956374e-01 9.58488584e-01 9.59020734e-01 9.59552944e-01 9.60085154e-01 9.60617363e-01 9.61149573e-01 9.61681724e-01 9.62213933e-01 9.62746143e-01 9.63278353e-01 9.63810563e-01 9.64342713e-01 9.64874923e-01 9.65407133e-01 9.65939343e-01 9.66471553e-01 9.67003703e-01 9.67535913e-01 9.68068123e-01 9.68600333e-01 9.69132543e-01 9.69664693e-01 9.70196903e-01 9.70729113e-01 9.71261322e-01 9.71793532e-01 9.72325683e-01 9.72857893e-01 9.73390102e-01 9.73922312e-01 9.74454522e-01 9.74986672e-01 9.75518882e-01 9.76051092e-01 9.76583302e-01 9.77115512e-01 9.77647662e-01 9.78179872e-01 9.78712082e-01 9.79244292e-01 9.79776502e-01 9.80308652e-01 9.80840862e-01 9.81373072e-01 9.81905282e-01 9.82437491e-01 9.82969642e-01 9.83501852e-01 9.84034061e-01 9.84566271e-01 9.85098481e-01 9.85630631e-01 9.86162841e-01 9.86695051e-01 9.87227261e-01 9.87759471e-01 9.88291621e-01 9.88823831e-01 9.89356041e-01 9.89888251e-01 9.90420461e-01 9.90952611e-01 9.91484821e-01 9.92017031e-01 9.92549241e-01 9.93081450e-01 9.93613601e-01 9.94145811e-01 9.94678020e-01 9.95210230e-01 9.95742440e-01 9.96274590e-01 9.96806800e-01 9.97339010e-01 9.97871220e-01 9.98403430e-01 9.98935580e-01 9.99467790e-01 1.00000000e+00 
            </Histogram>
            <HistogramBinning NBins="1879">
              -9.99999975e-05 0.00000000e+00 4.60220128e-03 4.98073269e-03 5.79410559e-03 6.01891009e-03 6.73383288e-03 6.97824545e-03 7.08717667e-03 7.83778075e-03 8.10510945e-03 8.41943733e-03 8.83646961e-03 9.09032580e-03 9.34003759e-03 9.63296182e-03 9.86072142e-03 1.00200996e-02 1.01608746e-02 1.03588020e-02 1.07055362e-02 1.08789513e-02 1.10513791e-02 1.12881558e-02 1.15216179e-02 1.17523856e-02 1.19832447e-02 1.21122673e-02 1.22931097e-02 1.25449244e-02 1.27228852e-02 1.28839584e-02 1.31088896e-02 1.33397570e-02 1.35614434e-02 1.37136979e-02 1.39516061e-02 1.41235115e-02 1.43584153e-02 1.45759769e-02 1.48275020e-02 1.50366025e-02 1.52867045e-02 1.54845798e-02 1.57056972e-02 1.58605743e-02 1.60794649e-02 1.63776707e-02 1.65662169e-02 1.67999137e-02 1.69348978e-02 1.71053931e-02 1.73296016e-02 1.76340342e-02 1.77620593e-02 1.79681443e-02 1.81504097e-02 1.83131676e-02 1.84994210e-02 1.87712163e-02 1.90610308e-02 1.93348154e-02 1.96192060e-02 1.98942237e-02 2.01828517e-02 2.03964263e-02 2.06433199e-02 2.08740123e-02 2.11488362e-02 2.13809554e-02 2.16211397e-02 2.18031928e-02 2.21121237e-02 2.23803483e-02 2.27115229e-02 2.29929108e-02 2.31869984e-02 2.34334338e-02 2.36711800e-02 2.39711013e-02 2.41689626e-02 2.43400261e-02 2.45966017e-02 2.48002652e-02 2.50847712e-02 2.54101809e-02 2.56250016e-02 2.58759353e-02 2.61437707e-02 2.63677314e-02 2.66550872e-02 2.68582329e-02 2.71405242e-02 2.74372101e-02 2.77248155e-02 2.79503707e-02 2.83144582e-02 2.86158733e-02 2.89560687e-02 2.92560309e-02 2.95476429e-02 2.99120620e-02 3.01809888e-02 3.04688513e-02 3.07527501e-02 3.11101228e-02 3.14117856e-02 3.16523463e-02 3.18908021e-02 3.21373492e-02 3.23849134e-02 3.25697176e-02 3.28494832e-02 3.32093947e-02 3.34839486e-02 3.37072164e-02 3.39295790e-02 3.40793468e-02 3.43307592e-02 3.46725211e-02 3.49494293e-02 3.51567790e-02 3.54394689e-02 3.56519558e-02 3.59000750e-02 3.61884385e-02 3.64784747e-02 3.67134325e-02 3.69797200e-02 3.73309180e-02 3.76475379e-02 3.79399136e-02 3.82743105e-02 3.85722816e-02 3.87824401e-02 3.90922986e-02 3.93327661e-02 3.96188982e-02 3.98254767e-02 4.00333628e-02 4.03245986e-02 4.06181142e-02 4.09191623e-02 4.12209630e-02 4.14412469e-02 4.17632721e-02 4.20764983e-02 4.23993208e-02 4.27310392e-02 4.30331118e-02 4.33703773e-02 4.36318703e-02 4.38997298e-02 4.42026332e-02 4.45369855e-02 4.49015200e-02 4.52350825e-02 4.55593541e-02 4.58248891e-02 4.61108610e-02 4.63753492e-02 4.66376282e-02 4.69407178e-02 4.72235605e-02 4.74809036e-02 4.77547199e-02 4.80536595e-02 4.82758619e-02 4.85644676e-02 4.88130972e-02 4.90802564e-02 4.93124947e-02 4.96911779e-02 4.99572642e-02 5.01956977e-02 5.04371263e-02 5.07598221e-02 5.11090234e-02 5.14486060e-02 5.17282262e-02 5.20412512e-02 5.22292331e-02 5.24417311e-02 5.27632795e-02 5.30703664e-02 5.33409566e-02 5.36074378e-02 5.38629070e-02 5.41263968e-02 5.43598011e-02 5.46806902e-02 5.49538061e-02 5.53114861e-02 5.57436608e-02 5.60739264e-02 5.63280396e-02 5.66004999e-02 5.69878444e-02 5.73641509e-02 5.76541647e-02 5.79472482e-02 5.82591668e-02 5.86098023e-02 5.89246005e-02 5.92287108e-02 5.94694838e-02 5.97405434e-02 5.99905439e-02 6.02624230e-02 6.05977625e-02 6.09630160e-02 6.12200759e-02 6.15353212e-02 6.17683455e-02 6.20923340e-02 6.23820312e-02 6.26660734e-02 6.29425570e-02 6.32796064e-02 6.35566115e-02 6.38481304e-02 6.41691536e-02 6.44813925e-02 6.47439584e-02 6.50631189e-02 6.53937683e-02 6.57204986e-02 6.60677552e-02 6.63374290e-02 6.65988177e-02 6.68803602e-02 6.71581030e-02 6.74754530e-02 6.77745640e-02 6.81425333e-02 6.84547126e-02 6.88219815e-02 6.91694841e-02 6.94539174e-02 6.97609559e-02 6.99639693e-02 7.02648461e-02 7.05866963e-02 7.08246678e-02 7.12025389e-02 7.16140643e-02 7.19249398e-02 7.22473711e-02 7.25806653e-02 7.28751570e-02 7.31815323e-02 7.35570565e-02 7.38364980e-02 7.42657930e-02 7.45811462e-02 7.48576969e-02 7.52231553e-02 7.55765885e-02 7.59343430e-02 7.62726218e-02 7.66083151e-02 7.70061463e-02 7.73808882e-02 7.76769221e-02 7.79578462e-02 7.83482343e-02 7.86122233e-02 7.89555609e-02 7.92207420e-02 7.95434713e-02 7.98691362e-02 8.02244619e-02 8.05118084e-02 8.08931291e-02 8.13088417e-02 8.16924274e-02 8.19630325e-02 8.22997838e-02 8.25537741e-02 8.28848034e-02 8.32669660e-02 8.36126804e-02 8.39371383e-02 8.42146054e-02 8.46552029e-02 8.49335045e-02 8.52746144e-02 8.55720937e-02 8.58655050e-02 8.61501098e-02 8.64645466e-02 8.68244544e-02 8.71045887e-02 8.74255523e-02 8.78536627e-02 8.82606432e-02 8.86399895e-02 8.89993161e-02 8.93598869e-02 8.96822512e-02 8.99988487e-02 9.03954059e-02 9.06125754e-02 9.10398662e-02 9.12970975e-02 9.16414112e-02 9.20287445e-02 9.23364908e-02 9.26321596e-02 9.29608122e-02 9.32340100e-02 9.35332030e-02 9.39787477e-02 9.42375213e-02 9.45596322e-02 9.49362665e-02 9.54681560e-02 9.57736596e-02 9.60532054e-02 9.63527486e-02 9.66453701e-02 9.69409496e-02 9.72509906e-02 9.76881087e-02 9.80238616e-02 9.83676016e-02 9.87408981e-02 9.90616530e-02 9.93761271e-02 9.96832550e-02 1.00036785e-01 1.00406185e-01 1.00685231e-01 1.01103008e-01 1.01516828e-01 1.01832062e-01 1.02216005e-01 1.02638386e-01 1.03076898e-01 1.03434682e-01 1.03725314e-01 1.04077294e-01 1.04429290e-01 1.04745522e-01 1.05063699e-01 1.05343655e-01 1.05714671e-01 1.06223308e-01 1.06572166e-01 1.06891051e-01 1.07273817e-01 1.07736781e-01 1.08057410e-01 1.08425505e-01 1.08842172e-01 1.09206110e-01 1.09527230e-01 1.09838575e-01 1.10234886e-01 1.10518172e-01 1.10944144e-01 1.11220300e-01 1.11679375e-01 1.12019986e-01 1.12398989e-01 1.12722836e-01 1.13078333e-01 1.13504194e-01 1.13948181e-01 1.14312157e-01 1.14673778e-01 1.14915311e-01 1.15321591e-01 1.15716748e-01 1.16096929e-01 1.16393231e-01 1.16866283e-01 1.17282018e-01 1.17726080e-01 1.18133247e-01 1.18461013e-01 1.18882433e-01 1.19206965e-01 1.19636193e-01 1.20091498e-01 1.20458022e-01 1.20875858e-01 1.21195972e-01 1.21558532e-01 1.21907830e-01 1.22312002e-01 1.22705728e-01 1.23098508e-01 1.23507440e-01 1.23991705e-01 1.24560922e-01 1.24946177e-01 1.25278085e-01 1.25798568e-01 1.26211166e-01 1.26653612e-01 1.27052903e-01 1.27511501e-01 1.27920285e-01 1.28309339e-01 1.28750384e-01 1.29185319e-01 1.29564911e-01 1.29926115e-01 1.30248249e-01 1.30660951e-01 1.31158754e-01 1.31629050e-01 1.31960690e-01 1.32367104e-01 1.32622987e-01 1.33098453e-01 1.33510962e-01 1.33881867e-01 1.34207845e-01 1.34659618e-01 1.35050416e-01 1.35455668e-01 1.35711044e-01 1.36157811e-01 1.36669904e-01 1.37207940e-01 1.37603104e-01 1.37949586e-01 1.38396308e-01 1.38851449e-01 1.39307439e-01 1.39622331e-01 1.39997408e-01 1.40420109e-01 1.40967831e-01 1.41388103e-01 1.41921431e-01 1.42406255e-01 1.42861664e-01 1.43377021e-01 1.43781424e-01 1.44400448e-01 1.44820333e-01 1.45178303e-01 1.45570576e-01 1.45994484e-01 1.46404251e-01 1.46699399e-01 1.47145003e-01 1.47558734e-01 1.47995755e-01 1.48545712e-01 1.48892716e-01 1.49266034e-01 1.49769127e-01 1.50258377e-01 1.50661007e-01 1.51128471e-01 1.51552200e-01 1.52159765e-01 1.52552307e-01 1.53055981e-01 1.53493017e-01 1.53841168e-01 1.54237628e-01 1.54660672e-01 1.55156806e-01 1.55561060e-01 1.55959368e-01 1.56379402e-01 1.56871825e-01 1.57383889e-01 1.57912970e-01 1.58383712e-01 1.58837318e-01 1.59327194e-01 1.59809023e-01 1.60350427e-01 1.60974383e-01 1.61420554e-01 1.62012517e-01 1.62306234e-01 1.62738085e-01 1.63271129e-01 1.63671225e-01 1.64106399e-01 1.64689183e-01 1.65209845e-01 1.65671870e-01 1.66130722e-01 1.66596696e-01 1.67151898e-01 1.67583123e-01 1.68094113e-01 1.68589354e-01 1.69095680e-01 1.69523656e-01 1.70017153e-01 1.70581922e-01 1.71017826e-01 1.71422586e-01 1.72027797e-01 1.72571287e-01 1.73084110e-01 1.73558637e-01 1.73990592e-01 1.74539819e-01 1.75072044e-01 1.75560847e-01 1.75936103e-01 1.76489800e-01 1.76947057e-01 1.77405953e-01 1.77777112e-01 1.78432673e-01 1.79063469e-01 1.79618984e-01 1.80198669e-01 1.80629596e-01 1.81229413e-01 1.81743264e-01 1.82315975e-01 1.82859451e-01 1.83405235e-01 1.83993056e-01 1.84543654e-01 1.85124546e-01 1.85517609e-01 1.86084345e-01 1.86464190e-01 1.87029213e-01 1.87564984e-01 1.88262165e-01 1.88795432e-01 1.89226210e-01 1.89689755e-01 1.90052673e-01 1.90544277e-01 1.91110462e-01 1.91603750e-01 1.92042619e-01 1.92503348e-01 1.93049937e-01 1.93436667e-01 1.94065601e-01 1.94567323e-01 1.95134550e-01 1.95530355e-01 1.96085349e-01 1.96615368e-01 1.97146997e-01 1.97668374e-01 1.98070884e-01 1.98594406e-01 1.99071407e-01 1.99666932e-01 2.00308621e-01 2.00904593e-01 2.01489061e-01 2.01928362e-01 2.02327311e-01 2.02727884e-01 2.03313291e-01 2.03853577e-01 2.04540014e-01 2.04963773e-01 2.05559582e-01 2.06012204e-01 2.06554636e-01 2.07111791e-01 2.07860172e-01 2.08499044e-01 2.09014565e-01 2.09446907e-01 2.10015833e-01 2.10404277e-01 2.11030602e-01 2.11555764e-01 2.12036341e-01 2.12576076e-01 2.13151008e-01 2.13655844e-01 2.14336142e-01 2.14926362e-01 2.15483248e-01 2.15829313e-01 2.16174319e-01 2.16696605e-01 2.17260003e-01 2.17941925e-01 2.18602747e-01 2.19174474e-01 2.19796211e-01 2.20438242e-01 2.20909715e-01 2.21575797e-01 2.22056642e-01 2.22472370e-01 2.23030522e-01 2.23703429e-01 2.24316224e-01 2.24702194e-01 2.25180775e-01 2.25756839e-01 2.26338118e-01 2.26897985e-01 2.27383405e-01 2.27942571e-01 2.28581518e-01 2.29277074e-01 2.29827195e-01 2.30435088e-01 2.30914861e-01 2.31303960e-01 2.31941372e-01 2.32628375e-01 2.33045697e-01 2.33942449e-01 2.34603673e-01 2.35443428e-01 2.36029610e-01 2.36466765e-01 2.37053260e-01 2.37678811e-01 2.38243148e-01 2.38752812e-01 2.39331305e-01 2.39892840e-01 2.40429744e-01 2.40936279e-01 2.41403103e-01 2.41846621e-01 2.42353171e-01 2.43101954e-01 2.43686914e-01 2.44226322e-01 2.44999617e-01 2.45435610e-01 2.46019512e-01 2.46686444e-01 2.47262001e-01 2.47859538e-01 2.48601645e-01 2.49239057e-01 2.49931365e-01 2.50628412e-01 2.51318991e-01 2.51914680e-01 2.52480745e-01 2.53000319e-01 2.53628492e-01 2.54263848e-01 2.54871041e-01 2.55405813e-01 2.56014109e-01 2.56477207e-01 2.57160038e-01 2.57644385e-01 2.58444220e-01 2.59197682e-01 2.59879500e-01 2.60432005e-01 2.61100292e-01 2.61841416e-01 2.62487113e-01 2.63023823e-01 2.63815939e-01 2.64537513e-01 2.65040487e-01 2.65826911e-01 2.66495794e-01 2.67080307e-01 2.67751634e-01 2.68377572e-01 2.68958807e-01 2.69575387e-01 2.70460874e-01 2.71112233e-01 2.71781892e-01 2.72439927e-01 2.72871464e-01 2.73431420e-01 2.74176657e-01 2.74977773e-01 2.75637090e-01 2.76289314e-01 2.76983798e-01 2.77661324e-01 2.78079212e-01 2.78685212e-01 2.79483020e-01 2.80279309e-01 2.81250626e-01 2.81842470e-01 2.82600850e-01 2.83166856e-01 2.83943683e-01 2.84568131e-01 2.85185605e-01 2.85956800e-01 2.86665976e-01 2.87243664e-01 2.87959576e-01 2.88742423e-01 2.89634317e-01 2.90441543e-01 2.91115999e-01 2.91754127e-01 2.92363048e-01 2.93223381e-01 2.93986559e-01 2.94829220e-01 2.95677781e-01 2.96414733e-01 2.97208279e-01 2.97780007e-01 2.98607290e-01 2.99042046e-01 2.99698949e-01 3.00508350e-01 3.01353484e-01 3.01982313e-01 3.02866310e-01 3.03457260e-01 3.04108620e-01 3.04745495e-01 3.05542201e-01 3.06207597e-01 3.07108939e-01 3.07718128e-01 3.08461845e-01 3.09060633e-01 3.09649765e-01 3.10337931e-01 3.10837626e-01 3.11523348e-01 3.12184453e-01 3.13307524e-01 3.14156711e-01 3.14858705e-01 3.15795451e-01 3.16401005e-01 3.17087471e-01 3.17516267e-01 3.18462670e-01 3.19217235e-01 3.19900393e-01 3.20830286e-01 3.21562082e-01 3.22224557e-01 3.22814554e-01 3.23505431e-01 3.24201494e-01 3.25117052e-01 3.25976759e-01 3.26716602e-01 3.27377915e-01 3.28147918e-01 3.29002470e-01 3.29471856e-01 3.30242306e-01 3.31231594e-01 3.32134724e-01 3.32940072e-01 3.33655715e-01 3.34578753e-01 3.35376024e-01 3.36109221e-01 3.36998463e-01 3.37904245e-01 3.38519335e-01 3.39103401e-01 3.39808464e-01 3.40552866e-01 3.41422021e-01 3.42107385e-01 3.42892408e-01 3.43689203e-01 3.44495267e-01 3.45250309e-01 3.46003711e-01 3.46607625e-01 3.47248465e-01 3.48462701e-01 3.49333197e-01 3.50174487e-01 3.50841522e-01 3.51879716e-01 3.52456480e-01 3.53432536e-01 3.54110450e-01 3.54848027e-01 3.55881929e-01 3.56556147e-01 3.57455969e-01 3.58293355e-01 3.58896852e-01 3.59744400e-01 3.60603333e-01 3.61301184e-01 3.62094283e-01 3.62802356e-01 3.63694489e-01 3.64435643e-01 3.65212440e-01 3.66315663e-01 3.67482424e-01 3.68395865e-01 3.69184256e-01 3.69770139e-01 3.70489180e-01 3.71323884e-01 3.72330070e-01 3.73225749e-01 3.74065846e-01 3.74864697e-01 3.75819504e-01 3.76692533e-01 3.77565295e-01 3.78493369e-01 3.79168063e-01 3.79988641e-01 3.80832791e-01 3.81701767e-01 3.82366121e-01 3.83082390e-01 3.83995742e-01 3.84775549e-01 3.85908127e-01 3.86784852e-01 3.87748092e-01 3.88665617e-01 3.89766097e-01 3.90529811e-01 3.91399503e-01 3.92154247e-01 3.93132538e-01 3.93963903e-01 3.95127982e-01 3.96135122e-01 3.96916270e-01 3.97829413e-01 3.98802280e-01 3.99675369e-01 4.00390267e-01 4.01553035e-01 4.02475744e-01 4.03238446e-01 4.03872222e-01 4.04802561e-01 4.05717105e-01 4.06739652e-01 4.07770932e-01 4.08561707e-01 4.09754813e-01 4.10639495e-01 4.11719590e-01 4.12305057e-01 4.13404673e-01 4.14197654e-01 4.15173829e-01 4.16181564e-01 4.16993052e-01 4.18365419e-01 4.19203907e-01 4.20112938e-01 4.21289444e-01 4.22516346e-01 4.23371017e-01 4.24605101e-01 4.25648212e-01 4.26781863e-01 4.27702129e-01 4.28839624e-01 4.29744184e-01 4.30603296e-01 4.31468248e-01 4.32767421e-01 4.33593065e-01 4.34635490e-01 4.35866773e-01 4.36774969e-01 4.37582523e-01 4.38713282e-01 4.39511746e-01 4.40324664e-01 4.41307276e-01 4.42518920e-01 4.43464309e-01 4.44408149e-01 4.45563495e-01 4.46563244e-01 4.47645992e-01 4.48806256e-01 4.50174749e-01 4.51034367e-01 4.52139348e-01 4.53270942e-01 4.54432756e-01 4.55625921e-01 4.56871063e-01 4.57962215e-01 4.58859622e-01 4.59759146e-01 4.60769117e-01 4.61620212e-01 4.62755442e-01 4.63962555e-01 4.64783758e-01 4.66374695e-01 4.67461050e-01 4.68605399e-01 4.69481707e-01 4.70703185e-01 4.71923143e-01 4.72912699e-01 4.74143803e-01 4.75255579e-01 4.76459324e-01 4.77759719e-01 4.78856146e-01 4.79837179e-01 4.81200457e-01 4.82735693e-01 4.83749002e-01 4.85171288e-01 4.86202896e-01 4.86977220e-01 4.88384426e-01 4.89372492e-01 4.90438908e-01 4.91899550e-01 4.92813110e-01 4.93887156e-01 4.94977146e-01 4.96127635e-01 4.97476935e-01 4.98817563e-01 4.99918014e-01 5.01514316e-01 5.02978802e-01 5.04038870e-01 5.05329549e-01 5.06436884e-01 5.07711291e-01 5.09177327e-01 5.10520458e-01 5.11582553e-01 5.12521267e-01 5.13983130e-01 5.15158892e-01 5.16395628e-01 5.17568588e-01 5.18739998e-01 5.20099401e-01 5.21362364e-01 5.22816718e-01 5.23983896e-01 5.25212705e-01 5.26089549e-01 5.27606070e-01 5.28764844e-01 5.29936790e-01 5.31098247e-01 5.32386065e-01 5.33603668e-01 5.34963548e-01 5.36319196e-01 5.37743568e-01 5.39190114e-01 5.40518761e-01 5.42737484e-01 5.44526994e-01 5.45698762e-01 5.46839356e-01 5.48266470e-01 5.49837053e-01 5.51355004e-01 5.52867413e-01 5.54445148e-01 5.56011021e-01 5.57185411e-01 5.58534384e-01 5.60004830e-01 5.61376035e-01 5.62850952e-01 5.64754963e-01 5.66017687e-01 5.67614794e-01 5.69269955e-01 5.70783854e-01 5.72427928e-01 5.74385047e-01 5.75689316e-01 5.77718139e-01 5.79720795e-01 5.80798864e-01 5.82114995e-01 5.83232284e-01 5.84574461e-01 5.85702777e-01 5.87229192e-01 5.88495612e-01 5.89973092e-01 5.91316402e-01 5.92491031e-01 5.94490886e-01 5.95611334e-01 5.96874356e-01 5.97879350e-01 5.99280119e-01 6.00553036e-01 6.02312148e-01 6.04030311e-01 6.05337739e-01 6.06872499e-01 6.08236432e-01 6.10016584e-01 6.11664891e-01 6.13316596e-01 6.14841759e-01 6.16466701e-01 6.18298769e-01 6.19789243e-01 6.21552944e-01 6.23100877e-01 6.25213921e-01 6.26464784e-01 6.28353477e-01 6.30716205e-01 6.32328570e-01 6.34159386e-01 6.36105537e-01 6.37713194e-01 6.39405489e-01 6.41387403e-01 6.42971158e-01 6.44470632e-01 6.45928383e-01 6.47260487e-01 6.48862183e-01 6.51041865e-01 6.52396500e-01 6.54396057e-01 6.55729532e-01 6.57070935e-01 6.58873379e-01 6.60128057e-01 6.61991954e-01 6.63383305e-01 6.64639056e-01 6.66374922e-01 6.68276966e-01 6.69695020e-01 6.71362579e-01 6.73148632e-01 6.74529076e-01 6.76153541e-01 6.77725136e-01 6.79259837e-01 6.80923581e-01 6.82479024e-01 6.84219182e-01 6.86051726e-01 6.88127339e-01 6.90316379e-01 6.91910386e-01 6.93433940e-01 6.95041239e-01 6.96418345e-01 6.98405266e-01 6.99655056e-01 7.01097727e-01 7.02821672e-01 7.04524934e-01 7.06174672e-01 7.07551956e-01 7.09667683e-01 7.11483896e-01 7.13329673e-01 7.15366602e-01 7.17325628e-01 7.19414949e-01 7.21028924e-01 7.23485172e-01 7.25494981e-01 7.27466524e-01 7.29883254e-01 7.31443524e-01 7.33029127e-01 7.35384524e-01 7.37711370e-01 7.39333808e-01 7.40982771e-01 7.42769659e-01 7.44749963e-01 7.46599555e-01 7.48339653e-01 7.50049233e-01 7.51672566e-01 7.53822207e-01 7.57005394e-01 7.59065330e-01 7.61475384e-01 7.63874471e-01 7.65568435e-01 7.67298698e-01 7.68565059e-01 7.70664811e-01 7.73682058e-01 7.75894403e-01 7.78163195e-01 7.79990852e-01 7.81952322e-01 7.84121156e-01 7.85937130e-01 7.87646770e-01 7.89899051e-01 7.92310476e-01 7.94176996e-01 7.96458602e-01 7.98006535e-01 8.00671220e-01 8.02701771e-01 8.04636717e-01 8.06810617e-01 8.08921099e-01 8.11521053e-01 8.13773870e-01 8.15965354e-01 8.18419456e-01 8.20630252e-01 8.22728515e-01 8.25139761e-01 8.27385068e-01 8.29829276e-01 8.32018495e-01 8.34058344e-01 8.35950613e-01 8.37936223e-01 8.40390921e-01 8.42692554e-01 8.44818413e-01 8.46881390e-01 8.50023031e-01 8.52237463e-01 8.54380608e-01 8.56714725e-01 8.58958006e-01 8.61075819e-01 8.63700628e-01 8.65821183e-01 8.67971897e-01 8.70527387e-01 8.73486340e-01 8.76376510e-01 8.78695667e-01 8.80756855e-01 8.83035302e-01 8.85450780e-01 8.88312519e-01 8.90421093e-01 8.92945409e-01 8.94711733e-01 8.97309482e-01 8.99500310e-01 9.02383745e-01 9.05553341e-01 9.08783078e-01 9.11122859e-01 9.13683057e-01 9.15942430e-01 9.18385744e-01 9.21012759e-01 9.24035430e-01 9.27136660e-01 9.29412544e-01 9.31913972e-01 9.34427500e-01 9.37206268e-01 9.39609051e-01 9.41509604e-01 9.44814503e-01 9.47183967e-01 9.49635148e-01 9.51978922e-01 9.55094993e-01 9.57170725e-01 9.60696995e-01 9.63140905e-01 9.66086209e-01 9.69082415e-01 9.72003162e-01 9.74023998e-01 9.76654887e-01 9.79618013e-01 9.81981277e-01 9.85075474e-01 9.88003850e-01 9.91037369e-01 9.94072914e-01 9.97385025e-01 9.99929488e-01 1.00408792e+00 1.00678945e+00 1.00952780e+00 1.01250696e+00 1.01490664e+00 1.01817691e+00 1.02078736e+00 1.02263367e+00 1.02485931e+00 1.02758729e+00 1.03132749e+00 1.03458655e+00 1.03781331e+00 1.04130876e+00 1.04394972e+00 1.04649329e+00 1.04931331e+00 1.05250800e+00 1.05596793e+00 1.05884504e+00 1.06270194e+00 1.06538546e+00 1.06862557e+00 1.07104301e+00 1.07422304e+00 1.07742476e+00 1.08009887e+00 1.08296156e+00 1.08675408e+00 1.09005642e+00 1.09340835e+00 1.09681606e+00 1.10011303e+00 1.10336125e+00 1.10584044e+00 1.10877776e+00 1.11249518e+00 1.11555219e+00 1.11860263e+00 1.12199533e+00 1.12597084e+00 1.13026941e+00 1.13433051e+00 1.13757443e+00 1.14014089e+00 1.14353216e+00 1.14717770e+00 1.15000188e+00 1.15384996e+00 1.15758204e+00 1.16112065e+00 1.16539586e+00 1.16921234e+00 1.17219484e+00 1.17617691e+00 1.18020082e+00 1.18456364e+00 1.18789244e+00 1.19261014e+00 1.19529843e+00 1.19890487e+00 1.20152020e+00 1.20432174e+00 1.20745373e+00 1.21131301e+00 1.21445441e+00 1.21786928e+00 1.22173643e+00 1.22540200e+00 1.22941470e+00 1.23275876e+00 1.23650563e+00 1.23961699e+00 1.24335670e+00 1.24704862e+00 1.25134635e+00 1.25557017e+00 1.25874805e+00 1.26203287e+00 1.26601100e+00 1.26944447e+00 1.27314281e+00 1.27694869e+00 1.28104603e+00 1.28435171e+00 1.28858232e+00 1.29162920e+00 1.29617417e+00 1.29923391e+00 1.30318332e+00 1.30721283e+00 1.31174946e+00 1.31606567e+00 1.31985188e+00 1.32310462e+00 1.32665372e+00 1.32983875e+00 1.33406317e+00 1.33909178e+00 1.34289598e+00 1.34649146e+00 1.35060358e+00 1.35518765e+00 1.35906410e+00 1.36473346e+00 1.36859643e+00 1.37309599e+00 1.37662327e+00 1.38036406e+00 1.38415527e+00 1.38854384e+00 1.39366865e+00 1.39800000e+00 1.40219295e+00 1.40700459e+00 1.41120267e+00 1.41512632e+00 1.41963172e+00 1.42444122e+00 1.42795634e+00 1.43382144e+00 1.43704796e+00 1.44132316e+00 1.44600129e+00 1.45004678e+00 1.45590174e+00 1.46062469e+00 1.46472204e+00 1.47005510e+00 1.47498262e+00 1.47873640e+00 1.48386288e+00 1.48671293e+00 1.49074638e+00 1.49534118e+00 1.50147009e+00 1.50611877e+00 1.51104999e+00 1.51585627e+00 1.52146959e+00 1.52939463e+00 1.53405964e+00 1.53888202e+00 1.54390168e+00 1.54817963e+00 1.55422843e+00 1.56041026e+00 1.56535876e+00 1.56937671e+00 1.57608759e+00 1.58151460e+00 1.58755302e+00 1.59225428e+00 1.59720623e+00 1.60289180e+00 1.60949779e+00 1.61513805e+00 1.62039053e+00 1.62549865e+00 1.63071108e+00 1.63622129e+00 1.64086652e+00 1.64637625e+00 1.65162373e+00 1.65614676e+00 1.66167772e+00 1.66699529e+00 1.67236996e+00 1.67843080e+00 1.68371463e+00 1.68997121e+00 1.69703174e+00 1.70315349e+00 1.70979071e+00 1.71706593e+00 1.72341180e+00 1.72803164e+00 1.73509192e+00 1.74144363e+00 1.74811625e+00 1.75441456e+00 1.76104021e+00 1.76705754e+00 1.77540135e+00 1.78276467e+00 1.79020154e+00 1.79631579e+00 1.80274355e+00 1.81041241e+00 1.81583214e+00 1.82362199e+00 1.83047187e+00 1.83709264e+00 1.84419501e+00 1.84909344e+00 1.85578048e+00 1.86152947e+00 1.86883128e+00 1.87437320e+00 1.88278842e+00 1.89167702e+00 1.89857936e+00 1.90467846e+00 1.91332221e+00 1.91954792e+00 1.92573380e+00 1.93554163e+00 1.94377136e+00 1.95121789e+00 1.95951128e+00 1.96631229e+00 1.97431028e+00 1.98273051e+00 1.98952758e+00 1.99763083e+00 2.00360894e+00 2.00959897e+00 2.01766729e+00 2.02560639e+00 2.03471184e+00 2.04268193e+00 2.05079675e+00 2.05848527e+00 2.06770658e+00 2.07710338e+00 2.08512855e+00 2.09411001e+00 2.10112190e+00 2.10838675e+00 2.11763000e+00 2.12505341e+00 2.13210559e+00 2.13980317e+00 2.14839268e+00 2.15739727e+00 2.16757703e+00 2.17751527e+00 2.18443656e+00 2.19166446e+00 2.20081162e+00 2.20701599e+00 2.21608567e+00 2.22303534e+00 2.23265839e+00 2.24667978e+00 2.25602937e+00 2.26644516e+00 2.27585077e+00 2.28254390e+00 2.29024577e+00 2.30119753e+00 2.31075382e+00 2.31936169e+00 2.32954335e+00 2.33994675e+00 2.34986138e+00 2.36010242e+00 2.37060618e+00 2.37969494e+00 2.38998699e+00 2.39974380e+00 2.40976071e+00 2.42070246e+00 2.42816138e+00 2.43995047e+00 2.44869328e+00 2.45891380e+00 2.47203612e+00 2.48067045e+00 2.49219012e+00 2.50338888e+00 2.51602483e+00 2.52699637e+00 2.53996730e+00 2.54923868e+00 2.56243658e+00 2.57490897e+00 2.58331633e+00 2.59430695e+00 2.60363960e+00 2.61365914e+00 2.62773252e+00 2.63898706e+00 2.64927316e+00 2.66052961e+00 2.67016268e+00 2.68245316e+00 2.69402218e+00 2.70240974e+00 2.71852827e+00 2.73040056e+00 2.73972034e+00 2.75224781e+00 2.76066923e+00 2.77078891e+00 2.78743553e+00 2.79981923e+00 2.81395984e+00 2.82933831e+00 2.84381127e+00 2.85751700e+00 2.86760449e+00 2.87696648e+00 2.89178276e+00 2.90322256e+00 2.91372776e+00 2.92793298e+00 2.94245982e+00 2.95638657e+00 2.97578239e+00 2.98933530e+00 3.00288844e+00 3.01391268e+00 3.02678204e+00 3.04275942e+00 3.05541682e+00 3.06736398e+00 3.07884932e+00 3.09188318e+00 3.10224104e+00 3.11929560e+00 3.13221693e+00 3.14596534e+00 3.15606904e+00 3.17142940e+00 3.18993664e+00 3.20360756e+00 3.21818662e+00 3.23226428e+00 3.24394035e+00 3.26300263e+00 3.27547836e+00 3.29040980e+00 3.30160379e+00 3.31665182e+00 3.33310008e+00 3.34372711e+00 3.35770154e+00 3.37712646e+00 3.39232469e+00 3.40586519e+00 3.42650986e+00 3.44311666e+00 3.46233249e+00 3.47572422e+00 3.49068928e+00 3.51017308e+00 3.52759624e+00 3.54600549e+00 3.56390643e+00 3.58372307e+00 3.59924126e+00 3.61162710e+00 3.63606000e+00 3.65113902e+00 3.66138935e+00 3.68237948e+00 3.70122361e+00 3.71940374e+00 3.74208760e+00 3.76008272e+00 3.77832460e+00 3.79585648e+00 3.81685233e+00 3.84139705e+00 3.86818409e+00 3.88500619e+00 3.90778375e+00 3.93125033e+00 3.94996572e+00 3.97417855e+00 3.99656510e+00 4.01190472e+00 4.02882004e+00 4.04563904e+00 4.06352234e+00 4.08464479e+00 4.10644007e+00 4.12902117e+00 4.15025043e+00 4.17536259e+00 4.20819378e+00 4.22805548e+00 4.25042391e+00 4.26983213e+00 4.28780317e+00 4.31122828e+00 4.33634138e+00 4.36064720e+00 4.38338041e+00 4.40549946e+00 4.43536901e+00 4.45469761e+00 4.47884703e+00 4.49651861e+00 4.51331663e+00 4.53377104e+00 4.55636644e+00 4.58904552e+00 4.61622047e+00 4.63611221e+00 4.66794872e+00 4.68906260e+00 4.72345638e+00 4.74917126e+00 4.77770042e+00 4.80670309e+00 4.83287334e+00 4.86132479e+00 4.89049339e+00 4.91638327e+00 4.95554066e+00 4.99025059e+00 5.01218081e+00 5.03437901e+00 5.05806351e+00 5.08651018e+00 5.11062479e+00 5.14154243e+00 5.17623043e+00 5.20104980e+00 5.22878599e+00 5.25834656e+00 5.29196835e+00 5.31256676e+00 5.33820915e+00 5.36168718e+00 5.40446424e+00 5.42949295e+00 5.45220327e+00 5.48401165e+00 5.51968670e+00 5.55267239e+00 5.58022642e+00 5.61519384e+00 5.64103699e+00 5.66833544e+00 5.70808411e+00 5.74226952e+00 5.77310801e+00 5.80210733e+00 5.82727003e+00 5.87585688e+00 5.91098976e+00 5.94110918e+00 5.98219442e+00 6.01986742e+00 6.05863667e+00 6.10547113e+00 6.13501787e+00 6.16851521e+00 6.22011328e+00 6.25573826e+00 6.28822851e+00 6.32454109e+00 6.36242914e+00 6.40656567e+00 6.44630623e+00 6.48124218e+00 6.52014065e+00 6.56690407e+00 6.60594082e+00 6.63976669e+00 6.67484760e+00 6.71459866e+00 6.75769234e+00 6.79907703e+00 6.83764601e+00 6.87233782e+00 6.90506363e+00 6.95304394e+00 6.99022913e+00 7.03332520e+00 7.07572126e+00 7.11717224e+00 7.16113138e+00 7.20100832e+00 7.25513697e+00 7.30352259e+00 7.37189531e+00 7.41473198e+00 7.45855331e+00 7.49568176e+00 7.53853559e+00 7.58364105e+00 7.62495995e+00 7.66761971e+00 7.72328424e+00 7.76752615e+00 7.81210756e+00 7.85690594e+00 7.90686131e+00 7.95322704e+00 7.98526669e+00 8.03209019e+00 8.08198071e+00 8.15221882e+00 8.19273949e+00 8.22751999e+00 8.26364422e+00 8.32111740e+00 8.38262749e+00 8.45723915e+00 8.50079727e+00 8.56145477e+00 8.61854744e+00 8.69514370e+00 8.75471210e+00 8.80367947e+00 8.87502289e+00 8.93348217e+00 9.00181961e+00 9.04666138e+00 9.10704994e+00 9.15976715e+00 9.22161961e+00 9.27620983e+00 9.34039974e+00 9.39660740e+00 9.45681667e+00 9.51655769e+00 9.56667137e+00 9.62630844e+00 9.68225765e+00 9.74487209e+00 9.82981873e+00 9.88558102e+00 9.94994545e+00 1.00221214e+01 1.01042614e+01 1.01661901e+01 1.02482777e+01 1.03222275e+01 1.03813601e+01 1.04644356e+01 1.05622158e+01 1.06132708e+01 1.07147713e+01 1.07961264e+01 1.08704510e+01 1.09362869e+01 1.10075350e+01 1.10953245e+01 1.11737738e+01 1.12627182e+01 1.13397360e+01 1.14108114e+01 1.14886322e+01 1.15950356e+01 1.17129040e+01 1.17921238e+01 1.18869276e+01 1.19751396e+01 1.20633039e+01 1.21486397e+01 1.22254686e+01 1.23367081e+01 1.24228010e+01 1.24835405e+01 1.25914173e+01 1.26836777e+01 1.27695465e+01 1.28714552e+01 1.29660912e+01 1.30458412e+01 1.31284924e+01 1.32378159e+01 1.33642120e+01 1.34543142e+01 1.35434837e+01 1.36884069e+01 1.38109226e+01 1.39577570e+01 1.40636206e+01 1.41906261e+01 1.43280106e+01 1.44398260e+01 1.45363045e+01 1.46566553e+01 1.47669601e+01 1.48891640e+01 1.50042152e+01 1.51200466e+01 1.52153597e+01 1.53208418e+01 1.54327803e+01 1.55464201e+01 1.56710777e+01 1.57915812e+01 1.59455223e+01 1.60536766e+01 1.62215805e+01 1.63426514e+01 1.64913235e+01 1.66448345e+01 1.67914219e+01 1.69181633e+01 1.70872841e+01 1.72248363e+01 1.73838978e+01 1.75171967e+01 1.76855736e+01 1.78385410e+01 1.79997501e+01 1.81278801e+01 1.82821598e+01 1.84752312e+01 1.85798645e+01 1.87171593e+01 1.88457241e+01 1.90036469e+01 1.91983147e+01 1.93528481e+01 1.94839935e+01 1.97033043e+01 1.98417892e+01 2.00582428e+01 2.02857723e+01 2.04462719e+01 2.06470604e+01 2.07757988e+01 2.09995060e+01 2.11890106e+01 2.13451500e+01 2.15360966e+01 2.17790337e+01 2.20233002e+01 2.23070946e+01 2.25261040e+01 2.27214298e+01 2.29585171e+01 2.31824055e+01 2.34413700e+01 2.36861629e+01 2.39769058e+01 2.41946583e+01 2.45237656e+01 2.47123852e+01 2.49782734e+01 2.52395458e+01 2.55036125e+01 2.58134079e+01 2.61225815e+01 2.64539070e+01 2.67709217e+01 2.70322418e+01 2.73468437e+01 2.77652779e+01 2.81925907e+01 2.85388985e+01 2.88210678e+01 2.92532005e+01 2.96552620e+01 2.99032001e+01 3.04219704e+01 3.07542744e+01 3.11925430e+01 3.16222858e+01 3.20933266e+01 3.27314796e+01 3.33387222e+01 3.38110428e+01 3.43453522e+01 3.48887329e+01 3.57727242e+01 3.65384636e+01 3.74007683e+01 3.84321785e+01 3.96422272e+01 4.08704185e+01 4.25332375e+01 4.55826492e+01 4.79517860e+01 5.30360222e+01 6.47845535e+01 7.03693771e+01 
            </HistogramBinning>
          </PDF>
        </CumulativePDF_cls0>
      </Variable>
      <Variable VarIndex="2">
        <CumulativePDF_cls0>
          <PDF Name="GaussTransform var2 cls0" MinNSmooth="0" MaxNSmooth="0" InterpolMethod="1" KDE_type="0" KDE_iter="1" KDE_border="1" KDE_finefactor="0.0000000000000000e+00">
            <Histogram Name="Cumulative_Var2_cls0_original" NBins="1871" XMin="-9.9999997473787516e-05" XMax="7.4862380981445312e+01" HasEquidistantBins="0">
              5.34473569e-04 1.06894714e-03 1.60342059e-03 2.13789428e-03 2.67236773e-03 3.20684118e-03 3.74131487e-03 4.27578855e-03 4.81026201e-03 5.34473546e-03 5.87920891e-03 6.41368236e-03 6.94815628e-03 7.48262974e-03 8.01710319e-03 8.55157711e-03 9.08605009e-03 9.62052401e-03 1.01549970e-02 1.06894709e-02 1.12239448e-02 1.17584178e-02 1.22928917e-02 1.28273647e-02 1.33618386e-02 1.38963126e-02 1.44307856e-02 1.49652595e-02 1.54997325e-02 1.60342064e-02 1.65686794e-02 1.71031542e-02 1.76376272e-02 1.81721002e-02 1.87065732e-02 1.92410480e-02 1.97755210e-02 2.03099940e-02 2.08444688e-02 2.13789418e-02 2.19134148e-02 2.24478897e-02 2.29823627e-02 2.35168356e-02 2.40513086e-02 2.45857835e-02 2.51202565e-02 2.56547295e-02 2.61892043e-02 2.67236773e-02 2.72581503e-02 2.77926251e-02 2.83270981e-02 2.88615711e-02 2.93960441e-02 2.99305189e-02 3.04649919e-02 3.09994649e-02 3.15339379e-02 3.20684128e-02 3.26028876e-02 3.31373587e-02 3.36718336e-02 3.42063084e-02 3.47407795e-02 3.52752544e-02 3.58097292e-02 3.63442004e-02 3.68786752e-02 3.74131463e-02 3.79476212e-02 3.84820960e-02 3.90165672e-02 3.95510420e-02 4.00855169e-02 4.06199880e-02 4.11544628e-02 4.16889377e-02 4.22234088e-02 4.27578837e-02 4.32923585e-02 4.38268296e-02 4.43613045e-02 4.48957793e-02 4.54302505e-02 4.59647253e-02 4.64991964e-02 4.70336713e-02 4.75681461e-02 4.81026173e-02 4.86370921e-02 4.91715670e-02 4.97060381e-02 5.02405129e-02 5.07749878e-02 5.13094589e-02 5.18439338e-02 5.23784086e-02 5.29128797e-02 5.34473546e-02 5.39818294e-02 5.45163006e-02 5.50507754e-02 5.55852503e-02 5.61197214e-02 5.66541962e-02 5.71886674e-02 5.77231422e-02 5.82576171e-02 5.87920882e-02 5.93265630e-02 5.98610379e-02 6.03955090e-02 6.09299839e-02 6.14644587e-02 6.19989298e-02 6.25334010e-02 6.30678758e-02 6.36023507e-02 6.41368255e-02 6.46713004e-02 6.52057752e-02 6.57402426e-02 6.62747175e-02 6.68091923e-02 6.73436671e-02 6.78781420e-02 6.84126168e-02 6.89470842e-02 6.94815591e-02 7.00160339e-02 7.05505088e-02 7.10849836e-02 7.16194585e-02 7.21539259e-02 7.26884007e-02 7.32228756e-02 7.37573504e-02 7.42918253e-02 7.48262927e-02 7.53607675e-02 7.58952424e-02 7.64297172e-02 7.69641921e-02 7.74986669e-02 7.80331343e-02 7.85676092e-02 7.91020840e-02 7.96365589e-02 8.01710337e-02 8.07055086e-02 8.12399760e-02 8.17744508e-02 8.23089257e-02 8.28434005e-02 8.33778754e-02 8.39123428e-02 8.44468176e-02 8.49812925e-02 8.55157673e-02 8.60502422e-02 8.65847170e-02 8.71191844e-02 8.76536593e-02 8.81881341e-02 8.87226090e-02 8.92570838e-02 8.97915587e-02 9.03260261e-02 9.08605009e-02 9.13949758e-02 9.19294506e-02 9.24639255e-02 9.29983929e-02 9.35328677e-02 9.40673426e-02 9.46018174e-02 9.51362923e-02 9.56707671e-02 9.62052345e-02 9.67397094e-02 9.72741842e-02 9.78086591e-02 9.83431339e-02 9.88776088e-02 9.94120762e-02 9.99465510e-02 1.00481026e-01 1.01015501e-01 1.01549976e-01 1.02084450e-01 1.02618918e-01 1.03153393e-01 1.03687868e-01 1.04222342e-01 1.04756817e-01 1.05291285e-01 1.05825759e-01 1.06360234e-01 1.06894709e-01 1.07429184e-01 1.07963659e-01 1.08498126e-01 1.09032601e-01 1.09567076e-01 1.10101551e-01 1.10636026e-01 1.11170501e-01 1.11704968e-01 1.12239443e-01 1.12773918e-01 1.13308392e-01 1.13842867e-01 1.14377335e-01 1.14911810e-01 1.15446284e-01 1.15980759e-01 1.16515234e-01 1.17049709e-01 1.17584176e-01 1.18118651e-01 1.18653126e-01 1.19187601e-01 1.19722076e-01 1.20256551e-01 1.20791018e-01 1.21325493e-01 1.21859968e-01 1.22394443e-01 1.22928917e-01 1.23463392e-01 1.23997860e-01 1.24532335e-01 1.25066802e-01 1.25601277e-01 1.26135752e-01 1.26670226e-01 1.27204701e-01 1.27739176e-01 1.28273651e-01 1.28808126e-01 1.29342601e-01 1.29877076e-01 1.30411550e-01 1.30946025e-01 1.31480485e-01 1.32014960e-01 1.32549435e-01 1.33083910e-01 1.33618385e-01 1.34152859e-01 1.34687334e-01 1.35221809e-01 1.35756284e-01 1.36290759e-01 1.36825234e-01 1.37359694e-01 1.37894168e-01 1.38428643e-01 1.38963118e-01 1.39497593e-01 1.40032068e-01 1.40566543e-01 1.41101018e-01 1.41635492e-01 1.42169967e-01 1.42704442e-01 1.43238917e-01 1.43773377e-01 1.44307852e-01 1.44842327e-01 1.45376801e-01 1.45911276e-01 1.46445751e-01 1.46980226e-01 1.47514701e-01 1.48049176e-01 1.48583651e-01 1.49118125e-01 1.49652585e-01 1.50187060e-01 1.50721535e-01 1.51256010e-01 1.51790485e-01 1.52324960e-01 1.52859434e-01 1.53393909e-01 1.53928384e-01 1.54462859e-01 1.54997334e-01 1.55531794e-01 1.56066269e-01 1.56600744e-01 1.57135218e-01 1.57669693e-01 1.58204168e-01 1.58738643e-01 1.59273118e-01 1.59807593e-01 1.60342067e-01 1.60876542e-01 1.61411017e-01 1.61945477e-01 1.62479952e-01 1.63014427e-01 1.63548902e-01 1.64083377e-01 1.64617851e-01 1.65152326e-01 1.65686801e-01 1.66221276e-01 1.66755751e-01 1.67290226e-01 1.67824686e-01 1.68359160e-01 1.68893635e-01 1.69428110e-01 1.69962585e-01 1.70497060e-01 1.71031535e-01 1.71566010e-01 1.72100484e-01 1.72634959e-01 1.73169434e-01 1.73703909e-01 1.74238369e-01 1.74772844e-01 1.75307319e-01 1.75841793e-01 1.76376268e-01 1.76910743e-01 1.77445218e-01 1.77979693e-01 1.78514168e-01 1.79048643e-01 1.79583117e-01 1.80117577e-01 1.80652052e-01 1.81186527e-01 1.81721002e-01 1.82255477e-01 1.82789952e-01 1.83324426e-01 1.83858901e-01 1.84393376e-01 1.84927851e-01 1.85462326e-01 1.85996786e-01 1.86531261e-01 1.87065735e-01 1.87600210e-01 1.88134685e-01 1.88669160e-01 1.89203635e-01 1.89738110e-01 1.90272585e-01 1.90807059e-01 1.91341534e-01 1.91876009e-01 1.92410469e-01 1.92944944e-01 1.93479419e-01 1.94013894e-01 1.94548368e-01 1.95082843e-01 1.95617318e-01 1.96151793e-01 1.96686268e-01 1.97220743e-01 1.97755218e-01 1.98289678e-01 1.98824152e-01 1.99358627e-01 1.99893102e-01 2.00427577e-01 2.00962052e-01 2.01496527e-01 2.02031001e-01 2.02565476e-01 2.03099951e-01 2.03634426e-01 2.04168901e-01 2.04703361e-01 2.05237836e-01 2.05772310e-01 2.06306785e-01 2.06841260e-01 2.07375735e-01 2.07910210e-01 2.08444685e-01 2.08979160e-01 2.09513634e-01 2.10048109e-01 2.10582569e-01 2.11117044e-01 2.11651519e-01 2.12185994e-01 2.12720469e-01 2.13254943e-01 2.13789418e-01 2.14323893e-01 2.14858368e-01 2.15392843e-01 2.15927318e-01 2.16461793e-01 2.16996253e-01 2.17530727e-01 2.18065202e-01 2.18599677e-01 2.19134152e-01 2.19668627e-01 2.20203102e-01 2.20737576e-01 2.21272051e-01 2.21806526e-01 2.22341001e-01 2.22875461e-01 2.23409936e-01 2.23944411e-01 2.24478886e-01 2.25013360e-01 2.25547835e-01 2.26082310e-01 2.26616785e-01 2.27151260e-01 2.27685735e-01 2.28220209e-01 2.28754669e-01 2.29289144e-01 2.29823619e-01 2.30358094e-01 2.30892569e-01 2.31427044e-01 2.31961519e-01 2.32495993e-01 2.33030468e-01 2.33564943e-01 2.34099418e-01 2.34633893e-01 2.35168353e-01 2.35702828e-01 2.36237302e-01 2.36771777e-01 2.37306252e-01 2.37840727e-01 2.38375202e-01 2.38909677e-01 2.39444152e-01 2.39978626e-01 2.40513101e-01 2.41047561e-01 2.41582036e-01 2.42116511e-01 2.42650986e-01 2.43185461e-01 2.43719935e-01 2.44254410e-01 2.44788885e-01 2.45323360e-01 2.45857835e-01 2.46392310e-01 2.46926785e-01 2.47461244e-01 2.47995719e-01 2.48530194e-01 2.49064669e-01 2.49599144e-01 2.50133604e-01 2.50668079e-01 2.51202554e-01 2.51737028e-01 2.52271503e-01 2.52805978e-01 2.53340453e-01 2.53874928e-01 2.54409403e-01 2.54943877e-01 2.55478352e-01 2.56012827e-01 2.56547302e-01 2.57081777e-01 2.57616252e-01 2.58150727e-01 2.58685201e-01 2.59219676e-01 2.59754151e-01 2.60288626e-01 2.60823101e-01 2.61357576e-01 2.61892051e-01 2.62426496e-01 2.62960970e-01 2.63495445e-01 2.64029920e-01 2.64564395e-01 2.65098870e-01 2.65633345e-01 2.66167819e-01 2.66702294e-01 2.67236769e-01 2.67771244e-01 2.68305719e-01 2.68840194e-01 2.69374669e-01 2.69909143e-01 2.70443618e-01 2.70978093e-01 2.71512568e-01 2.72047043e-01 2.72581518e-01 2.73115993e-01 2.73650467e-01 2.74184942e-01 2.74719387e-01 2.75253862e-01 2.75788337e-01 2.76322812e-01 2.76857287e-01 2.77391762e-01 2.77926236e-01 2.78460711e-01 2.78995186e-01 2.79529661e-01 2.80064136e-01 2.80598611e-01 2.81133085e-01 2.81667560e-01 2.82202035e-01 2.82736510e-01 2.83270985e-01 2.83805460e-01 2.84339935e-01 2.84874409e-01 2.85408884e-01 2.85943359e-01 2.86477834e-01 2.87012279e-01 2.87546754e-01 2.88081229e-01 2.88615704e-01 2.89150178e-01 2.89684653e-01 2.90219128e-01 2.90753603e-01 2.91288078e-01 2.91822553e-01 2.92357028e-01 2.92891502e-01 2.93425977e-01 2.93960452e-01 2.94494927e-01 2.95029402e-01 2.95563877e-01 2.96098351e-01 2.96632826e-01 2.97167301e-01 2.97701776e-01 2.98236251e-01 2.98770726e-01 2.99305171e-01 2.99839646e-01 3.00374120e-01 3.00908595e-01 3.01443070e-01 3.01977545e-01 3.02512020e-01 3.03046495e-01 3.03580970e-01 3.04115444e-01 3.04649919e-01 3.05184394e-01 3.05718869e-01 3.06253344e-01 3.06787819e-01 3.07322294e-01 3.07856768e-01 3.08391243e-01 3.08925718e-01 3.09460193e-01 3.09994668e-01 3.10529143e-01 3.11063588e-01 3.11598063e-01 3.12132537e-01 3.12667012e-01 3.13201487e-01 3.13735962e-01 3.14270437e-01 3.14804912e-01 3.15339386e-01 3.15873861e-01 3.16408336e-01 3.16942811e-01 3.17477286e-01 3.18011761e-01 3.18546236e-01 3.19080710e-01 3.19615185e-01 3.20149660e-01 3.20684135e-01 3.21218610e-01 3.21753085e-01 3.22287560e-01 3.22822034e-01 3.23356479e-01 3.23890954e-01 3.24425429e-01 3.24959904e-01 3.25494379e-01 3.26028854e-01 3.26563329e-01 3.27097803e-01 3.27632278e-01 3.28166753e-01 3.28701228e-01 3.29235703e-01 3.29770178e-01 3.30304652e-01 3.30839127e-01 3.31373602e-01 3.31908077e-01 3.32442552e-01 3.32977027e-01 3.33511502e-01 3.34045976e-01 3.34580451e-01 3.35114926e-01 3.35649371e-01 3.36183846e-01 3.36718321e-01 3.37252796e-01 3.37787271e-01 3.38321745e-01 3.38856220e-01 3.39390695e-01 3.39925170e-01 3.40459645e-01 3.40994120e-01 3.41528594e-01 3.42063069e-01 3.42597544e-01 3.43132019e-01 3.43666494e-01 3.44200969e-01 3.44735444e-01 3.45269918e-01 3.45804393e-01 3.46338868e-01 3.46873343e-01 3.47407818e-01 3.47942263e-01 3.48476738e-01 3.49011213e-01 3.49545687e-01 3.50080162e-01 3.50614637e-01 3.51149112e-01 3.51683587e-01 3.52218062e-01 3.52752537e-01 3.53287011e-01 3.53821486e-01 3.54355961e-01 3.54890436e-01 3.55424911e-01 3.55959386e-01 3.56493860e-01 3.57028335e-01 3.57562810e-01 3.58097285e-01 3.58631760e-01 3.59166235e-01 3.59700710e-01 3.60235155e-01 3.60769629e-01 3.61304104e-01 3.61838579e-01 3.62373054e-01 3.62907529e-01 3.63442004e-01 3.63976479e-01 3.64510953e-01 3.65045428e-01 3.65579903e-01 3.66114378e-01 3.66648853e-01 3.67183328e-01 3.67717803e-01 3.68252277e-01 3.68786752e-01 3.69321227e-01 3.69855702e-01 3.70390177e-01 3.70924652e-01 3.71459126e-01 3.71993572e-01 3.72528046e-01 3.73062521e-01 3.73596996e-01 3.74131471e-01 3.74665946e-01 3.75200421e-01 3.75734895e-01 3.76269370e-01 3.76803845e-01 3.77338320e-01 3.77872795e-01 3.78407270e-01 3.78941745e-01 3.79476219e-01 3.80010694e-01 3.80545169e-01 3.81079644e-01 3.81614119e-01 3.82148594e-01 3.82683069e-01 3.83217543e-01 3.83752018e-01 3.84286463e-01 3.84820938e-01 3.85355413e-01 3.85889888e-01 3.86424363e-01 3.86958838e-01 3.87493312e-01 3.88027787e-01 3.88562262e-01 3.89096737e-01 3.89631212e-01 3.90165687e-01 3.90700161e-01 3.91234636e-01 3.91769111e-01 3.92303586e-01 3.92838061e-01 3.93372536e-01 3.93907011e-01 3.94441485e-01 3.94975960e-01 3.95510435e-01 3.96044910e-01 3.96579355e-01 3.97113830e-01 3.97648305e-01 3.98182780e-01 3.98717254e-01 3.99251729e-01 3.99786204e-01 4.00320679e-01 4.00855154e-01 4.01389629e-01 4.01924103e-01 4.02458578e-01 4.02993053e-01 4.03527528e-01 4.04062003e-01 4.04596478e-01 4.05130953e-01 4.05665427e-01 4.06199902e-01 4.06734377e-01 4.07268852e-01 4.07803327e-01 4.08337802e-01 4.08872247e-01 4.09406722e-01 4.09941196e-01 4.10475671e-01 4.11010146e-01 4.11544621e-01 4.12079096e-01 4.12613571e-01 4.13148046e-01 4.13682520e-01 4.14216995e-01 4.14751470e-01 4.15285945e-01 4.15820420e-01 4.16354895e-01 4.16889369e-01 4.17423844e-01 4.17958319e-01 4.18492794e-01 4.19027269e-01 4.19561744e-01 4.20096219e-01 4.20630693e-01 4.21165138e-01 4.21699613e-01 4.22234088e-01 4.22768563e-01 4.23303038e-01 4.23837513e-01 4.24371988e-01 4.24906462e-01 4.25440937e-01 4.25975412e-01 4.26509887e-01 4.27044362e-01 4.27578837e-01 4.28113312e-01 4.28647786e-01 4.29182261e-01 4.29716736e-01 4.30251211e-01 4.30785686e-01 4.31320161e-01 4.31854635e-01 4.32389110e-01 4.32923585e-01 4.33458030e-01 4.33992505e-01 4.34526980e-01 4.35061455e-01 4.35595930e-01 4.36130404e-01 4.36664879e-01 4.37199354e-01 4.37733829e-01 4.38268304e-01 4.38802779e-01 4.39337254e-01 4.39871728e-01 4.40406203e-01 4.40940678e-01 4.41475153e-01 4.42009628e-01 4.42544103e-01 4.43078578e-01 4.43613052e-01 4.44147527e-01 4.44682002e-01 4.45216447e-01 4.45750922e-01 4.46285397e-01 4.46819872e-01 4.47354347e-01 4.47888821e-01 4.48423296e-01 4.48957771e-01 4.49492246e-01 4.50026721e-01 4.50561196e-01 4.51095670e-01 4.51630145e-01 4.52164620e-01 4.52699095e-01 4.53233570e-01 4.53768045e-01 4.54302520e-01 4.54836994e-01 4.55371469e-01 4.55905944e-01 4.56440419e-01 4.56974894e-01 4.57509339e-01 4.58043814e-01 4.58578289e-01 4.59112763e-01 4.59647238e-01 4.60181713e-01 4.60716188e-01 4.61250663e-01 4.61785138e-01 4.62319613e-01 4.62854087e-01 4.63388562e-01 4.63923037e-01 4.64457512e-01 4.64991987e-01 4.65526462e-01 4.66060936e-01 4.66595411e-01 4.67129886e-01 4.67664361e-01 4.68198836e-01 4.68733311e-01 4.69267786e-01 4.69802231e-01 4.70336705e-01 4.70871180e-01 4.71405655e-01 4.71940130e-01 4.72474605e-01 4.73009080e-01 4.73543555e-01 4.74078029e-01 4.74612504e-01 4.75146979e-01 4.75681454e-01 4.76215929e-01 4.76750404e-01 4.77284878e-01 4.77819353e-01 4.78353828e-01 4.78888303e-01 4.79422778e-01 4.79957253e-01 4.80491728e-01 4.81026202e-01 4.81560677e-01 4.82095122e-01 4.82629597e-01 4.83164072e-01 4.83698547e-01 4.84233022e-01 4.84767497e-01 4.85301971e-01 4.85836446e-01 4.86370921e-01 4.86905396e-01 4.87439871e-01 4.87974346e-01 4.88508821e-01 4.89043295e-01 4.89577770e-01 4.90112245e-01 4.90646720e-01 4.91181195e-01 4.91715670e-01 4.92250144e-01 4.92784619e-01 4.93319094e-01 4.93853569e-01 4.94388014e-01 4.94922489e-01 4.95456964e-01 4.95991439e-01 4.96525913e-01 4.97060388e-01 4.97594863e-01 4.98129338e-01 4.98663813e-01 4.99198288e-01 4.99732763e-01 5.00267208e-01 5.00801682e-01 5.01336157e-01 5.01870632e-01 5.02405107e-01 5.02939582e-01 5.03474057e-01 5.04008532e-01 5.04543006e-01 5.05077481e-01 5.05611956e-01 5.06146431e-01 5.06680906e-01 5.07215381e-01 5.07749856e-01 5.08284330e-01 5.08818805e-01 5.09353280e-01 5.09887755e-01 5.10422230e-01 5.10956705e-01 5.11491179e-01 5.12025654e-01 5.12560129e-01 5.13094604e-01 5.13629079e-01 5.14163554e-01 5.14698029e-01 5.15232503e-01 5.15766978e-01 5.16301453e-01 5.16835928e-01 5.17370403e-01 5.17904878e-01 5.18439353e-01 5.18973827e-01 5.19508302e-01 5.20042777e-01 5.20577252e-01 5.21111727e-01 5.21646202e-01 5.22180676e-01 5.22715151e-01 5.23249626e-01 5.23784101e-01 5.24318576e-01 5.24852991e-01 5.25387466e-01 5.25921941e-01 5.26456416e-01 5.26990891e-01 5.27525365e-01 5.28059840e-01 5.28594315e-01 5.29128790e-01 5.29663265e-01 5.30197740e-01 5.30732214e-01 5.31266689e-01 5.31801164e-01 5.32335639e-01 5.32870114e-01 5.33404589e-01 5.33939064e-01 5.34473538e-01 5.35008013e-01 5.35542488e-01 5.36076963e-01 5.36611438e-01 5.37145913e-01 5.37680387e-01 5.38214862e-01 5.38749337e-01 5.39283812e-01 5.39818287e-01 5.40352762e-01 5.40887237e-01 5.41421711e-01 5.41956186e-01 5.42490661e-01 5.43025136e-01 5.43559611e-01 5.44094086e-01 5.44628561e-01 5.45163035e-01 5.45697510e-01 5.46231985e-01 5.46766460e-01 5.47300935e-01 5.47835410e-01 5.48369884e-01 5.48904300e-01 5.49438775e-01 5.49973249e-01 5.50507724e-01 5.51042199e-01 5.51576674e-01 5.52111149e-01 5.52645624e-01 5.53180099e-01 5.53714573e-01 5.54249048e-01 5.54783523e-01 5.55317998e-01 5.55852473e-01 5.56386948e-01 5.56921422e-01 5.57455897e-01 5.57990372e-01 5.58524847e-01 5.59059322e-01 5.59593797e-01 5.60128272e-01 5.60662746e-01 5.61197221e-01 5.61731696e-01 5.62266171e-01 5.62800646e-01 5.63335121e-01 5.63869596e-01 5.64404070e-01 5.64938545e-01 5.65473020e-01 5.66007495e-01 5.66541970e-01 5.67076445e-01 5.67610919e-01 5.68145394e-01 5.68679869e-01 5.69214344e-01 5.69748819e-01 5.70283294e-01 5.70817769e-01 5.71352243e-01 5.71886718e-01 5.72421193e-01 5.72955668e-01 5.73490083e-01 5.74024558e-01 5.74559033e-01 5.75093508e-01 5.75627983e-01 5.76162457e-01 5.76696932e-01 5.77231407e-01 5.77765882e-01 5.78300357e-01 5.78834832e-01 5.79369307e-01 5.79903781e-01 5.80438256e-01 5.80972731e-01 5.81507206e-01 5.82041681e-01 5.82576156e-01 5.83110631e-01 5.83645105e-01 5.84179580e-01 5.84714055e-01 5.85248530e-01 5.85783005e-01 5.86317480e-01 5.86851954e-01 5.87386429e-01 5.87920904e-01 5.88455379e-01 5.88989854e-01 5.89524329e-01 5.90058804e-01 5.90593278e-01 5.91127753e-01 5.91662228e-01 5.92196703e-01 5.92731178e-01 5.93265653e-01 5.93800128e-01 5.94334602e-01 5.94869077e-01 5.95403552e-01 5.95938027e-01 5.96472502e-01 5.97006977e-01 5.97541451e-01 5.98075867e-01 5.98610342e-01 5.99144816e-01 5.99679291e-01 6.00213766e-01 6.00748241e-01 6.01282716e-01 6.01817191e-01 6.02351665e-01 6.02886140e-01 6.03420615e-01 6.03955090e-01 6.04489565e-01 6.05024040e-01 6.05558515e-01 6.06092989e-01 6.06627464e-01 6.07161939e-01 6.07696414e-01 6.08230889e-01 6.08765364e-01 6.09299839e-01 6.09834313e-01 6.10368788e-01 6.10903263e-01 6.11437738e-01 6.11972213e-01 6.12506688e-01 6.13041162e-01 6.13575637e-01 6.14110112e-01 6.14644587e-01 6.15179062e-01 6.15713537e-01 6.16248012e-01 6.16782486e-01 6.17316961e-01 6.17851436e-01 6.18385911e-01 6.18920386e-01 6.19454861e-01 6.19989336e-01 6.20523810e-01 6.21058285e-01 6.21592760e-01 6.22127175e-01 6.22661650e-01 6.23196125e-01 6.23730600e-01 6.24265075e-01 6.24799550e-01 6.25334024e-01 6.25868499e-01 6.26402974e-01 6.26937449e-01 6.27471924e-01 6.28006399e-01 6.28540874e-01 6.29075348e-01 6.29609823e-01 6.30144298e-01 6.30678773e-01 6.31213248e-01 6.31747723e-01 6.32282197e-01 6.32816672e-01 6.33351147e-01 6.33885622e-01 6.34420097e-01 6.34954572e-01 6.35489047e-01 6.36023521e-01 6.36557996e-01 6.37092471e-01 6.37626946e-01 6.38161421e-01 6.38695896e-01 6.39230371e-01 6.39764845e-01 6.40299320e-01 6.40833795e-01 6.41368270e-01 6.41902745e-01 6.42437220e-01 6.42971694e-01 6.43506169e-01 6.44040644e-01 6.44575119e-01 6.45109594e-01 6.45644069e-01 6.46178544e-01 6.46712959e-01 6.47247434e-01 6.47781909e-01 6.48316383e-01 6.48850858e-01 6.49385333e-01 6.49919808e-01 6.50454283e-01 6.50988758e-01 6.51523232e-01 6.52057707e-01 6.52592182e-01 6.53126657e-01 6.53661132e-01 6.54195607e-01 6.54730082e-01 6.55264556e-01 6.55799031e-01 6.56333506e-01 6.56867981e-01 6.57402456e-01 6.57936931e-01 6.58471406e-01 6.59005880e-01 6.59540355e-01 6.60074830e-01 6.60609305e-01 6.61143780e-01 6.61678255e-01 6.62212729e-01 6.62747204e-01 6.63281679e-01 6.63816154e-01 6.64350629e-01 6.64885104e-01 6.65419579e-01 6.65954053e-01 6.66488528e-01 6.67023003e-01 6.67557478e-01 6.68091953e-01 6.68626428e-01 6.69160903e-01 6.69695377e-01 6.70229852e-01 6.70764267e-01 6.71298742e-01 6.71833217e-01 6.72367692e-01 6.72902167e-01 6.73436642e-01 6.73971117e-01 6.74505591e-01 6.75040066e-01 6.75574541e-01 6.76109016e-01 6.76643491e-01 6.77177966e-01 6.77712440e-01 6.78246915e-01 6.78781390e-01 6.79315865e-01 6.79850340e-01 6.80384815e-01 6.80919290e-01 6.81453764e-01 6.81988239e-01 6.82522714e-01 6.83057189e-01 6.83591664e-01 6.84126139e-01 6.84660614e-01 6.85195088e-01 6.85729563e-01 6.86264038e-01 6.86798513e-01 6.87332988e-01 6.87867463e-01 6.88401937e-01 6.88936412e-01 6.89470887e-01 6.90005362e-01 6.90539837e-01 6.91074312e-01 6.91608787e-01 6.92143261e-01 6.92677736e-01 6.93212211e-01 6.93746686e-01 6.94281161e-01 6.94815636e-01 6.95350051e-01 6.95884526e-01 6.96419001e-01 6.96953475e-01 6.97487950e-01 6.98022425e-01 6.98556900e-01 6.99091375e-01 6.99625850e-01 7.00160325e-01 7.00694799e-01 7.01229274e-01 7.01763749e-01 7.02298224e-01 7.02832699e-01 7.03367174e-01 7.03901649e-01 7.04436123e-01 7.04970598e-01 7.05505073e-01 7.06039548e-01 7.06574023e-01 7.07108498e-01 7.07642972e-01 7.08177447e-01 7.08711922e-01 7.09246397e-01 7.09780872e-01 7.10315347e-01 7.10849822e-01 7.11384296e-01 7.11918771e-01 7.12453246e-01 7.12987721e-01 7.13522196e-01 7.14056671e-01 7.14591146e-01 7.15125620e-01 7.15660095e-01 7.16194570e-01 7.16729045e-01 7.17263520e-01 7.17797995e-01 7.18332469e-01 7.18866944e-01 7.19401419e-01 7.19935834e-01 7.20470309e-01 7.21004784e-01 7.21539259e-01 7.22073734e-01 7.22608209e-01 7.23142684e-01 7.23677158e-01 7.24211633e-01 7.24746108e-01 7.25280583e-01 7.25815058e-01 7.26349533e-01 7.26884007e-01 7.27418482e-01 7.27952957e-01 7.28487432e-01 7.29021907e-01 7.29556382e-01 7.30090857e-01 7.30625331e-01 7.31159806e-01 7.31694281e-01 7.32228756e-01 7.32763231e-01 7.33297706e-01 7.33832181e-01 7.34366655e-01 7.34901130e-01 7.35435605e-01 7.35970080e-01 7.36504555e-01 7.37039030e-01 7.37573504e-01 7.38107979e-01 7.38642454e-01 7.39176929e-01 7.39711404e-01 7.40245879e-01 7.40780354e-01 7.41314828e-01 7.41849303e-01 7.42383778e-01 7.42918253e-01 7.43452728e-01 7.43987143e-01 7.44521618e-01 7.45056093e-01 7.45590568e-01 7.46125042e-01 7.46659517e-01 7.47193992e-01 7.47728467e-01 7.48262942e-01 7.48797417e-01 7.49331892e-01 7.49866366e-01 7.50400841e-01 7.50935316e-01 7.51469791e-01 7.52004266e-01 7.52538741e-01 7.53073215e-01 7.53607690e-01 7.54142165e-01 7.54676640e-01 7.55211115e-01 7.55745590e-01 7.56280065e-01 7.56814539e-01 7.57349014e-01 7.57883489e-01 7.58417964e-01 7.58952439e-01 7.59486914e-01 7.60021389e-01 7.60555863e-01 7.61090338e-01 7.61624813e-01 7.62159288e-01 7.62693763e-01 7.63228238e-01 7.63762712e-01 7.64297187e-01 7.64831662e-01 7.65366137e-01 7.65900612e-01 7.66435087e-01 7.66969562e-01 7.67504036e-01 7.68038511e-01 7.68572927e-01 7.69107401e-01 7.69641876e-01 7.70176351e-01 7.70710826e-01 7.71245301e-01 7.71779776e-01 7.72314250e-01 7.72848725e-01 7.73383200e-01 7.73917675e-01 7.74452150e-01 7.74986625e-01 7.75521100e-01 7.76055574e-01 7.76590049e-01 7.77124524e-01 7.77658999e-01 7.78193474e-01 7.78727949e-01 7.79262424e-01 7.79796898e-01 7.80331373e-01 7.80865848e-01 7.81400323e-01 7.81934798e-01 7.82469273e-01 7.83003747e-01 7.83538222e-01 7.84072697e-01 7.84607172e-01 7.85141647e-01 7.85676122e-01 7.86210597e-01 7.86745071e-01 7.87279546e-01 7.87814021e-01 7.88348496e-01 7.88882971e-01 7.89417446e-01 7.89951921e-01 7.90486395e-01 7.91020870e-01 7.91555345e-01 7.92089820e-01 7.92624295e-01 7.93158710e-01 7.93693185e-01 7.94227660e-01 7.94762135e-01 7.95296609e-01 7.95831084e-01 7.96365559e-01 7.96900034e-01 7.97434509e-01 7.97968984e-01 7.98503458e-01 7.99037933e-01 7.99572408e-01 8.00106883e-01 8.00641358e-01 8.01175833e-01 8.01710308e-01 8.02244782e-01 8.02779257e-01 8.03313732e-01 8.03848207e-01 8.04382682e-01 8.04917157e-01 8.05451632e-01 8.05986106e-01 8.06520581e-01 8.07055056e-01 8.07589531e-01 8.08124006e-01 8.08658481e-01 8.09192955e-01 8.09727430e-01 8.10261905e-01 8.10796380e-01 8.11330855e-01 8.11865330e-01 8.12399805e-01 8.12934279e-01 8.13468754e-01 8.14003229e-01 8.14537704e-01 8.15072179e-01 8.15606654e-01 8.16141129e-01 8.16675603e-01 8.17210019e-01 8.17744493e-01 8.18278968e-01 8.18813443e-01 8.19347918e-01 8.19882393e-01 8.20416868e-01 8.20951343e-01 8.21485817e-01 8.22020292e-01 8.22554767e-01 8.23089242e-01 8.23623717e-01 8.24158192e-01 8.24692667e-01 8.25227141e-01 8.25761616e-01 8.26296091e-01 8.26830566e-01 8.27365041e-01 8.27899516e-01 8.28433990e-01 8.28968465e-01 8.29502940e-01 8.30037415e-01 8.30571890e-01 8.31106365e-01 8.31640840e-01 8.32175314e-01 8.32709789e-01 8.33244264e-01 8.33778739e-01 8.34313214e-01 8.34847689e-01 8.35382164e-01 8.35916638e-01 8.36451113e-01 8.36985588e-01 8.37520063e-01 8.38054538e-01 8.38589013e-01 8.39123487e-01 8.39657962e-01 8.40192437e-01 8.40726912e-01 8.41261387e-01 8.41795802e-01 8.42330277e-01 8.42864752e-01 8.43399227e-01 8.43933702e-01 8.44468176e-01 8.45002651e-01 8.45537126e-01 8.46071601e-01 8.46606076e-01 8.47140551e-01 8.47675025e-01 8.48209500e-01 8.48743975e-01 8.49278450e-01 8.49812925e-01 8.50347400e-01 8.50881875e-01 8.51416349e-01 8.51950824e-01 8.52485299e-01 8.53019774e-01 8.53554249e-01 8.54088724e-01 8.54623199e-01 8.55157673e-01 8.55692148e-01 8.56226623e-01 8.56761098e-01 8.57295573e-01 8.57830048e-01 8.58364522e-01 8.58898997e-01 8.59433472e-01 8.59967947e-01 8.60502422e-01 8.61036897e-01 8.61571372e-01 8.62105846e-01 8.62640321e-01 8.63174796e-01 8.63709271e-01 8.64243746e-01 8.64778221e-01 8.65312696e-01 8.65847170e-01 8.66381586e-01 8.66916060e-01 8.67450535e-01 8.67985010e-01 8.68519485e-01 8.69053960e-01 8.69588435e-01 8.70122910e-01 8.70657384e-01 8.71191859e-01 8.71726334e-01 8.72260809e-01 8.72795284e-01 8.73329759e-01 8.73864233e-01 8.74398708e-01 8.74933183e-01 8.75467658e-01 8.76002133e-01 8.76536608e-01 8.77071083e-01 8.77605557e-01 8.78140032e-01 8.78674507e-01 8.79208982e-01 8.79743457e-01 8.80277932e-01 8.80812407e-01 8.81346881e-01 8.81881356e-01 8.82415831e-01 8.82950306e-01 8.83484781e-01 8.84019256e-01 8.84553730e-01 8.85088205e-01 8.85622680e-01 8.86157155e-01 8.86691630e-01 8.87226105e-01 8.87760580e-01 8.88295054e-01 8.88829529e-01 8.89364004e-01 8.89898479e-01 8.90432894e-01 8.90967369e-01 8.91501844e-01 8.92036319e-01 8.92570794e-01 8.93105268e-01 8.93639743e-01 8.94174218e-01 8.94708693e-01 8.95243168e-01 8.95777643e-01 8.96312118e-01 8.96846592e-01 8.97381067e-01 8.97915542e-01 8.98450017e-01 8.98984492e-01 8.99518967e-01 9.00053442e-01 9.00587916e-01 9.01122391e-01 9.01656866e-01 9.02191341e-01 9.02725816e-01 9.03260291e-01 9.03794765e-01 9.04329240e-01 9.04863715e-01 9.05398190e-01 9.05932665e-01 9.06467140e-01 9.07001615e-01 9.07536089e-01 9.08070564e-01 9.08605039e-01 9.09139514e-01 9.09673989e-01 9.10208464e-01 9.10742939e-01 9.11277413e-01 9.11811888e-01 9.12346363e-01 9.12880838e-01 9.13415313e-01 9.13949788e-01 9.14484262e-01 9.15018678e-01 9.15553153e-01 9.16087627e-01 9.16622102e-01 9.17156577e-01 9.17691052e-01 9.18225527e-01 9.18760002e-01 9.19294477e-01 9.19828951e-01 9.20363426e-01 9.20897901e-01 9.21432376e-01 9.21966851e-01 9.22501326e-01 9.23035800e-01 9.23570275e-01 9.24104750e-01 9.24639225e-01 9.25173700e-01 9.25708175e-01 9.26242650e-01 9.26777124e-01 9.27311599e-01 9.27846074e-01 9.28380549e-01 9.28915024e-01 9.29449499e-01 9.29983974e-01 9.30518448e-01 9.31052923e-01 9.31587398e-01 9.32121873e-01 9.32656348e-01 9.33190823e-01 9.33725297e-01 9.34259772e-01 9.34794247e-01 9.35328722e-01 9.35863197e-01 9.36397672e-01 9.36932147e-01 9.37466621e-01 9.38001096e-01 9.38535571e-01 9.39069986e-01 9.39604461e-01 9.40138936e-01 9.40673411e-01 9.41207886e-01 9.41742361e-01 9.42276835e-01 9.42811310e-01 9.43345785e-01 9.43880260e-01 9.44414735e-01 9.44949210e-01 9.45483685e-01 9.46018159e-01 9.46552634e-01 9.47087109e-01 9.47621584e-01 9.48156059e-01 9.48690534e-01 9.49225008e-01 9.49759483e-01 9.50293958e-01 9.50828433e-01 9.51362908e-01 9.51897383e-01 9.52431858e-01 9.52966332e-01 9.53500807e-01 9.54035282e-01 9.54569757e-01 9.55104232e-01 9.55638707e-01 9.56173182e-01 9.56707656e-01 9.57242131e-01 9.57776606e-01 9.58311081e-01 9.58845556e-01 9.59380031e-01 9.59914505e-01 9.60448980e-01 9.60983455e-01 9.61517930e-01 9.62052405e-01 9.62586880e-01 9.63121355e-01 9.63655770e-01 9.64190245e-01 9.64724720e-01 9.65259194e-01 9.65793669e-01 9.66328144e-01 9.66862619e-01 9.67397094e-01 9.67931569e-01 9.68466043e-01 9.69000518e-01 9.69534993e-01 9.70069468e-01 9.70603943e-01 9.71138418e-01 9.71672893e-01 9.72207367e-01 9.72741842e-01 9.73276317e-01 9.73810792e-01 9.74345267e-01 9.74879742e-01 9.75414217e-01 9.75948691e-01 9.76483166e-01 9.77017641e-01 9.77552116e-01 9.78086591e-01 9.78621066e-01 9.79155540e-01 9.79690015e-01 9.80224490e-01 9.80758965e-01 9.81293440e-01 9.81827915e-01 9.82362390e-01 9.82896864e-01 9.83431339e-01 9.83965814e-01 9.84500289e-01 9.85034764e-01 9.85569239e-01 9.86103714e-01 9.86638188e-01 9.87172663e-01 9.87707138e-01 9.88241553e-01 9.88776028e-01 9.89310503e-01 9.89844978e-01 9.90379453e-01 9.90913928e-01 9.91448402e-01 9.91982877e-01 9.92517352e-01 9.93051827e-01 9.93586302e-01 9.94120777e-01 9.94655252e-01 9.95189726e-01 9.95724201e-01 9.96258676e-01 9.96793151e-01 9.97327626e-01 9.97862101e-01 9.98396575e-01 9.98931050e-01 9.99465525e-01 1.00000000e+00 
            </Histogram>
            <HistogramBinning NBins="1871">
